-0.2818326,-0.1400096,-0.04325415,0,0,0.04717435,0,0.02153737,0,-0.06981819,0,-0.01669362,0.1019176,-0.03063127,-0.203044,0,-0.1147257,-0.1809052,-0.3153386,0,-0.2991652,0.1473938,0.1141442,-0.1619971,0,-0.06965598,0.009439449,-0.3860256,-0.03481839,0.2327481,0.1652214,0,0,0.2445222,0.1501346,-0.21322,0,0.1410806,0.175957,0.2259029,0,0.1089982,-0.01983662,0.1415981,-0.08518029,0.01968189,0.01455371,0,0.02188638,0,0,0,-0.1671345,-0.1250665,0.08994598,0,-0.1942186,-0.2414981,-0.2180742,0,0,0,0,-0.1519073,0,0.07357384,-0.06616135,0.1321859
0,0,0,0,0.05556546,0.05108784,0,0.05075464,0,0.08616159,0,0.2096237,0.01888981,0,-0.1910644,0,0.1447665,-0.08435201,-0.09489521,-0.1296998,-0.2768285,0,-0.0982125,0.2413976,0.07564262,0,0,0.1818528,-0.2242467,0,0,0,-0.08503711,0,-0.06377952,0,-0.249632,0.0131918,0.1580199,0,0,0,0,0,-0.02122173,-0.212327,0,0,0,0,-0.02898555,0,-0.07081296,-0.09221988,0.1735619,0,0.2767147,0,0.08668249,-0.06317917,0,-0.1488366,0.1577309,0,0,-0.09833185,0.09665763,0
0.08313458,-0.2703509,0,-0.1024434,-0.101713,0,0,0,0.2766969,0,0.1541103,0.2233048,-0.2292568,0,-0.2232721,-0.06346173,0.1970644,0,-0.1410182,-0.2076568,0.1407864,0,-0.1116578,0.1139849,-0.008541184,-0.1023177,0.2614323,0.2292363,0,0,-0.089849,0,0,0,0,0,0.2314737,0.1156172,0,-0.2240149,-0.2645679,0,0,0.2095187,-0.2237468,0,0,0,0,0,0,-0.08975899,-0.1453191,0,0.03517846,0,-0.002455954,0.08045414,0,0,0,0.3016287,0.1375379,0.0170444,0,0.0681718,0.1713211,0.179999
-0.02326584,0.04416631,0,0,0,-0.1658724,0,0.06384176,-0.2262523,-0.09122107,0,0,-0.1367398,0,0,0.1785107,-0.08933827,-0.2026819,0.1549523,-0.06823866,0,0.1243638,-0.1982345,0,0.05542473,0,-0.008797625,0.08098678,0,0,0.02439467,-0.04210439,0.3292635,0,0,0,-0.1760815,0,0.1266194,0,0.06822248,0,0,0,-0.2383841,-0.2678723,0.2215075,0.01633598,0,0,0,0,0.05521148,-0.1874979,-0.09590703,0.1325183,0,0,0,0.1482481,0.198509,-0.1110704,0,0,-0.001272101,-0.0301448,0,0
-0.07703941,0,-0.05750452,0.02004391,0,0,0.1142854,0.1249421,0,0,0,0,-0.03487294,0,0.08269935,0,0,0.1726274,0,0.0974507,0,0.08952175,0,0,-0.1647285,0.1490676,0,0.02444341,0,0.249353,-0.01975852,-0.1474214,0.1471976,0,0,0.08390956,0,0,0.06347895,0,0.02142718,0,0,0.1358597,0,0,-0.176008,0,0,-0.1665398,0,0,0.1305827,0.2733928,-0.2206625,-0.01258978,-0.08044489,0,0,0,0.1873894,-0.1482958,-0.2879403,-0.1910451,-0.1619765,0.02176097,0,0
-0.233,0,0,-0.1090984,0,0,0,0.1011627,-0.0312089,0,-0.05771762,-0.09493946,0.2221578,0.1571541,0.2395879,0.2433355,-0.0986997,0.1413605,-0.1114902,0,-0.06449158,-0.09405332,0,-0.107668,0,0,0,-0.09873881,0,0.1262337,-0.04273463,0,0.1421878,0,0.2837079,0.01494035,0.04089719,-0.01034013,0.2415239,-0.1791126,-0.3262959,0.05234982,-0.03235904,0,-0.1761672,0,-0.1822405,-0.06099201,0.1464351,-0.2088918,0,0,0.08841821,-0.07260688,0,0,0,0,0.04587885,-0.1021165,0.01800906,0.2053749,-0.1999143,0.07630926,0,0,0.1110643,0
0,0,0,0,-0.1462633,0.09455067,0.2770781,0,-0.0347087,0.08113516,0.1651103,0,-0.02722015,0,0,-0.1447574,0,0,0,0,-0.0227656,0,0,-0.1403943,0,0,-0.07726993,0,-0.2122203,0,-0.1589815,0,0.1700647,0,0.3052535,-0.03382083,-0.2590818,0.147145,-0.1634157,-0.1086502,0,-0.1665956,0.1476807,0,0.07963502,0.01830938,-0.2586237,0,-0.08689072,0,0.186898,0.3122069,-0.1307114,0,0,-0.1770399,-0.352293,-0.2787915,0,0,-0.122451,0,-0.3373978,0,0.03126707,0,0,-0.0480004
0,0,0.05517971,0,0.002281704,0,-0.3792449,-0.1309717,0.1176594,0,0,-0.199007,0,0.07500858,0,0,0.2086755,0,0,-0.1714113,0,-0.2328869,-0.004032624,0.1630454,0,0,-0.2418157,-0.009458113,0.1605385,-0.08606314,0.1673812,0,-0.1208055,0,-0.01448854,0.08523456,0,0,0.05547281,-0.06961901,0.02991003,0.08665844,0,0,0,0.2579786,-0.06566667,-0.2229515,-0.1035952,-0.1187614,-0.06710446,0.1082082,0,0.1965712,0,0,-0.07863845,-0.01252407,0.1020475,-0.008941264,0.04648827,0.08344943,0,0.03316057,-0.08554079,0.04951686,0,0
0,-0.148026,0.1135113,-0.2480547,0,-0.08642712,0,-0.02201887,0,0,0,0,-0.2562173,0.1943231,0.093896,0,-0.06142429,0,0.0373308,0,0.1092095,-0.05139118,0,-0.2519529,-0.2152251,0,-0.3015941,0,0,0,0,0,0.3130061,0.05981994,0,0,0.09987695,9.8291E-05,-0.1309561,0,0,0.01957127,-0.1208923,0,-0.1893533,-0.3603462,-0.1186039,-0.1552017,-0.1532248,0,-0.2646545,0,0.08701453,-0.1771169,0,0.1752002,0,-0.3652574,-0.3233261,-0.1781399,0.1464023,-0.1442303,-0.06875244,-0.0493999,0.1599953,0.0555868,0.01660445,0.1762164
0,0,0,0,0,0.245773,0,0,0.04254148,0,0,0,0,0,0,0.03170477,0.1302965,0.09967913,0,-0.142182,0,0.1260962,0.116915,0,0,0,0,0.1565313,0,0.05617608,0,0.09479081,0.1770565,0,-0.2788582,-0.174916,-0.2193667,0,0.1895186,0.08860087,0.01943059,0.0005956519,-0.0140921,0.07491095,0,-0.2874684,-0.208862,0,-0.2144805,0,0.3031293,0,0,0,0.01194335,0.04089506,-0.01910909,0,0,-0.0861849,-0.2983031,0.0258105,0,0,0,0,-0.08627248,0.1276096
0,0,-0.1376134,-0.3038993,-0.278841,-0.07474588,0,0.1213015,-0.1483873,0.1408592,0,0.2458981,-0.227544,-0.1352179,0,-0.1357425,0.05861616,0.121905,0.01007152,0,-0.191224,-0.1891277,-0.03872233,0,0,0,0.3258322,0.3543341,0.220826,0.03080738,0,-0.108262,-0.339911,0.03333812,0.2772386,0,0,0,0,0.03302321,-0.1558038,0,0,-0.1112794,-0.03882289,-0.2109034,0,0,-0.2327508,-0.1637032,0,0.1289045,0.1007242,0,0,-0.02836239,0,0,0,0,0.05024102,0,0.06612827,-0.2288629,-0.1324714,0,0,0
0,-0.008077364,0,0.05139486,0,0,0.01332746,-0.100372,0,-0.07681036,0,-0.05502095,-0.1712728,0,-0.006167788,0.2541126,0,-0.1406768,0.05933809,0.246687,0,0.1981419,-0.0009831255,0,0,-0.05755243,0.001537092,0.2496864,-0.2557113,0,0,0,-0.05460706,-0.06391739,0,0.1202855,-0.191002,0.130519,0,0,-0.1923636,-0.119193,0,0.2636231,0,-0.2307777,-0.003962326,0.209164,0.2350154,0.09842409,0.243342,0,0,0,0.0130182,0.05710922,0,0,0,-0.1967663,-0.1782889,-0.227905,-0.08207878,0,0,-0.2275787,-0.07175168,0.3273117
0.306918,0,0,0,-0.2326925,0,-0.05619687,0.1050272,-0.1704011,-0.091298,0,-0.1375236,0,0,-0.05085776,-0.1696273,0.1255401,0.1810132,-0.203847,0,-0.1856248,-0.0380187,0.08663622,0.1718798,0,0,0,-0.1036334,0,-0.06287719,-0.2700014,0,0,0,0.09035561,0,-0.01010211,-0.1441453,0,-0.1363629,-0.2008322,0.1082107,0,-0.1645913,0,0.1671595,0.01284727,0,0,0,0.133057,-0.03012646,-0.253442,0,0,0,0,0.1148831,0,0,0,0.12724,0,0,0,0.001734528,0.2587737,-0.3271777
0,0,0,0,0,0.002848878,0,0,0,0.3643204,-0.09422717,0.09943362,0,-0.0005143143,0.02754441,0.1241916,0,0,0.03064115,0,0,-0.2159678,0,0.2056634,0.1778182,-0.0876653,0.02568738,0,0,-0.07474107,0,0,0.2323085,0,0,0,0,0,0.01365495,0,0.1179429,0.01997953,0.00332592,0,0,0,-0.132683,-0.06024313,0,-0.03544039,0,-0.1499839,0.1053377,0.07783772,-0.0336881,-0.09549878,0,0,-0.0469335,0,0,0.1832235,0,0.1914837,0.2679924,0,-0.1604061,0.1718711
0,-0.02416679,0,0.04685164,0.09667082,0.2468332,-0.05231867,-0.04760816,0,0,0,0.1369585,0.1198461,0,0,0,-0.2491464,0.143133,0,0.1513082,-0.150667,0,0,-0.2930726,0.1655683,-0.08280737,0.02052919,0,0,-0.02950489,0.2298709,0,-0.2706636,0,-0.05963017,0,0,0,-0.3468767,0,-0.1051078,0.09181057,0.2885005,0,0.0001266584,0,0,0.2761465,0,0.06123549,0.1929389,-0.1478931,-0.03407092,0.1087008,-0.1931272,0,-0.07543515,-0.2108835,-0.1000448,0,0,0.1382352,0.1349754,0,-0.172499,0,-0.0808979,0
0.1590366,0.1284306,0,-0.06289047,-0.08581635,0,0,0,0.2210767,-0.1188487,-0.3533154,-0.1859399,-0.1626457,0.01505954,0.2010917,0,0.1670942,0.2113965,0,0.03807588,-0.2098275,0.134419,0,0,-0.08484521,-0.3189683,0.120108,-0.03904173,0.01713161,0,0,0,-0.2207485,0,0,0.2138454,0,0.01289406,-0.09599841,0,-0.04446497,0.1924825,0,0,0,0,0,-0.2450947,0,0,0.05731164,0,0,0.09696172,0.1175487,0,0,-0.07888044,0.2242544,0.1055801,0,0,0.1566778,0,0.05553417,-0.1489564,0,0
-0.02506791,0,0,0,0.04313467,0.08080444,-0.2145778,-0.1571453,-0.1428602,0,-0.07671314,0.05131947,0,0.05815509,-0.06299078,-0.239462,0.07936247,-0.1574404,0,0.1487167,0,0.07840128,0.0007319497,-0.1293365,-0.1618666,-0.007457245,-0.2701768,-0.1353291,0,-0.08379683,0,0,-0.05415499,0.01987316,0,0,0,-0.1265248,0,-0.0806433,-0.07983743,0.2069737,-0.02000907,-0.0808815,0.06045081,-0.2709935,0,0.05283685,0.1320289,0,-0.1389049,0,0.1119253,0,0.1081601,0,0,0,-0.2641239,0.2505933,-0.2173512,0,0,0.01321481,0.02516806,-0.203818,-0.1315645,0
0,0,-0.07931103,0,0,0.2702298,0,0,-0.01637837,0.1346721,-0.2068244,0,0.02840205,0.2208774,0,0.2595907,0.1612789,0,-0.2203237,0.2096768,0,0.1798605,0,0.08976349,0.3123076,0.172751,0.03236797,0.2211127,0.1216593,0.2841058,0,0,-0.2556773,0.2263075,0,-0.03217403,0.05554843,0,-0.05496234,0,0.08897204,0,-0.06774785,-0.2135418,-0.09666616,0,0,-0.0188532,0.05633137,0.08874778,-0.08610205,0,0.004331828,0.2012103,-0.284305,0.09974776,-0.24058,-0.04859113,0,0,2.004194E-05,0.1831708,0,0,-0.12553,0,0.1943982,0.1207356
0.03317127,-0.0392958,0,0,0,0,-0.1282816,0,-0.1320269,0.2428428,0.1582443,0,0.1990992,0,0,0,0,0.08911107,-0.02667268,-0.2268589,0,-0.1712554,-0.2046449,-0.2392268,0.238478,-0.2628418,0.1806837,-0.2995536,0,0.1978925,0,-0.1416369,0,0,0.2998115,0.106523,0,0.1179257,0.1377461,0,0,0,-0.1527307,-0.02636236,0.270849,0.2100626,0,0.112413,0,0,0.1580811,0.1423129,0.2512599,-0.1245364,0.03173117,0,-0.04374029,0,0,-0.03962643,-0.08522663,0.1311108,0,0.1419849,0.1826124,-0.3746276,-0.1025989,0
0.09885454,0.3257902,-0.002631555,0,0,-0.008756279,0,0,0,0,0,0,0,-0.2189713,0,-0.1928073,0.2814197,0,-0.0689564,0.04102353,0,0.1583508,0.1899465,0,0.3223353,0.1369372,0,-0.04670654,-0.1067093,0.2127844,-0.1257287,-0.2579241,0,0.2141251,0.2686365,-0.1707553,0,0,0,0,-0.0380869,-0.04506008,0.2819737,0.1415612,0.2736827,0,0.0929271,0.1794564,0.07332478,0.1543913,0,0,0,-0.02893699,0.03303472,0,0.05601436,0.1325126,-0.03030142,0.29415,0.1751018,0,0,-0.1257807,0,0,0.2152811,0.08393012
0,0,-0.2122693,0,0,0,0.2061431,-0.1573718,0.033537,0,0,0,0.2302881,-0.006278724,0.1044785,0,0,0,0.1561667,-0.01990023,0.1054271,0,0.1275651,0,0,0,0,0,0,0.2579935,0,0,0.09580526,0.223541,0.130307,0.05493719,0.06664027,0,-0.1947892,0,-0.06182706,0.02978271,0,-0.05384903,0,-0.1491944,0.05601333,0,0,0.3390898,0.1327176,0.1441575,-0.1126625,-0.009561517,0,0,0,0,0,-0.01837391,0,0,0.06731836,-0.1142826,0,0,0,-0.1446138
0.1409165,-0.07572222,-0.1669844,-0.06682818,-0.1439291,0,-0.08252005,0.04482361,-0.3324004,0,-0.247583,0,-0.03996586,-0.03472441,-0.2075184,0.1033759,0,0.1795768,0,0.1439855,0,0,-0.1394096,-0.008935027,-0.01826857,0,0,0,0.2281324,-0.0759925,0.1323535,-0.1564948,-0.01814647,0.004567323,0,0,0,0,-0.06862455,0,0.1770768,-0.02486885,0.06071012,-0.2232423,-0.2177824,0,0,-0.0003979953,-0.2611206,0.07385514,0.06283666,0.2037346,-0.08025315,0,0,0,0.1375436,0.05724107,-0.09433909,0,0,0.2703075,0,0,0.1733617,-0.1217737,0,0
0,-0.008911938,0,0,0,-0.1132521,0,0,0,0,-0.1671077,-0.2148667,0.1204313,0.2073957,0,0,0,0.09813514,0,-0.154661,0,-0.1027953,-0.1445947,-0.1524582,0,0,0,0,0.001088097,0,0.2041435,-0.006081442,0.224624,-0.02334353,0.07337011,0.121104,-0.2247965,-0.1984378,0.003540317,0,0.145242,0.06868386,0.1203916,-0.1088888,0,-0.06238496,0,-0.07362014,0,0,0,0.075285,-0.06204774,-0.1392398,0.1040383,-0.3698905,-0.07035603,0,-0.05745943,-0.00276683,0,0.01452046,-0.1299017,0,0.1238578,-0.08425418,-0.2114416,0
-0.1771099,0,0,0,0.06869127,-0.006507506,0.117694,0,0,0.1990767,-0.1300195,0,0.2041801,-0.08870955,0,-0.0624175,-0.175333,0.09945662,0.04960848,0.2406587,0.1459276,-0.03953348,-0.05773713,0,0.08915487,0.01243466,0,-0.07614893,0,0,-0.05311986,0.2178019,0.1260383,0.215823,0.001394175,0,-0.2413184,-0.280832,-0.1354005,0,0,-0.02047004,0.08089849,0.1521058,-0.09740373,-0.03921806,0,-0.1073873,0.1334936,0,0.3326183,-0.02547388,0,-0.1023765,0,0.0542796,0.1360013,0,0.1002864,0,-0.3250287,0,-0.2098625,0,-0.05617981,-0.05403728,0,0
0,-0.05829348,0.04060327,0.2649106,0,-0.01065085,0.1035503,0,0,-0.1309178,0,-0.1432194,0,0,0.1321903,-0.1106362,0.0366438,-0.07815506,0.04666773,0.2377277,0,-0.01737034,0,-0.00703413,-0.1303093,-0.07689687,0,0,0.03061553,0,0,-0.07006066,0.1280432,0.07851252,0,-0.004463414,-0.1119944,0,-0.1149867,0.1011807,0,0.06559446,0.09108122,0,0.2863504,-0.1349323,0,0,0,0,0,0,0,0.1361482,0,0.13561,0,-0.05535616,-0.2777422,0,0.087487,-0.006161724,0,0.1862326,0.1855179,0.0938692,0,-0.4154875
0,-0.05432542,0,-0.176684,0.1019022,-0.207887,0.0004292882,0,0,0,-0.1371914,-0.08463579,0.04016016,-0.02961624,0,0,0.04433733,0,0.2055021,0.07161598,-0.1576653,0,0.1652203,0.1855057,0.0835862,-0.03500192,0,-0.2239489,0.2893901,-0.1923363,-0.2579404,-0.04799547,0,0,-0.001484425,0.1297244,0.03129723,0.1936165,0,0.08387586,-0.09362108,0,0.03282525,-0.2369299,0.2677038,-0.176891,0,0.0900543,0,0,0.14455,-0.1225143,0.0149436,-0.1512598,0,-0.1340967,-0.04857117,-0.2253897,0,0,0,0,0,-0.001160161,0.1073225,-0.02755608,0.04563027,0.08291602
0,0,0,0,0,0,-0.2195473,0,0,0,0.268454,0.2178068,0.2688428,0.1979777,0.03771464,-0.0758561,-0.1412683,0,0,0,0,0,0.07100528,0,-0.2371648,0.0583731,0.3036645,0,0,-0.01161588,0,0,0,0,0,0.07098524,0.1814939,0,0.1727511,-0.05123864,-0.2207245,-0.07261458,0,-0.1028243,-0.109588,-0.03442712,0.03246733,0,0,0.04629719,-0.07128032,-0.1120984,0.2481677,0,0,0,0,0.03645514,0,0.1573879,0,0,0.04308483,-0.1222293,-0.2154927,0,-0.05551308,0
0,-0.06025274,-0.1616431,-0.1779122,-0.1413505,-0.09258147,0,0.08942773,0.05749804,0.1530492,0.3260078,0.008233218,0,0,0,-0.005571356,-0.03410151,-0.04490105,0.1942773,0,0.05995005,0,0,0,0.1696657,0.1295835,0,0,0.02276022,-0.06164432,0,0,-0.004903633,-0.2328394,0.1143878,-0.1206677,0,0,0,0,-0.1234505,0,-0.07677422,-0.3097848,0,0.2600858,0.04039438,0.1954146,-0.1558402,0,0.05684593,0.1140886,-0.1446867,0.08468457,-0.08818444,0,0,-0.1697291,0.2466068,0.1362348,-0.2018418,0,0,0.4219583,-0.08878416,0.1003788,0,0
0,-0.1967805,0,0,0,0.1569918,0,0,0.05353544,0.01232865,0,0,0.2844379,0,0,0.1727397,0.141391,0,0,0,0.2060804,-0.1120567,0,0.08862586,-0.2466002,0.2156983,0,-0.1548981,0,0,0,0,0,0.1567632,0,0,0,-0.193752,0,-0.006814559,0,0,0.02230416,-0.05023196,0.1043504,0.01333247,0,0,0,0.07292433,0,0.221123,-0.1383477,-0.2901245,-0.2315273,-0.02580758,0.1388889,-0.003870728,0,0,0,-0.0330116,0.02939081,-0.02379012,0,0.04521418,-0.0698411,0
0,-0.111431,-0.1323862,-0.1992073,0,0.02576281,0.1172623,0,0.2409796,-0.09464547,-0.1292915,0,0.2483498,0,0.04105831,0.2042686,0,0.2181576,0.1767758,0.02065882,0,0,0,0,0.1401533,0,0,0.1729882,-0.1389081,-0.1566262,0,0.11335,-0.2336458,0.05956436,0,0.1778005,-0.03447166,0,0,0.2161161,0,-0.2684797,0,0,0,0,0,-0.1207449,0,-0.1653444,-0.09435003,0,0,-0.03545092,0.2035802,-0.1881765,0.2351786,-0.03465238,0,0,-0.1170035,0,0,0.1194648,-0.1305423,-0.01355744,0,0.1301441
0.08153515,0.2065942,0.04087506,0.2769032,-0.04374405,0,-0.03983447,0,0,0,0,0,-0.09828446,0.3451398,0,0,-0.08106098,0,0,0,0,0.2172318,0.1400042,-0.1239256,0.1910816,-0.252986,0.1865587,-0.1526105,0,-0.207351,0,0,0.3033786,-0.02663837,-0.04504343,0.1519679,0.00841694,-0.274843,0,0,0.07369162,0,0,0,0,0,-0.04458234,0.1448433,0.04205969,0.008610164,0.3889965,0.06492889,0.1318566,0.05329265,0,0.3506708,0,0.067568,0,-0.3780952,0,0.05568279,0,0,-0.02248191,0,0.1713496,-0.01724977
0.3237483,0.05316293,0,0,0,-0.08415477,-0.3060745,0.1963936,-0.2876168,0,0,0.1000492,-0.09543927,0,-0.1101824,0.1073226,0,0,0,0,0,0,-0.2113623,-0.3399711,0.1104439,0.1453866,-0.1886248,0,0,-0.07427567,-0.222212,0.01567762,-0.3747699,0,-0.1701574,0,0,0.1741561,0.2630083,0.2098812,0.05165299,0,0,0.3175625,0.1900172,-0.03525103,-0.1460339,0,-0.2744654,0,-0.2465314,0,0,0,0,0,0,-0.08383954,0.06250643,-0.0500447,0,0.1467553,0,0,0,-0.02445114,-0.08596198,0.196354
0.1559586,0.1058758,-0.2132678,-0.1865052,-0.2791393,0,0.1380354,0,0.08550567,-0.2445527,0.1868245,0,0,-0.07535715,-0.1170208,-0.2126003,0.1766669,0,0.09601738,0,-0.1089085,0,0,0,0,0,-0.1296463,-0.07800763,0,0.1289506,-0.009481703,0,-0.1020347,0.2987759,-0.1981269,-0.09423322,0,-0.1399696,0.1086137,-0.1606258,-0.2451257,0,-0.1942635,0,0,0,0.03124033,0,0,0,0,0,0.1460859,0,0.1442753,0,0,0,0,0.2149289,0,-0.1123287,0.1521055,-0.1698965,0,-0.07031234,0,0
0,0,0,-0.02658241,0.1164212,0,-0.1657322,0,-0.0554801,6.590363E-05,0,-0.07975733,-0.08832987,0.05488798,0.05377336,0.03522596,-0.176859,0.1323022,-0.195369,-0.1605286,-0.2303061,0.2856751,0.1330262,0,0,0.2258193,0,-0.01079657,8.397662E-05,-0.1872281,0,-0.1496447,0,0,-0.1339569,0,0,0.2999346,0,0,0,0,0.1151996,0.0197464,0,-0.2481723,-0.07799166,-0.1635084,0,-0.1473895,0.1119484,0.2193742,-0.1301084,-0.1896053,0,0,0.2704092,0,-0.001216687,-0.008566881,0,-0.3007585,-0.1328055,-0.07944035,-0.2118588,0.2161684,0,0
0,0.06552247,0.1863581,0,0.08558244,0.08905495,-0.1703457,0.2866112,0.09651899,-0.1901886,-0.07591689,0,-0.1621846,0,-0.02742941,-0.2220094,-0.1266941,-0.2932199,-0.1389165,-0.1443315,0.1128844,0.07576527,0,0,0.1008197,0.2281924,0,0.1694514,0,0,0.184209,-0.1696488,0,0.0273366,0,0.3258166,0,0,0,0.01070538,-0.04111695,0.04653822,0,-0.08858339,0.2449944,0,-0.1479966,0,-0.05678967,0,0,0,0.2046769,-0.1170351,0.1651306,0,0,0,-0.2296558,0,0.05168676,-0.01940456,-0.02142376,-0.03837878,-0.03895878,-0.1257697,0,0.2339635
0.1560526,0.1219725,0,0,0.05001425,0,-0.07135445,-0.1337731,-0.269778,0,0,0.172991,0,0.08949946,0.03661827,0,0.1239947,0.209489,0.1738083,-0.007954596,0,0,0,0.1449181,0,0.2386581,0,-0.1405727,-0.09219576,0,0.3085377,0.0210775,0.1721514,0,-0.2896847,0.177731,0.2330755,0,0,-0.1507694,0,-0.05451486,0,0,0,0,0,0.02055433,0.007864022,0.02158789,0,0.1941992,-0.01073638,-0.1636794,0.207881,0,0.1638216,0.09712392,0,0,0,0,0.2527771,-0.1673732,0,0,-0.06162709,0
0.255427,-0.0135739,0,0,0.2368487,0,0.07588742,0,-0.1435589,0,0,-0.06326886,-0.2451833,-0.1850126,-0.1651674,0.1958911,0.1717088,0,0,0,0,0.05483668,0.1093755,0.02947242,0,-0.2034881,0,0,0,0,0.1683494,0,0.1236812,0,0,-0.05735104,0.02573644,0,-0.242799,0,0,-0.09398809,0.3376845,-0.1541656,-0.04407446,0.05249505,-0.2251972,-0.2627583,0,-0.01621532,0,-0.1030572,0,0.2236335,0.2690156,-0.05909417,0.238643,0,-0.3571228,0,0,-0.235437,0.1776406,0,0,0.1576466,0.102905,-0.2918881
0,0.2138306,-0.1537417,0.1556153,0,0,0,-0.1753139,0,0,0.01816784,0,0.06128041,0.03015953,0,-0.06739132,0.1606037,0,0,0,-0.3414704,0.0202824,0,0.07258631,-0.1371254,0,0.05125219,-0.360372,-0.2118526,-0.1879921,0,0,0.101328,0,0,0.1390605,0,-0.158025,0,0,-0.2654807,0.1305388,0.02777459,-0.3770993,0,0.2142356,-0.1412001,0,-0.1961387,0,0,0,0,-0.1692406,0,0.01466925,0,0,0,0,0,0.2331636,0.01198528,0.03444665,0,0,0.1990196,0
0.02415789,0.01945396,0.1587374,0,-0.1653188,0.1384264,0,0.1718062,-0.1701994,0,0,0.1296059,0.02066365,-0.1985852,0,0,0,0.1845382,0,0,0,0,0,-0.1663217,0.03035185,0,-0.03807256,-0.06788792,0,0,0,0,0,-0.1347012,-0.008808039,0.133228,-0.0006647705,0.1263976,0,0,0,0,0,0,0,0,0,-0.202654,0,0,0,0.09704036,0.03917224,0,0,0.02699103,0,0.1103804,0,-0.1630937,0.1057323,0.1160108,0,0.2453121,0.2646195,0,0,0.2021275
-0.1857368,0,0,0.06543738,0.07372575,0,-0.1317734,0,0.148637,-0.08135929,0,-0.1203198,0,0,0.2750575,0,0,0,-0.1853668,-0.2019938,-0.1514249,0.1583703,0,0,0,-0.05143615,-0.0393738,-0.03270587,0,0,-0.1068124,0.05586617,0.2459434,0.2495248,-0.2383946,0,-0.1663928,-0.1807483,-0.006700057,-0.1666469,0.1482656,0,-0.02041125,-0.0347143,0,-0.1631174,0.218613,0.1052946,-0.06992608,-0.0001447093,0,0,0,0.09550931,0,-0.2537926,-0.2951007,0.1386795,-0.1532194,0.08191823,0,0.006334712,-0.3196696,0.04872433,0,0.2639711,0.05125805,0
-0.07612603,0,0.09661439,-0.1875993,0,0,0.0585447,0,0,0,-0.1427409,0,-0.2131554,0.1999565,-0.07447591,-0.1946119,0.05020338,0,0,-0.01572597,0,0.08346449,-0.2342105,-0.1560291,0,0,0.2383147,0,0,0,0,0,-0.1361667,0.1654734,0,-0.02443382,0,0,0,-0.1613089,0,0.02112167,-0.1144758,0,0,0,0.05960674,0,0,-0.1339316,-0.07158439,0.1001149,0,0,0,0,0,0,0,0,-0.05077461,0,-0.1590225,-0.161741,0.07882426,0,-0.05022012,0
0.2473311,0.1857039,0.1797681,0.2182283,0,0.005136417,0,0,0.1284851,0,-0.01410639,0,0.159062,-0.007553975,-0.2674644,-0.08574111,0,-0.003628838,0,0.2827381,0.2067508,0,0.1890513,0,0,0.0962344,0,-0.1315024,-0.05954522,-0.150274,0,-0.05382842,0.165608,0,0,0.1864589,0.06695691,-0.2000201,0,0,-0.3022164,0,0,-0.01988574,0.0805006,0,0,0,0.2704763,-0.1591227,-0.01746245,0,0.06376925,-0.02111365,0.1486142,0,0,-0.08415605,0,-0.05397765,0.1692387,0,0.125072,0.1694983,-0.008710912,0,0,0.04556426
-0.1422889,0,0,-0.1338219,0.1188337,-0.1121304,-0.1494335,0.009585328,0.1319896,0.08588565,-0.02136036,-0.1247945,-0.06879038,0,-0.2059596,0.06179376,-0.1604992,-0.0984009,0,0.0584062,-0.1356142,0,0,-0.01838107,0,0,0,0,0,0,0.2243818,0,-0.09308315,0,0.06841089,0,0.03761012,0.2146485,-0.2005407,-0.03560054,0,0,0.2374636,0,0.0337977,-0.1841191,0,-0.082217,0,0,0,0.2291892,0,0,-0.01422057,0,0,0,0,-0.1981939,-0.1109028,0,0,0.1549471,0.1065807,0.2253477,0,0
0,-0.09083373,0,0,0,0,0,0,0,-0.1277394,0,-0.07657668,-0.07297935,0.1630709,0,0,0,-0.3177963,0,0,0,0.1787025,0.2129287,0,0,0,0.4176213,0.08819066,0.3016152,0.08202224,0,0,0.09383827,0.1624034,0,0,0,0.19367,0,0,0,-0.1109167,0.2314404,0.1507065,-0.3583196,0,0,0,0,0.2500205,0.02681848,-0.2094346,0.09985862,-0.2323163,0.1155273,0.1373294,0,-0.004208877,0,0,0.2017163,-0.1846766,0,0,0.01276384,0.0591228,0,0
0,0,0,0.03554778,-0.06320612,-0.1480292,0.06412002,-0.2329472,-0.009960191,0,-0.09525738,0,0.03622943,0,0,0,-0.03161387,0.1779375,0.1610913,0.4412975,0.1690005,0,0,0.08110327,0,0,0,0,0,-0.152442,-0.003348791,0,0,0.1565012,0,0,0.1106056,0,-0.06846388,0,-0.007554056,-0.002150373,0.1384775,0.1217637,0.00320714,-0.1941033,0,0,0,0.1348505,0.06117617,0,-0.0429198,0,0,0,0,-0.03157787,0.06046182,-0.06363896,0,0.1010898,0.1743493,-0.0233396,0.2575698,-0.03772748,0,0
0,-0.1317346,0,-0.01234314,0,0,0,-0.2488755,0.1754855,0.1788746,0.1794201,0,-0.2202689,0.1821698,0.05604927,0,0.2067799,0,0.1907352,0,0.05235256,-0.03630552,0,0,-0.3327059,0,0,0,0.238371,0,0,-0.3500488,0.1702676,0,0.06655259,-0.1386567,0.07544268,-0.2392096,0.05421984,-0.08041423,0,0,0,0.1728072,0,0,0,0,0,0,-0.1868825,0.0735205,0,0,0,0.1805721,0,0,0,0,0,0.07665464,0,-0.1084803,0.06423913,0,0,0.01633476
0,0.02474063,0,0.06852779,-0.04710457,0.07972796,0.2236533,0.0103088,0,-0.005967396,0,0,-0.1669849,0,0,0.4195975,-0.05358604,0,0,0.03114211,-0.1643544,-0.3467336,0,0,-0.1978292,0,0.1094732,0.2494283,-0.1933544,-0.2538499,-0.1501198,-0.1226235,0.1109147,-0.04636839,0,-0.2363472,-0.2371253,0.1006311,0.202012,0.1673129,0.1349701,0.04549613,0.1840121,0.01741429,0,0.05165911,0,-0.1384618,0.08460827,0,0,0,0.05154067,-0.148523,-0.1318997,0,0.126168,-0.1454586,0,0,0.01208221,0,0,0,-0.1376994,0,0.2764342,0.1742236
0,0,0,0,0.01686594,-0.06105253,0,0.08003081,0,0.1430401,0,0,0,0.1953123,0,0.1062846,-0.1431347,0.1743117,0,0,0,0,0,-0.07858061,0.04724763,0,-0.1132125,0,0.1535964,-0.06632753,0,-0.1050202,-0.2845635,0.07181695,-0.05875547,0,0.06222048,0.3047869,-0.1071994,0.2837752,-0.08042983,0,0,0.125441,0.04915449,0,0.3724161,0,-0.08940193,-0.3485289,0,0.03147594,-0.2132753,0.1122972,0,-0.2189107,0.2005325,0.03054386,0,0,0.1362682,-0.1355942,0,0,0,0.09225631,0,0
0.163633,-0.1163487,-0.2737315,0,0,-0.1163579,0,0,0,0,0,0,0.1945143,0.04056248,-0.2638107,-0.09090133,0.1241577,0.0473185,0,0,0.2050993,0.1800887,0,0,-0.03599411,0,-0.2502697,0,0.1772038,-0.119639,0,0.07231858,-0.1245094,0,0,0,0.03242684,0,0,0,0,0,-0.1784296,0,-0.1483906,0.1537434,0.01524816,0,-0.06144549,0.2838098,0.04744145,0,0,0,0.01661767,-0.1734221,0,0,0,0,0.07766103,0,0.02519884,0.05317112,0,0,-0.08822031,0
0,0,0.2083253,0.1708128,0,0,-0.2736213,0,0,0,-0.1671032,-0.09409587,0.159243,0,0.02619966,0,0,0,0,0.003661451,0.09081209,0,0.25181,-0.2557507,0,0,0,0,-0.004079739,-0.3116877,0,0,0,-0.1121877,-0.04442107,-0.2055248,0,0,-0.1789364,-0.1985961,0,0.044923,0,0,0.1671627,0,0.1332823,0.1014759,0,0.1436491,0.2805359,0,0.09756421,0,0.2315002,-0.1678894,0,0.1607211,0,0.2242057,0,0,0,0,0,0,-0.08068676,0
---
-0.02063368,0,0.09442648,-0.2171085,0,0.138497,0.04271602,0.1619715,-0.2078485,0.2707208,-0.05139904,0.1519058,0,0,0,0,-0.2131659,0,0,0,0.03017849,-0.009183686,0.1253408,0.04395429,0,0,-0.2107391,0,0,0,0.1870533,0.03137552,-0.2574688,0.1109137,0,0,0,0,0,0,0.1930162,0,0.1103914,0,0.3725983,0,0.07585458,0.120215,0.2017143,0
-0.1149074,-0.1605574,0.07114622,0,0,0,0,0,0,0.05169041,0.1686098,0,-0.1813093,0.1628422,-0.0692053,0.1345264,0,0,-0.03072566,-0.1531788,0.08027205,-0.116164,0.2561992,0,-0.140056,0.03272463,-0.261698,-0.007352136,0,0,0,0,0.1100053,0.1486848,0,0.0478335,-0.02114061,0,0.01070833,0.3427351,0,0,0.007296485,0,0,0,0,0,-0.01792433,0
0,-0.2143919,-0.09025846,-0.1538657,-0.05779036,0.09558223,0,-0.09447365,0,0,-0.1566584,0,0,0,-0.001448497,0,0,0,0,0,0,0,0.1134073,0,0.01075305,0,0,0,0,0,0.1862043,-0.08049101,0.01539073,0,0,0.1968331,0.1794671,0.001186742,0,-0.07916793,0,0,0.1312272,-0.2253269,0.06752223,0,0.2408162,0.01803157,-0.1763687,-0.1193453
0,0.1612527,-0.08270363,0,0,0.177406,0,0.1403138,-0.1502472,0.06686617,0,0,0,0,-0.2218241,-0.09012071,0,-0.1710825,0,0,0,0,0.2417241,0,0.0181266,0,0,0,-0.1558684,0,0,-0.2377437,0,-0.03707375,0,0,0,-0.1744745,0,0,0.04525453,0,-0.06187297,0,0.04900059,0,0,0,0,0
0,0.2835581,0,0,0,0,0,0,0,0,0.1340069,0,-0.02235011,0.09877236,0,-0.0142131,0,0.08416782,-0.2761302,0.1323159,-0.1702345,0.1510979,0,0,-0.03433426,0.0907525,0.04275579,0,0,0,0.1573476,0,0,-0.02995836,-0.1358267,0.0506779,-0.244666,0,0.191788,0.1844604,-0.2769767,0,0,-0.03021768,-0.3275078,0,0.02505468,-0.03979808,-0.07726654,0
0,0.07777713,0.1215292,0,0,0,0.08276363,0,-0.109738,-0.1669701,0,0.18706,0,-0.08317973,0,0.4825366,0.02046718,0,0.0863275,0.1769929,0,0,-0.07721089,0,0.3027762,-0.1793092,0.1457527,0.09879016,0.1386309,0,0,0,-0.161952,0,-0.3804653,-0.2974621,-0.08148075,-0.2319603,0.1543943,0,0.2103318,-0.06702898,-0.004192792,-0.09618051,-0.05948102,0,0,-0.03889237,0.09530454,0.1436453
0,0,0.1613626,0,-0.001655614,0,0,0.07365988,0,0,-0.07620575,0,0.04392427,0,-0.0721304,0.05331285,-0.5360186,0.1969385,-0.1775955,0.1222375,0,-0.1593161,0,0,0,0.1740545,0.0166126,0,0,0.382514,-0.1460835,0.2599717,0,0,0.05239469,-0.03958933,-0.0006716338,-0.2363232,0.06345564,0,0,0,0,0.1938742,0.07162806,0,0.1129658,0.1225715,0,0
0,-0.320027,0,0,0,0,-0.1958773,0,0,0.2124146,0,0.07307777,0,0,0,0,-0.1896896,-0.2185222,-0.2889463,0,-0.09955714,0,0.0500475,0,0,0.04679348,-0.2228363,-0.3332651,-0.1313707,0,0.06668987,-0.2334549,-0.0958407,0,0,0,0,0,-0.2056015,0.09296192,0,0,0,0,0,0,-0.2185466,-0.050482,-0.02050071,-0.1152546
-0.151221,0.1288401,0.1507237,0,0,-0.0001992642,0.01619806,0,-0.1290159,0.0002426406,0,0,0,0,0.04496483,0.1593377,-0.3732904,0,-0.2608105,0.04113572,0.1447159,0,0,0.2363761,0.1534805,0.168012,0.1831676,0,-0.2482857,0,0,0,-0.004631168,-0.1478411,0,0,0.1033938,0.2066548,-0.2017209,0.06498311,-0.1055796,0.2559142,0,0,0,-0.2544071,0.1801408,0.1956804,0,0
0.1646505,0,0,0,0,0.0531556,0,0.02837028,-0.1261896,0.03460362,0,0,0.006829179,0,-0.1305726,0,-0.1904355,0,0,0,0,0.06234137,0,-0.1810072,-0.01179473,-0.03702897,0,0.1212946,0,-0.0487377,0,0.1444211,0,0.02115274,0,0,0,0.1271047,0.06046878,-0.2456961,0.1621599,0,-0.08847503,0,0.2501282,0,0,-0.07652696,0,0.08084092
-0.01768459,0.1398343,0.2135424,-0.2046821,0.1527076,0,0,-0.04025767,0,0.07536906,-0.08845459,0,-0.1688025,0.1055604,0.2088431,-0.02764922,0,0,0,0,0,0,0,0,0,0,0,-0.01353309,0,-0.04057313,-0.1395844,0,0,0,0.001524785,0,0.1637409,0.005211588,-0.271803,0.08381926,-0.2285411,0,0.1937969,0.04153385,0.0802278,-0.1637036,0.193807,-0.1055929,-0.1428346,0.1195071
0,0,0.1065839,0,0,0,-0.1184156,0,0.159167,0,0.1081534,0,0,0.03507172,0,0.2744269,0.06953208,0.08681378,0.219138,0,0,0,0,-0.09077001,0.2164528,-0.05967117,0,0.171432,0,-0.08034933,0,0,0,0.1722358,-0.05711445,0.08960755,0,0.01359746,0,0.1034528,0.01303683,0.3069384,0.1056064,-0.1151068,0,0,0,0.05243362,0.0114652,-0.06825779
0.1508947,0,0,0.1521908,0.2951948,0,0,0,-0.08315233,0,-0.1451491,0,0,-0.1903246,0.1147566,0.2604435,0.2424329,0,0,0,0,0,0,-0.2061193,0,0.3102961,0.1441232,0,0,-0.00507192,0.04848756,0,0,-0.05967119,0.2200685,0.1370754,-0.1077707,0,0,0,-0.008942256,0,0.1357389,0,0,0,0,0,-0.2485203,-0.05791778
-0.1060139,0.05479653,0,-0.1228306,-0.2114938,0.3657268,-0.1070476,0,0.007069421,-0.01016519,-0.07481177,0.1159783,0,0,0.07401293,0.06053494,-0.1816091,0,-0.1622601,0,0.01743155,0.2422973,0,0,0,0.02650796,0,0.09849771,0,0,0.1256596,0,0.2123743,0,0,0,0.0190402,0,0.07006326,0,0,0,-0.1625773,0.1039231,-0.05529061,0,0.1450232,0,0,-0.07484397
-0.1668935,0,0.1003397,-0.221632,0,0,0,0.1515367,0,0,0.1601397,0.1568048,0.1573577,0,0.1214559,-0.202896,-0.120215,0,0.2639514,-0.04308529,0,0,0,0.04724023,0,-0.2043,0,0,0,0.2531971,0,-0.008304464,0.2027758,0,-0.06982503,0,0,0.08942372,-0.1675797,-0.1488857,0,0,-0.0409115,0,0,-0.002455803,0,0.1594387,0,0.005042974
0,-0.2899829,0.1220596,0,0,0,0,0,-0.1648057,-0.179362,0,-0.199498,0,-0.06943675,0,0,-0.07524168,0,0.00401092,-0.07673161,-0.1670294,0,0.04895256,0,-0.03561751,0.1567159,0.1685774,-0.1029244,0,0,0,0,0,-0.0005754997,0.02114977,0,0.143475,-0.1744016,0,0,-0.1386444,0,0.136567,-0.0288105,0,0,0,0,0,-0.2309537
0.09186245,-0.008893828,0,-0.1252815,0,0.1686618,0,0,0,0.05997846,-0.2777496,0,0,0.0557742,-0.2100095,-0.104969,0,0.2331822,-0.1922343,0,0.1151536,0.1316782,-0.1328206,-0.1466985,0.1441317,0,0.1399742,0,0,-0.2734913,-0.02364482,0.04520494,0,0,0,0.1086467,0,0,0,0,-0.1081065,0,0,0.03090876,0,0,-0.1630435,0.2116849,0,0
0.0538969,0,0.1977492,0,-0.1436809,0,0,0,-0.1645993,0.0003880122,0,0.05998325,0,0.1070004,0,0.007786523,-0.2042984,0,0.2078117,0.1253454,-0.1796804,0,-0.2116167,0,0,0.007293823,0.0008770725,0,-0.1337473,0,0,0.1473723,-0.001894097,-0.1074351,0,0.1770666,0,0,0,0.08180808,0,0.2543463,0,0.1211986,0,0.03947845,0,0,0.1506927,0.1976643
---
===
-0.2758356,-0.1253603,-0.04892505,0,0,0.04770411,0,0.02081691,0,-0.07171266,-0.1422846,-0.01880762,0.1140739,-0.02878933,-0.1800632,0,-0.1018824,-0.2102268,-0.2819088,0,-0.3292817,0.1606903,0.1074696,-0.1406667,0,-0.07159828,0.007979462,-0.3625233,-0.0354071,0.2417098,0.1575131,0,0,0.2479793,0.1332443,-0.1827123,0,0.1571135,0.1728714,0.2604129,0,0.1148228,-0.02145667,0.153828,-0.07616334,0.01887683,0.01547842,0,0.01871776,0,0,0,-0.1658917,-0.1231141,0.09174512,0,-0.1878274,-0.2327093,-0.2156815,0,0,0,0,-0.1270478,0,0.06895087,-0.06663185,0.1297958
0,0,0,0,0.06289527,0.04499479,0,0.04458683,0,0.08566917,0,0.1987562,0.01760437,0,-0.2239884,0,0.1347229,-0.08768747,-0.08056261,-0.1159372,-0.2453429,0,-0.1157977,0.2244231,0.06783702,0,0,0.175629,-0.2333796,0,0,0,-0.09392285,0,-0.06597292,0,-0.2099949,0.01454476,0.1574459,0,0,0,0,0,-0.01849201,-0.2214281,0,0,0,0,-0.02402408,0,-0.07332187,-0.08015976,0.1495434,0,0.2984727,0,0.07802036,-0.0708667,0,-0.1266292,0.1873447,0,0,-0.1025501,0.1025134,-0.05678158
0.09982268,-0.2524153,0,-0.09547443,-0.1058908,0,0,0,0.2775043,0,0.1660508,0.2302178,-0.2623972,0,-0.2601385,-0.06350703,0.2024624,0,-0.133701,-0.2550875,0.1623321,0,-0.1120874,0.1173287,-0.008228182,-0.113034,0.2383246,0.2339557,0,0,-0.087157,0,0,0,0,0,0.2363134,0.1284536,0,-0.237944,-0.2781549,0,0,0.2180759,-0.2672368,0,0,0,0,0,0,-0.09656309,-0.1269022,0,0.03027875,0,-0.002303247,0.08819104,0,0,0,0.2983589,0.1303916,0.01767353,0,0.07210048,0.1686931,0.1866662
-0.0263526,0.04890433,0,0,0,-0.1693508,0,0.06617359,-0.229205,-0.09083689,0,0,-0.1518205,-0.17941,0,0.1857035,-0.09974606,-0.2112472,0.1840481,-0.07333809,0,0.124647,-0.2072227,0,0.05364022,0,-0.01050822,0.07552563,0,0,0.02393156,-0.04538035,0.3633219,0,0,0,-0.1651986,0,0.11471,0,0.07184067,0,0.05532547,0,-0.2255127,-0.2454163,0.2032481,0.0185261,0,0,0,0,0.05066485,-0.1594374,-0.1073366,0.1225322,0,0,0,0.1568274,0.2163408,-0.1101773,0,0,-0.001148229,-0.03150708,0,0
-0.09079312,0,-0.05600174,0.01925514,0,0,0.1272019,0.1098581,0,0.1858842,0,0,-0.03531778,0,0.08001541,0.2168933,0,0.1601164,0,0.09482481,0,0.09667039,0,0,-0.1596466,0.1342034,0,0.02298976,0,0.2580192,-0.02130416,-0.1296313,0.1510167,0,0,0.1069745,0.07584705,0,0.06434157,0,0.02002121,0,0,0.1143318,0,0,-0.1537658,0,0,-0.1594226,0,0,0.1287939,0.230239,-0.2250647,-0.01438158,-0.07828894,0,0,0,0.1983436,-0.1374595,-0.2696242,-0.1839649,-0.1621678,0.02105167,0,0
-0.2501946,0,0,-0.1117389,0,0,0,0.08688071,-0.02754039,-0.01214032,-0.05445212,-0.09614149,0.2087231,0.1605974,0.2524911,0.2085862,-0.1087457,0.1420664,-0.1011256,0,-0.05609099,-0.09711027,0,-0.1063002,0,0,0,-0.09963279,0,0.1112401,-0.03668984,0,0.1253749,0,0.2642304,0.01445337,0.03783506,-0.01090804,0.3120061,-0.2002553,-0.2845195,0.05386049,-0.02638909,0,-0.1719832,0,-0.1676701,-0.07649147,0.1633728,-0.1879811,0,0,0.07687983,-0.06972839,0,0,0.07681824,0.3479373,0.04565718,-0.09976359,0.01680749,0.2199266,-0.1916274,0.08163828,0,0,0.1142206,0
0,0,0,0,-0.1620591,0.1033433,0.2788717,0,-0.03223189,0.08221482,0.1644488,0,-0.02258871,0.06867833,0,-0.1603779,0,0,0,0,-0.02230434,0,0,-0.1657013,0,0,-0.06639941,0,-0.2457887,0,-0.1397943,0,0.1507,0,0.2866924,-0.03570621,-0.2601769,0.1522592,-0.1840898,-0.1179275,0,-0.1736204,0.1601859,0,0.06504414,0.01836392,-0.2568237,0,-0.0855941,0,0.1595789,0.3223017,-0.1445188,0,0,-0.1638035,-0.3063729,-0.3056582,0,0,-0.1165053,0,-0.2846728,0,0.02652668,0,0,-0.05006487
-0.1789863,0,0.04548839,0,0.001897123,0,-0.3974627,-0.1342096,0.1387545,0,0,-0.1930575,0,0.07246263,0,-0.299619,0.1801885,0,0,-0.1684783,0,-0.219947,-0.003634859,0.1796828,0,0,-0.2364383,-0.009344779,0.1562335,-0.07688475,0.1743252,0,-0.1206185,0,-0.0150782,0.09011601,0.1592161,0,0.05566201,-0.05708949,0.03575305,0.08238111,0,0,0,0.2440978,-0.06181331,-0.2148516,-0.08230862,-0.1096258,-0.07197401,0.1132103,0,0.1767253,0,0,-0.06226784,-0.01309541,0.1053679,-0.009069333,0.04443774,0.07913988,0,0.02892478,-0.07500438,0.04429753,0,0
0,-0.145248,0.09363254,-0.2836914,0,-0.08222154,0,-0.02018452,0,0,0,0,-0.2369875,0.1870344,0.1065203,0,-0.06387271,0,0.04116952,0,0.111604,-0.0470368,0,-0.2413338,-0.1767874,0,-0.3697252,0,0,0,0,0,0.3461761,0.0568717,0,0,0.1024838,9.216418E-05,-0.1268002,0,0,0.01926143,-0.1420407,0,-0.197619,-0.3328432,-0.1054647,-0.1329542,-0.1519427,0,-0.2850233,0,0.1064038,-0.1495774,0,0.1670757,0,-0.3749669,-0.3046128,-0.1787276,0.1667109,-0.129471,-0.07010917,-0.05136763,0.1955051,0.05099483,0.01556679,0.1694518
0,0,0,0,0,0.2233642,0,0,0.04041878,0,0,0,0,0,0,0.02688695,0.120078,0.09948262,0,-0.1396988,0,0.1333045,0.1219192,0,0,0,0,0.1487706,0,0.06405739,0,0.08579233,0.1993993,0,-0.2859187,-0.1739623,-0.20462,0,0.1671657,0.09614065,0.02212668,0.0006216663,-0.01273294,0.08039501,0,-0.3065782,-0.2098805,0,-0.2495437,0,0.2836973,0,0,0,0.009151659,0.04254344,-0.0169175,0,0,-0.09007283,-0.3247051,0.0309003,0,0,0,0,-0.0768345,0.1234177
0,0,-0.1322584,-0.2644934,-0.3029435,-0.06763344,0,0.1204269,-0.1480265,0.1274571,0,0.2911708,-0.2642074,-0.1291893,0,-0.1168924,0.05024728,0.1350145,0.008406491,0,-0.1860322,-0.1957703,-0.035786,0,0,0,0.3352092,0.367767,0.1843503,0.02972876,0,-0.1250076,-0.2782868,0.03051347,0.2337852,0,0,0,0,0.03225063,-0.1607101,0,0,-0.1212854,-0.04222486,-0.2300654,0,0,-0.1893542,-0.1279252,0,0.1071072,0.10474,0,-0.241973,-0.02327645,0,0,0,0,0.04421737,0,0.08204803,-0.2265207,-0.1108081,0,0,0
0.1653114,-0.008535906,0,0.05488773,0,0,0.01477184,-0.0930686,0,-0.06850059,0,-0.06042071,-0.1477561,0,-0.005775995,0.2408752,0,-0.1478715,0.05716965,0.2890757,0,0.2082168,-0.001000473,0,0,-0.06074185,0.001280185,0.2763103,-0.2998691,0,0,0,-0.05294565,-0.06278609,0,0.1025704,-0.2307169,0.1180395,0,0,-0.1834888,-0.13225,0,0.2524132,0,-0.2116888,-0.0038201,0.1822142,0.237207,0.1089855,0.2829975,0,0,0,0.01368568,0.06348334,-0.1132112,-0.2399385,0,-0.1953348,-0.2061992,-0.2636926,-0.08240966,0,0,-0.2493125,-0.07245717,0.3619988
0.2965598,0,0,0,-0.232249,0,-0.06841229,0.0995141,-0.1410257,-0.08237538,0,-0.1346148,0,0,-0.04953485,-0.1916929,0.1019289,0.1948334,-0.1869292,0,-0.1666614,-0.035148,0.09247714,0.1718434,0,0,0,-0.1082283,0,-0.06855474,-0.2693753,0,0,0.09423617,0.09243755,0,-0.009372532,-0.1528594,0,-0.1269534,-0.2173754,0.1119443,0.05996108,-0.177232,0.2463993,0.1864758,0.01325072,0,0,0,0.1554192,-0.02704346,-0.2621972,0,-0.01588937,0,0,0.1075326,0,0,0,0.1389176,0,0,0,0.001749061,0.2204185,-0.3286127
0,0,0,0,0,0.002731716,0,0,0,0.3761851,-0.0958401,0.1015303,0,-0.0004762013,0.02741193,0.1249269,0,0,0.03648991,0,0,-0.1902744,0,0.2205421,0.1788048,-0.08575529,0.02555014,0,0,-0.0850739,0,0,0.2050992,0,0,0,0,-0.2734911,0.01258673,0,0.1122656,0.0182629,0.003107806,0,0,0,-0.1230539,-0.05747254,0,-0.03287236,0,-0.1378544,0.1050472,0.08848177,-0.03571109,-0.08156303,0,0,-0.04120451,0,0,0.1834287,0,0.1842527,0.2408067,0.1642038,-0.1500706,0.152821
0,-0.02307102,0,0.04913894,0.1029057,0.224607,-0.0644883,-0.04195042,0,0,0,0.1138091,0.1049298,0,0,-0.03217645,-0.215282,0.1177438,0,0.1425091,-0.1732088,0,0,-0.3037112,0.1832345,-0.07319891,0.01911744,0,0,-0.0267474,0.2045636,0,-0.2149924,0,-0.06836355,0,0,0,-0.3698188,0,-0.1158836,0.07035477,0.3461049,0,0.0001022123,0,0,0.2672754,0,0.07257053,0.1624171,-0.1589027,-0.03391225,0.09029463,-0.1820912,0,-0.08259222,-0.1856539,-0.08933072,0,-0.01088385,0.1288954,0.1203671,0,-0.1880695,0,-0.09560462,0
0.1423486,0.1302956,0,-0.05881177,-0.07918492,0,0,0,0.209914,-0.1005853,-0.3892076,-0.1603391,-0.2081487,0.01633933,0.1944996,0,0.1445778,0.2335941,0,0.03372948,-0.2438967,0.1085559,0,0,-0.08787655,-0.2666433,0.1321656,-0.03614911,0.01439769,0,0,0,-0.231632,0,0,0.1961155,0,0.01345642,-0.09990135,0,-0.04145278,0.213703,0,0,0,0,0,-0.2250048,0,0,0.0588018,0,0,0.1137623,0.1255511,0,0,-0.07961558,0.2166146,0.1224301,0,0,0.1553153,0,0.04869857,-0.1356599,0,0
-0.02752592,0,0,0,0.04491766,0.07420185,-0.2220858,-0.1510974,-0.1269504,0,-0.09412768,0.05425798,0,0.06403422,-0.06373657,-0.2124466,0.07268421,-0.1830751,0,0.1214861,0,0.0873239,0.0007265741,-0.138198,-0.1419389,-0.008628453,-0.3259787,-0.1183712,0,-0.0838268,0,0,-0.06219842,0.01808089,0,0,0,-0.1296702,0,-0.08291836,-0.07047333,0.2103225,-0.02053948,-0.06801748,0.06025082,-0.2776976,0,0.05106133,0.1371269,0,-0.1305193,0,0.09011813,0,0.08815847,0,0,0,-0.2542181,0.2310846,-0.1960934,0,0,0.01355172,0.02812757,-0.1863337,-0.1326147,0
0,0,-0.06162962,0,0,0.3006653,0,0,-0.01935044,0.1260916,-0.1784787,0,0.02746242,0.2345864,0,0.2521644,0.1712349,0,-0.2532166,0.2054781,-0.07217811,0.1712851,0,0.1034398,0.3739556,0.1613695,0.03501473,0.2392338,0.1239793,0.2230052,0,0,-0.2940835,0.239628,0,-0.0400246,0.0654209,0,-0.05551611,0,0.09719998,-0.1085692,-0.08082418,-0.2226543,-0.08420535,0,-0.2515973,-0.01798659,0.06336067,0.07804406,-0.07759708,0,0.003808608,0.1747379,-0.2836021,0.111724,-0.2770799,-0.04886562,0,0,1.918593E-05,0.1729855,0,0,-0.1378294,0,0.1957432,0.1253948
0.03272513,-0.03987658,0,-0.0842324,0,0,-0.1263978,0,-0.1303825,0.2963879,0.1555023,0,0.1662738,0,0,0,0,0.08673719,-0.02547824,-0.2446038,0,-0.1450079,-0.1760537,-0.2721022,0.2434184,-0.3045882,0.1950871,-0.2563283,0,0.1564238,0,-0.1517984,0,0,0.2634408,0.09297071,0,0.1150975,0.1095611,0,0,0,-0.1649713,-0.02767294,0.2077458,0.2407711,0,0.1113789,0,0,0.1473637,0.1249528,0.2539842,-0.1328173,0.03172691,0,-0.03638578,0,-0.06735593,-0.03974159,-0.08964727,0.1229674,0,0.1363666,0.1781805,-0.4327472,-0.1217776,0
0.1046682,0.3286567,-0.002243657,0,0,-0.009188416,0,0,0,0,0,0,0,-0.2269665,0,-0.2038313,0.2772018,0,-0.06740575,0.04706411,0,0.159111,0.1821319,0,0.3336029,0.1258379,0,-0.03997723,-0.09830443,0.2289138,-0.132071,-0.2898433,0,0.1889576,0.2282769,-0.1811221,0,0,0,0,-0.04375501,-0.04266059,0.3129734,0.1497277,0.2794798,0,0.09360416,0.163823,0.07861623,0.1357049,0,0,0,-0.02668937,0.03320887,-0.1309719,0.05880522,0.1277488,-0.03066807,0.2861643,0.1542628,0,0,-0.1329165,0,0,0.2101283,0.1022816
0,0,-0.1892391,0,0,0,0.1801904,-0.1267404,0.03295007,0,0,0,0.2067948,-0.007096124,0.09330636,0,0,0,0.1452502,-0.02454095,0.09403552,0,0.1271936,0,0,0,0,0,0,0.2528751,0,0,0.07665333,0.2342301,0.1092238,0.06634843,0.06137844,0,-0.2002663,0,-0.05223077,0.02979206,0,-0.05158382,0,-0.1523485,0.06233895,0,0,0.3378032,0.1168862,0.1715206,-0.1356828,-0.009238089,0,0.00734057,0,0,0,-0.02080296,0,0,0.05931868,-0.1180621,0,0,0,-0.1662473
0.1651772,-0.07960554,-0.1564886,-0.05422881,-0.1558787,0,-0.07238682,0.03569192,-0.3370004,0,-0.2706665,0,-0.03705548,-0.03012936,-0.2321932,0.1293515,0,0.1708645,0,0.1291697,0,0,-0.1573057,-0.007569793,-0.02045125,0,0,0,0.2470494,-0.07588577,0.1388671,-0.1552151,-0.01901911,0.004678662,0,0,0,0,-0.07202283,0,0.1598328,-0.02903172,0.05179887,-0.186557,-0.2003203,0,0,-0.0003366919,-0.2159423,0.07223444,0.06071571,0.1812969,-0.06951632,0,0,0,0.1347042,0.05711183,-0.0827855,0,0,0.3228365,0,0,0.1575016,-0.1147972,0,0
0,-0.008222096,0,0,0,-0.09545258,0,0,0,0,-0.1271805,-0.2382285,0.1248948,0.23777,0,0,0.1855152,0.09470531,0,-0.1322371,0.02663174,-0.09904228,-0.1408827,-0.1551558,0,0,0,0,0.001154047,0,0.1862503,-0.005382339,0.2176253,-0.01843886,0.08337865,0.1337545,-0.1877707,-0.2522531,0.003146383,0,0.1449982,0.06710939,0.106289,-0.09528972,0,-0.05997632,0,-0.07244486,0,0,0,0.06785215,-0.06603032,-0.1443939,0.09901075,-0.3976598,-0.06407321,0,-0.04610191,-0.002594445,0,0.01363146,-0.130039,0,0.1104447,-0.08891798,-0.2375426,0
-0.1988028,0.1922497,0,0,0.05754035,-0.006529095,0.1045969,0,0.02313736,0.1814211,-0.1365555,-0.06760719,0.2159351,-0.07685338,0,-0.05516489,-0.2131811,0.105804,0.05411588,0.2167144,0.1354625,-0.03591809,-0.05958351,0,0.09821184,0.01477106,0,-0.08784947,-0.09776872,0,-0.05091134,0.1824701,0.1276964,0.2103456,0.001472024,0,-0.267821,-0.2616718,-0.1359985,0,0,-0.01785584,0.09250528,0.1787873,-0.0967373,-0.03416311,0,-0.1124209,0.1287157,0,0.3192743,-0.02268451,0,-0.1097476,0,0.05761473,0.1556785,0,0.09818841,0,-0.3421875,0,-0.2201835,0,-0.05063347,-0.059743,0,0
0,-0.05492328,0.0416551,0.2615975,0,-0.0102176,0.09955796,0,0,-0.1403592,0,-0.151677,0,0,0.1436855,-0.09306356,0.03446396,-0.0837805,0.04350248,0.2710744,-0.04906052,-0.01750428,0,-0.006085185,-0.1208323,-0.06892949,0,0,0.03756995,0,0,-0.07695445,0.1236897,0.07988764,0,-0.004443257,-0.1194303,0,-0.1112461,0.08828086,0.06045806,0.07221805,0.08930977,0,0.3122093,-0.1057479,0,0,0,0,0,0,0,0.1453121,0,0.142059,0,-0.06342044,-0.256462,0,0.09934342,-0.007093713,0,0.1696083,0.1756906,0.08790579,0,-0.4442756
0,-0.05532543,0,-0.2038087,0.09776674,-0.2061335,0.0003571667,0,0.1648937,0,-0.1322053,-0.08143336,0.03394525,-0.02879089,0,0,0.03987492,0,0.2148034,0.0750175,-0.1352535,0,0.2032119,0.1764186,0.06997055,-0.04164442,0,-0.224705,0.269086,-0.1882301,-0.2720616,-0.05066733,0,0,-0.001437539,0.1353406,0.03161906,0.1701542,0,0.08437646,-0.08700553,0,0.03348729,-0.29621,0.2918788,-0.1832192,0,0.08385405,0,0,0.1272842,-0.1144339,0.01480498,-0.1726569,0,-0.1544768,-0.04687515,-0.1884045,0,0,0,0,0,-0.001157371,0.1051845,-0.02622247,0.03844532,0.08319771
0,0,0,0,0,0,-0.2115036,0,0,0,0.2976938,0.2308653,0.3072664,0.1911823,0.03777482,-0.07105643,-0.1454734,0,0,0,0,0.117141,0.08189912,0,-0.2456478,0.06172957,0.3222826,0,0,-0.01272939,0,0,0,0,0,0.05977224,0.1731987,0,0.148589,-0.05148577,-0.2009125,-0.0673409,0,-0.1106826,-0.1079559,-0.03657354,0.03116385,0,0,0.0433005,-0.06714804,-0.1216872,0.2290031,0,0,0,0,0.03954744,0,0.1453228,0,0,0.04143037,-0.1158169,-0.2337232,0,-0.05381372,0
0,-0.06415854,-0.1591837,-0.1725558,-0.1278968,-0.09243347,0,0.08802561,0.05720308,0.1481514,0.35517,0.00747806,0,0,0.06946102,-0.005522462,-0.0327325,-0.04176936,0.2029491,0,0.06421895,0,0,0,0.1783127,0.1231834,0,0,0.0227928,-0.05842409,0,0,-0.004620782,-0.2215719,0.110402,-0.1211151,0,0,0,0,-0.1169174,0,-0.07162452,-0.3269029,0,0.2579382,0.04350955,0.2104601,-0.1455074,0,0.05522383,0.1098107,-0.1307226,0.08938428,-0.08867072,0,0,-0.1792679,0.2263217,0.1256401,-0.2065005,0,0,0.4283428,-0.0871886,0.0906499,0,0
0,-0.2111773,0,0,0,0.163074,0,0,0.05797205,0.01193214,0,0,0.2605192,0,0,0.1719509,0.1510385,0,-0.09773657,0,0.2215213,-0.1153551,0,0.0821524,-0.2668202,0.2325513,0,-0.1543951,0,0,0,0,0,0.161017,0,0,0,-0.212867,0,-0.006996708,0,0,0.02087514,-0.04746541,0.1147169,0.01366446,0,0,0,0.07056875,0,0.20451,-0.14256,-0.3041615,-0.2249826,-0.02747581,0.1366782,-0.004159945,0,0,0,-0.03110209,0.03190145,-0.02221858,0,0.04607978,-0.06875157,0
0,-0.1047984,-0.1335934,-0.200582,0,0.02431857,0.1098539,0,0.2307707,-0.085223,-0.1390154,0,0.2723139,0,0.04067485,0.2241462,0,0.2229042,0.1888836,0.01899964,0,0,0,0,0.1461286,0,0,0.1725588,-0.1411105,-0.1666136,0,0.1027953,-0.2251882,0.05761929,0,0.1697757,-0.03633237,0,0,0.2206461,0,-0.2701977,0,0,-0.09387501,0,0.2605014,-0.1187199,0,-0.1561798,-0.09264395,0,0,-0.03633748,0.1846219,-0.1836556,0.241936,-0.03372841,0,0,-0.1086886,0,0,0.121899,-0.1428933,-0.0123678,0,0.1197187
0.07666745,0.2106321,0.04004889,0.2589655,-0.03946301,0,-0.04121772,0,0,0,0,0,-0.09375903,0.373976,0,0,-0.08824056,0,0,0,0,0.2066622,0.1493568,-0.1296694,0.205299,-0.2547131,0.1762239,-0.1657149,0,-0.2225413,0,0,0.3251484,-0.0277414,-0.04538504,0.1378952,0.008612412,-0.262777,0.1907984,0,0.07591657,0,0,0,0,0,-0.04397402,0.1437263,0.04249001,0.007751509,0.4126186,0.06148676,0.138351,0.05198804,0,0.3450386,0,0.06512631,0,-0.3721217,0,0.05771552,0,0,-0.02207688,0,0.1749689,-0.01799415
0.3367633,0.05805489,0,0,0,-0.09121787,-0.2775268,0.2090078,-0.3157916,0,0,0.1026689,-0.09551712,0,-0.1123741,0.1025729,0,0,0,0,0,0,-0.2071613,-0.314886,0.117824,0.1313749,-0.1784207,0,0,-0.06758709,-0.2370911,0.01716038,-0.3836989,0,-0.1594991,-0.1838367,0,0.1586644,0.268993,0.2006181,0.0545927,0,0,0.2916833,0.178423,-0.0354936,-0.1339869,0,-0.2792114,0,-0.2569947,0,0,0,0,0,0,-0.08940013,0.05668679,-0.05293015,0,0.1512731,0,0,0,-0.02579409,-0.09325392,0.1802686
0.1546003,0.0961405,-0.2182523,-0.1780619,-0.3057791,0,0.1295934,0,0.08300421,-0.257418,0.2016093,0,0,-0.06933048,-0.1197858,-0.2022464,0.1861712,0,0.1002772,0,-0.09966117,0,0,0,0,0,-0.139599,-0.08282118,0,0.1241331,-0.009898251,0,-0.1026536,0.2894291,-0.2011719,-0.09075467,0,-0.1334506,0.1030355,-0.1645304,-0.2401733,0,-0.1859061,0,0,0,0.03176462,0,0,0,0,0,0.1409878,0,0.156494,0,0,0,0,0.2187013,0,-0.1115558,0.1506334,-0.1595258,0,-0.07346487,0,0
0,0,0,-0.02727966,0.1157038,0,-0.1767662,0,-0.05054634,7.136647E-05,0,-0.08165032,-0.08257558,0.05333535,0.05760695,0.03559816,-0.194332,0.1370567,-0.2034805,-0.1677872,-0.2279215,0.2842201,0.1383966,0,0,0.2340097,0,-0.01013416,9.175173E-05,-0.1727255,0,-0.1469294,0,0,-0.1294186,0,0,0.3025166,0,0,0,0,0.107724,0.02049745,0,-0.2468348,-0.08105864,-0.1476746,0,-0.1584902,0.1132585,0.2122252,-0.1247476,-0.1784224,0,0,0.2601625,0.02712836,-0.001218375,-0.008234672,0,-0.2865207,-0.1253897,-0.08652873,-0.2006276,0.2271279,0,0
0,0.06078375,0.2010467,0,0.0869223,0.09527329,-0.1536717,0.2915311,0.09054238,-0.2051075,-0.07925545,0,-0.1618827,0,-0.02665963,-0.2387452,-0.1280805,-0.3016625,-0.1418298,-0.1409014,0.1134328,0.07984601,0,0,0.09116317,0.2130281,0,0.160372,0,0,0.2025952,-0.1764379,0,0.02910152,0,0.293727,0,0,0,0.01045278,-0.03706542,0.04687833,0,-0.09381208,0.2291128,0,-0.1455654,0,-0.06227447,0,0,0,0.2204169,-0.1150398,0.1492499,0,-0.1376618,0,-0.2289402,0,0.05605429,-0.01859545,-0.02350627,-0.03488591,-0.03936641,-0.1190742,0,0.2271524
0.1560994,0.1185256,0,0,0.04569788,0,-0.07228172,-0.1464241,-0.2452072,0,0,0.158545,0,0.0881517,0.03529504,0,0.1292233,0.2199276,0.1623194,-0.008679929,0,0,0,0.1448137,0,0.2402065,0,-0.1400134,-0.08383892,0,0.3294231,0.02049976,0.1633592,0,-0.3143852,0.1705316,0.2306034,0,0,-0.1566712,0,-0.05666859,0,0,0,0,0,0.01986,0.007086338,0.01989016,0,0.2087025,-0.009956612,-0.1637179,0.221071,0,0.1669993,0.09089383,0,0,0,0,0.2338846,-0.1540721,0,0,-0.06699096,0
0.2573708,-0.01302967,0,0,0.2195709,0,0.07283654,0,-0.1459734,0,0,-0.0671804,-0.2689096,-0.1913147,-0.1588039,0.1874059,0.1799544,0,0,0,0,0.05957399,0.1044696,0.02814302,0,-0.206446,0,0,0,0,0.159982,0,0.1270558,0,0,-0.06306495,0.02631976,0,-0.2359638,0,0,-0.09378602,0.3692841,-0.1507923,-0.03979358,0.04741641,-0.2226962,-0.2481154,0,-0.01690033,0,-0.1019178,0,0.2024366,0.2614695,-0.05775795,0.2594139,0,-0.3636344,0,0,-0.2201877,0.1834506,0,0,0.1595399,0.09618393,-0.3014842
0,0.2272948,-0.1527304,0.1591936,0,0,0,-0.1746602,0,0,0.0179601,0,0.06157052,0.03218877,0,-0.06255127,0.1638731,0,0,0,-0.3531612,0.01944875,0,0.06603449,-0.1331547,0,0.04649599,-0.3957271,-0.2036781,-0.1868354,0,0,0.1018831,0,0,0.1442221,0,-0.1640286,0,0,-0.2517817,0.1348242,0.0289904,-0.387209,0,0.195515,-0.1398391,0,-0.1816399,0,0,0,0,-0.1622514,0,0.01479638,0,0,0,0,0,0.2546687,0.01186721,0.03501787,0,0,0.2132919,0
0.0228251,0.01753997,0.1599226,0,-0.1515431,0.1329417,0,0.1887956,-0.182067,0,0,0.1247006,0.0202226,-0.2000029,0,0,0,0.1758818,0,0,0,0,0,-0.1821945,0.03015614,0,-0.03857411,-0.06479154,0,0,0,0,0,-0.1250262,-0.008109486,0.1231808,-0.0006763373,0.1229709,0,0,0,0,0,0,0,0,0,-0.201765,0,0,0,0.0926187,0.0419726,0,0,0.02575248,0,0.1161088,-0.03432732,-0.1613558,0.09889165,0.1136763,0,0.2589515,0.2821212,0,0,0.2015214
-0.2026549,0,0,0.06410661,0.0752282,0,-0.1400976,0,0.1354744,-0.0748122,0,-0.1315086,-0.1713055,0,0.2989611,0,0,0,-0.1720047,-0.2209428,-0.1618641,0.1490392,0.2058331,0,0,-0.05372951,-0.03708459,-0.0300467,0.1043634,0,-0.1161854,0.0609666,0.2378916,0.2449515,-0.2312897,0,-0.1785297,-0.1867797,-0.006992012,-0.1775863,0.1433583,0,-0.02120768,-0.03146369,0,-0.1713837,0.2084481,0.1005938,-0.07362322,-0.0001347878,0,0,0,0.1030778,0,-0.2577876,-0.269546,0.1351118,-0.1425172,0.08112784,0,0.006030158,-0.317625,0.05126915,0,0.2728812,0.05163863,0
-0.07528445,0.09428494,0.09115709,-0.1875094,0,0.05658673,0.0581977,0,0,0,-0.1387062,0,-0.2281267,0.1810056,-0.07743069,-0.1960042,0.05260395,0,0,-0.01517132,0,0.09163206,-0.2331465,-0.1468418,0,0,0.235354,0,0,0,0,0,-0.1310489,0.1718154,0,-0.02294567,0,0,0,-0.1749481,0,0.01925267,-0.1207088,0,0,0,0.05918928,0,0,-0.128351,-0.06572438,0.094226,0,0,0,0,0,0,0,0,-0.05387356,0,-0.1708455,-0.17218,0.08313097,0,-0.04725741,0
0.2305452,0.1741271,0.1738984,0.2098687,0,0.004979761,0,0,0.1309474,0,-0.01404223,0,0.1519848,-0.00694315,-0.2931793,-0.08724114,0,-0.003587835,0,0.2739757,0.2233847,0,0.1862165,0,0,0.09955628,0,-0.1258426,-0.05866659,-0.1479766,0,-0.05138205,0.1633281,0,0,0.1867834,0.06801317,-0.2044455,0,0,-0.3302866,0,0,-0.02131791,0.07338652,0,0,0,0.2627031,-0.1538077,-0.01890543,0,0.06227966,-0.02321308,0.1358597,0,0,-0.08741975,-0.1127615,-0.05215304,0.1576373,0,0.1184849,0.1610609,-0.008317454,0,0,0.04859962
-0.1515001,0,0,-0.1331258,0.110709,-0.1220809,-0.1604575,0.01026847,0.1252741,0.08794397,-0.02321495,-0.1332901,-0.07265142,0,-0.2067109,0.05730779,-0.1636687,-0.1014144,0,0.05931523,-0.1470503,0,0,-0.01983713,0,0,0,0,0,0,0.2412379,0,-0.08706495,0,0.06521721,0,0.04099159,0.2055496,-0.1828582,-0.03280385,0,0,0.2416856,-0.1761713,0.03425024,-0.1861821,0,-0.08809899,0,0,0,0.2368619,0,0,-0.01397474,0,0,0,0,-0.1842011,-0.1189609,0,0,0.1604083,0.106526,0.2283745,0,0
0,-0.09510731,0,0,0,0,0,-0.2190784,0,-0.1350691,0,-0.07508933,-0.07317982,0.1764052,0,0,0,-0.3151077,0,0,0,0.1611782,0.2024044,0,0,0,0.4473038,0.09434717,0.2792003,0.0755895,0,0,0.1002475,0.1485265,0,0,0,0.203372,0,0,0,-0.1120388,0.2386918,0.1638577,-0.3434955,0,0,0,0,0.2565439,0.02842587,-0.2291039,0.1014882,-0.2499001,0.1076191,0.1312604,0,-0.004200678,0,0,0.2068713,-0.1783568,0,0,0.01221861,0.06045612,0,0
0,0,0,0.03908042,-0.0588583,-0.1432698,0.06149775,-0.2468894,-0.01013383,0,-0.1002514,0,0.03836463,0,0,0,-0.02873011,0.179012,0.1720989,0.4753082,0.1592619,0,0,0.08747911,0,0,0,0,0,-0.1482472,-0.003590778,0.2103488,0,0.1485775,0,0,0.1134375,0,-0.07512124,0,-0.008091035,-0.002327906,0.14934,0.1188742,0.002890989,-0.1965258,0,0,0,0.1440159,0.05819832,0,-0.03876673,0,0,0,0,-0.02918027,0.06359737,-0.06507616,0,0.09846438,0.1736565,-0.02275851,0.2529945,-0.04021833,0,0
0,-0.1240249,0,-0.01253337,0,0,0,-0.2407394,0.1829175,0.1635247,0.1676123,0,-0.2135088,0.1807651,0.05418701,0,0.2027182,0,0.1928769,0,0.05597435,-0.03972793,0,0,-0.3489732,0,0,0,0.2145788,0,0,-0.3377534,0.1566048,0,0.06517737,-0.1384667,0.08071578,-0.2433374,0.05384231,-0.08608478,0,0,0,0.1701681,0,0,0,0,0,0,-0.177804,0.07360466,0,0,0,0.1791869,0,0,0.1245179,0,0,0.08232526,0,-0.1041924,0.06360321,0,0,0.01559321
0,0.02309566,0,0.06864326,-0.04696657,0.0735872,0.2241219,0.01068585,0,-0.006446294,0,0,-0.1696885,0,0,0.4336758,-0.05692427,0,0,0.02819584,-0.1528005,-0.3323763,0,0,-0.1947026,0,0.1174538,0.2439275,-0.1841629,-0.273038,-0.1650949,-0.1112196,0.114226,-0.04471241,0,-0.232624,-0.2379187,0.1070573,0.2021335,0.1797423,0.124508,0.04786833,0.1878323,0.01732593,0,0.05067598,0,-0.1396895,0.08674416,0,0,0,0.056194,-0.1389566,-0.1432748,0,0.1143591,-0.1359949,0,0,0.01227537,0,0,-0.06815963,-0.144976,0,0.2996884,0.1796379
0,0,0,0,0.0160145,-0.06369635,0,0.08539274,0,0.1418647,0,0,0,0.2020468,0,0.1027456,-0.1319107,0.1846149,0,0,0,0,0,-0.0707804,0.04817876,0,-0.1083912,0,0.1672793,-0.0625087,0,-0.107593,-0.3098922,0.07839407,-0.06360413,0,0.06795021,0.2866972,-0.1015907,0.3045512,-0.07285974,0.1306508,0,0.1178396,0.05368485,0,0.3439953,0,-0.09246957,-0.3385839,0,0.03129141,-0.2258815,0.1208205,0,-0.225942,0.1965072,0.02816698,0,0,0.1496764,-0.144667,0,0,0,0.09910834,0,0
0.1762838,-0.1060969,-0.2679288,0,0,-0.1106708,0,0,0,0,0,0,0.1965953,0.04053036,-0.2556879,-0.08217908,0.1251969,0.0488885,0,0,0.1989628,0.1655213,0,0,-0.03823596,0,-0.2668192,0,0.1918966,-0.1118906,0,0.07150683,-0.1178788,0,0,0,0.03454177,0,0,0,0,0,-0.1776389,0,-0.1579732,0.1569892,0.01578131,0,-0.06719915,0.2857985,0.04774336,0,0,0,0.01672997,-0.1794016,0,0,0,0,0.07351531,0,0.02499759,0.05357673,0,0,-0.09560525,0
0,0,0.2084536,0.1609908,0,0,-0.2945593,0,0,0,-0.1529092,-0.08876106,0.1726196,0,0.02589403,0,0,0,0,0.003809484,0.08893996,0,0.2654212,-0.2643594,0.1773035,0,0,0,-0.003900923,-0.297623,0,0,0,-0.1220123,-0.04033318,-0.2106937,0,0,-0.1900544,-0.2026643,0,0.04921298,0,0,0.180562,0,0.1276401,0.09270284,0,0.1332233,0.2780621,0,0.09573215,0,0.227432,-0.1637972,0,0.1471352,0,0.243142,0,0,0,0,0,0.05955099,-0.08383488,0
---
-0.02200619,0,0.1037062,-0.2342271,0,0.1356196,0.04068027,0.1544593,-0.1900901,0.2443259,-0.04866994,0.1476737,0,0,0,0,-0.2225207,0,0,0,0.03112828,-0.008273894,0.1281105,0.03964045,0,0,-0.2054965,0,0,0,0.1883708,0.03002512,-0.2406859,0.1085005,0,0,0,0,0,0,0.2004537,0,0.1158544,0,0.3472385,0.1769712,0.07673843,0.1212699,0.1959094,0
-0.1163958,-0.1447173,0.0746064,0,0,0,0,0,0,0.047844,0.1699664,0,-0.1739735,0.1546895,-0.07080983,0.1435016,0,0.2546489,-0.02946512,-0.1601314,0.07379276,-0.1147588,0.2743429,0,-0.1442272,0.03223947,-0.2530181,-0.007978754,0,0,0,0,0.1118272,0.1493484,0,0.04598962,-0.02120114,0,0.00971896,0.3157382,0,0,0.006897383,0,0,0,0,0,-0.01652591,0
0,-0.230543,-0.09780478,-0.1597032,-0.06164122,0.08855294,0,-0.09045181,0,0,-0.1435009,0,0,0,-0.001568455,0,0,0,0,0,0,0,0.1151933,0,0.01129466,0,0,0,0,0,0.1907764,-0.0820179,0.0141836,0,0,0.1822849,0.164769,0.001105162,0,-0.08421619,0,0,0.1191286,-0.2319316,0.07321014,0,0.2170775,0.01686812,-0.175834,-0.1215135
0,0.1669017,-0.07674413,0,0,0.1936953,0,0.1294118,-0.1643329,0.06495593,0,0,0,0,-0.2301505,-0.08490722,0,-0.1708925,0,0,0,0,0.223341,0,0.01814267,0,0,0,-0.1501743,0,0,-0.2243193,0,-0.03380528,0,0,0,-0.1899151,0,0,0.0479569,0,-0.06788928,0,0.0494623,0,0,0,0,0
0,0.2946981,0,0,0,-0.2345652,0,0,0,0,0.1335755,0,-0.02429582,0.105061,0,-0.01353744,0,0.08666987,-0.2851293,0.1362773,-0.159701,0.1661168,0,0,-0.03652212,0.09671763,0.04317483,0,0,0,0.1622808,0,0,-0.02954966,-0.1435267,0.05442811,-0.2639865,0,0.2006972,0.1797255,-0.285078,0,0,-0.0322,-0.3103818,0,0.02567546,-0.03904065,-0.07764518,0
0,0.0728462,0.1201281,0,0,0,0.07906629,0,-0.1156962,-0.1708792,0,0.190909,0,-0.08219821,0,0.5274021,0.02175486,0,0.08080702,0.1798733,0,0,-0.07180511,0,0.3106918,-0.1880621,0.1332965,0.1026698,0.1398378,0,0,0,-0.1467258,0,-0.3942451,-0.2779813,-0.08874632,-0.2416806,0.1548862,-0.03248424,0.2002829,-0.06932936,-0.00379293,-0.09543577,-0.05503844,0,0,-0.04200463,0.1020999,0.1439331
0,0,0.1684654,0,-0.0015136,0,0,0.07647851,0.09070297,0,-0.07991714,0,0.04151202,0,-0.06874795,0.05569583,-0.5340859,0.1971425,-0.1766642,0.1197614,0,-0.1506943,0.2755014,0,0,0.1872786,0.01561391,0,0,0.3999012,-0.1358162,0.2616179,0,0,0.04909082,-0.0362004,-0.0007354503,-0.2321701,0.06978739,0,0,0,0,0.1992756,0.06809796,0,0.1218353,0.1186822,0,0
0,-0.3400748,0,0,0,0,-0.2077176,0,0,0.2194255,0,0.06988928,0,0,0,0,-0.1845568,-0.2250038,-0.2920764,0,-0.09037939,0,0.05461123,0,0,0.04445509,-0.2036024,-0.3474782,-0.1255811,0,0.06809308,-0.2502489,-0.08773306,0,0,0,0,0,-0.1946338,0.0997295,0,0,0,0,0,0,-0.2019095,-0.04923025,-0.01938024,-0.118558
-0.1620373,0.1334195,0.1593022,0,0,-0.0002096609,0.01511426,0,-0.1277483,0.0002381161,0,0,0,0,0.04683067,0.1744802,-0.3667894,0,-0.2491681,0.03966364,0.1315356,0,0,0.2586378,0.1391166,0.1711187,0.1761843,0,-0.2413806,0,0,0,-0.004491569,-0.1471453,0,0,0.09784053,0.1981104,-0.1859813,0.05954721,-0.09704503,0.2685657,0,0,0,-0.2577666,0.1693969,0.1992388,0,0
0.1633283,0,0,0,0,0.05165815,0,0.02814097,-0.1378321,0.03540533,0,0,0.007106059,0,-0.1340796,0,-0.1845565,0,0,0,0,0.0575463,0,-0.1731692,-0.01091697,-0.03361777,0,0.1308049,0,-0.04961298,0,0.1532285,0,0.02145065,0,0,0,0.1144309,0.06088264,-0.24562,0.1629187,0,-0.08413167,0,0.2667074,0,0,-0.08272661,0,0.07922551
-0.01836259,0.1404521,0.1950449,-0.2063319,0.157645,0,0,-0.03907822,0,0.08269997,-0.08680005,0,-0.1603535,0.1062656,0.1996915,-0.0291725,0,0,0,0,0,0,0,0,0,0,0,-0.01240703,0,-0.04177148,-0.1297368,0,0,0,0.001658471,0,0.1601502,0.004994152,-0.2928734,0.08584263,-0.2084895,0,0.1910377,0.04153143,0.07754584,-0.1567796,0.190328,-0.09803719,-0.1402491,0.1128282
0,0,0.1066347,0,0,0,-0.12609,0,0.1618633,0,0.1040599,0,0,0.03228879,0,0.2644798,0.06900287,0.09094803,0.2229758,0,0,0,0,-0.09723417,0.2346004,-0.06268599,0,0.17557,0,-0.07458226,0,0,0,0.1638921,-0.05558262,0.08530086,0,0.01492762,0,0.1045271,0.01283238,0.3360285,0.1043933,-0.1056817,0,0,-0.1133189,0.05636652,0.01071408,-0.0634992
0.1543719,0,0,0.1514384,0.2884206,0,0,0,-0.07540665,0,-0.153839,0,0,-0.1890554,0.1068032,0.2824956,0.2277803,0,0,0,0,0,0,-0.2165335,0,0.3134193,0.1521338,0,0,-0.004792957,0.05138696,0,0,-0.06140347,0.2396177,0.1407852,-0.1085131,0,0,0,-0.008278363,0,0.1259973,0,-0.02501349,0,0,0,-0.2523133,-0.05769334
-0.1032245,0.05785959,0,-0.1114878,-0.2298626,0.3298632,-0.1019538,0,0.007100041,-0.009958957,-0.08050466,0.1163848,0,0,0.07818445,0.06136127,-0.174988,0,-0.1667245,0,0.01599696,0.2344159,0,0,0,0.02386775,0,0.1034747,0,0,0.1354183,0,0.2259796,0,0,0,0.01723147,0,0.07704982,0,0,0,-0.1627374,0.1097464,-0.05400396,0,0.1456201,0,0,-0.08169606
-0.1600388,0,0.1090474,-0.2206897,0,0,0,0.1574839,0,0,0.1751576,0.1618272,0.1501517,0,0.1311992,-0.1941702,-0.1198495,0,0.2885763,-0.04365415,0,0,0,0.05094531,0,-0.1893697,0,0,0,0.2362908,0,-0.008426013,0.2114286,0,-0.06674934,0,0,0.08113141,-0.1813554,-0.1519322,0,0,-0.04408065,0,0,-0.002353831,0,0.1491185,0,0.005386624
0,-0.3045235,0.125653,0,0,0,0,0,-0.1546854,-0.1944195,0,-0.2145019,0,-0.07626022,0,0,-0.07311229,0,0.003830929,-0.08099183,-0.1625504,0,0.05108768,0,-0.03857308,0.142784,0.1786417,-0.1081369,0,0,0,0,0,-0.0005684979,0.02230075,0,0.1524499,-0.1858584,0,0,-0.1505956,0,0.1356542,-0.02823407,0,0,0,0,0,-0.2135638
0.08532547,-0.009182392,0,-0.1327747,0,0.1690104,0,0,0,0.06121007,-0.2611838,0,0,0.05388089,-0.2129247,-0.1102399,0.2088283,0.2530258,-0.2093012,0,0.1080388,0.1203409,-0.1236772,-0.150935,0.1313455,0,0.1297617,0,0,-0.2678052,-0.02266178,0.04190214,0,0,0,0.1190406,0,0,0,0,-0.1171949,0,0,0.03372357,0,0,-0.1791069,0.208988,0,0
0.05813435,0,0.2123467,0,-0.1558588,0,0,0,-0.1756338,0.0003587436,0,0.06054822,0,0.1164792,0,0.008415035,-0.1956375,0,0.1900609,0.1358757,-0.190052,0,-0.1964473,0,0,0.007549594,0.0008925586,0,-0.1321832,0,0,0.1592945,-0.001741486,-0.1048103,0,0.1877383,0,0,0,0.08675835,0,0.242001,0,0.1241965,0,0.03841111,0,0,0.1515598,0.1874877
---
===
-0.2800429,-0.1304681,-0.04824325,0,0,0.04458381,0,0.02255959,0,-0.07533393,-0.1404685,-0.01615128,0.08887751,-0.03072137,-0.1890513,0,-0.1249417,-0.1766463,-0.2853908,0,-0.3260084,0.1469935,0.1145494,-0.159894,0,-0.07390863,0.009037386,-0.3716874,-0.03490209,0.2332517,0.1827144,0,0,0.2497788,0.1266516,-0.2028384,0,0.1495539,0.1777031,0.259565,0,0.109129,-0.01879514,0.1305152,-0.07598557,0.01948392,0,0,0.01918021,0,0,0,-0.1663339,-0.1305,0.09510014,0,-0.1885577,-0.2329936,-0.1914476,0,0,0,0,-0.1485046,0,0.06482823,-0.074029,0.1348711
0,0,0,0,0.0575009,0.04786533,0,0,0,0.09967063,0,0.2126666,0.01896129,0,-0.2141519,0,0.1430281,-0.0927691,-0.09226666,-0.1125033,-0.2557662,0,-0.1023993,0.2234617,0.06921359,0,0,0.1679598,-0.2256045,0,0,0,-0.09142883,0,-0.062042,0,-0.2160237,0.01302761,0.1661423,0,0,0,0,0,-0.01974682,-0.2094549,0,0,0,0,-0.02831165,0,-0.07279543,-0.08441402,0.1848127,0,0.2681461,0,0.0808805,-0.07315453,0,-0.1363141,0.1604893,0,0,-0.1025934,0.09626911,-0.06944372
0.08811494,-0.2859316,0,-0.1086872,-0.1021787,0,0,0,0.2820613,0,0,0.2158283,-0.2246443,0,-0.2240938,-0.07091469,0.2180129,0,0,-0.2249196,0,0,-0.1248689,0.1194766,-0.008761586,-0.1113281,0.2795199,0.2457348,0,0,-0.09276386,0,0,0,0,0,0.2453033,0.1074488,0,-0.2325699,0,0,0,0.2195388,-0.2396982,0,0,0,0,0,0,-0.0853936,-0.1300128,0,0.03571667,0,-0.002525268,0.07321979,0,0,0,0.3014141,0.1584947,0.01539515,0,0.07712333,0.1719005,0.1777552
-0.02091623,0.05095722,0,0,0,-0.1810191,0,0.05622761,-0.217581,-0.08998259,0,0,-0.1513392,-0.1871613,0,0.1762165,-0.0922394,-0.2266308,0.1544617,-0.08016007,0,0.1303203,-0.208947,0,0.06320125,0,-0.009999802,0.0839645,0,0,0.02395645,-0.04561706,0.3001947,0,0,0,-0.1549948,0,0.1113719,0,0.06862311,0,0.04942165,0,-0.2345622,-0.2413583,0.2073038,0.01918153,0,0,0,0,0.0507943,-0.1713706,-0.1050776,0.1432756,0,0,0,0.1505658,0.2111743,-0.1101836,0,0,-0.001185918,-0.02842898,0,0
-0.08272105,0,-0.05109851,0.02104513,0,0,0.1220595,0.1306908,0,0.1885367,0,0,-0.03523753,0,0.08223108,0.2364727,0,0.1847024,0,0.08575825,0,0.1008346,0,0,-0.1515493,0.1447945,0,0.02338999,0,0.2619238,0,-0.1381875,0.1618947,0,0,0.08757086,0,0,0.06867871,0,0.02352101,0,0,0.1363748,0,0,-0.1448412,0,0,-0.1589989,0,0,0.1379556,0.2549039,-0.2247464,-0.01202896,-0.0747918,0,0,0,0.189947,-0.1440138,-0.300103,-0.181136,0,0.02076455,0,0
-0.1936232,0,0,-0.1053158,0,0,0,0.09727767,-0.03174146,-0.01177972,-0.06084981,-0.1028678,0.1959792,0.1633607,0.2700805,0.2529442,-0.1146781,0.1519685,-0.1028367,0,-0.06093454,-0.09576958,0,-0.1130117,0,0,0,-0.09622709,0,0.1297316,-0.04192924,0,0.1336761,0,0.2812552,0.01526006,0.03694387,-0.01144576,0.2850769,-0.192546,-0.3294759,0.05011748,-0.02872258,0,-0.1846395,0,-0.1729624,-0.06259437,0.151764,-0.1971239,0,0,0.08721691,-0.07528785,0,0,0.07332704,0.3424781,0.04576354,-0.110018,0.01726753,0.2148073,-0.181373,0.08131419,0,0,0,0
0,0,0,0,-0.1417075,0.09262507,0.3145089,0,-0.0352839,0.07873853,0.1747082,0,-0.02604463,0.06468017,0,-0.1437552,0,0,0,0,-0.02132034,0,0,-0.1308076,0,0,-0.07637576,0,-0.239394,0,-0.1387199,0,0.1588624,0,0.289123,-0.03777464,-0.2951353,0.1678213,-0.187995,-0.1111611,0,-0.1568116,0.1680669,0,0.07371791,0.01922397,-0.2833777,0,-0.08969953,0,0.1650521,0.3318857,-0.1251334,0,0,-0.1593348,-0.3452357,-0.293769,0,0,-0.1156644,0,-0.3431373,0,0.03271388,0,0,-0.05293941
-0.1527403,0,0.04830203,0,0.00206083,0,-0.3670838,-0.133834,0.1270271,0,0,-0.163471,0,0.06409322,0,-0.3057622,0.1873121,0,0,-0.1575467,0,-0.2374721,-0.004224547,0.1584696,0,0,-0.2158536,-0.01100883,0.1570337,-0.07861835,0.1579554,0,-0.1240067,0,-0.01553814,0.08383992,0.1539742,0,0,-0.06512559,0.03048158,0.08935865,0,0,0,0.2352629,-0.06000086,-0.2118849,-0.09566786,-0.1194976,-0.06903306,0.09589208,0,0,0,0,-0.07409335,-0.01250789,0.09974509,-0.009047793,0.05082608,0.08413827,0,0.03195751,-0.08829209,0.04812804,0,0
0,-0.1379978,0.101594,-0.283254,0,-0.08312444,0,-0.02229589,0,0,0,0,-0.258647,0.1869881,0.09680702,0,-0.06444981,0,0.03301995,0,0.1105775,0,0,-0.2529138,-0.2007657,0,-0.3437488,0,0,0,0,0,0.3224121,0,0,0,0.09732027,8.277196E-05,0,0,0,0.01865799,-0.142821,0,-0.1979142,-0.3166612,-0.126487,-0.1480845,-0.1483838,0,-0.2757851,0,0.1026321,-0.1849661,0,0.1846577,0,-0.3979225,-0.3545945,-0.1584109,0.1437253,-0.1292214,-0.06521769,-0.0471651,0.1732858,0.06214733,0.01781906,0
0,0,0,0,0,0.2319803,0,0,0.03936257,0,0,0,0,0,0,0.02913086,0.1258196,0.1099388,0,-0.132352,0,0.1314961,0.1209648,0,0,0,0,0.1683588,0,0.06427608,0,0.08610041,0.1941352,0,0,-0.1687491,-0.2102474,0,0.184165,0.09850542,0.01802206,0.0005415794,-0.01321944,0.08453648,0,-0.2804939,-0.1980804,0,-0.2520504,0,0.2742707,0,0,0,0.01016073,0.04369154,-0.01899052,0,0,-0.0902321,-0.3021074,0.02976957,0,0,0,0,-0.08400223,0.1120951
0,0,-0.1417806,-0.2861693,-0.2851993,-0.06275405,0,0.1147926,-0.1455438,0.1380107,0,0.2879288,-0.2523162,-0.1309443,0,-0.1312375,0,0.1350156,0.01045182,0,-0.1787934,-0.1714364,-0.0404527,0,0,0,0.2760475,0.3044035,0.1905475,0.02975139,0,-0.1094853,-0.3140314,0.03652636,0.2401475,0,0,0,0,0.03490624,-0.1709785,0,0,-0.1169232,-0.03687536,-0.1839028,0,0,-0.2302226,-0.1568991,0,0.1232018,0.09693297,0,-0.2857872,-0.02600854,0,0,0,0,0.04150632,0,0.06745361,-0.2512423,-0.1159288,0,0,0
0.1823704,-0.007323095,0,0.05916755,0,0,0.01553888,-0.09910455,0,-0.07386621,0,-0.05121171,-0.1536829,0,-0.006809678,0.2670246,0,0,0.06153386,0.2416361,0,0.2178344,-0.0008553392,0,0,-0.06194887,0.00136497,0.2512049,-0.2496149,0,0,0,-0.0549215,-0.06745467,0,0.1176991,-0.1816525,0.1224709,0,0,0,-0.124379,0,0.2738714,0,-0.2233582,-0.004354279,0.2008268,0.2490507,0.09887476,0,0,0,0,0.01439706,0.05662855,-0.1229098,-0.2213563,0,-0.2264211,-0.1990996,-0.2393664,-0.08034214,0,0,-0.2431483,-0.07076664,0.3172181
0.2683686,0,0,0,-0.2509323,0,-0.06274612,0.09581017,-0.1555865,-0.09810872,0,-0.1488763,0,0,-0.05246486,-0.1770216,0,0.155821,-0.2065235,0,-0.1742676,-0.04475181,0.08566346,0.1486812,0,0,0,-0.1017624,0,-0.06441551,-0.2849355,0,0,0.07476418,0.09283883,0,0,-0.1661711,0,-0.1357758,-0.2055534,0.1054194,0.06438291,-0.1754792,0.2611104,0.1558989,0.01425358,0,0,0,0.1357803,-0.03033898,-0.2823673,0,-0.01851927,0,0,0.1164778,0,0,0,0.1334569,0,0,0,0.001861245,0.262304,-0.3006413
0,0,0,0,0,0.00271842,0,0,0,0.4147387,-0.09225254,0.1074605,0,-0.0005569827,0.0271668,0,0,0,0.0336712,0,0,-0.2089819,0,0,0.1545257,-0.08241354,0.02235776,0,0,-0.08333721,0,0,0.2487031,0,0,0,0,-0.2500412,0.01536525,0,0.1089035,0.01912497,0.00340739,0,0,0,-0.1267136,-0.05259765,0,-0.03348229,0,-0.1500715,0.09953804,0.0921794,-0.03558079,-0.08481894,0,0,-0.04697313,0,0,0.1978472,0,0.1955246,0.2415731,0.1870004,-0.1743128,0.1746485
0,-0.02296639,0,0.05360657,0.1033637,0.2371667,-0.05722874,-0.0444648,0,0,0,0.1214651,0.1299284,0,0,-0.03136249,-0.2278288,0.1295082,0,0.1381155,-0.1569391,0,0,-0.3134522,0.1851899,-0.08372141,0.01976437,0,0,-0.02469211,0.1961769,0,-0.2481702,0,-0.06527834,0,0,0,-0.3500562,0,-0.1260141,0.0858342,0.2870024,0,0,0,0,0.2710662,0,0.06598993,0.2079534,-0.1542213,-0.03892474,0.1046108,-0.1594899,0,-0.07152541,-0.1916677,0,0,-0.01215867,0.1361217,0.1156061,0,-0.1802098,0,-0.07789207,0
0.1547539,0.1236326,0,-0.06057934,-0.08773796,0,0,0,0.2046423,-0.1151603,-0.3831168,-0.1847994,-0.1754048,0.01586829,0.2264945,0,0.1483126,0.2257282,0,0.03673781,0,0.1177249,0,0,-0.09517293,-0.3465504,0.1286442,-0.03991618,0.01541574,0,0,0,-0.2164664,0,0,0.2043215,0,0.01348204,-0.0940294,0,-0.03920875,0.2071252,0,0,0,0,0,-0.235404,0,0,0.05643376,0,0,0.09900124,0.1372432,0,0,-0.0831416,0.2208104,0.1035719,0,0,0.1644948,0,0.05221451,0,0,0
-0.02428389,0,0,0,0.04830343,0.07373915,-0.237592,-0.1457782,-0.1353328,0,-0.08920704,0.06036402,0,0.0636474,-0.06275237,-0.2291014,0.07863152,-0.1567738,0,0.1306237,0,0.07253859,0.0006980072,-0.1437852,-0.1770059,-0.00735988,-0.3148277,-0.1303203,0,-0.07306609,0,0,-0.06288715,0.02049602,0,0,0,-0.1219118,0,-0.07686771,-0.07326418,0.1985491,-0.01940293,-0.06727236,0.0625593,-0.248078,0,0.04784536,0.1328261,0,-0.1336306,0,0.1023752,0,0.1077591,0,0,0,-0.2625552,0.2491151,-0.2114866,0,0,0.01214016,0.02813812,-0.1800443,-0.1201024,0
0,0,-0.06978606,0,0,0,0,0,-0.01627892,0.1274107,-0.1848381,0,0.02678751,0.2034675,0,0.2628521,0.1516877,0,-0.2328119,0.186286,-0.07316521,0.1888327,0,0.09720347,0.3300798,0.1762465,0.03293497,0.1856003,0.1037365,0.2772146,0,0,-0.2401123,0.2152662,0,-0.03817871,0.06142378,0,-0.05935789,0,0.09563318,-0.1024721,-0.06815376,-0.2302154,-0.08870305,0,-0.2552318,-0.02116503,0.0543275,0.08229884,-0.07539991,0,0,0.2048269,-0.2782126,0.1152986,-0.2416649,-0.05122829,0,0,0,0.2090931,0,0,-0.1402391,0,0.2024613,0.1414682
0.03274043,-0.03742426,0,-0.07778852,0,0,-0.1198364,0,-0.140791,0.2685571,0.1489689,0,0.1810514,0,0,0,0,0.1018088,-0.02756037,-0.2131632,0,-0.1459482,-0.2100729,-0.2631022,0.2296821,-0.2598231,0.1754546,-0.2967614,0,0.165455,0,-0.1443,0,0,0.3118669,0.09561755,0,0.1241654,0.1340188,0,0,0,-0.1509632,-0.02973934,0.2225191,0.2252408,0,0.1151087,0,0,0.1379862,0.1412845,0.2267606,-0.1178532,0.03051554,0,-0.0403115,0,-0.07377276,-0.04309215,-0.0900749,0,0,0.1407146,0.1951365,-0.36269,-0.1032468,0
0.08613354,0.3244537,-0.002704104,0,0,-0.009015636,0,0,0,0,0,0,0,-0.2321014,0,-0.1789039,0.2949837,0,-0.06627501,0.04170807,0,0,0.1826613,0,0.337954,0.140402,0,-0.04615554,-0.0890214,0.2501843,-0.133211,-0.2457571,0,0.1845953,0.2404865,-0.1774884,0,0,0,0,-0.03753208,-0.04549179,0.3004501,0.1351904,0.2896558,0,0.08736789,0.2106125,0.07734228,0.1609811,0,0,0,-0.0290384,0.03404565,-0.1433244,0.06020289,0.1435218,-0.03068854,0.3341532,0.1823921,0,0,-0.1334256,0,0,0,0.09313573
0,0,0,0,0,0,0.1966765,-0.1309846,0.0349474,0,0,0,0.2559271,-0.007511534,0.0898159,0,0,0,0.157357,-0.02183002,0.1040854,0,0,0,0,0,0,0,0,0.2663153,0,0,0.09297912,0.258478,0.116151,0.05267159,0.05736705,0,-0.2002512,0,-0.0576045,0.02713294,0,-0.05214373,0,-0.1458402,0.06513756,0,0,0.2997613,0.1290033,0.1414904,-0.1280305,-0.01020979,0,0.006503819,0,0,0,-0.02004043,0,0,0.06728449,-0.1230529,0,0,0,0
0.1499264,-0.07418637,-0.175461,-0.06051546,-0.1568004,0,-0.07820696,0.04259982,-0.3339898,0,0,0,-0.03959987,-0.02865523,-0.1909311,0.102365,0,0.1940912,0,0.1304361,0,0,-0.1397785,-0.009120375,-0.01890177,0,0,0,0.2356613,-0.07276105,0,-0.1841339,-0.01606388,0,0,0,0,0,-0.06223651,0,0.1676238,-0.02391054,0.05857766,0,-0.2005619,0,0,-0.0003976766,-0.2664203,0.08119958,0.07411945,0.1709355,-0.08893374,0,0,0,0.133675,0.05778036,-0.08526146,0,0,0.2679689,0,0,0.1706355,-0.1209349,0,0
0,-0.009358399,0,0,0,-0.1004886,0,0,0,0,-0.1451333,-0.2535428,0.1303426,0.2305647,0,0,0.2137363,0.09267038,0,-0.1411216,0.02406772,-0.1189247,-0.1421107,-0.1591518,0,0,0,0,0.001172122,0,0.2157681,-0.005904616,0.2151582,-0.02337102,0.07278758,0.1196309,-0.1989103,-0.2068865,0.003024164,0,0.1522944,0.08083522,0.114645,-0.1031467,0,-0.06548009,0,-0.07999875,0,0,0,0.07165127,-0.07089245,-0.1418656,0.105335,-0.3689599,-0.06972557,0,0,-0.002638597,0,0.013417,-0.1251204,0,0.1078694,-0.08109939,-0.2067547,0
-0.2051894,0.2089719,0,0,0.06053186,-0.006492102,0.1211896,0,0.02506869,0.1959793,-0.1339952,0,0.198158,-0.07681262,0,-0.06215265,-0.1727915,0.09311169,0.04672066,0.2090055,0.1588034,-0.03583213,-0.05900264,0,0.09172914,0.01304039,0,-0.08355284,-0.08318608,0,-0.0528653,0.2066536,0.1235734,0.2356426,0.001629879,0,-0.2424189,-0.2757493,-0.1416567,0,0,-0.01844242,0.09175228,0.1667803,-0.09910272,-0.03488183,0,-0.1097873,0.1316676,0,0.3504366,-0.026339,0,-0.1069943,0,0.05859773,0.1497477,0,0.09710652,0,-0.3171187,0,-0.2006577,0,-0.05384291,0,0,0
0,-0.05465503,0.04168969,0.2758988,0,-0.0119787,0.09172294,0,0,-0.1335856,0,-0.1580257,0,0,0.1443968,-0.1154984,0.03371309,0,0.04545784,0.2357774,-0.05046737,-0.01794072,0,-0.005917483,-0.1225397,-0.07299735,0,0,0.0306152,0,0,-0.07312389,0.1255728,0.07310731,0,-0.004919417,-0.1090558,0,-0.1119094,0.0853561,0.06287739,0.06510812,0.1079938,0,0.2827184,-0.1363663,0,0,0,0,0,0,0,0.143209,0,0.1281982,0,-0.05874301,-0.2941009,0,0.08752138,-0.006189897,0,0.1883468,0.1608461,0.1001989,0,-0.4175299
0,-0.05731653,0,-0.1990231,0.09480864,-0.2008212,0.0004282572,0,0.1479603,0,-0.1211464,0,0.03861615,-0.02687718,0,0,0.04797305,0,0.1938609,0.0750507,-0.1585806,0,0.1945093,0.1722927,0.08555019,-0.03338938,0,-0.2084236,0.2955745,-0.2236124,-0.2888736,-0.04567852,0,0,-0.001423004,0.1430027,0,0.1877826,0,0.0945423,-0.1033322,0,0.03350816,0,0.2579073,-0.1560352,0,0.08918188,0,0,0.1375385,-0.1096202,0.01620988,-0.1565846,0,-0.1593296,-0.05032025,-0.2150506,0,0,0,0,0,-0.001178739,0.102837,-0.02912603,0.03909285,0.09147053
0,0,0,0,0,0,-0.2259025,0,0,0,0.2842418,0.1854875,0.3064233,0.2043248,0.03684112,-0.06509031,-0.160051,0,0,0,0,0.111636,0.06675453,0,-0.2476124,0.06058139,0.3047116,0,0,-0.01261818,0,0,0,0,0,0.06321578,0.2128056,0,0.1529153,0,-0.1993529,-0.06863974,0,-0.09640811,-0.1178618,-0.02864029,0.03416377,0,0,0.04271592,-0.06149891,-0.1117885,0.2393249,0,0,0,0,0,0,0.1618128,0,0,0.04012761,-0.1297466,-0.1994281,0,-0.05369073,0
0,-0.06892855,-0.1531413,-0.1851465,-0.1304875,-0.1109782,0,0.08903027,0.05789702,0.1438274,0.2962454,0.008447076,0,0,0.08308809,-0.00608311,-0.03216195,-0.04877172,0.164424,0,0.06266633,0,0,0,0.1829346,0.1300406,0,0,0.0218631,-0.05288372,0,0,-0.0047217,-0.2271767,0.1103506,-0.1176215,0,0,0,0,-0.1371136,0,-0.08210817,-0.3623418,0,0.2713337,0.03915485,0.1847342,-0.1509555,0,0.05427602,0.1274752,-0.1350997,0.09355763,-0.09562748,0,0,-0.1884397,0.2682723,0,-0.2144098,0,0,0.4167606,-0.08542418,0.1063448,0,0
0,-0.1879061,0,0,0,0.1615196,0,0,0.04735801,0.01349981,0,0,0.2651468,0,0,0.1904138,0.1211616,0,-0.09824976,0,0.232451,-0.1131793,0,0.09255281,-0.2575466,0.2328242,0,-0.137447,0,0,0,0,0,0.1643398,0,0,0,-0.2090538,0,-0.006056859,0,0,0.02220776,0,0.1072994,0.01305502,0,0,0,0,0,0.2499789,-0.1615881,-0.2907857,-0.2384455,-0.02975737,0.1446172,-0.003935097,0,0,0,-0.03152917,0.02928407,-0.02390127,0,0.04402225,-0.06297276,0
0,-0.1139626,-0.1259483,-0.21647,0,0.02558983,0.1207945,0,0.261923,-0.09379479,-0.1378046,0,0.2109226,0,0.03808128,0.2118175,0,0,0.1707374,0.01879613,0,0,0,0,0.1174611,0,0,0.1650301,-0.124529,-0.1408981,0,0.1221715,0,0.06073437,0,0.1744728,-0.03444282,0,0,0.197471,0,-0.2786308,0,0,-0.101666,0,0.2632063,-0.1071355,0,-0.1709639,-0.1043966,0,0,-0.0360835,0.1824704,-0.1833404,0.228124,-0.03187539,0,0,-0.1337798,0,0,0.1244041,-0.1287019,-0.01495969,0,0.1224528
0.07737919,0.2020597,0.04569459,0.3077725,-0.04169102,0,-0.04295332,0,0,0,0,0,-0.08552337,0.3504869,0,0,-0.09422138,0,0,0,0,0.2404114,0.1168616,-0.1307176,0.1804257,-0.2109918,0.2178861,-0.1609848,0,-0.1969164,0,0,0.29541,-0.02345587,-0.0465189,0.157276,0,-0.2757155,0.1933439,0,0.06644865,0,0,0,0,0,-0.04574964,0.1420113,0,0.008808614,0.3747573,0.06303263,0.1416699,0.0593384,0,0.3007417,0,0.06021214,0,-0.4326322,0,0.05754939,0,0,-0.02201525,0,0.1796813,-0.01787105
0.3305183,0.05613479,0,0.008545682,0,-0.07196626,-0.3331999,0.1946681,-0.241324,0,0,0.09892676,-0.1135831,0,-0.1105773,0.1029431,0,0,0,0,0,0,-0.1999132,-0.3226407,0.1021625,0.1468184,-0.2211494,0,0,-0.08165238,-0.202211,0.01477774,-0.3954327,0,-0.1832103,-0.1696482,0,0.1968155,0.2944693,0.1967672,0.05937813,0,0,0.2964144,0.2098471,-0.03601131,-0.1284691,0,-0.3001921,0,-0.2623509,0,0,0,0,0,0,0,0.07204965,-0.0516436,0,0.129832,0,0,0,-0.02464899,-0.08269889,0.1955427
0.1726518,0.1158719,-0.2071808,-0.1836244,-0.335608,0,0.1315333,0,0.07942058,-0.2388647,0.1600398,0,0,-0.07740043,-0.1069906,-0.2452714,0.1684293,0,0.1000036,0,-0.1193565,0,0,0,0,0,-0.1262347,-0.07313543,0,0,-0.00978029,0,-0.1028342,0.3097263,-0.2023737,-0.08690516,0,-0.132269,0.1055262,-0.1687153,0,0,-0.1831805,0,0,0,0.03203481,0,0,0,0,0,0.1448598,0,0.1491903,0,0,0,0,0.2094609,0,0,0.1409119,-0.1926004,0,-0.07626024,0,0
0,0,0,-0.02376593,0.1082862,0,-0.1610655,0,-0.05790221,6.182396E-05,0,-0.08623638,-0.09358482,0.05838166,0.05337331,0.03500023,-0.1704465,0.1428523,0,-0.1510697,-0.2227063,0.2586551,0.1347186,0,0,0.2627157,0,-0.01150861,8.162596E-05,-0.2087311,0,-0.1595022,0,0,-0.1249314,0,0,0.2893022,0,0,0,0,0.1086545,0.01781498,0,-0.2621676,-0.07827351,-0.1581751,0,-0.1378712,0.11052,0.2139453,-0.146162,-0.1955248,0,0,0.2483228,0.02536576,-0.001302523,-0.008855067,0,-0.2905163,-0.1356355,-0.08382069,-0.2160766,0,0,0
0,0.05967826,0.1933829,0,0.09719577,0.07529254,0,0.2836671,0.08427181,0,-0.08531234,0,-0.1709609,0,-0.02921507,-0.2474855,-0.1310593,-0.3295072,-0.1421227,-0.1284232,0.1036415,0.0708331,0,0,0.09917649,0.2302171,0,0.1578899,0,0,0.1864017,-0.1873813,0,0.02953246,0,0.2982398,0,0,0,0.009779437,-0.04329299,0.04999372,0,-0.1018154,0,0,-0.1449827,0,-0.06073303,0,0,0,0.1938987,-0.1077809,0.1511084,0,-0.1489291,0,-0.2223204,0,0.05512734,-0.01823018,-0.02155108,-0.03455165,-0.04363022,-0.1363963,0,0.2169436
0.1734959,0.1195439,0,0,0.05357952,0,-0.06810964,-0.1347219,-0.2694567,0,0,0.1536656,0,0.09120038,0.03490425,0,0.1156809,0,0.1902425,-0.007876804,0,0,0,0.1526335,0,0.2614949,0,-0.1388011,-0.0862157,0,0,0.02041337,0.1624522,0,-0.2858106,0.1984725,0.2130931,0,0,-0.147514,0,-0.06244491,0,0,0,0,0,0.01723307,0.008065579,0.02321636,0,0.1808749,-0.01080114,-0.1714672,0.2211034,0,0.1650567,0.09085198,0,0,0,-0.2205501,0.2777452,-0.1571071,0,0,-0.06814954,0
0.2650374,-0.01483431,0,0,0.2699495,0,0.07521228,0,-0.1388881,0,0,-0.065557,-0.258295,-0.1766167,-0.169267,0.1844147,0.1839763,0,0,0,0,0.05376422,0.1067734,0.03032378,0,-0.1760595,0,0,0,0,0.1636501,0,0.1267236,0,0.2348638,-0.05152987,0.02164858,0,-0.2409591,0,0,-0.0908948,0.325726,-0.1705016,-0.0502254,0.04594851,-0.2201476,-0.2682667,0,-0.01661133,0,-0.1162459,0,0.2388846,0.2738317,-0.05564319,0.2110537,0,-0.3382218,0,0.123272,0,0.1872335,0,0,0.1610816,0.09926936,-0.3102766
0,0.2154224,-0.1529565,0.1530482,0,0,0,-0.152019,0,0,0.01677416,0,0.06064075,0.02958531,0,-0.06397545,0.1324621,0,0,0,-0.3284419,0.02086589,0,0.06914643,-0.1350348,0,0.05284398,-0.3599052,0,-0.1632189,0,0,0.08529413,0,0,0.1397835,0,-0.1640237,0,0,-0.2232033,0.1166463,0.02568745,-0.3723265,0,0.2248103,-0.1183363,0,-0.1916255,0,0,0,0,-0.1720217,0,0.01467539,0,0,0,0,0,0.2509071,0.01319321,0.03145893,0,0,0.1908257,0
0.02345092,0.02100706,0.1534044,0,-0.1618053,0.1288702,0,0.1614249,-0.1608908,0,0,0.1196246,0.02256048,-0.1762909,0,0,0,0.1862914,0,0,0,0,0,-0.1715658,0.03184273,0,-0.03246267,-0.07651443,0,0,0,0,0.04340835,-0.1507448,-0.009572115,0.1363415,0,0.1178921,0,0,0,0,0,0,0,0,0,-0.2098594,0,0,0,0.1116162,0.04148969,0,0,0.02612637,0,0.1184224,-0.03528763,-0.1566252,0.1101968,0.1274697,0,0.2272296,0.2755586,0,0,0.1983813
-0.1796058,0,0,0.06831016,0.07617296,0,-0.1281691,0,0.1289073,-0.0908063,0,-0.1195949,-0.1789271,0.2584713,0.3090869,0,0,0,-0.2032901,-0.2357871,-0.1438081,0.153508,0.2342543,0,0,-0.04739241,-0.04521895,-0.03465057,0.1015405,0,-0.09229115,0.05766776,0.2296194,0.2141753,-0.2506719,0,-0.1906658,-0.1820753,-0.007652751,-0.1642312,0,0,-0.01928895,-0.0379516,-0.07670324,-0.1679215,0.1969667,0.09904243,-0.06288243,-0.0001424544,0,0,0,0.08747771,0,-0.2176342,-0.2747848,0.1403024,-0.155227,0.087391,0,0.005849821,-0.3400389,0.04763414,0,0.2575327,0.04846019,0
-0.06288908,0.09782724,0.09112054,-0.1756175,0,0.06081442,0.05683976,0,-0.2807792,0,-0.1318731,0,-0.2037503,0,-0.07864927,-0.1819282,0.05305146,0,0,-0.01332137,0,0.07117283,-0.2265172,-0.1811279,0,0,0.2254527,0,0,0,0,0,-0.1382547,0.1474698,0,-0.02729225,0,0,0,-0.1746257,0,0.02276063,-0.1106873,0,0,0,0,0,0,-0.144259,0,0.1004214,0,0,0,0,0,0,0,0,-0.05021555,0,-0.1526015,-0.169645,0.07759099,0,-0.04444054,0
0.2529221,0.199581,0.1754287,0.2145659,0,0.005286044,0,0,0.1219376,0,-0.01299946,0,0.1431154,-0.008053395,-0.2472,-0.09424371,0,-0.003526962,0,0.2855693,0.1852092,0,0.1824492,0,0,0.08504537,0,-0.140028,-0.06610253,-0.1692733,0,-0.05283821,0.1645735,0,0,0.1686085,0.06848115,-0.1757147,0,0,-0.2716649,0,0,-0.02143179,0.07786175,0,0,0,0.3108424,-0.1559889,-0.01599623,0,0.06610702,-0.02123349,0,0,0,-0.09113204,0,-0.05400057,0.1959713,0,0.1376707,0.1582886,-0.00961881,0,0,0.04846108
-0.1369311,0,0.1828848,-0.1410691,0.1119099,-0.1169376,-0.1424244,0.009337883,0.1111113,0.08122317,-0.02220071,-0.1286535,-0.06998955,0,-0.1928023,0.06062512,-0.1754779,-0.1098979,0,0.05361843,-0.1458014,0,0,-0.02110228,0,0,0,0,0,0,0,0,-0.09636748,0,0.06794109,0,0.04093754,0.1921649,-0.2169358,-0.03142169,0,0,0.2306708,-0.1886093,0.03689019,-0.1941908,0,-0.08696295,0,0,0,0.2024721,0,0,-0.01512296,0,0,0,0,-0.1961524,-0.09532029,0,0,0.1371837,0.123927,0.205891,0,0
0,-0.08394909,0,0,0,0,0,-0.211763,0,-0.1165309,0,-0.08106742,-0.07362895,0.1858972,0,0,0,-0.3164206,0,0,0,0.1911269,0.2188711,0,0,0,0.3536796,0.09130812,0.3098603,0.08810606,0,0.1989364,0.09431843,0.142868,0,0,0,0.2007465,0,0,0,-0.09178432,0.1933443,0.1761172,-0.3405877,0,0,0,0,0.2379453,0.03069849,-0.240011,0.08761671,-0.2601089,0.1183354,0.1263546,0,-0.004210712,0,0,0.2329994,-0.1815249,0,0,0.01323763,0.05937843,0,0
0,0,0,0.03564935,-0.05934501,-0.1368047,0.06693898,-0.2501167,-0.01078687,0,-0.09130589,0,0.04073039,0,0,0,-0.02940702,0.1608798,0.1417919,0.5080276,0.163916,0,0,0.0869356,0,0,0,0,0,-0.1256841,-0.003597132,0.2022385,0,0,0,0,0.1105375,0,-0.06453378,0,-0.008419613,-0.002433568,0.1175862,0.1010326,0.003422075,-0.1866007,0,0,0,0.1188343,0.05571578,0,-0.04087631,0,0,0,0,-0.03389074,0.049586,-0.07090713,0,0.09543728,0.1841572,-0.0231565,0.2861236,-0.03851128,0,0
0,-0.1378337,0,-0.01189097,0,0,0,-0.250155,0.1709315,0.181982,0.1829204,0,-0.2521187,0.1704245,0.06210401,0,0.2183186,0,0.1812638,0,0.0517658,-0.04181062,0,0,-0.3250425,0,0,0,0.2610612,0,0,0,0.1670295,0,0.06969512,-0.1423904,0.07463598,-0.2577833,0.04752433,-0.08501132,0,0,0,0.1875708,0,0,-0.1607941,0,0,0,-0.1794855,0.07378055,0,0,0,0.1764616,0,0,0.117207,0,0,0.07308897,0,-0.1020108,0.06154134,0,0,0.01655133
0,0.0255377,0,0.06897996,-0.04087604,0.06780107,0.2159314,0.009023977,0,-0.005901256,0,0,-0.1610007,0,0,0,-0.05304883,-0.201093,0,0.02714688,-0.1509555,-0.370831,0,0,-0.2006849,0,0.1081203,0.2102787,-0.1641731,-0.2422856,-0.1368453,-0.1069647,0.1269257,-0.05017014,0,-0.2356507,-0.2608311,0,0.1874609,0.1375354,0.1307967,0.04429976,0.1650894,0.01708547,0,0.05563699,0,-0.1476806,0.08494379,0,0,0,0.051622,-0.1543456,-0.117386,0,0.1251261,-0.1438678,0,0,0.01012473,0,0,-0.06027436,-0.1302719,0,0.2262675,0.1696458
0,0,0,0,0.01871032,-0.06071752,0,0.07565304,0,0.1356291,0,0,0,0.2059022,0,0.113307,-0.1210769,0.1620522,0,0,0,0,0,0,0.05147044,0,-0.114952,0,0.1649112,-0.06444466,0,-0.1175452,-0.2752612,0.07760188,-0.05923353,0,0.07167052,0.2815041,-0.09729083,0.2753662,-0.06928555,0.1367677,0,0.113842,0.05495923,0,0.4036919,0,-0.08441777,-0.3172717,0,0.03014837,-0.2123985,0,0,-0.2416684,0.188548,0.02751054,0,0,0.1222437,-0.1280184,0,0,0,0.08493409,0,0.05105651
0.1665961,-0.1104837,-0.2583911,0,0,-0.1107431,0,0,0,0,0,0,0.2230597,0.03427215,-0.2454309,-0.07820605,0.1205936,0.04357021,0,0,0.2217443,0.1882339,0,0,-0.03675669,0,-0.2467942,0,0.1654265,-0.1225626,0,0.06192606,-0.1148866,0,0,0,0.03038079,0,0,0,0,0,-0.1550223,0,-0.1469103,0.1791085,0.0148119,0,-0.0586963,0.2987324,0.05445439,0,0,0,0.01915111,-0.1462753,0,0,0,0,0.07856566,0,0.02339265,0.06433471,0,0,-0.07822642,0
0,0,0.184837,0.1543362,0,0,-0.3116802,0,0,0,-0.216408,-0.08517835,0.1490418,0,0.02589536,0,-0.2096532,0,0,0.003650344,0.09782982,0,0.2772091,-0.1829877,0.1542711,0,0,0,-0.003804414,-0.2544364,0,0,0,-0.1055956,-0.04174336,-0.2100952,0,0,-0.1975451,-0.2532592,0,0.03887836,0,0,0.1558762,0,0.1284142,0.09354479,0,0.1611382,0.28297,0,0,0,0.2055572,-0.1982026,0,0.1675136,0,0.2034577,0,0,0,0,0,0.08429006,-0.07913972,0
---
-0.02075429,0,0.07778436,-0.2246571,0,0.107821,0.0401467,0.1507864,0,0.3106897,-0.0427211,0.1701694,0,0,0,0,-0.2169656,0,0.2646432,0,0.0261429,-0.01016063,0.1171409,0.0403596,0,0,-0.2110266,0,0,0,0.1879559,0.03440346,-0.2622654,0.09801951,0,0,0,0,0,0,0.181462,0,0.09134895,0,0.4768811,0.1725506,0.07124405,0.1222334,0.2039181,0
-0.1194083,-0.1425391,0.0730091,0,0,0,0,0,0,0.0421042,0.1552247,0,-0.1374374,0.1469856,-0.06434265,0,0,0.2410635,-0.02421084,-0.139401,0.07812909,-0.09772425,0.3123628,0,-0.1600243,0.03163052,-0.2807415,0,0,0,0,0,0.09920637,0.1422163,0,0.0448993,-0.02388485,0,0.01303371,0.266375,0,0,0.006354269,0,0,0,0,0,-0.01304001,0
0,-0.2454381,-0.07583699,-0.1519283,-0.04765655,0.1051553,0,-0.09729575,0,0,-0.1574207,0,0,0,-0.001552488,0,0,0,0,0,0,0,0.09482694,0,0.01136492,0,0,0,0,0,0.1922569,-0.0802388,0.01308594,0,0,0.1871609,0.1960467,0.0009987205,0,-0.08786806,0,0,0.1146517,-0.1841706,0.06876134,0,0.236362,0.01986305,-0.183429,-0.1249284
0,0.1771284,-0.07529896,0,0,0.1712611,0,0.1441519,-0.1493262,0.06569551,0,0,0,0,-0.189569,-0.08266518,0,-0.1408642,0,0,0,-0.2225899,0.2255161,0,0.01817015,0,0,0,-0.1575736,0,0,-0.2452055,0,-0.03505154,0,0,0,-0.1925809,0,0,0.04521478,0,-0.05206442,0,0.04698865,0,0,0,0,0
0,0.2679343,0,0,0,-0.2614674,0,0,0,0,0.1535902,0,-0.02037721,0.08145417,0,-0.01485075,0,0.07998504,-0.2901737,0.1184443,-0.2036877,0.1522985,0,0,-0.03344612,0.09296554,0.04225183,0,0,0,0.1454139,0,0,-0.03280564,-0.1581258,0.04465318,-0.2236624,0,0.1836901,0.1818584,0,0,0,-0.03357122,-0.2556919,0,0.02175366,-0.03530163,-0.0579192,0
0,0.07370237,0.1369637,0,0,0,0.09736341,0,-0.1189948,-0.1676503,0,0.1860969,0,-0.07867071,0,0.4411477,0,0,0.1005278,0.1900579,0,0,-0.06875577,0,0.2906299,-0.2271588,0.1209414,0.08063504,0.1357771,0,0,0,-0.1427197,0,-0.3807017,-0.2371721,-0.07287829,-0.2361306,0.1675773,-0.0350577,0.2146414,-0.0543608,0,-0.08815062,-0.05438615,0,0,-0.03520194,0.1010801,0.1093956
0,0,0.1727116,0,-0.001984784,-0.009590018,0,0.06934072,0,0,-0.07714705,0,0.03743437,0,-0.0703199,0.05357033,-0.5650179,0.2099765,-0.1771218,0.1508143,0,-0.1828467,0.2100037,0,0,0.1867771,0.01466684,0,0,0,-0.209152,0.3651635,0,0,0.05744644,-0.03334867,0,-0.2475026,0.05682445,0,0,0,0,0.1809233,0,0,0.08867476,0.1466157,0,0
0,-0.2618197,0,0,0,0,-0.2558034,0,0,0.2350544,0,0.06419181,0,0,0,0,-0.1743759,-0.2600182,-0.2123066,0,-0.1214787,0,0.05087493,0,0,0.05413471,-0.2197018,-0.3369483,-0.1260079,0,0.07080091,-0.2141881,-0.1044355,0,0,0,0,0,-0.251265,0.1306475,0,0,0,0,0,0,-0.1819047,-0.04177059,-0.02532228,-0.1051101
-0.1161609,0.1387808,0.1312032,0,0,-0.0001925133,0.01845234,0,-0.11212,0.0003103098,0,0,0,0,0.04227519,0,-0.3641132,0,-0.2731505,0.04327657,0.1562653,0,0,0.1697063,0.1609037,0.1763582,0.1591987,0,-0.2178776,0,0,0,-0.004314299,-0.1764699,0,0,0.0938279,0.1596496,-0.1414937,0.07126816,-0.1473803,0.2232877,0,0,0,-0.2326113,0.1846271,0.2360244,0,0
0,0,0,0,0,0.0481003,0,0.02429586,-0.1328881,0.03785102,0,0,0.007275234,0,-0.1292584,0,-0.2415527,0,0,0,0,0.06758751,0,-0.1630066,-0.01121864,-0.03755984,0,0.1289467,0,-0.04198753,0,0.1202132,0,0.02101633,0,0,0,0.1462826,0.0537111,-0.1989731,0.1634504,0,-0.07933823,0,0.2805829,0,0,-0.06302985,0,0.07013764
-0.02053596,0.1111497,0.2629676,-0.1842322,0.1385067,0,0,-0.04440656,0,0.09594659,-0.1191934,0,-0.1910118,0.08873949,0.2144397,-0.02488621,0,-0.08387741,0,0,0,0,0,0,0,0,0,-0.01581141,0,-0.04424005,-0.1495963,0,0,0,0.001939317,0,0.1665271,0.00391875,-0.2519073,0.09333751,-0.2372307,0,0.1901188,0.04524747,0.07305551,-0.1507911,0.1957402,-0.09205236,-0.1301831,0.1084403
0,0,0.1279053,0,0,0,-0.1041181,0,0.1876509,0,0.0912001,0,0,0.03145824,0,0.2637601,0.07765294,0.08385861,0.2200443,0,0,0,0,-0.1221519,0.2080768,-0.0489657,-0.3544821,0.1567396,0,-0.07264855,0,0,0,0.2019929,-0.05035775,0.09007478,0,0.01314974,0.144385,0.08411854,0,0.3070202,0.09135168,-0.1010597,0,0,-0.16241,0.04099325,0.01002445,-0.07602768
0.1436339,0,0,0.143988,0.25776,0,0,0,-0.06814797,0,-0.118088,0,0,-0.1942657,0.1240781,0.3010945,0.2012825,0,0,0,0,0,0,-0.1830966,0,0.3623008,0.1627365,0,0,-0.004916649,0.04093592,0,0,-0.06795021,0.2185244,0.1451943,-0.1211286,0,0,0,-0.009028037,0,0.1059595,0,-0.02099027,0,0,0,0,-0.06372222
-0.08687474,0.05281194,0,-0.1024268,-0.2024609,0.3247312,-0.09161443,0,0.005643606,-0.01095966,-0.05290397,0.1060679,0,0,0.08406278,0.05995236,-0.1395018,0,-0.1809645,0,0.01619202,0,0,0,0,0.02715212,0,0.09687009,0,0,0.119503,0,0.1859706,0,0,0,0.02434701,0,0.07368048,0,0,0,-0.1783082,0,-0.06782188,0,0.1365355,0,0,-0.06062257
-0.1855204,0,0.1019688,-0.2198368,0,0,0,0.1287364,0,0,0.1936004,0.1736656,0.1325049,0,0.09582183,-0.1838739,-0.126433,0,0.2780476,-0.03977792,0.02790226,0,0,0.05191293,0,-0.2083916,0,0,0,0,0,-0.007387328,0.200866,0,-0.05871078,0,0,0.08827477,-0.1538101,-0.191403,0,0,-0.03537903,0,0,-0.002547339,0,0.2029727,0,0.005938712
0,-0.2443171,0.1242842,0,0,0,0,0,-0.1759314,-0.1938681,0,-0.2331591,0,0,0,0,-0.07224129,0,0.003723423,-0.08851517,-0.1331981,0,0.04411193,0,-0.03295309,0,0.165471,-0.09087417,0,0,0,0,0,-0.000617163,0.01974515,0,0.1174501,-0.2061761,0,0,-0.155559,0,0.1289395,-0.02557599,0,0,0,0,0,-0.2303721
0.1125226,-0.009099976,0,-0.1283138,-0.2075626,0.1616843,0,0,0,0.06561173,-0.2585809,0,0,0.04639296,-0.2208137,-0.08513033,0.2280621,0.2307587,-0.2476427,0,0.09513785,0.1145943,-0.1199106,-0.1227966,0.136548,0,0.1225811,0,0,-0.2869442,-0.02811154,0.04644351,0,0,0,0.1006749,0,0,0,0,-0.08712853,0,0,0.03192985,0,0,-0.1767756,0.1876585,0,0
0.04964513,0,0.1958068,0,-0.1279441,0,0,0,0,0.0004148759,0,0.07804888,0,0.1164197,0,0.007493681,0,0,0.2254515,0.1266338,-0.2045321,0,-0.1934133,0,0,0.008321078,0,0,-0.1497641,0,0,0.1473101,-0.002040196,-0.1115157,0,0.1607943,0,0,0,0.07954319,0,0.2430603,0,0.1010183,0,0.0374603,0,0,0.13265,0.2318719
---
===
