-0.03457443,0.1409754,-0.5882487,-0.6805144,0.1816583,-0.2029599,-0.0744793,0.3762819,-0.3179629,0.3290377,0.1397424,0.02542293,-0.1714087,0.3831298,-0.09485865,-0.2126395,-0.3178844,0.01097441,-0.2086701,0.2978797,0.1803619,-0.1067973,-0.2556763,0.1635671,0.3479823,-0.5270998,0.379654,0.3825379,0.05902378,-0.3508925,0.08551916,-0.3228658,-0.3388073,0.05455679,-0.5720381,-0.4662784,0.09372022,-0.3284717,0.4752368,0.3911748,0.1781299,0.2041596,0.1049099,0.02699496,0.05363504,0.1753755,0.09873493,-0.2768683,-0.08618715,-0.08372323,-0.14342,-0.2889954,0.3961881,0.4367392,0.5827911,0.2400576,-0.0001809554,0.3908134,-0.3884354,-0.03212374,0.01297887,-0.5372689,0.3391066,0.2941256,-0.1278054,-0.002116119,0.2395035,0.3334614
0.4512565,0.2042914,-0.3542648,0.4632059,0.5358884,-0.009570298,0.1655503,-0.7754595,-0.605764,0.1894209,-0.1028268,-0.1704612,-0.4227335,0.261902,-0.3255696,-0.046621,-0.1191403,0.2259928,0.5374227,0.7517361,0.159757,-0.2106037,-0.1314757,-0.515586,-0.3278143,0.04143934,0.2914538,-0.2271364,-0.3454941,0.214663,0.3657743,0.2891024,-0.2806404,-0.2052639,0.4736102,-0.5725731,-0.5666724,0.3628572,-0.4661084,0.4211105,-0.05735282,0.3024515,0.381522,-0.3140538,0.08531749,0.08896946,0.2566867,0.2447401,-0.6391677,0.2013023,-0.1012831,-0.04555124,-0.0006467465,-0.1927488,0.3817033,0.6156117,-0.455105,0.1352862,-0.1003206,0.5808252,-0.3467617,-0.3043948,-0.1992436,-0.2070827,-0.321566,0.3113407,0.2655939,-0.2909411
0.2003557,0.323615,-0.09414626,-0.2478402,-0.4993145,-0.06668497,-0.07999679,0.5519268,-0.6612284,0.551165,-0.4037606,-0.05451227,0.3115011,-0.638401,0.4461958,-0.4036933,0.3525337,-0.427955,0.1536586,-0.1247639,-0.3617996,0.4807352,0.1032179,-0.04206509,0.4447924,-0.6662104,0.3905027,-0.2382455,0.4167877,-0.1277066,0.2251885,-0.5650951,-0.2540732,-0.4216115,0.391228,0.1045077,0.4659084,0.4358796,-0.1292735,-0.313482,0.1277247,-0.2887285,0.5597904,-0.1063165,0.2761225,-0.178619,-0.425629,-0.4631098,-0.02848068,0.3177827,0.03682887,0.2731375,0.1085496,-0.007558236,0.3912152,0.3885539,0.4092225,-0.04721976,-0.5986142,0.7860762,-0.2219026,0.4708557,-0.1339265,0.6716788,0.4903721,0.1975234,0.3989356,-0.2241903
0.03761644,-0.2500021,0.107727,-0.3732683,-0.5911637,-0.1698902,-0.02694481,0.1770104,-0.2076155,-0.2949139,-0.1662378,0.3860635,0.3904288,-0.3133633,-0.06463546,0.3210904,0.03975631,-0.4136149,-0.608108,-0.2419955,-0.1953858,-0.256234,-0.06380986,0.1301988,0.3567275,-0.5448524,0.2724939,-0.2524774,0.0430952,0.08003633,-0.3791412,-0.2572397,0.296026,-0.1776248,0.008860153,-0.5221695,-0.3103382,-0.2199886,-0.1454061,0.4402798,0.4893155,-0.3717768,0.528272,-0.4395404,0.2884955,-0.09290736,0.2882729,0.3759873,-0.1205825,-0.2716382,0.213773,0.1742241,0.6685703,0.1777021,-0.2670266,-0.03413386,0.5422856,-0.4549984,0.03734172,0.3380717,-0.5061759,-0.3270978,0.09888226,0.3502439,-0.2542789,-0.433138,-0.50938,0.2362789
-0.458619,-0.327556,0.2658966,0.1768157,0.5378575,-0.3804769,0.268034,0.06447873,-0.4511437,0.1193998,-0.03483834,0.07417414,-0.1951684,-0.3051669,-0.05350684,-0.06287713,0.2699069,-0.2403142,0.2674676,-0.3563351,0.1589321,-0.3844074,0.4072303,-0.4437278,-0.1525011,-0.1981688,0.1510728,0.4327922,0.08039677,-0.1127921,-0.2256818,-0.2516283,-0.08832832,0.2519909,-0.03895293,0.1012839,-0.4600713,-0.1812345,-0.2223096,-0.3494886,0.3927344,-0.4408163,0.420867,-0.4831787,-0.5023175,-0.05691358,0.04975541,0.07363157,-0.500816,0.03372828,0.09900241,-0.03898546,0.07950413,-0.2433402,-0.0209507,0.4779006,0.3863576,0.3292857,0.4793031,0.07588191,0.4497556,0.290242,0.1395442,-0.1234441,-0.08944561,-0.1611209,-0.2210136,0.2069222
0.0224705,-0.5169124,0.08041967,-0.2473577,0.3605807,0.1024628,-0.0813589,0.1537884,-0.02417724,-0.4560574,0.2964225,0.02479221,-0.06192159,-0.4610002,-0.1461011,-0.2624639,0.12186,-0.5617512,-0.5286945,-0.112558,-0.2575051,0.1757809,0.03388815,-0.1422669,0.08707096,0.4496702,-0.4470534,0.07845764,-0.6500484,-0.3341157,0.3477068,0.5781142,-0.4902361,-0.1302209,-0.4294668,-0.2286486,0.1080088,-0.2541309,0.3531949,0.425588,0.2782402,-0.2881649,0.5588039,0.4111855,-0.3250244,0.4487403,0.4086255,-0.2782011,-0.1452063,0.7680191,0.2408744,-0.189862,0.3045493,-0.3459199,-0.333609,-0.4322388,0.4063658,0.06980533,-0.1944126,-0.321688,0.2268646,0.2816071,-0.1678265,-0.4769644,-0.5534233,-0.08355366,-0.7099308,-0.3400136
-0.4621074,-0.09702098,0.1869538,-0.5385875,0.04741124,-0.1580355,-0.4076201,0.257077,-0.3120551,-0.3154689,0.2172477,0.4833196,0.4072596,-0.511162,-0.05712105,0.161099,0.2779671,0.04858902,0.08106371,-0.3099537,-0.2025591,-0.3880019,0.3924755,0.1208262,0.03755872,-0.4509871,0.2106976,-0.06621625,-0.2454005,-0.3157548,-0.2456642,0.1691041,0.1936301,-0.09952711,-0.3417292,0.4463416,-0.279185,-0.1005411,-0.3739767,0.1813883,0.2629676,0.1719653,-0.4004278,-0.3054201,0.2049646,0.01886208,-0.3762865,-0.0190134,-0.03003511,0.4142726,0.3533723,0.3380619,-0.06665771,0.3494641,0.05860591,0.531804,0.08893963,-0.2602645,0.09453849,0.09756631,-0.3189394,0.5285871,0.2131296,-0.01242277,0.4247209,0.06866051,0.07242427,0.1935815
-0.3520121,0.2726662,-0.5342743,0.3572036,0.07364958,0.4807497,0.07659464,-0.06395698,0.4178983,0.1570187,-0.04709658,-0.4214375,-0.002419101,-0.4211461,-0.8306267,0.05828352,-0.3823659,-0.1771695,-0.2527834,-0.1177231,0.1618955,0.0107721,0.01570615,0.2552946,-0.2966824,-0.1874035,0.3574578,-0.04358427,0.03482258,0.1809358,-0.03321655,0.3242016,-0.5161171,-0.2191488,0.4442323,0.5656114,-0.2740616,-0.1080979,0.6718665,0.02411478,-0.03568674,0.2211335,0.2229176,-0.02735529,-0.0757104,0.2662332,0.01670051,0.4682372,0.3746218,-0.2132503,0.4899229,-0.3577964,0.12272,-0.1010788,0.3818735,0.01659808,0.4692533,-0.2273513,0.2721979,-0.3741218,0.0589678,0.414634,-0.3369671,-0.1031337,0.3275711,-0.343386,-0.1345266,0.2979402
-0.3267488,0.02162337,-0.07850363,0.3487434,0.4890078,0.3243181,0.3610294,-0.5405939,-0.1576427,-0.30568,0.4550348,0.02783989,-0.3709652,-0.4861773,0.5969926,0.1818107,-0.3770984,0.4234718,-0.499308,-0.4555624,-0.001507699,-0.7269119,0.2552852,0.2908962,-0.1909879,-0.08057296,0.2092746,-0.4112963,0.5857489,-0.2955039,-0.2269951,-0.0698878,-0.6428667,-0.3863026,-0.1066481,0.2345506,-0.05808835,-0.2282658,0.1441036,0.5175985,-0.1764145,-0.0163826,0.1153573,-0.1315335,0.3412445,-0.2699069,-0.02024697,-0.373095,0.1213867,0.03719693,0.3116381,-0.2102087,-0.2624197,-0.2008044,0.03539214,0.009465939,0.148546,0.2484842,-0.294345,-0.1436067,-0.1300717,-0.6284698,-0.4380179,-0.3597157,0.5844161,-0.4633327,0.3794101,0.3560013
-0.07231449,0.3985924,0.3752139,-0.7109731,-0.08839869,-0.2624826,0.2558102,0.4243379,0.5504476,0.09565019,0.06088281,-0.1425951,0.2015672,-0.2501997,0.07092648,-0.02634269,0.3841823,0.2479993,0.5289629,0.125934,-0.3421995,0.2583722,0.544562,0.1863617,0.03296551,-0.3978981,-0.0009229127,-0.2092312,0.08925714,-0.001778063,0.3078558,-0.5679262,0.07515328,-0.4450192,0.4923135,-0.2931873,-0.3920797,-0.2231891,0.2557253,-0.3932531,0.02568854,-0.2323269,0.09706555,0.05639406,0.392159,-0.2566826,0.3191721,0.8409958,-0.2365358,0.3152708,0.6062391,-0.1716803,-0.3086584,0.2565213,0.3739259,0.01190339,0.3505691,0.006873999,0.4502981,0.2498915,0.1300278,0.5095358,0.1641489,0.4380153,-0.5327059,-0.05621602,-0.1585631,-0.04002136
0.0899772,0.480508,0.4035891,0.4044167,-0.2013187,-0.4047796,0.670344,-0.5985423,-0.213048,-0.1853596,0.07050682,-0.1666618,0.1208875,-0.2224139,0.3917367,-0.02476432,-0.310617,0.07523254,-0.4742729,0.02912366,0.4968022,0.4114836,0.3069052,0.3369099,0.02727983,-0.04803557,0.324386,-0.1156998,0.06591421,0.08343533,0.1769592,-0.2884222,0.2143651,0.2013166,-0.3761214,0.4819117,-0.4105358,0.157252,0.3944939,0.2521198,0.1895037,0.4044686,-0.4508665,0.6734574,0.233225,-0.07282311,0.3457586,-0.4389038,-0.2002076,-0.05907521,-0.5054798,-0.1238658,-0.455901,0.1842046,-0.5634974,-0.04349342,0.3991285,-0.359647,-0.4681301,-0.2770198,-0.3222133,-0.05214342,0.1337363,0.6539091,0.3754687,-0.02765919,0.006198943,-0.2137828
-0.470194,0.1469334,0.1641268,0.2410695,-0.3323376,0.2273189,0.2265069,-0.3702934,-0.5746087,0.01043899,0.3826276,0.7856801,-0.3775797,0.4480334,0.4470502,0.229398,-0.4309384,-0.1844466,0.263848,-0.3219982,-0.3808683,-0.02993227,-0.06456984,0.01054996,0.2469727,-0.1139753,0.09037452,0.3892789,0.2058757,0.337819,0.1615687,-0.007934598,-0.1642187,-0.3500756,-0.3877888,0.4999303,0.1936548,0.4447846,-0.02379354,-0.08450741,-0.2944828,0.0904511,0.2178986,-0.2257711,0.06955153,-0.4747394,0.08777872,0.01589283,-0.02520374,0.2595031,0.06968397,0.3142542,-0.09619736,0.2675042,0.4203907,-0.340871,-0.4860238,0.1888395,-0.2501325,0.03895383,-0.3179049,-0.1751524,0.4088451,-0.3599001,-0.005456828,-0.2798352,0.07579262,0.01183747
0.4897926,0.09866736,0.1362944,0.397167,0.4812266,0.04442515,0.2730188,-0.2030236,-0.1835972,0.1360018,0.1373897,0.05339301,0.01090703,-0.3212358,-0.02153047,-0.07553084,-0.277987,0.5515594,-0.2238135,0.3260477,0.278459,0.40216,0.02273101,0.1113882,0.01056002,-0.5861367,-0.01124532,-0.07808974,-0.1757719,-0.2489365,-0.1558844,0.03915501,-0.0545003,-0.286228,-0.1875887,-0.02733493,0.2014913,0.3020274,0.1623261,-0.1372567,-0.1274648,0.1683843,0.132628,-0.05323278,-0.2239733,-0.5004349,0.49717,0.08148792,0.0262954,0.3695723,0.3951519,0.4783835,-0.2513116,0.4695604,0.1705304,-0.04858245,0.04240074,0.109904,-0.04944443,-0.1147925,-0.04032509,0.1008817,0.6668671,-0.1726672,0.2501598,-0.06859718,0.1681893,-0.4119748
-0.2444498,-0.04001567,0.8550414,-0.6589207,0.2064628,-0.2272265,0.2379207,-0.4870167,-0.1060944,-0.09307939,-0.1609137,-0.05548535,-0.1985527,-0.03860325,0.3004721,0.4920616,0.1801122,-0.4663571,-0.1168764,-0.3533037,0.3426644,-0.3796778,-0.6934552,0.1269026,-0.04061924,-0.06142107,0.1366387,-0.1763109,0.2347812,-0.3142145,0.2194615,-0.1517701,-0.1871304,0.1049464,0.1252982,-0.171707,0.4563776,-0.3237117,0.06187059,0.5888804,-0.1032634,0.3210564,0.4017101,0.5278204,0.3671815,0.3363487,0.03555692,-0.1366859,-0.4040653,-0.03169636,-0.05965606,-0.3873551,0.1242591,-0.1426987,0.01770403,0.5984228,-0.5416977,0.2848212,-0.02411809,-0.3510733,0.4604154,0.4165629,-0.009966047,-0.04903394,-0.2163742,0.2553608,-0.3120713,-0.06685847
0.4248787,-0.2052769,0.301668,-0.2811625,-0.3578045,-0.4164294,0.3208122,-0.244534,0.3228326,0.304696,0.1783532,-0.004287648,-0.01367088,0.2826934,0.3216585,0.1126069,-0.1171759,0.2073702,0.4182933,-0.4079312,0.02018813,0.5681641,-0.3698519,0.1722284,-0.3669239,-0.1713758,0.1844622,-0.38085,-0.346932,0.080068,-0.06928425,-0.05982571,0.298781,0.01165665,-0.3314547,-0.3991654,0.1845937,0.1821857,0.1458215,0.1104465,0.2638911,0.285458,-0.1594452,-0.1423724,-0.3967527,0.3063091,-0.3961993,0.1711037,0.2975045,-0.3690728,-0.04619677,0.4060675,0.3500262,-0.3050555,-0.4529442,0.196033,-0.009940369,-0.4781403,-0.07819032,-0.4473828,-0.5502217,0.3857928,0.1682787,0.3560759,-0.08752076,-0.3305583,0.1895991,0.2549279
0.3302994,0.6131776,0.5100366,-0.4412628,-0.06613949,0.5807366,0.3648458,-0.01235845,0.414518,-0.1239287,0.15717,0.5771383,0.602592,0.1983278,0.3145835,-0.3633524,0.6759909,-0.311932,-0.4076709,0.06892228,0.1417763,-0.441402,0.3801548,-0.6113347,0.5698274,0.4132563,-0.4404689,0.3027087,-0.4528822,0.004386973,-0.2876888,0.1417851,-0.4854195,-0.1096902,-0.3997131,-0.2897578,-0.4116818,0.00878892,-0.4851791,0.1441835,0.4554576,0.1702658,0.2459137,-0.4370532,-0.227362,0.4857639,-0.4354164,-0.004524205,-0.2203904,0.1572392,0.3371689,0.16682,-0.0935321,-0.3541169,0.01377654,0.08887183,-0.2443733,-0.07121249,-0.5052027,0.4313149,-0.3718856,0.2753628,0.4080634,0.04059411,0.2447621,0.4216809,-0.7030767,-0.1789926
-0.2994658,0.1848154,-0.1630257,-0.4309362,0.4202489,0.009879595,-0.2495096,-0.01765618,0.1760085,0.1684227,-0.2998553,-0.3178405,0.05917103,-0.1114422,-0.4852846,0.4209304,-0.004656838,-0.2655727,0.3880177,0.4749538,-0.3100135,-0.07205094,0.2201939,0.006277926,-0.2037038,-0.3665088,0.1605298,-0.5324772,0.2732984,-0.2916946,-0.2402532,0.3482811,-0.3809665,0.1470265,0.2281814,-0.3364854,0.324133,-0.1447704,0.006526195,-0.5273061,-0.216921,-0.1261486,0.01369607,0.5694791,0.4312095,0.08207766,0.1866091,-0.05550213,0.05351986,0.4034197,0.1627893,0.3820133,-0.2257326,0.1321058,-0.01639703,0.225633,0.4519101,0.2234295,0.6310501,-0.163852,0.09479015,0.33149,-0.3183338,0.09781027,-0.1481073,0.6412708,-0.8185856,-0.2159901
0.6570072,0.2267379,-0.5963235,-0.575862,-0.1402223,0.3910869,0.02326916,0.198704,-0.05513735,-0.06024553,0.202883,-0.1337205,0.01437092,0.3323646,0.1013011,-0.3323317,-0.3278126,0.130459,0.314849,-0.1491633,-0.3575281,0.02677474,-0.2030767,-0.2746192,0.08699105,0.1077456,0.06052075,-0.05029809,-0.7806498,0.003305029,-0.3670843,0.1311432,0.1940974,0.05283878,-0.1185751,-0.2894189,0.7042785,0.4483096,-0.2613041,0.09900611,0.2333279,-0.4350233,0.4440551,-0.2649489,0.261485,0.4777048,0.265016,-0.2555247,-0.2291457,0.3873457,-0.007653334,0.06955027,-0.395686,-0.4786915,0.382555,-0.1228414,0.1858881,-0.4605244,-0.2415607,0.3342713,-0.05379236,0.4826367,-0.03014764,0.09090585,-0.4782668,-0.3601214,0.3316863,0.2652938
-0.1363226,-0.1002807,0.2649411,0.4248443,-0.04023109,-0.1868006,-0.287439,-0.2054584,-0.4136491,-0.6110909,0.2602309,0.3107557,0.4049895,-0.007642371,0.1105678,0.3835854,-0.1108189,-0.4478978,0.101086,-0.4577163,-0.220777,0.3273999,0.09650924,-0.1976987,-0.06931792,0.4225153,0.7894764,-0.002685925,0.4842113,0.2701372,0.4261174,0.6370034,0.5206442,-0.2574536,-0.5095135,0.4125043,-0.2071202,-0.05115024,-0.07706755,-0.06461986,-0.01426228,0.3256052,-0.2728415,-0.1713361,-0.2341429,-0.0129922,0.4750032,-0.3145893,0.06847271,-0.04333859,0.3942371,0.1360723,0.07888588,0.1926501,-0.2877132,-0.2922991,-0.3743358,-0.1703525,-0.400445,-0.6993383,-0.3641747,-0.1770207,0.4992318,0.4593414,0.2411695,-0.03583546,-0.4636102,0.4294537
0.1964521,-0.3273458,-0.04232373,-0.2052835,-0.4175163,-0.8276243,0.4360936,0.1726741,-0.3060938,-0.02878788,0.5328225,-0.4121304,0.1013287,-0.02837091,-0.5358313,0.08537953,0.09634165,0.208673,0.08329348,-0.3250716,-0.3776144,-0.01324904,0.1196689,0.5843813,-0.2368163,-0.1880609,0.2108203,-0.2887969,0.5270028,0.2847243,0.3998424,0.628888,-0.005373708,-0.07092833,0.2243406,-0.1905154,0.5385766,0.3698894,0.5432457,0.07043748,-0.1768506,-0.1915548,0.07216121,-0.2402428,-0.4292063,0.0936434,0.4016351,-0.5304921,0.3116013,-0.2561323,-0.09335317,0.3616188,-0.212471,-0.1219778,0.2757167,0.1098188,0.2313145,-0.3442768,0.03890933,0.166651,-0.2725429,0.06214526,0.2882404,0.3289729,0.2698551,0.244335,-0.5958443,0.1990755
-0.6774771,0.2625907,-0.3111662,-0.3268781,0.3015464,-0.3148863,-0.01674718,0.568468,0.2786458,0.4016242,-0.5686235,0.3714688,0.1866347,-0.4000053,0.491366,0.5215384,0.140057,-0.2695499,-0.1188684,0.5214724,0.1311068,-0.1876786,0.01158933,-0.04486771,0.02858291,-0.1145055,0.3228533,0.1199981,-0.09019678,0.1722091,-0.2387488,0.2161065,-0.09665439,-0.09265773,0.2416673,0.5656238,0.4620751,0.1495381,-0.05598414,0.3539771,0.1176918,0.1283818,0.2100447,0.2555273,-0.01344439,-0.2631482,-0.01580978,-0.1803294,0.4457874,-0.3844372,-0.2402398,0.4862228,0.2065344,0.01721486,0.1059959,0.4065585,-0.1285877,-0.1098955,-0.4366553,0.341544,-0.1561843,-0.1671004,-0.188955,0.03937957,-0.4608117,-0.5397647,0.2116969,0.2432334
0.1369798,0.05474203,0.02460348,0.2206216,-0.2000873,-0.04326062,-0.1147499,-0.4457605,-0.3958426,0.5338936,-0.1308414,0.5165162,0.5212371,-0.1012421,0.3716511,-0.1604615,-0.1497179,0.1510762,0.07108371,-0.4260972,0.4550353,-0.1522458,-0.3239596,0.1865457,-0.4898767,0.402205,-0.04596765,-0.3162284,-0.4013243,0.3124575,0.2065119,0.2044196,-0.2435291,-0.1209637,0.06063386,0.3965456,0.05135421,0.5415707,-0.2032686,-0.02334512,-0.1717162,0.5539497,0.1054573,0.4384887,0.1600133,0.1615415,-0.2696566,0.4109809,0.2056795,-0.4126605,-0.3391649,0.37894,0.2454269,0.2264745,-0.2599857,0.09558833,0.1946335,-0.4658318,-0.4276749,0.5189553,0.0914477,0.1798255,-0.4064345,-0.2456069,0.09302148,0.1292584,0.3950225,-0.4483847
-0.3022163,0.2634684,0.2574492,0.318268,-0.307426,0.237616,0.154285,0.4092119,0.1182025,0.2267097,0.2441067,-0.1259357,-0.3846497,-0.2201811,0.4669972,-0.493169,-0.3059694,-0.03947303,-0.1900353,0.05272299,0.5577653,0.04448423,-0.2644205,0.4164436,0.03815685,-0.4715469,-0.5325841,0.1180044,-0.3277837,-0.04742756,-0.08184685,0.188153,-0.3058628,-0.1650135,-0.4486497,0.2573838,0.02832209,0.3273047,0.04516134,-0.3112759,-0.2497376,-0.4361123,-0.4157215,-0.3008454,0.3123307,0.2660504,-0.09937903,-0.3940378,0.0626745,-0.4820675,-0.2002118,-0.1148179,0.2994556,-0.01865693,0.1441649,0.1731984,0.1040391,-0.06919747,-0.2039346,-0.3442491,-0.1458485,-0.3619699,0.57417,-0.4502134,0.251843,-0.1797909,-0.3181045,0.5665747
0.1832468,-0.206411,0.3213809,0.4454527,-0.2146274,0.2790314,0.5313072,-0.2748409,-0.0251843,-0.1787958,0.05190143,0.3788564,0.1906871,0.2365431,0.3846771,-0.04738954,0.2664003,-0.3935305,0.02420111,0.08065072,0.3720322,0.09453835,-0.1292052,-0.2222894,-0.05819587,0.1662451,-0.4708654,0.07319675,-0.02499044,0.5626335,-0.3145279,-0.2373961,-0.1681053,-0.08944096,-0.001798986,0.53852,0.1451028,0.4485088,0.4557215,0.2933256,-0.5397679,0.4427758,-0.6200035,0.02310698,-0.3545645,0.2488316,0.02743892,0.009564038,0.5431138,0.6221038,0.3389568,0.009835307,-0.5742278,0.06604844,-0.2387707,0.1359241,-0.6076458,-0.1796113,0.009913174,0.4845348,0.06878173,-0.1001226,-0.144324,0.4460498,0.07145055,0.282324,0.06136938,0.1808418
0.6681839,0.1967054,-0.08029712,0.04861383,-0.3171817,-0.08786827,0.4994547,0.005216818,0.3779238,0.33417,-0.5411485,-0.08887077,-0.346978,0.2339014,0.364858,0.08542807,-0.1392603,-0.4287796,-0.2888796,0.4653524,0.1004352,0.3078,-0.5322359,0.7780783,0.2577675,0.2837971,-0.178193,-0.3267993,0.5217628,0.3671287,0.06603844,0.2278771,-0.2586016,0.01996304,-0.308492,-0.36761,-0.4241061,0.2615239,-0.09460406,-0.377776,-0.5210475,0.3035041,0.06606992,0.3037087,0.2460902,0.3106813,0.4016008,-0.1043956,-0.1343424,-0.3742743,-0.06847235,0.2634143,0.1028834,0.06782454,0.4897241,-0.5068678,0.08488011,0.4463651,-0.4318348,0.2768646,0.06261794,-0.1434362,-0.2109073,0.01200194,0.08707904,0.199869,-0.3567357,0.04916584
-0.1747273,-0.01600763,0.09193932,-0.5143377,-0.234935,0.2498551,0.21234,-0.1689062,-0.2067337,0.08856807,0.3085292,-0.5472319,-0.1071216,-0.5282887,-0.1639712,-0.2338372,0.2650235,0.2698083,0.08473597,-0.1546578,0.2599773,0.5026062,0.05180756,0.4457472,-0.232606,-0.1492647,0.04354538,0.03783005,0.3624118,-0.2913387,-0.4385643,-0.3543138,-0.03725931,-0.5013649,-0.541501,-0.1532985,-0.4923215,-0.17588,0.2985209,0.6823152,0.1848437,-0.2882908,-0.2337641,0.06309985,0.4202999,0.5407869,-0.02371024,0.192214,-0.4584688,-0.192291,0.1046411,0.3702989,-0.03667854,-0.2164863,-0.4818386,0.3916144,0.01491691,0.3102686,-0.3282745,0.322271,0.431358,-0.3750147,-0.007014852,-0.3856519,-0.2022669,-0.1627002,0.2597252,-0.179373
0.3785014,0.01609235,0.3660137,0.04984365,0.05940121,0.3958504,-0.1732092,0.2466062,-0.1861365,-0.2341509,0.1544102,-0.2277862,-0.00848759,-0.1497523,-0.6469422,0.05247416,0.339135,-0.07639129,-0.4971282,-0.2854371,-0.4637522,0.4008874,0.2978575,-0.3155281,0.2067692,-0.3351734,0.215229,0.07816952,-0.0531617,0.1771578,-0.003759309,0.2239721,-0.2931907,0.08221424,-0.2005728,-0.2963511,-0.1145897,0.01250053,0.04448526,-0.05161691,-0.09475096,0.415491,0.3169755,0.02868158,-0.2433358,0.2832383,-0.09072384,0.3194475,-0.3994077,0.01001038,0.1462903,-0.1139042,0.08636652,0.3348034,-0.4345456,-0.3668624,0.6555699,0.2563049,0.3247177,-0.02411972,-0.1040868,-0.1875878,-0.196897,-0.1312726,0.1168846,-0.1929558,0.01998278,0.149168
-0.03529155,-0.1430693,0.1584094,-0.1636082,0.641308,0.1087519,-0.1958443,0.5809293,0.3626097,-0.1662336,-0.3308553,-0.4073187,0.02876097,-0.08127412,0.2835826,-0.179069,-0.2862361,-0.1408169,0.5818409,0.3459008,0.1449972,0.3832633,-0.4223883,0.324751,-0.3688404,0.3209689,0.3891856,-0.1230632,-0.1452989,0.3457651,0.3383531,-0.3908547,0.2869138,0.04411764,0.00218914,-0.2347775,-0.1242691,-0.1379432,0.2293051,-0.386844,0.08379191,-0.0818164,-0.5967847,0.1903104,0.07218662,0.1193952,0.3553867,0.1029537,0.3881591,-0.2244826,0.3635574,-0.1243168,-0.6631328,0.006636389,0.1652963,0.03262118,-0.254361,-0.1604855,-0.2606246,0.2640314,-0.6646381,0.4529949,-0.3295515,-0.2434437,-0.2711266,0.2767718,0.4812668,-0.04452164
0.364666,0.03263307,-0.4835625,0.2403727,0.3957548,-0.3720055,-0.04140428,0.2225142,0.192183,0.005072038,0.1493769,-0.03220586,0.4697889,-0.4200297,-0.1290044,0.391367,-0.4395382,-0.373474,0.07982871,-0.3685251,-0.3921771,-0.251244,0.09598547,0.08699127,0.4502673,-0.2219709,-0.2302712,-0.6237586,0.009424825,-0.151265,-0.3024641,-0.06434789,-0.02458566,-0.1903293,0.3909103,0.1081193,0.3058498,-0.1190699,-0.0391543,-0.5076854,0.1204991,-0.5210546,-0.3051596,-0.3499601,0.2328352,0.3273345,-0.2485275,-0.433425,0.5238016,-0.2212309,0.3781221,-0.3527878,0.2783442,0.1184978,-0.444529,0.2196926,-0.374815,-0.3392957,-0.1842137,-0.4257966,0.1354113,0.03016535,0.2581548,-0.1689879,-0.09566707,0.3528896,-0.3896494,-0.4944463
0.37582,0.5301065,-0.3016624,-0.5770481,-0.27048,-0.5360081,0.3053015,0.2451552,-0.125513,0.2972575,0.07809624,-0.2645026,0.1003399,0.1060411,0.01721589,-0.3532558,-0.2516799,0.2523071,0.2384348,0.2524414,-0.2731403,0.02255356,0.3665383,-0.5606648,0.4262129,0.1576695,0.08841953,0.1194837,-0.2934199,0.3463719,0.0472593,-0.1984519,0.3759078,-0.1364925,-0.1971548,-0.358207,0.2098161,-0.4104396,-0.008139581,0.1251015,-0.6864011,0.3596211,-0.2271097,-0.3902739,0.5281425,0.1616017,0.2408612,0.2257397,-0.6015875,0.07053515,-0.5353048,0.4799145,0.2918943,-0.7116317,0.2908622,0.0006193519,0.3736724,-0.4559632,-0.03069628,0.2728031,-0.2391843,0.0002227553,0.144496,0.05786894,-0.3881431,-0.01426307,0.3087319,-0.06684333
0.3446033,-0.215915,-0.2269828,0.01168357,0.02613347,-0.7221182,-0.3941447,-0.5550404,0.07661372,-0.5687563,0.08567575,-0.3727014,-0.003663932,-0.3267537,0.479679,0.1257527,-0.1309374,0.4279288,0.3338106,-0.2091769,-0.4819683,0.3764808,0.1015062,-0.3387985,-0.6071336,-0.2538231,-0.3423095,-0.01094174,0.3766809,0.1473538,-0.11877,0.3028489,-0.4028582,0.09208735,-0.009401251,0.2471382,-0.1890472,-0.2821274,-0.3596951,0.2957851,0.08809774,0.2665365,-0.3556329,0.02368464,-0.1431222,-0.1717624,-0.2348228,-0.2171971,0.5264782,0.2088364,0.2923252,0.2957353,-0.9097191,-0.2664598,-0.3596359,0.1127731,0.09417678,0.04238609,-0.2546436,-0.611354,-0.00638902,-0.4341833,0.0007284923,0.4858628,0.076075,-0.2333645,-0.4515592,-0.2477995
-0.2423471,0.4463218,-0.1436226,-0.2368436,-0.2650044,0.05773281,-0.346192,-0.2576406,0.6137565,-0.1713599,0.0862022,-0.4222448,-0.3316233,-0.03982173,0.5536171,-0.01697294,-0.3679086,0.5470378,0.01075555,-0.2460876,-0.1163759,0.01279102,-0.1122678,0.1057372,-0.0373916,0.241223,0.2652973,-0.5201611,0.1529268,0.2870264,-0.4817107,-0.05222853,0.4358829,0.2721559,0.1553842,0.5679995,0.3885808,-0.06108948,-0.1334425,-0.1414453,-0.4182453,-0.1911819,0.05788908,-0.07266462,-0.1974684,0.1782105,-0.09996529,-0.1174343,-0.104215,0.4202981,0.3203693,0.4104928,0.07514593,-0.334253,0.3911831,-0.3100938,-0.3395185,0.2887215,-0.2492115,-0.1057344,-0.2612986,-0.2544839,0.4675842,-0.1984082,-0.5071556,0.07009626,-0.2990595,-0.1138249
-0.1626384,0.4560446,-0.2215107,-0.2818151,0.2262988,0.05136864,0.5102476,-0.1307202,-0.03354177,0.2673008,0.05678856,0.3428794,-0.3949168,-0.2155757,-0.03564176,0.04498851,0.02035265,0.4365261,-0.3949232,0.1781372,0.3589966,0.646457,-0.08224149,-0.3841995,-0.05791022,-0.4223883,-0.002472119,-0.4680218,-0.1313376,0.09606393,0.08359545,0.1104944,0.3874111,-0.283569,-0.01936734,-0.256011,0.7095286,0.03485536,0.2407731,-0.1553323,0.1768127,0.4892227,0.0009809391,0.519888,0.3791258,-0.4207147,-0.1744822,-0.009001028,-0.1636197,0.08614185,0.2825929,0.2705601,0.4703411,0.2838074,-0.1824135,-0.592851,0.0268211,-0.4911007,0.5061158,-0.01035884,-0.5251545,0.0008951868,0.5003334,0.1966009,-0.3545355,0.3625275,0.5917885,0.3291863
0.1143505,-0.1398388,0.2952788,-0.005720445,0.216304,-0.08811672,0.2842377,0.1243217,-0.7173252,-0.2206994,0.05064846,-0.01393908,0.2621521,0.08904378,-0.4300342,-0.05870875,-0.4336708,-0.2289286,-0.2473268,-0.2682436,0.0822344,-0.1799719,-0.2205959,0.2814839,-0.09794787,-0.5504411,0.4466571,-0.4359841,-0.1731722,-0.7152653,0.05016657,0.3603319,-0.3482823,0.0574581,-0.04729317,-0.1455624,0.1667755,0.3061253,0.1957115,0.4719659,0.3862569,0.03310649,-0.2033788,-0.1080563,0.3378966,-0.08635665,0.03789339,0.1034565,0.04774607,0.1092863,-0.2496406,-0.3559052,-0.1962724,-0.04771098,0.2138888,0.3643215,-0.06708609,-0.3815943,0.1696983,-0.07683526,-0.1555013,0.2518273,0.4182721,-0.4332931,0.2806584,-0.01844371,0.517697,0.2795221
0.2921986,0.2417025,0.2510724,-0.4155748,-0.1940176,-0.1273404,-0.1159382,-0.4440779,-0.5235262,-0.3461104,0.03500124,0.09862401,0.1526745,0.02196506,0.08160826,-0.05618369,0.4140385,0.100327,-0.4299799,0.1288088,0.1064231,-0.2242826,0.2989666,-0.06482222,0.01846718,0.2937472,0.01417141,0.2479225,-0.2726543,0.322291,0.115978,0.6785168,-0.3226383,-0.4199354,0.03113544,0.3553179,-0.3963878,0.2221008,0.5746158,0.222985,-0.3711169,0.2750586,-0.09490015,-0.4007491,0.5247329,-0.1769338,0.02927552,0.04125027,-0.2370889,-0.4202657,-0.04475751,-0.2451327,0.3825491,-0.2481016,-0.2100472,-0.3413489,0.3319684,0.3782306,0.4419627,-0.1209374,0.2460918,0.161668,-0.1517274,0.1763504,0.2133967,-0.1719618,-0.215667,0.003876289
0.0001980018,-0.2816857,0.02131879,-0.3379354,-0.07803434,0.5812286,0.02636074,-0.05277943,-0.04381661,0.2466549,-0.07055251,0.1450212,-0.5857208,0.6653056,-0.3912656,-0.3066045,-0.2702709,-0.4572063,0.6628359,0.4202007,-0.2522471,0.3891904,0.4335112,0.01591023,0.8048972,-0.1079857,0.3867939,0.1569222,0.3341474,-0.2047457,0.2799362,0.2061918,-0.3380254,0.1903808,-0.2074341,0.1196467,0.2015468,-0.01634224,-0.3237055,-0.3020197,0.3482401,-0.0853307,0.3707668,0.4164729,-0.1675647,-0.3199365,0.08601268,0.4670986,0.191066,-0.4874872,0.6623819,0.4449039,0.1473356,-0.2724581,-0.1809511,-0.2284848,0.1648533,-0.1773191,0.03104612,-0.0697799,0.2316221,-0.0147675,-0.07380355,-0.2083548,0.07521497,0.290688,-0.02889851,-0.3682233
0.2389107,-0.06569237,-0.08028646,-0.03099328,0.4162478,-0.08817601,-0.7527133,0.0391442,-0.1119025,-0.0621457,0.1485715,0.3883024,-0.2908634,-0.4363375,0.1470902,-0.01873716,-0.548209,-0.06540288,0.3768151,0.1876905,0.4180347,-0.3211459,0.3853152,0.360228,-0.1652608,-0.04712021,-0.2970127,0.4575169,-0.5748584,0.3291192,-0.145907,-0.221027,-0.05271725,0.2153937,-0.1649687,-0.008934055,-0.4036068,0.4324166,-0.4480354,-0.6250535,-0.08833386,-0.09297503,0.2838881,0.1027667,0.1178207,0.7045528,-0.1889605,0.1468833,-0.05454099,-0.4567747,0.02506373,-0.3595929,0.4641694,0.2950492,-0.4266447,0.1476784,0.351658,0.4210408,-0.4542046,-0.06372242,-0.3129379,-0.1238466,-0.3502032,-0.157179,-0.277598,0.2249214,0.1474377,-0.03197008
0.3236594,0.185057,0.1700129,-0.1536867,-0.6967262,0.4538948,-0.1323433,-0.09814204,-0.3536335,0.5681258,0.2060453,0.2579196,0.05243437,-0.2065345,-0.3389879,-0.0664107,0.3707236,-0.4146543,-0.1202746,-0.1019473,0.03458861,0.2074849,0.1167498,0.1555998,0.7224562,-0.1540642,-0.1692768,0.1379581,0.1866034,-0.4576156,-0.1783395,-0.1629404,-0.3525685,-0.1119666,-0.05829227,0.03473387,0.1525078,0.1306012,0.2454855,0.1662739,-0.04752081,-0.07043451,-0.3766632,0.07331036,-0.03405409,0.7043887,0.02498998,-0.2072018,0.2419469,0.44067,-0.2193038,-0.3636424,0.2451514,-0.312678,0.4741111,0.2125136,0.1072747,0.4344797,0.5085722,-0.4275096,0.2050776,0.1095277,-0.1916084,-0.3625992,-0.2728484,0.3676977,0.04529653,-0.001886094
0.1964716,0.7601742,-0.2494432,0.5302527,-0.1284662,-0.1599172,0.1194478,0.04983021,0.1689614,0.2296527,-0.6058179,-0.5144591,-0.3836403,0.2716014,0.07717387,-0.2846982,-0.2581322,-0.5651202,0.4373997,-0.08893269,0.5737454,0.4031585,-0.701651,-0.1404372,0.174043,-0.1177073,-0.06898449,0.4541258,0.3260288,0.2240479,0.412712,-0.07828905,-0.1539228,0.252585,0.3932156,-0.2865978,0.1421399,0.3073947,-0.2073995,-0.3790105,-0.2633593,0.2897282,0.005243253,0.2209491,0.3979206,0.1481099,-0.7272565,0.740751,0.4925667,-0.02302953,0.09505171,-0.4067415,-0.3799053,0.1384353,-0.4484964,-0.7199281,0.5085915,0.517807,0.4723507,0.1849751,0.3826524,0.1395355,0.02259007,0.08696452,-0.1273581,0.2860675,-0.2764475,0.4639154
-0.4081253,0.3814025,-0.08255619,0.01951432,0.2480859,0.4612564,-0.6438835,0.01265846,-0.3028803,0.4587512,-0.2435426,0.3463174,0.1910568,0.05437246,-0.1049062,0.3708341,0.2731989,0.2597385,-0.0112105,0.2007943,-0.2741911,0.126726,-0.5152454,-0.4398962,0.3415511,-0.06544042,0.5034401,0.1437799,0.2663569,0.1609041,0.2303198,0.8959188,-0.0503892,0.037288,-0.08555039,0.06875968,0.3878289,-0.1519644,-0.2303923,0.01557618,-0.09191114,0.400717,0.4199684,-0.355946,-0.06456907,-0.1948986,0.4417809,-0.2587838,0.07047818,0.4810279,-0.1799981,-0.001891428,-0.1282936,0.1081479,-0.460595,-0.5245751,0.6316794,-0.4878357,-0.01828911,-0.1279874,-0.5305004,0.2316311,0.1466399,-0.3507605,-0.3541425,-0.2549958,-0.832634,-0.1088456
-0.1427813,0.2863723,0.6620713,0.1022499,-0.4644868,-0.1482149,-0.4794241,-0.1892394,-0.3624838,0.09636349,0.4429802,-0.2921778,0.1484898,-0.3555856,0.5135124,-0.2497806,0.3042631,-0.07877004,-0.4302483,0.4432991,-0.3388578,-0.01897014,-0.3787009,-0.4463994,0.0606818,-0.2049196,-0.05964209,-0.5585208,0.2549047,0.3649364,0.1255273,-0.2554675,0.08313823,-0.0400908,-0.5702472,0.2380193,0.3453614,0.1464549,-0.2282953,0.06762426,0.06787685,-0.05079588,0.2820086,0.2694002,0.2102447,0.1543311,0.3097283,-0.4646828,-0.05186483,-0.4035437,0.1550032,0.410059,-0.3519817,-0.04156038,-0.02034609,-0.2874232,-0.1126649,-0.244437,0.07210864,0.08289878,-0.3919714,0.02278345,0.0691469,-0.2988195,-0.142335,-0.09442413,0.03672437,0.03346496
-0.127563,0.02175513,-0.02877201,0.1468616,0.1244321,-0.3927039,0.2484016,0.01911288,-0.006878941,-0.1836492,-0.3849846,0.408969,0.2088522,0.03573917,0.3379154,0.4896884,-0.1102842,0.5181623,-0.2902472,-0.3222984,-0.3700249,0.1143688,0.3858234,0.07746333,-0.3235749,-0.4140557,0.2327745,-0.4209886,0.3693534,0.3415822,0.4522463,0.2888328,0.555334,-0.4903022,0.4330639,-0.01252571,-0.3340226,0.3552044,0.3023314,0.4466091,0.2958948,0.4421932,0.3763391,0.4816958,0.0847517,-1.075229,-0.05320989,-0.1945627,-0.666218,0.3082773,-0.3760192,-0.3001207,-0.01410025,0.02835824,-0.03719279,0.09092871,0.04216268,-0.0705555,0.5309435,-0.3406734,-0.03869304,0.4731638,0.07962866,-0.1513933,0.142283,-0.3166467,-0.3242525,0.0634409
0.009147687,0.4930314,-0.4354419,0.4023478,0.4529915,0.1226931,-0.5525166,-0.3698419,0.1781173,0.2444106,0.340973,-0.4946066,-0.3590393,-0.1511213,0.5080993,-0.3281653,0.3745993,0.1178702,0.206831,-0.1537321,0.02767819,-0.186786,0.2510744,0.07593525,-0.2736274,-0.151971,-0.1099154,0.0826441,-0.1754246,0.4209631,-0.3297598,-0.05726422,0.1211168,0.2330006,-0.327917,-0.3998452,-0.07659291,-0.07838432,-0.2925453,-0.4465285,0.3004406,0.306755,0.1690353,0.06110697,0.5047723,-0.07676744,0.328148,0.04589709,0.3475107,-0.07403282,-0.08904526,0.3874373,-0.465649,0.2858275,-0.115281,0.2298926,0.3406137,0.2747228,0.01025407,0.03882256,0.4355822,-0.6780866,0.6457162,-0.2223907,-0.3896482,0.2142619,0.4257581,-0.4633964
-0.01891581,-0.1318027,0.3065775,0.04142028,-0.3875678,-0.2823287,0.1833459,-0.3430457,0.1573552,-0.7023076,0.1666097,0.4740337,-0.4559402,-0.4707099,0.1745111,-0.2448524,-0.06712557,0.5848809,-0.7455883,-0.3053763,0.6292754,0.1640046,-0.01371799,0.116906,0.06576642,0.2815927,-0.5362041,0.1361982,0.1815637,-0.1504905,0.2749611,0.2948718,-0.2557704,-0.07293683,0.2710301,0.283416,0.09983329,-0.05701294,-0.01510354,0.1513229,-0.3943183,0.1678598,-0.1810372,0.3599368,-0.3873808,-0.5537682,0.3952419,0.6201345,0.3806508,-0.4079025,-0.439892,0.1769635,-0.4118705,0.5070528,0.05029824,0.2216757,0.3413379,-0.03623073,-0.1781563,-0.1908466,0.1530772,0.2968951,-0.1949264,-0.2180523,0.129765,0.3274449,-0.6402223,0.4460554
-0.5709331,0.1821581,-0.1912585,0.5404959,-0.2778398,0.2490289,-0.5070246,0.1955221,-0.2439205,0.3399477,0.5952427,0.1962674,-0.06321527,0.001271455,-0.5103669,0.02029923,-0.2082446,0.235451,0.5474794,0.4708002,0.3467757,-0.3611664,-0.0343238,-0.5413025,0.01355538,0.2869375,0.3896606,0.1361939,0.2299414,0.1503329,-0.4289268,-0.3832587,0.4551547,-0.4376844,0.0453288,-0.01993585,-0.2014476,0.1843275,0.3637329,-0.07478413,0.1751937,0.1950381,-0.8302922,-0.2555681,0.02251367,-0.3400884,-0.4679661,0.3372181,-0.2419356,-0.529606,-0.0114549,0.08631324,0.3945247,-0.04663599,-0.5935786,-0.5543295,0.1468833,-0.4464973,0.04747104,0.179974,-0.3552638,-0.4925546,-0.3043609,0.6054663,-0.03278071,-0.2647433,0.2124817,0.0943041
-0.3212286,-0.1872574,0.1375877,0.6874891,-0.1807182,-0.4146363,0.5115324,-0.3785454,0.2107125,0.3010435,0.333583,-0.2767387,0.00246413,-0.1902754,0.1252905,0.2150951,-0.2600711,0.3775607,0.02920066,-0.4162798,0.2255875,0.4512716,-0.07420994,0.3747506,0.431614,0.368252,-0.09684619,0.02703932,0.2813708,0.1240718,0.04270152,0.3416796,0.006539464,0.1063526,-0.1524242,-0.1488957,0.05792379,0.03925247,0.01174289,-0.05220791,0.01105722,0.1996579,0.1461204,-0.3212086,-0.1744302,-0.3458104,-0.2486604,-0.1788013,0.5181821,0.3297447,-0.09154863,0.2968468,0.3044582,0.2643287,0.3692235,0.2668969,0.1091927,0.3406605,-0.1666876,-0.5068949,-0.4180929,-0.2142103,0.3030667,-0.09467041,0.3025674,0.1388088,-0.08939624,0.2720252
-0.01675033,0.02599677,-0.4328492,0.3358409,-0.08561517,0.4587187,0.2179795,-0.1277108,0.00544399,-0.1537434,-0.2811302,0.07993423,-0.3100121,0.4488215,-0.1048312,-0.4986926,-0.1176829,0.2756349,0.3537232,0.2453849,-0.1418435,-0.5008637,-0.1704518,-0.3371784,-0.02192486,-0.2096828,-0.1187581,-0.1777802,-0.2650104,0.001009438,-0.2376117,0.1590957,0.3300377,0.5363465,-0.4833983,0.2948728,0.4752807,0.383702,0.593459,-0.2207747,0.5413062,-0.5872802,0.2644151,0.2263936,0.7421418,0.3976966,0.404723,0.4567724,0.2730685,-0.2676476,0.09858347,0.1067779,-0.17262,-0.007014354,0.2661161,-0.2485633,-0.2873279,-0.2235133,0.64543,-0.2565737,-0.5107279,-0.01077785,0.3505866,-0.1878605,0.2570195,0.005808766,-0.1281234,-0.4867573
0.3245712,0.1932036,0.2788167,-0.3844506,-0.1097123,-0.03823185,0.0813533,-0.122308,-0.01888204,-0.1502848,0.03844447,-0.3715816,-0.1312103,0.4272549,-0.1185105,-0.1909635,-0.384752,0.1853666,-0.3570204,-0.07951467,0.3089606,0.05041325,-0.5676684,0.3192302,-0.4207984,0.07577596,0.267455,-0.08380956,0.4002787,0.3002577,0.07964545,0.0187667,0.2837721,-0.3174731,-0.2369151,-0.3587252,-0.1757379,-0.001269852,0.2248909,-0.4036731,0.1702256,-0.4762044,-0.4512945,0.0528757,0.4634407,-0.396827,-0.1259275,0.5360397,0.4239787,0.326664,-0.3376194,0.03021973,0.3164124,0.386059,-0.05695431,-0.3763413,-0.2490835,0.293071,0.1107187,0.2056675,0.5845731,0.4669298,0.03134233,-0.2026689,0.3377275,0.01819723,-0.1076431,0.6033458
-0.3169117,0.1522393,0.07235315,0.1171162,-0.1427818,-0.2326064,-0.3514706,-0.3736916,0.1681764,-0.3044402,0.03781847,-0.3118938,0.06556768,0.08145528,0.2969667,0.3334706,-0.2234508,-0.400724,-0.08550335,0.211972,-0.2818351,-0.4301538,-0.3033519,0.02200937,-0.4036764,-0.0005470592,0.3191719,0.4743203,-0.2558916,-0.4066579,0.1613304,0.1556542,-0.3520656,-0.4000105,-0.09655998,0.1000138,0.04448895,-0.02532705,0.02252018,0.4509943,-0.1629461,-0.5573745,-0.07424749,-0.6947402,0.235839,-0.1472335,-0.2506585,-0.3599509,0.4011642,0.2673251,-0.006003455,-0.007446945,0.2493416,-0.1151148,0.5700263,0.06018065,-0.1639736,-0.08773265,0.1488958,-0.3440652,0.5280773,-0.2351944,-0.4958089,-0.3113256,-0.4554347,-0.3238404,0.3073668,-0.056591
0.2979814,0.6106427,0.2634832,0.3618812,-0.4956281,-0.5336946,0.2426891,-0.06602634,-0.2278389,0.1486516,0.03299898,-0.009020758,0.2064796,0.1961466,0.2463989,-0.1023743,0.2491068,-0.3258058,-0.3114844,-0.418503,0.05824846,0.1293866,0.1415627,-0.09731256,-0.2437473,0.5161408,0.5591865,-0.3821789,0.1904188,0.1893743,0.2932901,0.3917912,-0.2320498,0.001218393,0.3646301,-0.3139704,-0.1821093,-0.4601661,0.01859898,0.2671672,0.02136502,0.4737746,0.08087356,-0.02126325,0.06443087,-0.1871068,-0.2587718,0.1984893,0.4419706,0.147743,-0.1368628,-0.2994705,0.2398874,0.0187047,0.2005137,0.1716401,0.3748054,-0.2591806,-0.4163595,-0.07842886,0.1309304,-0.0203127,-0.3025117,0.6939729,-0.1027779,0.6066,0.07566986,0.03238269
---
-0.04546195,-0.01835318,0.1488327,0.391561,-0.3705307,-0.05301367,-0.368507,-0.2082824,-0.02830815,0.5607939,-0.1100974,0.04671985,0.2319402,-0.2405054,0.2827996,-0.03738181,0.1387539,-0.2605661,0.0978196,-0.02536768,-0.3669065,-0.28204,-0.07491819,-0.2965912,-0.2372214,0.2741274,-0.1507144,-0.008225977,-0.07201123,-0.2359616,-0.2971393,0.4404736,0.5372722,-0.2667772,0.486881,0.4025874,-0.1504881,-0.4789343,0.302174,0.01256225,0.1701033,0.09793252,-0.1382148,0.2619328,0.5265068,-0.4997602,-0.0936758,-0.6758912,0.2293959,-0.41614
0.4742481,-0.2664756,0.5553113,0.06640444,-0.4479897,-0.5405949,0.3656223,0.06282698,0.3811295,-0.4928901,0.343506,0.1210408,-0.4954091,0.05287854,-0.009728883,0.1521059,-0.09793607,0.09036449,-0.8119423,0.3186768,-0.5248091,0.323421,-0.32622,0.5679234,0.5205399,0.4545093,-0.1429589,-0.1101697,-0.2652453,-0.2597577,0.1233449,-0.2710352,-0.5589731,-0.1081074,-0.4938195,0.1346619,0.03276227,-0.5416749,-0.1975163,-0.01928701,0.09355531,0.08706344,0.3152446,-0.3271535,0.162725,0.4658369,-0.3530811,-0.10597,0.09261315,0.4477691
-0.2324733,-0.2547139,-0.2684423,0.002512166,-0.2000064,-0.377033,0.6345165,-0.0138696,0.04705691,-0.03663234,0.3229918,0.4201943,-0.258609,-0.4377115,0.5444223,-0.0243926,-0.06011508,-0.4178665,0.5701361,0.07878429,-0.1286868,-0.4567898,-0.1567314,0.03349759,-0.1089389,0.4066634,-0.3067632,0.1577583,-0.1022327,-0.2452402,-0.04548547,-0.05039219,-0.2045995,-0.1689961,-0.05429262,0.3999101,0.1410585,-0.1606692,-0.3463996,-0.1715913,0.4768764,0.3856528,-0.3775011,-0.3960899,-0.4549184,0.1767826,-0.3961446,0.4106618,-0.1973252,-0.1504399
-0.2447238,0.2473955,-0.4852062,0.3313416,0.2174155,-0.281012,0.2309183,0.1634409,-0.3460845,-0.09416527,0.2631432,0.1619617,-0.6719953,0.3168989,0.3725928,-0.2167631,0.2317122,-0.1455812,0.3166732,0.4064934,0.5238618,0.5443448,0.1744979,0.1614617,0.3635865,-0.1916725,-0.2314686,0.380259,-0.3695592,0.04645227,0.07658931,0.7613146,0.3733653,-0.2803038,-0.3861388,0.4915246,0.5226197,0.2074439,-0.3402909,0.4667563,0.3702308,-0.08175795,-0.06632119,-0.3927247,0.2638743,0.2133457,0.2181593,-0.22357,0.319116,0.1717961
0.3028365,0.08868621,-0.03618043,0.4534771,0.04760393,0.1763528,-0.1425101,0.2771251,0.6344905,-0.03267501,-0.0168732,0.008260365,0.6170447,0.09519336,0.1734003,0.2697265,-0.7996507,0.2075814,-0.2119886,0.3137357,0.0006140936,0.5089061,0.2521468,0.2309138,-0.1968372,0.2367778,-0.4041745,0.1058337,0.1900386,-0.06223878,0.5187614,0.3964204,-0.4715787,0.1071729,0.0174986,0.1394386,-0.08034845,-0.2565563,-0.2887436,-0.4170817,-0.3041722,-0.3424978,0.05687808,-0.3485493,-0.4269658,0.06859843,-0.2752836,0.3984424,0.0008679269,0.1742933
0.2945646,-0.157242,0.2105591,-0.2832724,0.06409992,0.148747,0.1599364,-2.633805E-05,0.2473666,-0.6335715,0.1808546,0.6503997,-0.4863213,-0.2333416,-0.4586607,0.3191706,0.2493158,0.05037267,-0.1049462,0.4132155,0.483723,-0.3200094,0.2704322,0.3321538,-0.3261936,0.1042385,0.1766587,0.3238203,0.2117779,0.2628774,0.02142869,0.68595,-0.3186011,-0.2252659,-0.2071928,0.6284415,0.398397,-0.1834001,-0.4233024,-0.4926872,-0.3078079,-0.445756,0.0089431,0.1305849,0.3967198,0.5873374,-0.2850803,-0.4932813,0.4080138,-0.4326603
-0.05650594,0.3699762,0.006696626,0.34,0.3368724,-0.3281595,0.3365975,-0.4459117,0.06765814,-0.1945864,0.6310433,0.002311771,-0.0419336,0.02402201,0.2296609,0.3980891,-0.04073382,-0.3508062,0.1055052,0.2333231,0.1446947,-0.1471199,-0.1722604,0.4287367,-0.3671193,-0.005655944,-0.425051,-0.5501627,0.4734059,-0.1770445,-0.1113948,0.300487,-0.3053848,0.5477811,0.2902133,-0.05557331,-0.3186275,0.2335425,0.01841211,0.3989552,-0.01016724,0.1857455,0.4707924,-0.3975441,-0.009304784,0.04342746,-0.05100285,-0.3184215,-0.1847584,-0.8032545
-0.03249606,0.1467659,-0.0003518354,0.1658393,0.3790137,-0.0437331,0.03023514,-0.5228992,0.2296745,-0.8135481,0.3746012,0.1618513,-0.0390811,0.4645987,-0.2185763,0.1822243,-0.57903,0.01296927,0.09324037,0.3784363,-0.4835885,-0.05856052,-0.4098842,-0.1393527,-0.2259052,0.136852,0.4025305,0.006321553,0.5101163,-0.4538004,0.6732153,-0.1014186,-0.3528711,0.2435042,-0.1531141,-0.3881626,-0.106117,0.3275304,-0.420034,0.5150601,-0.1338488,-0.05584133,0.267195,0.3572566,0.1621952,-0.3177559,-0.02687323,0.3491325,0.07767779,-0.07257318
-0.3278636,0.2518812,0.1737121,-0.03929763,-0.4565135,0.1633641,-0.02019825,-0.6554345,0.06985109,0.02445075,0.6402981,0.2950441,-0.263997,-0.3646024,0.1032899,0.4786,0.2043215,0.4765317,-0.3584853,0.01105323,0.4850142,0.332912,0.5109226,-0.1932422,0.3541571,-0.1474847,-0.2997717,-0.07670635,0.3337107,-0.3662293,0.3061047,-0.2498174,-0.571236,-0.1584705,-0.1863678,-0.4812986,0.5385423,-0.2053443,0.006791827,-0.3055403,-0.07503893,0.02939495,0.5072868,0.5165204,0.09044944,0.6965763,-0.3728368,0.108603,-0.1881714,0.0353563
-0.3382731,-0.3600083,-0.05252267,-0.1350113,0.3671406,0.1717128,0.4127357,-0.2759178,-0.3277282,-0.01476315,0.1375261,-0.01587869,-0.3869301,-0.4441105,0.1925892,0.3238833,0.02630812,0.2168029,0.2947897,0.2227267,0.1544718,0.1804923,0.2457322,0.5206996,0.2194891,0.2252189,0.3245097,0.06087212,0.127588,0.03657907,0.3584157,0.2832822,0.2333145,-0.008423407,-0.303306,-0.2456221,-0.3287944,0.2251049,-0.2734567,-0.2333662,-0.3183144,-0.4581812,0.1224166,-0.3751306,0.3484788,0.1211932,0.3203138,-0.3463407,-0.1855581,0.552518
-0.1794279,0.5185431,0.2173895,-0.1810987,-0.05535244,0.1256299,-0.2622928,-0.4868296,-0.002497037,-0.6037492,0.42202,-0.09505223,-0.3489196,-0.3718499,-0.02343492,-0.2691731,0.2873156,-0.1409516,0.3071887,0.200358,-0.2787534,0.3643144,-0.1468193,0.2899013,-0.3024605,0.3932558,0.162059,-0.363683,-0.4395746,0.1616833,0.1065163,-0.2656195,0.005397629,0.1588137,-0.1782952,-0.5104971,0.1682016,0.1813889,0.08786111,0.3434823,0.005743186,0.250683,-0.4333531,-0.2640299,-0.4658975,0.3953608,-0.2190371,-0.2904255,0.2595578,0.3494317
-0.6855342,-0.1957045,0.2348547,0.2578626,0.04977316,-0.4411114,-0.3768762,-0.1051148,-0.03118374,-0.4667672,-0.197175,-0.4950001,-0.1939667,0.1955929,0.01922058,0.234362,0.3734672,-0.1012984,0.397758,0.3337221,0.7938897,0.2350882,-0.375517,-0.354577,0.3988381,-0.1778695,-0.04954429,0.335794,0.2086594,0.3300067,0.7745875,0.2331207,-0.01737314,-0.401549,-0.003238396,0.1981987,-0.3962493,0.1524057,0.252908,-0.02679046,0.4934429,-0.2060267,0.01103813,-0.1480705,-0.1991581,0.4055934,-0.1657174,0.4019398,-0.4365296,-0.05311307
-0.0653594,0.304547,0.04271939,-0.3686587,-0.04321233,0.4989131,0.3747206,-0.2235257,-0.04659998,-0.5468785,-0.3255688,0.4621732,0.1764286,-0.2153145,0.07697083,-0.38752,-0.3540548,0.6216539,-0.2629201,0.4212303,-0.0108594,0.3883541,-0.2348118,0.07176494,-0.2456737,0.00989252,0.4167103,0.285387,-0.243155,-0.1404443,0.1718939,-0.1812322,0.4221231,0.002527254,-0.2202091,-0.2703586,-0.1584125,-0.1575325,0.2845485,-0.1708661,-0.2318198,-0.2854641,-0.07702389,-0.3864909,0.232477,-0.00452886,0.127621,-0.2692354,-0.1507663,0.384863
-0.01143536,0.1982661,0.226292,0.3661084,-0.09233421,0.5606101,0.220459,-0.4219966,0.3587236,-0.01983852,-0.00846541,-0.2814909,-0.3980169,0.1124557,-0.1179756,0.2441446,-0.559505,0.5640104,0.2115786,-0.1775532,0.2795649,0.01931787,-0.4534895,0.07329249,-0.3294581,-0.1767587,0.5402378,0.1012458,-0.09921269,-0.5254481,0.06635343,-0.04850841,0.1832017,-0.4956217,0.1592464,-0.3303739,0.1136844,-0.5977415,0.105522,0.2915478,0.02063584,0.4899094,0.2717526,0.1786724,0.1977507,0.2207041,-0.4434526,0.2345025,0.1260112,0.2806681
0.3523107,0.02910021,-0.2573297,0.1657441,-0.6385971,0.01331162,0.03343029,0.3236265,0.4261515,0.2743126,0.1491049,0.05669134,0.4875695,0.1205813,-0.3649703,-0.1568722,0.1404013,0.6459908,0.07424633,0.376261,0.519453,0.4994439,-0.3172605,-0.4913073,-0.06094788,-0.3146599,0.1414223,-0.3877309,-0.469945,-0.1852449,0.1605752,0.03495622,0.4863544,-0.4006804,-0.3341475,-0.5610824,0.5621024,0.1215973,-0.3766884,-0.5706394,0.3132998,-0.7015482,-0.2399763,-0.09267316,0.0600115,-0.001718048,0.1162882,0.1626767,-0.2580654,0.1051458
-0.456663,-0.1880319,0.09063467,-0.2588849,0.3864082,-0.1958658,0.2608562,-0.289101,0.3382728,-0.02361021,-0.2660263,0.4245443,0.3731924,0.465662,-0.4450915,-0.3878357,-0.4812291,-0.1694697,-0.4815723,-0.3740393,-0.1308878,-0.2481342,-0.2080044,0.03932571,0.2469095,0.4970784,-0.3522877,-0.174635,-0.003254754,-0.3599867,0.03085522,-0.3382653,-0.1226217,0.0248898,0.2111356,-0.09238195,-0.414413,-0.3058545,0.5560715,-0.1791808,0.01672347,0.07094259,-0.06536891,-0.3626479,0.3253326,-0.1208868,0.005271576,0.03664176,-0.3518839,0.3278633
-0.1620735,-0.5903161,0.4996048,0.3108765,-0.4249484,0.1376442,0.3382375,-0.03213276,0.01996511,-0.04220417,0.4987698,0.05450796,0.3549368,0.2552317,0.04147504,-0.1550929,-0.1778183,0.2993301,-0.4590301,-0.2327011,-0.02806526,-0.3623097,-0.2238311,0.6573316,-0.4060133,0.4663666,0.1588095,0.2016774,-0.05008402,0.4837155,-0.1122586,-0.01572607,-0.04169339,0.08811045,0.2442899,-0.2454062,-0.2691088,0.1760081,-0.08838364,-0.2783451,0.06924571,-0.4635119,-0.1923697,0.2024355,-0.1944236,0.2329524,-0.190428,-0.1980925,0.3107598,-0.01277936
-0.02998273,0.3530163,0.0494087,0.02297277,0.004729153,0.5425926,-0.1293995,0.2038755,0.1574674,-0.07447077,0.07403818,-0.6510832,0.2429903,0.1053347,0.1834008,0.2661229,-0.07107663,0.2873223,-0.4211592,0.2339744,-0.1266463,0.4436658,-0.5358911,-0.1477169,-0.2748361,-0.4197281,-0.3496614,0.6472623,0.08254927,-0.06022636,-0.3181828,0.1047357,0.2013353,-0.1660079,-0.4457823,-0.3756672,-0.4862045,0.1260649,0.3339415,0.1706251,0.1848482,-0.1934045,0.3519856,0.4368232,0.446438,-0.3675335,-0.2527271,0.07305089,0.561118,-0.4143432
---
===
-0.05555132,-0.3487475,-0.5408937,-0.599738,0.1634278,-0.2238099,-0.08079967,0.3727787,-0.2493209,0.2757308,0.1799656,0.02697138,-0.2216529,0.4553304,-0.08877765,-0.2603425,-0.321989,-0.297838,-0.2524391,0.2918157,0.1722644,-0.1273126,-0.2384124,0.1456248,0.3362489,-0.04321331,0.371757,0.3576075,0.05674923,-0.3331787,0.07717929,-0.2840874,-0.3486349,0.05053241,-0.5857421,-0.4550519,0.06082637,-0.3245409,0.4388222,0.4063987,0.1491348,0.1990642,0.1047001,0.04535454,0.04906048,0.1483101,0.06987926,-0.2714453,-0.0840471,-0.09456783,-0.1754547,-0.2444609,0.3089607,0.427755,0.5887204,0.2081195,-0.01124267,0.4238271,-0.4591183,-0.03432892,0.01144231,-0.5695297,0.3313737,0.2780665,-0.1173829,-0.01387476,0.2519921,-0.3274002
0.4850645,0.2013477,-0.3114718,0.4199537,0.4742512,-0.02563998,0.194152,-0.8137404,-0.5581435,0.1525821,-0.1129015,-0.1723763,-0.3925962,0.2865896,-0.3415423,-0.03694519,-0.04486126,0.19719,0.5302429,0.7503657,0.1949035,-0.1997219,-0.1241061,-0.496641,-0.3290088,0.04087452,0.3392807,-0.2275621,-0.3850189,0.1727535,0.3598142,0.2989691,-0.2830045,-0.1749364,0.4637668,-0.5636731,-0.5351628,0.3588706,-0.4246399,0.4208444,-0.06604113,0.3194027,-0.2000986,-0.3654361,0.08318579,0.06716592,-0.05807946,0.2334447,-0.556419,0.1828965,-0.09967072,-0.0395061,0.001793502,-0.1774016,0.4305527,0.6166505,-0.4729666,0.1383935,-0.1133277,0.5878025,-0.3128635,-0.2871941,-0.1712772,-0.2313721,-0.3747938,0.3363855,0.2773283,-0.2786852
0.1925837,-0.04987854,-0.1065569,-0.2459385,-0.4357762,-0.05135585,-0.1143939,0.5183214,-0.7545801,0.6279199,-0.4459997,-0.05372434,0.3139195,-0.5997553,0.4671111,-0.4737814,0.3605729,-0.4431936,0.1551747,-0.1191247,-0.2980877,0.4862475,0.1339622,-0.05743091,0.4488822,0.05921293,0.3540101,-0.2261089,0.4203584,-0.1121188,0.2287006,-0.6654873,-0.2453944,-0.477698,0.3562438,-0.06220188,0.4949641,0.4829358,-0.1242225,-0.3132167,0.1190475,-0.2630017,0.5304682,-0.1109464,0.2692726,-0.1452309,-0.3860622,-0.4820211,0.07703955,0.09368612,0.02528337,0.258414,0.09413478,-0.01687621,0.4072551,0.3717775,0.3388541,-0.05970735,-0.6187297,0.7040568,-0.2229885,0.400506,-0.1300965,0.5960738,0.5776051,0.1863983,0.3828295,-0.1980588
0.03324753,-0.2882822,0.1100967,-0.4020477,-0.5985586,-0.1511369,-0.01913995,0.176187,-0.2266851,-0.2634703,-0.190261,0.3505033,0.4057695,-0.313868,-0.04250169,0.3800989,0.03896616,0.4291593,-0.5600812,-0.2030391,-0.1844073,-0.2507371,-0.07589152,0.1123406,0.3955595,-0.5289502,0.2417001,-0.2743107,0.04198132,0.08355847,-0.4092376,-0.2500434,0.3126154,-0.1300008,0.001404294,-0.5299898,-0.2445843,-0.1973169,-0.1561266,0.389114,0.4974409,-0.08132383,0.5239535,-0.4847915,0.2847251,-0.08245397,0.2215744,0.2974188,-0.1139528,-0.2640446,0.2345093,0.1532158,0.6130667,0.1621163,-0.2598903,-0.05144314,0.51893,-0.3948925,0.05356188,0.3404992,-0.5556231,-0.3086112,0.1131463,0.3506027,-0.2248529,-0.479571,-0.442654,0.2309011
-0.4505393,-0.3418577,0.2341533,0.138745,0.5452989,-0.4034893,0.2186383,0.0536628,-0.38891,0.1498654,-0.04720951,0.05218871,-0.1863355,-0.2923932,-0.05745731,-0.07915661,0.2587769,-0.2906496,0.2417559,-0.3659312,0.1363552,-0.3467902,0.3843111,-0.4209483,-0.1501275,-0.1885105,0.1759391,0.3866373,0.3253218,-0.08980559,-0.2303346,0.3279915,0.2126096,0.3050414,-0.04453886,0.1195967,-0.4481931,-0.1764429,-0.2697016,-0.3710618,-0.2297978,-0.4363853,0.4104271,-0.4976422,-0.4607081,-0.03164148,-0.3811654,0.09700043,-0.4633082,0.01629219,0.09609278,-0.04040706,0.05844231,-0.2756553,-0.01856692,0.4606151,0.3682865,0.3641329,0.4193119,0.06415706,0.4559337,-0.6347162,0.1339331,-0.1554803,-0.08080147,-0.1459981,-0.2054999,0.2019659
0.02134792,-0.1095166,0.0596798,-0.250751,0.4111307,0.1357056,-0.07994114,0.1712451,-0.02769441,-0.4285395,0.2926248,0.0166708,-0.04078273,-0.446176,-0.1424622,-0.2205573,0.1236326,-0.5992103,-0.5174345,-0.1246676,-0.2637095,0.2132549,0.03319965,-0.5660891,0.1028816,0.4728979,-0.3829324,0.07317184,-0.7275615,-0.3344319,0.4112316,0.6050941,-0.5194951,-0.1449435,-0.4799137,-0.2192471,0.09835649,-0.2561537,0.3178892,-0.03435567,0.2557401,-0.2247888,0.5059106,0.3830495,-0.3386708,0.4095613,0.4800973,-0.3290689,-0.1497072,0.7484044,0.2715441,-0.2032932,0.3725459,-0.3822906,-0.3525564,-0.4338528,0.3979808,0.08322176,-0.146031,-0.3722557,0.2041277,0.2804565,0.3752187,0.3878373,-0.5048369,-0.06886013,-0.827332,-0.3160231
-0.4445386,-0.276527,0.1988354,-0.5412354,0.1193652,-0.1149484,-0.4099611,0.2267376,-0.3177647,-0.3199174,0.2669877,0.4127587,0.4193805,-0.4306546,-0.1310045,0.1994169,0.2325101,0.06916549,0.09494048,-0.2523781,-0.2072533,-0.4283838,0.2494637,0.123984,-0.02235405,-0.3572409,0.1977817,-0.2655255,-0.2361528,-0.3453069,-0.2843679,0.2027102,0.1957992,-0.1217483,-0.4020183,0.4233904,-0.2656567,-0.09824537,-0.3726672,0.21276,0.2441666,0.1630944,-0.1671783,-0.2504324,0.1813325,0.02483021,-0.4096829,0.6725202,-0.04924624,0.4906856,0.369617,0.3012694,-0.09049296,0.2917121,0.06937862,0.5061115,0.1035577,-0.2438711,0.3113793,0.09958822,-0.3015267,0.5264246,0.173413,-0.02428283,0.3724042,0.07477178,0.08182414,0.1955422
-0.3587255,0.2576413,-0.6014737,0.3636585,0.08591586,0.4829853,0.1086204,-0.09557693,0.4159974,0.1565981,-0.03933842,-0.2750432,0.01225874,-0.4097698,-0.7171505,0.04396487,-0.5595925,-0.1980422,-0.18979,-0.1111972,0.1641256,0.01166948,0.008694292,0.2215769,-0.2868268,-0.1706601,0.3581555,-0.4344488,0.04040945,0.1625089,-0.04305036,0.2948,-0.4474618,-0.2459224,0.4381483,0.5164164,-0.2818509,-0.09434891,0.6089082,0.04396485,-0.02810076,0.2031213,0.222884,-0.02318251,-0.07020994,0.2484895,-0.230839,0.4923466,0.3500006,-0.2380072,0.1618659,-0.4013357,0.1325133,-0.09458454,0.3697357,0.02346409,0.4236588,0.08447872,0.2701236,-0.3667281,0.07614823,0.4512509,-0.3907683,-0.08748446,0.2941542,-0.2858344,-0.1098568,0.2685592
-0.3144406,0.04275757,-0.07351338,0.1039723,0.470879,0.3042351,0.2540959,-0.645075,-0.1713884,-0.2937482,-0.2114815,0.02871119,-0.4243066,-0.5563326,0.640161,0.2998079,-0.3810699,0.3937865,-0.5240204,-0.4430635,0.4018126,-0.7119203,0.2280203,0.2934684,-0.209519,-0.07431339,0.1936925,-0.3885796,0.6068338,0.4149736,-0.2748341,-0.09036597,-0.7066621,0.3924583,-0.07963143,0.1935039,-0.06463152,-0.2526771,0.1565331,0.4909753,-0.1786677,-0.03878032,0.1401429,-0.09306143,0.3092761,-0.2738678,-0.03104856,-0.4573041,0.09872501,0.03976968,0.2527442,-0.1678887,-0.2377119,-0.1977725,0.03573039,0.01562907,0.161845,0.2701799,-0.2581491,-0.1102882,-0.114109,-0.6347553,-0.4624864,-0.3314201,0.5913483,-0.4608031,-0.1194273,0.3480684
-0.06173731,0.3286141,0.3960431,-0.6197072,-0.08896667,-0.008198553,0.200892,-0.3388739,0.6488404,0.1003643,0.03405289,-0.1217267,0.2228752,-0.2618677,0.08073409,-0.01549888,0.3136015,0.2057193,0.530905,0.1031973,-0.3209819,0.2928711,0.4885422,0.2296538,0.02757906,-0.4336231,0.006967411,-0.1938945,0.09381826,0.003491197,0.2629964,-0.5961511,0.05990542,-0.4321395,0.4688097,-0.3081728,-0.4708372,-0.231051,0.2279988,-0.3390872,0.02384727,-0.2378536,0.1214597,0.0760798,0.4416504,-0.2009764,0.296002,0.7486367,-0.2513439,0.3015649,0.6680534,-0.1741288,-0.3039967,0.2610064,0.3873609,0.0008001518,0.3174385,0.01391335,0.4343925,0.05483418,0.11946,0.4732462,0.1533321,0.4451069,-0.4531715,-0.04502599,-0.1448696,-0.05080432
0.0895898,0.5261707,0.477904,0.4543509,-0.2367709,-0.375593,0.6422268,-0.5376047,-0.184567,-0.1914667,0.06445257,-0.1551851,0.1010378,-0.242221,0.3701123,-0.008670859,-0.3382422,0.07415586,-0.5536458,0.04802154,0.6053176,0.405361,0.3668054,0.3105111,0.01386027,-0.04956463,0.3470086,-0.1063028,0.07699257,0.07339836,0.3306185,-0.2459423,0.203432,0.1771149,-0.4300455,0.4090532,-0.3831669,0.148032,0.4074555,0.2772225,0.1861619,0.3939763,-0.4821488,0.5696555,-0.3716635,-0.09650918,0.3271576,-0.4239143,-0.2100844,-0.03920224,-0.5897909,-0.2262163,-0.4537718,0.1708791,-0.5891883,-0.04060483,0.3994045,-0.349708,-0.4859243,-0.2470646,-0.2736907,-0.02902194,0.1143532,0.6486463,0.3296084,-0.04756389,0.3885935,-0.2166311
-0.3986971,0.1213896,0.1652694,0.2590856,-0.1615131,0.2784569,0.209424,-0.3556762,-0.6386146,-0.002282918,0.3864644,0.8761104,-0.4142237,0.4536061,0.4509083,0.2651182,-0.4101588,-0.1986698,0.2473647,-0.3897658,-0.4703207,-0.02748341,-0.06467779,0.4409817,0.2790185,-0.1281918,0.0887898,0.4639193,0.2256936,0.3436314,0.1613786,-0.003557971,-0.1704068,-0.3314286,-0.392134,0.4902162,0.1611627,0.4037924,-0.03371389,-0.09954987,-0.346949,0.09083349,0.2504179,-0.21284,0.08733918,-0.4698998,0.08038672,0.01346847,-0.02024672,-0.003154253,0.09238926,0.2643949,-0.09995776,0.2286813,0.4558733,-0.4055313,-0.5639688,0.1830845,-0.2833122,0.04027475,-0.2559952,-0.199562,0.3995089,-0.3835769,-0.006002901,-0.2127749,0.06295631,0.0107699
0.4515676,0.07934698,0.08082705,0.398056,0.3768781,0.03969745,0.2914526,-0.1881104,-0.183641,0.152273,0.1556158,0.06929912,0.01566587,-0.3122363,-0.002720882,-0.3675138,-0.2383115,0.5868489,-0.2158286,0.3273067,0.3025195,0.394653,0.0103152,0.1222431,0.008631845,-0.5546129,-0.002277592,-0.06166569,-0.1720458,-0.1940598,-0.1501287,0.04701081,0.1669505,-0.2619258,-0.1604168,-0.01653539,0.1593843,0.2982859,0.1602033,-0.148663,-0.1243719,0.1587228,0.1454307,-0.04883601,0.0473382,-0.5130844,0.5005375,0.08359796,0.01173372,0.355395,0.4304131,0.5035679,-0.2320033,0.4381243,-0.5119747,-0.04615593,0.04415171,-0.2166529,-0.06689472,-0.1084208,-0.03723042,0.06914471,0.5402071,-0.1617412,0.2910614,-0.06166968,0.1555818,-0.448976
-0.2323616,-0.4568813,0.9371683,-0.6238838,0.2557018,-0.2550978,0.2332806,-0.453662,-0.08809255,0.4735645,-0.1449287,-0.05334227,-0.1746751,-0.04362262,0.2979913,0.5284792,0.16534,-0.4314304,-0.1316616,-0.3985087,0.3087017,-0.2936963,-0.6171349,0.1142441,-0.03272238,-0.08607418,0.1300434,-0.3482223,0.235381,-0.3534792,0.1985652,-0.16727,-0.1668232,0.0902833,0.1434861,-0.1873004,0.4853067,-0.3436007,0.06204128,0.5293693,-0.112913,0.2941267,0.4156918,0.08631886,0.3091648,0.3132318,0.02571545,-0.1228911,-0.3698351,-0.02039068,-0.06089411,-0.4342424,0.1271657,-0.1401705,0.01212293,0.5683069,-0.5499265,0.3251072,-0.03464105,-0.3847979,-0.2246504,0.4581811,-0.008237623,-0.03638681,-0.1962,0.2940889,-0.4874133,-0.06212394
0.447088,-0.2284539,0.4190401,-0.3179173,-0.4030741,-0.3829177,0.3208775,-0.2386209,-0.2257105,0.2997561,0.1924976,-0.01661555,-0.01072273,0.3126197,0.3520905,0.09879248,-0.108431,0.2446668,0.4186571,-0.4705651,0.01610018,0.469813,-0.400279,0.1866736,-0.3387244,-0.1708969,0.1580854,-0.3774897,-0.3701656,-0.0634522,-0.08834621,-0.06551532,0.3108477,-0.001735458,-0.3310721,-0.3519662,0.221739,0.2225729,0.1229406,-0.1740141,0.2217889,0.2485527,-0.1964938,-0.1633863,-0.43464,0.3167413,-0.392963,0.1990564,0.3506599,-0.3615203,-0.04379904,0.4077113,0.3399038,-0.2944294,-0.4141608,0.1909921,-0.01414477,-0.4219288,-0.06522164,-0.4890422,-0.5593972,0.335197,0.1527067,0.3325151,-0.08146026,-0.411302,0.2193555,0.2605338
0.3448192,0.581365,0.4826285,-0.2237811,-0.03699959,0.6645653,0.3627015,-0.0091193,0.4275237,-0.1238453,0.1654002,0.5776873,0.5737761,0.2259734,0.3851855,-0.3264335,-0.2003583,-0.3230816,-0.3397638,0.06936198,0.1389597,-0.4085482,0.377496,-0.619141,0.5863574,0.4279398,-0.5060335,0.3671809,-0.4370932,-0.01369748,-0.2406381,0.1444038,-0.4514035,-0.1070362,-0.4101713,-0.2514396,-0.4357407,0.01035886,-0.5510663,0.142848,0.3813045,0.1809691,0.2664124,-0.4782832,-0.2895489,0.4890479,-0.4447677,0.005470913,-0.1845677,0.1921497,0.3645052,0.1407628,-0.09119655,-0.4228393,0.02489752,0.03570956,-0.2412825,-0.06788013,-0.4579106,0.4743607,-0.3967245,0.2517672,0.4678483,0.04260568,0.3101754,0.4596457,-0.5904672,-0.1772972
-0.2870607,0.2122815,-0.1560252,-0.3616541,0.3526438,0.01728193,-0.2920712,-0.05707262,0.1874971,0.1711558,-0.2877764,-0.3090612,0.03933765,-0.1301911,-0.435524,0.4519078,-0.005043315,-0.2192227,0.3682363,0.55483,-0.2608654,-0.0721962,0.1775749,-0.00215864,-0.2225508,-0.4398099,0.1721858,-0.6131746,0.3393087,-0.08622354,-0.2087588,0.3828961,-0.3865722,0.1693687,0.2849915,-0.3143747,0.3881264,-0.1524933,0.01374423,-0.532845,-0.2115345,-0.1348515,0.01344172,0.5938362,0.4252411,0.06153673,0.1382032,-0.05149279,0.04771933,0.3847016,0.1647434,0.4142639,-0.2529026,0.117651,-0.02598902,0.2163909,0.4230714,0.2622657,0.6104693,-0.152614,0.09864215,0.3253891,-0.329937,0.1156023,-0.1208205,0.6473308,-0.9323531,-0.2402067
0.7228165,0.2258475,-0.6344911,-0.5920405,-0.1623917,0.3527854,0.03194378,0.2250416,0.557785,-0.3763309,0.1817498,-0.1750581,-0.3561641,0.3303238,0.09904975,-0.3341342,-0.3728769,0.1087899,0.2472886,-0.1587804,-0.3490434,0.03449286,-0.2148165,-0.2655365,0.05997803,0.1049533,0.03668517,-0.0571139,-0.7570099,0.01564299,-0.3444992,0.1041441,0.2387694,0.06382111,-0.1514623,-0.2596483,0.6596518,0.3889394,-0.2582073,0.1285406,0.1978632,-0.4382982,0.5265534,-0.22048,0.284626,0.3937935,0.2647028,-0.2543501,-0.254922,0.3478051,-0.008726376,0.06531684,-0.3737212,-0.4549637,0.4070931,-0.09910535,0.1537671,-0.4612546,-0.2574962,0.3018178,-0.04113562,-0.5303989,-0.04654652,0.09235412,0.01203244,-0.3933039,0.372556,0.3182439
-0.1555293,-0.1136099,0.02169747,0.3549176,-0.04881484,-0.1625541,-0.4497119,-0.1825634,-0.4412591,-0.5928292,0.2650316,0.2725604,0.3654429,-0.0122521,0.1215263,0.4303563,-0.09708361,-0.3951432,0.08516014,-0.5044525,-0.1968161,0.3602694,0.08371734,-0.1734276,-0.0788252,0.4041137,0.8771774,0.002080268,0.4633148,0.2225564,-0.002118164,0.6453547,0.5420871,-0.2667889,-0.5326992,0.4253679,-0.1977058,-0.03475714,-0.05501997,-0.07386131,5.940764E-05,0.3582825,-0.2957448,-0.1619463,-0.2648045,-0.02000153,0.4958667,-0.3303189,0.0490073,-0.4380177,0.3933468,0.121074,0.07662097,0.2191978,-0.3171652,-0.2724225,-0.3011101,-0.1724253,-0.4142105,-0.728062,-0.3931228,-0.2001848,0.4980563,0.4676362,0.2538457,-0.02873899,-0.4137705,0.3509575
0.3971662,-0.3401697,-0.03424759,-0.1780771,-0.3816341,-0.8799052,0.3948717,0.1825683,-0.307188,-0.04908959,0.5425447,-0.3840728,0.1164785,-0.03923503,-0.5505826,0.09978966,0.1206313,0.1744341,0.08225551,-0.2631934,-0.3698874,-0.01322675,0.1243868,0.6027701,-0.2324313,-0.1880015,0.214351,-0.2616636,0.1987595,0.2975737,0.5068261,0.5564169,-0.01017925,-0.05876427,0.2273547,-0.20014,0.5632687,0.3785817,0.5527272,0.05933123,-0.2064145,-0.1736171,0.04660529,-0.2520599,-0.4762806,0.07252915,0.4406845,-0.5002159,-0.1493265,-0.2755046,-0.1013753,0.3491142,-0.2044027,-0.09244069,0.3000443,0.1107679,0.2231141,-0.331179,0.03921651,0.1461615,-0.3474659,0.09073313,0.2707794,0.3365247,0.3228999,0.2268338,-0.5922751,0.2050425
-0.5794539,0.2297788,-0.3416639,-0.3400139,0.3289199,-0.3362335,-0.4076556,0.5683079,0.2948309,0.4127027,-0.4741116,0.4550081,0.2312853,-0.4526573,0.494086,0.4306734,0.1518011,-0.2537496,-0.1490286,0.5692463,0.1740689,-0.1608411,0.008225039,-0.02997557,0.02717467,-0.1404439,0.2915102,0.1027432,-0.1063326,0.1676279,-0.05665827,0.1939675,-0.1059073,-0.08204827,0.2426674,0.5019849,0.523026,0.140458,-0.04636215,0.3673148,0.09391234,0.1416864,0.2014682,0.2851891,-0.007501488,0.6220148,0.2591184,-0.138278,0.3640781,-0.3747914,-0.2451592,0.4825982,0.2701219,0.01172259,0.09377539,0.3729656,0.3360209,-0.1212655,-0.3732707,0.3206694,-0.1589803,-0.1492417,-0.1854489,0.04908586,-0.3875242,-0.5774959,0.2069952,0.2107314
-0.09941825,0.05629714,0.002627241,0.2729176,-0.1892564,-0.03122176,-0.1499222,-0.4635917,-0.4471002,0.5512695,-0.1105097,0.5662951,0.5784031,-0.05792131,0.4170848,-0.1630248,-0.1540087,-0.04527438,0.1305593,-0.4450546,0.437212,-0.1932472,-0.3559225,0.1720064,-0.4625928,0.4510899,-0.0557648,-0.287586,-0.2629776,0.2955133,0.2392165,0.2295416,-0.2855989,-0.09651417,0.04795618,0.3973187,0.04256254,0.6323993,-0.2301376,-0.04137219,-0.1956527,0.5296249,0.07416958,-0.040493,0.1767529,0.2028269,-0.2974528,0.4080169,0.229947,-0.4969493,-0.3260541,0.4434873,0.2289821,0.2176559,-0.2534643,0.07911974,0.2144698,-0.4260067,-0.4000145,0.489092,0.1118669,0.06225888,-0.4239947,-0.2640822,0.08218451,0.1370197,0.4074508,-0.3795954
-0.3527315,0.2314982,0.2771791,0.2574213,-0.2979709,0.2305021,0.1663967,0.3909829,0.1181665,0.2460364,0.2305929,-0.1338057,-0.4382204,-0.192446,-0.3308339,-0.505096,-0.3274511,-0.050038,-0.2119861,0.05476729,0.5365327,0.03874806,-0.2779783,0.4290578,-0.3427324,-0.4971475,-0.4527283,0.1037362,-0.3242223,-0.06899644,-0.084024,0.2150045,-0.2945214,-0.1889954,-0.4064696,0.2539594,0.03905353,0.3760745,0.06971066,-0.3227834,-0.239442,-0.3989413,-0.3858844,-0.2614203,0.3097768,0.2893213,-0.1021476,-0.4241611,0.07807429,-0.5573878,-0.1499352,-0.1098286,0.2858053,-0.0234589,0.1199281,-0.3348758,0.08626925,-0.08649492,-0.2239069,-0.3891189,-0.175078,-0.4986987,0.5202286,-0.400162,0.2066637,-0.2219278,-0.3331673,0.5851405
0.1953853,-0.2263396,0.3056684,0.4914164,-0.2357708,0.5600078,0.589865,-0.2500978,-0.01519389,-0.1655513,0.05562691,0.408744,0.2207653,0.2419188,0.3758327,-0.04105501,0.2920341,-0.3664892,0.0279961,0.06322839,0.405239,0.08863371,-0.1262161,-0.2017169,-0.08025682,0.1031051,-0.5249448,0.07601401,-0.07922558,0.5209541,-0.3073027,-0.2588978,-0.1410861,-0.556977,0.004444528,0.5297002,0.1399415,0.4576431,0.3762731,0.3064468,-0.5383763,0.4906615,-0.704327,0.01548926,-0.3529373,0.210326,0.02568082,0.004874494,0.5674405,0.6104102,0.3920885,0.02815834,-0.6349186,0.09601986,-0.26517,0.1598072,-0.6366611,-0.1840524,0.01280933,0.5756281,-0.1710679,-0.04347852,-0.1274053,0.4309847,0.04643038,0.315639,0.06926493,0.1566345
0.5786254,0.1736676,-0.07126097,0.03735504,-0.3994785,-0.09973001,0.43797,0.01043844,0.3372154,0.3798761,-0.5688339,-0.08807459,-0.3586281,0.2433853,0.3749305,0.09247395,-0.1813924,-0.4098418,-0.3141626,0.4606657,0.06933454,0.3616114,-0.4234188,0.8015107,0.2990487,0.2829069,-0.1798923,-0.3079739,0.0874584,0.3684269,0.06219907,0.2158219,-0.2406377,0.02991491,-0.3813824,-0.354598,-0.395976,0.2836434,-0.1041266,-0.4623146,-0.3508721,0.2983352,0.08906628,0.2823243,0.2191225,0.3002669,0.4623742,-0.1002251,0.4708121,-0.3439412,-0.07774297,0.2455857,0.08340124,0.06220087,0.4232771,-0.4527459,0.09176613,0.5153769,-0.4419183,0.314521,0.07191838,-0.1460609,-0.2234239,0.007485836,0.06263778,0.1731409,-0.3157879,0.07049689
-0.1669317,-0.004947935,0.0783259,-0.4859441,-0.2574113,0.224524,0.1891937,-0.1394767,-0.1911027,0.08672439,0.3052008,-0.4688246,-0.1252993,-0.5525918,-0.1593129,-0.2562757,0.2356645,0.2812514,0.1020866,-0.1835837,0.2941709,0.4774054,0.0619122,0.356853,-0.2328978,-0.180939,0.02325747,0.03006472,0.4233012,-0.2839844,-0.5197694,-0.3918096,-0.02878034,-0.5099749,-0.48702,-0.1532601,-0.4867168,-0.164193,0.2991784,0.6834677,0.2127083,-0.3106403,-0.1960665,0.06662675,0.4900005,0.58324,-0.02565849,-0.1376519,-0.5304855,-0.1708391,0.1021199,0.3873237,-0.01829672,-0.2349527,-0.4668757,0.378268,0.001845128,0.3900473,-0.36501,0.3263976,0.4636802,-0.3136239,-0.008834402,-0.406043,-0.1710333,-0.1449079,0.2588175,-0.1555083
0.3326987,0.01810508,0.3472029,0.06133024,0.06984352,0.4729558,-0.2093152,0.2655615,-0.1923947,-0.2835356,0.1535136,-0.2325605,-0.007244803,-0.1459567,-0.6718312,-0.3475482,0.3471009,-0.05963136,0.5373901,-0.2799011,-0.4859812,0.4051063,-0.4641155,-0.2811571,0.1888483,-0.3968436,0.1831608,0.08035843,-0.0289579,0.1740232,0.01097713,0.2657615,-0.3224805,0.07093662,-0.2191235,-0.2653714,-0.1346664,0.01544108,0.05205393,-0.04269997,-0.07686141,0.3656175,0.3486738,0.02707387,-0.2847312,0.2683796,-0.119201,0.3112051,-0.403416,-0.009727555,0.1270434,-0.1173697,0.1119065,0.3383981,-0.4865968,0.09092937,0.6199254,0.3127114,0.2885447,-0.04188172,-0.1099696,-0.2317711,-0.2031602,-0.1436644,0.09407975,-0.2114261,0.008356186,0.1446571
-0.05332498,-0.1610247,0.1755898,-0.1690532,0.7156604,0.1348542,-0.2028928,0.596581,0.3726141,-0.1280444,-0.2982689,-0.4802407,0.04481981,-0.09021445,0.2987867,-0.1732645,-0.2812195,-0.1784564,0.599591,0.1840941,0.3016125,0.3800178,-0.4363405,0.3008845,-0.3161332,0.3687927,0.3541644,-0.09738877,-0.1673229,0.2969875,0.3212415,-0.4849024,0.2926598,0.04123356,0.008426196,-0.229432,0.08300588,-0.1626627,0.2056501,-0.3647113,0.07043646,-0.06068838,-0.6130255,0.2004922,0.4127686,0.1038692,0.3501599,0.1189847,0.3666467,-0.250284,0.3467375,-0.116306,-0.4390412,0.008199772,0.1719529,0.03138059,-0.2841482,-0.1676361,-0.2372157,0.3150873,-0.7612399,0.4816359,-0.3275118,-0.1988063,-0.2614265,0.2690168,0.4626955,-0.059487
0.2908484,0.03933437,-0.320545,0.2484962,0.3776157,-0.3808485,-0.0404218,0.2035271,0.223082,0.01055101,-0.1522191,0.0858025,0.5114491,-0.4247916,-0.144809,0.333572,-0.4885235,-0.4314266,0.07253569,-0.3744016,-0.3367337,-0.2410925,0.06935246,0.08317271,0.4266637,-0.2318312,-0.2751758,-0.573563,0.01464234,-0.1318362,-0.2786297,-0.06514896,0.3180893,-0.2075348,0.423919,0.3165113,0.3055842,-0.1139697,-0.02862089,-0.5520523,0.1422822,-0.4586827,-0.2928267,-0.3703847,-0.3277887,-0.3041863,-0.209758,-0.4900613,0.4460514,-0.2330766,0.3924571,-0.330234,-0.1218875,0.1208099,-0.3797478,0.1821857,-0.3155858,-0.06660131,-0.1367846,-0.45019,0.1635037,0.03451721,0.2932525,-0.1254981,-0.1133544,0.3283277,-0.3833231,-0.1568425
0.3718595,0.4987751,-0.4018168,-0.5998125,-0.310195,-0.511678,0.3154639,0.4998655,-0.1403456,0.2400186,0.07758073,-0.2437198,0.1064578,0.05007621,0.0202375,-0.3333263,0.05967048,0.2973463,-0.4785226,0.2537655,0.09619078,0.01972589,0.5675743,-0.5614194,0.5201238,0.2066502,0.05354313,0.1551457,-0.3009037,-0.08960027,0.03006232,-0.2262352,0.3213488,0.06967234,-0.05712805,-0.4752274,0.1913379,-0.3778422,0.09074618,0.1398212,-0.874018,0.3425329,-0.219982,-0.387303,0.5774091,0.162457,0.2034694,0.1860926,-0.6419011,0.07099503,-0.5691512,0.4637825,0.3277099,-0.5488614,0.3418673,-0.4270162,0.3863096,-0.4628773,-0.003697773,0.2899016,-0.2324428,0.02037864,0.1480162,0.04360035,-0.3668192,-0.03738974,0.3235812,-0.04285882
0.3445109,-0.2181245,-0.2691753,0.04066099,0.04776119,-0.569039,-0.4505031,-0.1794159,0.0684385,-0.4488724,0.06134472,0.2809001,-0.02149571,-0.2349707,0.5289102,0.1227661,-0.08899059,0.4874609,0.3617072,0.4057916,0.404613,0.399534,0.08943088,-0.3195485,-0.5433323,-0.1961347,-0.002441776,0.001939389,0.3207905,0.04637558,0.4351475,0.2919051,-0.3956577,0.06577474,-0.02287517,0.2626898,-0.195956,-0.3127958,-0.3778343,0.08744441,0.10318,0.3097084,-0.2836492,0.4244465,-0.1133654,-0.1760896,-0.2427891,-0.2118852,0.4629402,0.1883547,0.2295803,0.3105015,-0.7891949,-0.1891376,-0.3493563,0.1271781,0.1128339,0.03508711,-0.1939565,-0.6008839,-0.008884083,-0.4117623,-0.006085691,0.4217488,0.0708054,-0.05410554,-0.5281032,-0.2400871
-0.20643,0.3927102,-0.1541405,-0.07406747,-0.2660224,0.04866802,-0.3630281,-0.2376378,0.2100949,-0.1339759,0.1043032,-0.3655064,-0.3063936,-0.03635056,0.5898954,-0.03961685,-0.3569535,0.5892733,0.00630565,-0.3092653,-0.1238007,0.01626872,-0.09937295,0.1020425,-0.03383091,0.2088845,0.3084149,-0.4602629,0.1936733,0.2880203,-0.5463898,-0.04889014,0.4664464,0.2415363,0.1190222,0.5688186,0.4148524,-0.07039024,-0.1555212,-0.1489134,-0.4301684,-0.202225,0.07402568,-0.06679963,-0.2030066,0.1479208,-0.09654769,-0.1328343,-0.1050336,0.469905,0.3176892,0.333686,0.06702911,-0.2693398,0.3757029,-0.2572678,-0.2992978,-0.06361947,-0.2682408,-0.4760117,-0.2121642,-0.2320007,0.4292759,-0.1628204,-0.1647476,0.06410907,-0.3357202,-0.1014668
-0.1665042,0.3869232,-0.05217518,-0.2885461,0.2173588,0.05110173,0.5016338,-0.1222788,-0.4489876,0.2305489,0.04637524,0.3467581,-0.382708,-0.2048258,-0.03302067,0.02609827,0.009180351,0.3952453,-0.3931477,0.2042629,0.2793115,0.5548822,0.4927546,-0.4094208,0.09263597,-0.46357,0.01192444,-0.4803441,-0.1395646,0.06834111,0.06994519,0.1055411,0.3933589,-0.2546597,-0.006542617,-0.249502,0.7253983,0.02066144,0.3311263,-0.2028866,0.1416931,0.4684815,-1.58514E-05,0.5167766,0.4553114,-0.3598908,-0.1666013,-0.03015155,-0.1927955,0.07211082,0.2722423,0.3070922,0.5392931,0.3079487,-0.2056924,-0.555132,0.01432972,-0.4573737,0.5707712,-0.003114224,-0.4583837,0.006161613,0.4765408,0.1911902,-0.5263844,0.4424948,0.5856065,0.2842371
0.1104282,-0.1038664,0.2864167,-0.004492808,0.2651321,0.314763,-0.05645788,0.1290734,-0.753186,-0.2331541,0.06128601,-0.0005801391,0.3223165,0.07949741,0.3947097,-0.03536909,-0.3770347,-0.1915665,-0.2494379,-0.2882681,0.07268654,-0.1612621,-0.1815432,-0.01037218,-0.08620314,-0.6403136,0.4623044,-0.4209625,-0.1666882,-0.703322,0.03870385,0.4138575,-0.3445618,-0.3671694,-0.05357219,-0.5093508,0.1786886,0.2909384,-0.2188525,0.5868836,0.394059,0.02842677,-0.3174232,-0.1253266,0.3347181,-0.1080858,0.03252429,0.1024275,0.07491748,0.1025467,-0.1952948,-0.355713,-0.1230948,-0.05017903,0.1865508,0.354936,-0.08939978,-0.3318983,0.1541914,-0.0718649,-0.1578197,0.2682121,0.3988438,-0.4193575,0.2824384,-0.02902724,0.5634682,0.2771166
0.3864318,0.2013057,0.2889268,-0.3878529,-0.2099307,-0.1314308,-0.1018584,-0.3490687,-0.6093556,-0.3305076,0.03397866,0.0990527,0.1916888,0.007653845,0.08939338,-0.07455549,0.4425872,0.1172334,-0.4958299,0.1129669,0.1092121,-0.2168207,0.3155696,-0.07057597,0.01834085,0.2532406,-0.0007950327,0.2192334,-0.3116339,0.3294277,0.1478004,0.7595285,-0.3420602,-0.4005533,0.02465557,0.3100239,-0.3701383,0.2269364,0.533775,0.2551767,0.1954815,0.2401125,-0.08717968,-0.4765578,0.4739454,-0.1576036,-0.3915673,0.0345638,-0.2201921,0.1295943,-0.03879551,0.1300601,0.4275277,-0.211581,-0.2163729,-0.3364845,0.3628209,0.406106,0.4974343,-0.1010053,0.2755658,0.1825963,-0.1354058,0.1606809,0.1993675,-0.1773422,-0.2107477,0.006094574
0.006551348,-0.1086055,-0.3393621,-0.2960485,-0.2723239,0.4944549,0.02626828,-0.04975007,-0.05875085,0.2523407,-0.05928554,0.1166759,-0.5688279,0.6247007,-0.4550402,-0.3328804,-0.2700823,-0.4379477,0.6114419,-0.210768,-0.2480548,0.3924919,0.3960091,0.008347871,0.8912817,-0.0925755,0.4273317,0.1906884,0.2678228,-0.208693,0.2624663,0.1870455,-0.3910559,0.1536614,-0.2198548,0.09329113,0.1864165,-0.0003457449,-0.2927793,-0.3577165,-0.2920787,-0.1144694,0.4023632,0.4093669,-0.1637639,-0.3259425,0.1020664,0.4690978,0.1958331,0.4579722,0.5956802,0.210019,0.1620827,-0.3058533,-0.1947194,-0.1734889,0.151437,-0.1644203,0.4373732,-0.0639622,0.1788641,-0.02314937,-0.07680524,-0.2066603,0.08168194,0.3191857,-0.02359941,-0.3613562
-0.3969443,-0.09247185,-0.07792692,-0.04188551,0.4111513,-0.0931161,-0.6893601,0.04502663,-0.1006396,-0.04658232,0.1348959,0.3164408,-0.3015983,-0.5411581,0.1639285,-0.02018908,-0.5999258,-0.05963609,0.3869293,0.1749943,0.3894559,-0.3044549,0.4658974,0.3641019,-0.1628993,-0.0409506,-0.2960692,-0.003551289,-0.6893815,0.351133,-0.08345723,-0.2478655,0.3718736,0.2103417,-0.1536961,-0.07832557,-0.3862445,0.1438047,-0.5139207,-0.5929492,-0.08349014,-0.09970155,0.2666941,0.1343489,-0.1028158,0.5749941,-0.1744436,0.1341678,-0.275263,-0.4255387,0.03294191,-0.3652675,0.554157,0.3163866,-0.4063948,0.1345619,0.3352749,0.5073192,-0.454056,-0.06327505,-0.3187356,-0.1369179,-0.3302956,-0.1339243,-0.3409981,0.2019159,0.1360141,-0.03783935
0.3349431,0.1941222,0.1910919,-0.1595219,-0.7047113,0.5165195,-0.1440365,-0.08774462,-0.374792,0.4789882,0.1982469,0.3150845,0.03609933,-0.2040667,-0.3969685,-0.05555508,0.4186744,-0.4030822,-0.1153276,-0.1281917,0.02442542,0.1652687,0.1039732,0.1526307,0.7574093,-0.1555082,-0.1420515,0.1272789,0.192026,-0.440938,-0.1508491,-0.1643874,-0.2960941,0.4911014,0.004468699,0.04511425,0.1573011,-0.2531116,0.2133593,0.1667744,-0.06121685,-0.07503266,-0.4197449,0.07850023,-0.04919434,0.6148133,0.03372077,-0.2324549,0.2582923,0.4364589,-0.2042456,-0.3181864,0.2699125,-0.3378201,0.5095168,0.1848738,0.100016,0.4565766,0.4799745,-0.4341262,0.2262866,0.1092197,-0.1787594,-0.406438,-0.2833984,0.3968743,0.03489092,-0.002156256
0.1745235,0.8246256,-0.241271,0.5874816,-0.1345167,-0.1508408,0.139866,0.06280211,0.1672239,0.2453007,-0.6615047,-0.5630063,-0.423868,0.2863382,0.06222745,-0.3075888,-0.2624111,-0.5047904,0.432757,-0.08130428,0.5279477,0.3800331,-0.7391012,-0.1643973,0.1905652,-0.1002586,-0.05995836,0.4185745,0.3392875,0.2243769,0.3707579,-0.07136928,-0.1543656,0.2259862,0.3980263,-0.2885216,0.1506107,0.2811799,-0.2172047,-0.3580957,-0.2569806,0.255301,0.002978711,0.2046786,0.3623906,0.1446975,-0.6863977,0.7116433,0.5049158,-0.03531703,0.08370089,-0.4573871,-0.4238309,0.1503426,-0.4435836,-0.6882988,0.4551685,0.5237867,0.4516445,0.1840215,0.3394813,0.1502336,0.01741793,0.08395353,-0.1387201,0.2556767,-0.2613139,0.4223924
-0.3942122,0.4048524,-0.0980201,0.00777923,0.254891,0.4840834,-0.6131099,0.02342483,-0.3360086,0.477562,-0.24781,0.330196,0.2120934,0.04554476,-0.110484,0.3741898,0.2988627,0.2775086,-0.02056007,0.2261192,-0.2706831,0.1245388,-0.5740539,-0.4109095,0.3124988,-0.0605598,0.511593,0.146945,0.2590982,0.1634779,0.2459913,0.8291574,-0.03652483,0.04588392,-0.08852537,0.06350914,0.3854177,-0.1391654,-0.2488721,0.01043535,-0.08018599,0.3753285,0.436947,-0.3739643,-0.05252106,-0.2085625,0.4934918,-0.2467924,0.08488896,0.5059358,-0.1957052,-0.006207916,-0.1117121,0.09531121,-0.4713115,-0.5204455,0.6012343,-0.5372987,-0.0281414,-0.123152,-0.5614964,0.2375785,0.1375781,-0.3129148,-0.3453869,-0.2791866,-0.780762,-0.1202313
-0.1498394,0.3114085,0.5936007,0.09643114,-0.5162617,-0.1355117,-0.4462537,-0.1944284,-0.3170742,0.1042616,0.4315084,-0.2571374,0.1308888,-0.3191255,0.46687,-0.268811,0.3015702,-0.07474627,-0.4248903,0.4729691,-0.3591769,-0.01430002,-0.3929864,-0.4540499,0.05171968,-0.2254836,-0.07370189,-0.5501542,0.2442681,0.4053046,0.1062542,-0.2308224,0.0918301,-0.05054228,-0.5663213,0.2646415,0.3837768,0.123663,-0.2050904,0.07559756,0.0835173,-0.03778926,0.3100266,0.2784735,0.1936313,0.1486638,0.3120707,-0.4823734,-0.05356469,-0.432651,0.1738587,0.3685193,-0.3851307,-0.02984492,-0.02454613,-0.2564803,-0.1290235,-0.2737569,0.08624174,0.09656019,-0.4016333,0.0154808,0.08399247,-0.2964701,-0.1514587,-0.09513202,0.02486151,0.0242917
-0.1055318,0.02233534,-0.01971134,0.1289932,0.1070607,-0.3855467,0.223598,0.008366991,0.0001835297,-0.1593708,-0.3863415,0.4148762,0.197661,0.04127487,0.3074095,0.5027167,-0.1098428,0.4923995,-0.3288643,-0.3331628,-0.4111324,0.1125807,0.3656065,0.06341178,-0.3504626,-0.3909167,0.2048658,-0.4489376,0.3242599,0.3361433,0.4100978,0.3064416,0.5858688,-0.4851682,0.4326174,-0.003085658,-0.3006057,0.3944215,0.2845806,0.4068846,0.3192328,0.4532259,0.383516,0.5048938,0.07103167,-1.166576,-0.0666307,-0.1664457,-0.7147906,0.2889239,-0.3772201,-0.3049093,-0.005682296,0.02362715,-0.03397097,0.1055271,0.03042629,-0.06540079,0.578144,-0.312689,-0.03610744,0.4500588,0.0904411,-0.1575674,0.1632286,-0.3004134,-0.3347339,0.06855027
0.01216418,0.5070615,-0.4393041,0.3650343,0.4661095,0.1361281,-0.5073501,-0.364323,0.1509929,0.2719732,0.3797466,-0.4823008,-0.3242448,-0.1493344,0.4938365,-0.314016,0.347786,0.1179234,0.2264772,-0.1735001,0.03883421,-0.2121453,0.2845266,0.06533549,-0.2621473,-0.1760109,-0.115903,0.09188873,-0.1996955,0.4713605,-0.3442712,-0.04949521,0.1325328,0.2083762,-0.3139607,-0.4415007,-0.07255515,-0.09483711,-0.2908135,-0.4103088,0.273754,0.281439,0.1821311,0.06136484,0.5356548,-0.06225732,0.3516889,0.04401104,0.3817722,-0.06181631,-0.07499393,0.4275673,-0.4179782,0.277998,-0.1017854,0.2099776,0.3111282,0.2826108,0.01088155,0.03417621,0.4072363,-0.6452519,0.5937124,-0.2061199,-0.3688293,0.2182328,0.3764842,-0.4515685
-0.02735652,-0.1548886,0.2693519,0.0322768,-0.3434984,-0.2487611,0.1966676,-0.3702652,0.1395297,-0.6995957,0.1540374,0.5012148,-0.4177713,-0.4714862,0.1829713,-0.2338938,-0.06571896,0.6393253,-0.7281001,-0.3285426,0.5733855,0.1399598,-0.02361864,0.1236895,0.05240668,0.2895236,-0.5062468,0.1540557,0.1876778,-0.1356094,0.2549856,0.3139125,-0.2775888,-0.08135685,0.2488954,0.2461108,0.0929601,-0.05843493,-0.004357104,0.1383009,-0.4309094,0.1749535,-0.1883747,0.334498,-0.40754,-0.599854,0.4218508,0.5929694,0.3952214,-0.3683004,-0.4537359,0.1887227,-0.3607335,0.5190138,0.06367514,0.2244407,0.3234941,-0.04842124,-0.172668,-0.1742544,0.1452879,0.3199094,-0.1768453,-0.1940652,0.1091907,0.3497991,-0.6109017,0.4802106
-0.6286717,0.1634052,-0.1884024,0.545846,-0.2569083,0.266164,-0.4628909,0.1802262,-0.2342367,0.321206,0.6063197,0.2140083,-0.06497527,-0.004034283,-0.467758,0.01310155,-0.2140307,0.2598318,0.5704677,0.5180815,0.3431906,-0.364944,-0.03852933,-0.5368143,0.02260885,0.2968921,0.4093843,0.1262433,0.2400267,0.1283697,-0.4792283,-0.4309726,0.4522707,-0.4909619,0.03829874,-0.02725346,-0.2255706,0.2120339,0.3936732,-0.09099139,0.1787057,0.1731624,-0.7461178,-0.2431323,0.02196961,-0.3498507,-0.4863868,0.3159167,-0.2436633,-0.5680533,-0.009479952,0.1040471,0.4391045,-0.03345114,-0.5597475,-0.6136085,0.1420928,-0.4835158,0.03809357,0.200017,-0.3448977,-0.4378936,-0.2739664,0.6539169,-0.02541499,-0.2803942,0.2233458,0.1059436
-0.2942733,-0.2012045,0.1229809,0.7223447,-0.1963468,-0.4146575,0.5357862,-0.3446683,0.2417681,0.2612432,0.3221855,-0.2997799,-0.003187782,-0.1842744,0.1225772,0.229914,-0.2862766,0.4246568,0.03948897,-0.4512666,0.2039048,0.4524933,-0.07066387,0.3951226,0.3897644,0.3629052,-0.09496571,0.01844517,0.268022,0.1342127,0.04404904,0.3733408,0.005277471,0.08866271,-0.1592742,-0.1502299,0.05733765,0.02957311,0.001582444,-0.04189409,0.005273355,0.2173206,0.1604428,-0.3374228,-0.1877158,-0.3235088,-0.2225329,-0.1566167,0.5365719,0.3453158,-0.09444559,0.2931909,0.2753804,0.2414631,0.3776298,0.2514255,0.1058398,0.2984941,-0.1506679,-0.5094663,-0.3767022,-0.2018878,0.3002455,-0.07637782,0.3091778,0.1625185,-0.08319713,0.2373141
-0.0245738,0.03719047,-0.4627743,0.3361208,-0.07189311,0.4455337,0.2029464,-0.1381434,0.01305555,-0.1456197,-0.2713576,0.0871862,-0.3280298,0.4862134,-0.08931189,-0.4428733,-0.1382943,0.2870033,0.3973191,0.2452252,-0.1225998,-0.4983355,-0.184225,-0.3539407,-0.03282575,-0.1871199,-0.1256944,-0.1770107,-0.2654228,0.01096238,-0.2159431,0.1577562,0.329579,0.4893064,-0.440335,0.3004164,0.522954,0.3787358,0.5479595,-0.2271465,0.5809845,-0.5521066,0.2845492,0.2224036,0.813493,0.3650353,0.3621647,0.4553271,0.3060695,-0.2381337,0.09792422,0.1229535,-0.1571817,-0.01143225,0.2801043,-0.2372816,-0.3239757,-0.192069,0.6997865,-0.2530434,-0.4532555,-0.02145381,0.3526923,-0.1808034,0.2908855,0.001183557,-0.1331409,-0.4715666
0.3105204,0.1777505,0.3126513,-0.3954731,-0.08932002,-0.04318898,0.09879572,-0.1020558,-0.007295593,-0.1487315,0.05119748,-0.3569252,-0.1463431,0.4179612,-0.1214742,-0.1714697,-0.4060188,0.1994061,-0.3724374,-0.07696281,0.3441344,0.05703729,-0.5561107,0.3056443,-0.3857314,0.08708128,0.2924228,-0.07669201,0.4318794,0.2779273,0.07777873,0.01268304,0.2851797,-0.3325059,-0.2101381,-0.3229266,-0.160509,-0.01044229,0.1971785,-0.379255,0.1770604,-0.4222039,-0.4640755,0.05478204,0.4398495,-0.3534809,-0.1352776,0.5339742,0.4538833,0.2987739,-0.3571731,0.02031256,0.2794902,0.3826395,-0.04294842,-0.3366706,-0.2702766,0.2820734,0.09318005,0.1985504,0.5568846,0.4940522,0.04421912,-0.2321491,0.3524061,0.0210041,-0.1281547,0.6641764
-0.3443007,0.144756,0.07665291,0.1136626,-0.1386974,-0.2548046,-0.3463382,-0.3570017,0.1563206,-0.2711349,0.03642387,-0.3426622,0.06417216,0.09562817,0.2875269,0.3271722,-0.2310048,-0.4431352,-0.07430181,0.1842026,-0.272918,-0.4013435,-0.2983445,0.01744344,-0.449349,-0.001342698,0.3320325,0.5113505,-0.2580178,-0.4507947,0.1698499,0.1404989,-0.358207,-0.3629086,-0.1145775,0.1198328,0.0408771,-0.02070389,0.01493523,0.4231575,-0.1418781,-0.4967697,-0.06058678,-0.7106745,0.2402871,-0.1455577,-0.2234493,-0.3649078,0.4347851,0.2682935,-0.009050403,0.001558747,0.2159487,-0.1061677,0.6220317,0.0458097,-0.1449271,-0.09927575,0.1599884,-0.3511688,0.5320818,-0.2116585,-0.4474778,-0.3202486,-0.4535756,-0.297644,0.2834646,-0.04263884
0.2918255,0.6565019,0.2452366,0.3238154,-0.4399843,-0.5184986,0.2586491,-0.06157584,-0.2090423,0.1686523,0.02664996,-0.004492901,0.1814004,0.1906224,0.2752901,-0.105865,0.2457986,-0.3517017,-0.2704839,-0.4156996,0.05842119,0.1449952,0.1363983,-0.111042,-0.2318716,0.5091798,0.532239,-0.3517515,0.1647149,0.2022686,0.301734,0.3868298,-0.2244848,-0.007247856,0.3382096,-0.2931926,-0.2100764,-0.4844733,0.02076475,0.2632594,0.01890533,0.4311608,0.07310686,-0.01498379,0.05723311,-0.2100542,-0.2719027,0.1824376,0.48931,0.1659313,-0.1549617,-0.3091571,0.2074034,0.0261021,0.1839184,0.1671547,0.3712784,-0.2708208,-0.3695587,-0.08004536,0.1202371,-0.02421301,-0.2756892,0.7656921,-0.1173398,0.648559,0.07645783,0.02112162
---
-0.03218752,-0.01305053,0.1637806,0.3517926,-0.3249525,-0.0649954,-0.3377157,-0.1811303,-0.03668479,0.5349535,-0.1136122,0.05820294,0.202462,-0.2617211,0.2630921,-0.03558991,0.1586044,-0.2320731,0.09449015,-0.03116582,-0.3306492,-0.2712624,-0.06168149,-0.3266963,-0.2657436,0.2542865,-0.1262055,-0.004533569,-0.08704471,-0.2341461,-0.2647545,0.4781303,0.5486899,-0.2303793,0.4613431,0.4480405,-0.1664955,-0.5183923,0.2721263,0.004690721,0.1781136,0.09147992,-0.1551763,0.2696177,0.564102,-0.4730669,-0.1023698,-0.7496502,0.2552245,-0.4576942
0.4432796,-0.2892835,0.6053113,0.07349564,-0.4264313,-0.5917038,0.3958305,0.05440406,0.3856537,-0.5254884,0.3127114,0.131119,-0.4647022,0.06009622,-0.005438913,0.1392707,-0.1053884,0.08566727,-0.7566747,0.3342775,-0.5549634,0.3020469,-0.3668763,0.5851231,0.4674571,0.4709112,-0.1336577,-0.1247577,-0.2952785,-0.2693477,0.1194853,-0.2512241,-0.5930492,-0.1216254,-0.533366,0.1378199,0.03853259,-0.4928014,-0.2125794,-0.007748483,0.09626957,0.07892477,0.2864239,-0.3488693,0.1778658,0.4225224,-0.3765796,-0.1051862,0.1028504,0.3972974
-0.2359387,-0.2527217,-0.2792656,0.003645441,-0.2026407,-0.3679889,0.6848147,-0.01831199,0.03504279,-0.04688135,0.2863986,0.4589954,-0.2700114,-0.4192748,0.4816083,-0.01269495,-0.05655875,-0.4109038,0.5280496,0.07732375,-0.1194177,-0.4620819,-0.1400075,0.02237425,-0.1142415,0.4099581,-0.3299003,0.1512469,-0.1222588,-0.2320677,-0.05362194,-0.0353623,-0.2266652,-0.187687,-0.06220004,0.3602606,0.1308716,-0.1635067,-0.3341333,-0.1950347,0.5056141,0.3709885,-0.3457383,-0.3979466,-0.4341432,0.1714072,-0.356402,0.418888,-0.2231483,-0.1638595
-0.2404769,0.2670507,-0.5381867,0.308145,0.2109421,-0.3103799,0.2221975,0.1607285,-0.3476865,-0.08474302,0.2303502,0.1367088,-0.6483213,0.3036411,0.4132112,-0.222893,0.2255352,-0.1244798,0.3284669,0.4267257,0.5827596,0.495118,0.163023,0.1766542,0.3730055,-0.1704759,-0.2619589,0.3841882,-0.3458199,0.03609358,0.09058281,0.7130371,0.3561865,-0.2503097,-0.3808145,0.4599347,0.5672354,0.2381211,-0.3289751,0.4531162,0.3654336,-0.09134228,-0.0560875,-0.3872509,0.2487213,0.1977255,0.205324,-0.2247199,0.341071,0.1452255
0.2680254,0.09099492,-0.02273548,0.4893817,0.03745224,0.1809985,-0.1329907,0.2914957,0.6923254,-0.0327756,-0.02752576,0.002412635,0.5929403,0.08531806,0.1540956,0.2678432,-0.7506663,0.1956363,-0.2021997,0.2985739,0.001040903,0.44863,0.2510847,0.2354472,-0.2058234,0.2393882,-0.4448446,0.1002181,0.2124895,-0.05173625,0.5406272,0.3958761,-0.5286995,0.1019941,0.008775552,0.120695,-0.06258319,-0.2548017,-0.3063543,-0.4387012,-0.3372011,-0.3664403,0.057403,-0.3122275,-0.3943993,0.07429663,-0.251365,0.3811774,-0.002546014,0.1731205
0.3305951,-0.1657483,0.2386009,-0.262248,0.07505719,0.1556624,0.1410249,-0.001788378,0.2351063,-0.5608292,0.1754074,0.6796769,-0.4456763,-0.2575363,-0.4288437,0.3197412,0.220835,0.06010067,-0.1090288,0.4329431,0.4528661,-0.3554862,0.2804323,0.3109063,-0.2902954,0.08929206,0.1708566,0.3625939,0.2249127,0.2792428,0.03081192,0.6258427,-0.3414489,-0.2311051,-0.223158,0.5897514,0.351293,-0.1601116,-0.376637,-0.4426071,-0.3344429,-0.4365323,0.004170327,0.1244757,0.3948412,0.5374315,-0.2996377,-0.4415928,0.4139815,-0.4252311
-0.0621216,0.3914455,-0.003408736,0.3439771,0.3772612,-0.3419573,0.3124665,-0.4073553,0.05810665,-0.2210151,0.6143035,-0.004309685,-0.03363052,0.02016507,0.2210113,0.3515973,-0.03478158,-0.3716762,0.1153222,0.26354,0.1533623,-0.1556637,-0.1611421,0.4028546,-0.3972354,-0.0106607,-0.4429488,-0.5173763,0.4519876,-0.1964244,-0.113316,0.3347237,-0.2697681,0.5962157,0.2983547,-0.06336129,-0.3256427,0.258065,0.02663391,0.4222319,-0.01752885,0.2070348,0.5269946,-0.430068,-0.01022466,0.05328288,-0.06498074,-0.3110697,-0.2076629,-0.7579852
-0.0213577,0.1458913,1.484898E-05,0.1741794,0.3480935,-0.05230139,0.02507854,-0.5184834,0.2038324,-0.880028,0.3386938,0.1854858,-0.0425065,0.4202606,-0.19505,0.1757804,-0.5762938,0.01004111,0.07791614,0.334935,-0.4270578,-0.05054051,-0.4269953,-0.1584695,-0.2551829,0.1171227,0.4419333,0.01622818,0.4978276,-0.4998906,0.5969359,-0.1101824,-0.3698641,0.2619677,-0.1336127,-0.3537329,-0.09340023,0.3674634,-0.4052124,0.5503523,-0.1345562,-0.06899394,0.2574844,0.3904806,0.158045,-0.2858129,-0.02547804,0.3581898,0.08254503,-0.08852743
-0.2984863,0.2497472,0.1740965,-0.02882662,-0.4982336,0.1609255,-0.02542857,-0.5816784,0.06578218,0.03026875,0.5887663,0.328877,-0.2430433,-0.3745441,0.1043145,0.5113156,0.2315224,0.4425417,-0.3548261,0.004208323,0.4636787,0.3375327,0.4849806,-0.2225351,0.3705786,-0.1549219,-0.2722666,-0.06699874,0.3032607,-0.3455573,0.3065859,-0.2604851,-0.5119292,-0.1505082,-0.1978771,-0.453611,0.5145073,-0.2353003,0.01096111,-0.2912891,-0.08678392,0.04204172,0.4648294,0.4570686,0.1068759,0.7636862,-0.3694382,0.09074791,-0.1779114,0.03706111
-0.3269909,-0.327733,-0.05007085,-0.1581584,0.3555354,0.1827236,0.4506423,-0.2738641,-0.3610829,-0.006620598,0.1384428,-0.01460083,-0.4232647,-0.4931868,0.1652309,0.3039594,0.01540643,0.2461887,0.3217352,0.2483281,0.1291906,0.1691673,0.2620911,0.5266549,0.2091519,0.2524394,0.3577991,0.05698058,0.1072713,0.04859643,0.3460655,0.2551557,0.2274675,-0.01537259,-0.3419785,-0.2510346,-0.3377836,0.2392414,-0.2486103,-0.2113537,-0.3277217,-0.4219518,0.1183106,-0.3781265,0.3443483,0.10198,0.3128033,-0.3438867,-0.1860804,0.6063408
-0.1716388,0.5546306,0.2318569,-0.2051213,-0.06111699,0.1282149,-0.2794099,-0.4709699,-0.004066315,-0.5779213,0.3813982,-0.08063331,-0.3306068,-0.3357186,-0.01823632,-0.28968,0.3225089,-0.1507331,0.278781,0.1981268,-0.3126348,0.3605337,-0.1471873,0.2942218,-0.3261129,0.3615461,0.185184,-0.3209168,-0.4283158,0.1519191,0.1112652,-0.2660511,-0.001916323,0.1819925,-0.1673175,-0.4494941,0.1834049,0.1857659,0.1003782,0.3612258,0.00319893,0.2657602,-0.4823322,-0.2488012,-0.5176039,0.3463903,-0.2111783,-0.3104747,0.2712472,0.3460407
-0.6884785,-0.1829741,0.2258705,0.2702161,0.05627702,-0.4289111,-0.4044204,-0.08889845,-0.02197597,-0.4571369,-0.1686943,-0.4625819,-0.2131286,0.2020526,0.0184318,0.2426093,0.3464809,-0.1195321,0.3767537,0.3524514,0.7781287,0.2096817,-0.3396534,-0.3814435,0.3726881,-0.1999487,-0.04315384,0.3563607,0.1817759,0.3227868,0.7037082,0.2054029,-0.02496983,-0.3991539,-0.001317217,0.2264821,-0.3896649,0.1274024,0.2485155,-0.03587718,0.529874,-0.2032091,0.006438056,-0.1592826,-0.1799464,0.363607,-0.1586953,0.4137946,-0.3987276,-0.05801634
-0.05569167,0.3063896,0.02879104,-0.3975455,-0.04536023,0.440656,0.4210662,-0.214257,-0.03826519,-0.5607733,-0.2982509,0.4819744,0.1914064,-0.2408336,0.07326988,-0.3487013,-0.333159,0.6874996,-0.2784609,0.4159289,-0.004702235,0.3608403,-0.2496765,0.05620614,-0.2764133,0.01022907,0.3683381,0.2756113,-0.2455197,-0.1560082,0.1556481,-0.1559311,0.3916012,0.007041566,-0.2147512,-0.2551388,-0.1376985,-0.1634866,0.3051534,-0.1504305,-0.2586476,-0.3083704,-0.06381229,-0.4019518,0.2440436,-0.009280289,0.1452607,-0.2434004,-0.1450855,0.3770219
-0.01626425,0.2011832,0.2229496,0.3552707,-0.1061286,0.5638586,0.2235471,-0.375906,0.3833187,-0.01931162,-0.01833692,-0.2866164,-0.4262142,0.1216279,-0.1210295,0.219266,-0.5945559,0.5685447,0.2063421,-0.1593637,0.3057797,0.02558786,-0.494053,0.06941477,-0.3134142,-0.1498784,0.5693431,0.09718901,-0.1020761,-0.5585612,0.07946149,-0.05007063,0.2028719,-0.4809801,0.140709,-0.3515007,0.1219256,-0.6536585,0.09025526,0.3010875,0.0322362,0.464142,0.2994037,0.1789208,0.194418,0.2059175,-0.4292803,0.2556883,0.1120518,0.2594799
0.3698586,0.03205784,-0.2460031,0.1805191,-0.7096684,0.006171802,0.02216112,0.3346477,0.3754916,0.2820702,0.1341956,0.06806063,0.5273832,0.1399267,-0.3635147,-0.1495644,0.1637698,0.7191783,0.07157115,0.3774306,0.5289229,0.5101583,-0.2959692,-0.4376607,-0.06261705,-0.3403996,0.1621821,-0.3661662,-0.5230148,-0.1762818,0.1564092,0.03917144,0.4377778,-0.3962272,-0.3003932,-0.6193871,0.5651216,0.1075619,-0.3442287,-0.5365121,0.298256,-0.64301,-0.2406136,-0.0776686,0.0631415,-0.005214745,0.09884907,0.1778029,-0.2300362,0.0907444
-0.4359232,-0.1712628,0.07808024,-0.2393084,0.388123,-0.2166337,0.2579525,-0.2964846,0.3685337,-0.01779469,-0.274097,0.4032553,0.3886614,0.4917969,-0.4655571,-0.4015517,-0.5282254,-0.1742036,-0.4824646,-0.3967117,-0.1475502,-0.2504621,-0.2353466,0.04416131,0.2220054,0.5540327,-0.3381969,-0.1997621,-0.008286218,-0.3893244,0.03365892,-0.330935,-0.1396127,0.01762095,0.2164749,-0.09463514,-0.3913344,-0.3006567,0.6210392,-0.1623667,0.01974785,0.08603502,-0.05350907,-0.3407831,0.3258669,-0.1071072,0.00226896,0.02596438,-0.3594186,0.3375827
-0.1706672,-0.531457,0.450529,0.3150832,-0.4431031,0.1477498,0.3228169,-0.03682785,0.02710947,-0.05242132,0.5303155,0.06870054,0.33571,0.2822178,0.04742607,-0.142192,-0.1549784,0.2777831,-0.4399952,-0.2258539,-0.02620205,-0.3493198,-0.2066342,0.6046289,-0.361284,0.4858382,0.1595687,0.1749367,-0.06197337,0.5250644,-0.1160211,-0.01193167,-0.04010639,0.09390777,0.2460979,-0.2633519,-0.278097,0.1990362,-0.1009252,-0.3073582,0.07451767,-0.4624137,-0.1644594,0.2010884,-0.1744553,0.260277,-0.2184667,-0.1766241,0.2809638,-0.0138093
-0.04270454,0.3703481,0.03815252,0.03428896,0.003437764,0.5748495,-0.1378084,0.1959433,0.1471831,-0.08907747,0.08973075,-0.6097181,0.269101,0.1075617,0.2005523,0.2608948,-0.08000595,0.2626866,-0.4553303,0.2271858,-0.1266306,0.4245237,-0.4915203,-0.1240175,-0.3018269,-0.4538061,-0.376332,0.6677086,0.09258512,-0.05036594,-0.3251373,0.1118684,0.1784364,-0.1627971,-0.4785416,-0.39652,-0.4823972,0.122264,0.3294467,0.1929717,0.1773505,-0.179827,0.3798602,0.4181096,0.4468373,-0.3743991,-0.2226047,0.07047913,0.5169471,-0.3888244
---
===
-0.0405364,0.1532806,-0.6546448,-0.698636,0.1937591,-0.2211975,-0.0749219,0.3938051,-0.3203545,0.3537365,0.1506453,0.03300597,-0.1660556,0.4301239,-0.08744663,-0.1819554,-0.2861058,0.01328016,-0.2390361,0.3102206,0.1658134,-0.0867974,-0.2495369,0.1458484,0.3188588,-0.0368027,0.3590999,0.3498207,0.04903093,-0.356382,0.09840197,-0.3420819,-0.3199535,0.05916364,-0.5326765,-0.4748649,0.09976187,-0.3664244,0.5284995,0.4076059,0.1515978,0.225563,0.08749866,0.02114895,0.04454182,0.2011214,0.1123114,-0.3075642,-0.1047882,-0.06753871,-0.1600039,-0.3023205,0.3737366,0.4420645,0.5874311,0.2682937,-0.001304892,0.3852711,-0.4206636,-0.02236306,0.00782585,-0.5325502,0.339945,0.3057605,-0.1165578,0.004013118,0.257549,-0.3046114
0.4492383,0.1972395,-0.3222314,0.419325,0.5125676,-0.007739644,0.174632,-0.787661,-0.6232899,0.2114012,-0.1043337,-0.1698117,-0.3850202,0.2312165,-0.3059888,-0.03508065,-0.1069898,0.2478002,0.597156,0.8252604,0.1730307,-0.218059,-0.1160945,-0.4730771,-0.3620296,0.04102777,0.2952006,-0.228878,-0.383189,0.1983455,0.3305409,0.2640041,-0.2684332,-0.2113913,0.4931972,-0.5174303,-0.6264217,0.3405415,-0.2523789,0.3873878,-0.04427061,0.2850156,-0.2149564,-0.3186021,0.09221341,0.08606958,0.2633165,0.2568473,-0.6619337,0.19786,-0.08833728,-0.04084102,0.007595332,-0.1758445,0.3968315,0.6724642,-0.4474945,0.1243154,-0.1188356,0.6411992,-0.3732453,-0.3271962,-0.2063013,-0.2321034,-0.3390613,0.3215294,0.2757604,-0.3279257
0.1794735,-0.04566927,-0.08547149,-0.2464265,-0.4819238,-0.05261809,-0.06312022,0.5346335,-0.6692603,0.5470511,-0.3693918,-0.06703898,0.3193297,-0.6661568,0.466196,-0.4055648,0.3258416,-0.4649092,0.1579225,-0.1351532,-0.3796591,0.5138165,0.119827,-0.04831339,0.4841419,-0.6279889,0.4213274,-0.2453379,0.4189711,-0.1190412,0.2390299,-0.60265,-0.2193006,-0.4718148,0.4327295,-0.07372975,0.41823,0.3992134,-0.1319518,-0.2834776,0.1286334,-0.3050493,0.5896712,-0.1022893,0.3082618,-0.1871167,-0.4046708,-0.4356082,-0.03197012,0.08910514,0.03687118,0.2555086,0.1070104,-0.007690934,0.3885819,0.4233842,0.3778582,-0.05141433,-0.5426505,0.7286186,-0.1950301,0.4348295,-0.1535202,0.6097718,0.4857521,0.1843544,0.4027926,-0.2431851
0.03919274,-0.2629223,0.09910107,-0.4199747,-0.5990358,-0.1557439,-0.03436947,0.1521794,-0.2219027,-0.2683948,-0.1473495,0.383846,0.4190441,-0.3301063,-0.04733714,0.311704,0.04998319,-0.4237992,-0.6784014,-0.2196313,-0.1858486,-0.2304187,-0.07371611,0.119062,0.3414368,-0.4869853,0.3059755,-0.2780363,0.05129471,0.06573867,-0.3523818,-0.2700071,0.2833626,-0.1590324,-0.001016687,-0.4855867,-0.294208,-0.2299016,-0.1556411,0.4884989,0.5308457,-0.330036,0.5296763,-0.3937936,0.3042293,-0.0943409,0.2949101,0.4028563,-0.1157873,-0.2552823,0.1848541,0.174264,0.5921194,0.1632711,-0.258647,-0.02286953,0.5486494,-0.4405535,0.0419898,0.3640562,-0.5177725,-0.3110139,0.1272958,0.336845,-0.2512097,-0.458833,-0.5057454,0.2242801
-0.4455703,-0.2864482,0.299431,0.1915711,0.4863819,-0.3860424,0.2340713,0.06817171,-0.4835602,0.1139551,-0.0464191,0.06464507,-0.1825955,-0.2768747,-0.06112901,-0.05646664,0.256571,-0.2974891,0.271001,-0.352578,0.1781531,-0.3581943,0.4330697,-0.4437714,-0.1520456,-0.2030409,0.1701367,0.4665845,0.08558454,-0.109076,-0.2111561,-0.2354181,0.2661113,0.2352655,-0.03651077,0.09589271,-0.4227893,-0.1966008,-0.1964075,-0.345132,-0.2540618,-0.3880923,0.4284256,-0.4701523,-0.5271639,-0.0569482,-0.4085142,0.07793657,-0.5254877,0.03775998,0.1057625,-0.04711374,0.08637469,-0.2341561,-0.01007949,0.5165885,0.4130137,0.3099194,0.5043769,0.07630273,0.4858358,-0.4693071,0.160731,-0.1129539,-0.09902773,-0.1844418,-0.2006503,0.2021234
0.02797746,-0.06977012,0.09743761,-0.258958,0.3906472,0.09801163,-0.08939219,0.1485424,-0.01694541,-0.4066294,0.2777988,0.02579727,-0.05988058,-0.4560991,-0.1215372,-0.2710735,0.1369741,-0.6185575,-0.4994796,-0.1012522,-0.2348451,0.1729992,0.02979326,-0.1506647,0.07223882,0.4027494,-0.4684039,0.09619721,-0.6051249,-0.3327939,0.3130943,0.63007,-0.5199282,-0.1497305,-0.4139777,-0.2468183,0.1121556,-0.2841934,0.3821669,0.4587145,0.3018593,-0.3082133,0.611883,0.3693149,-0.3116825,0.4283306,0.3657701,-0.3060695,-0.1456354,0.7789531,0.2517452,-0.20875,0.3414259,-0.3152068,-0.3440892,-0.4208651,0.3655924,0.07721162,-0.2092764,-0.3087441,0.2014195,0.289658,0.3175551,-0.5034394,-0.6015211,-0.07520457,-0.7609712,-0.3294164
-0.4138635,-0.1099682,0.1662455,-0.4983155,0.0590095,-0.1669609,-0.439505,0.2241701,-0.2845359,-0.2810386,0.1899893,0.4598711,0.3636609,-0.5332776,-0.1415153,0.1630911,0.3072785,0.04634044,0.06746441,-0.3361665,-0.2009791,-0.3993336,0.2504126,0.1261202,0.04214714,-0.4380532,0.1950551,-0.2701664,-0.2418316,-0.3201915,-0.277917,0.1620491,0.2121721,-0.1167243,-0.3427082,0.4711867,-0.2875583,-0.09285249,-0.3609664,0.1940494,0.2570854,0.1483214,-0.1587229,-0.3454269,0.213249,0.01279264,-0.3905327,0.7462346,-0.02883004,0.4414502,0.3519008,0.3069907,-0.07289515,0.352238,0.06166449,0.564817,0.07701875,-0.2601148,0.08086915,0.09175169,-0.3410977,0.4711285,0.2370747,-0.006753004,0.4701978,0.07454596,0.0591699,0.1645516
-0.3831536,0.2955033,-0.4970305,0.3281973,0.07754289,0.4936268,0.08459547,-0.05358852,0.3935089,0.1318397,-0.06015699,-0.4466299,0.003478835,-0.3903877,-0.7588922,0.05471377,-0.587615,-0.186421,-0.2644245,-0.1394171,0.1371825,0.003302614,0.01840353,0.245886,-0.268352,-0.1908013,0.3130504,-0.03962646,0.02334551,0.2064661,-0.02908483,0.3504754,-0.4995154,-0.2087854,0.4723396,0.5892509,-0.3011752,-0.08843333,0.610282,0.01174493,-0.04129161,0.2256893,0.1914489,-0.01966966,-0.06394107,0.2382321,0.02618028,0.5164643,0.374089,-0.2092999,0.1406943,-0.3885435,0.1119905,-0.08230779,0.4221269,0.01099369,0.5009148,0.0699308,0.2711539,-0.3364938,0.07482763,0.3939976,-0.3094124,-0.08688425,0.326535,-0.3480511,-0.1348486,0.2646303
-0.3031034,0.01315102,-0.07951545,0.3598235,0.4305762,0.3147988,0.3280793,-0.5134409,-0.1558298,-0.3247139,-0.2647719,0.03283759,-0.3659649,-0.5149636,0.6648296,0.2730947,-0.3890126,0.4641414,-0.5130958,-0.4679032,0.3611682,-0.6844804,0.2640782,0.2631954,-0.1938696,-0.08143819,0.2144612,-0.4117304,0.5271735,0.4548677,-0.2061372,-0.07900881,-0.6742108,0.4505886,-0.1111441,0.2497801,-0.05889985,-0.2555357,0.1587,0.5750605,-0.1956358,-0.01791231,0.1218764,-0.1145162,0.3343945,-0.2825823,-0.0275523,-0.3508864,0.1431377,0.03548057,0.3046537,-0.2388927,-0.2531815,-0.221786,0.0487221,0.005666383,0.147182,0.2364985,-0.3324424,-0.1345079,-0.1235743,-0.637606,-0.4126133,-0.3832145,0.5228631,-0.4914904,0.3537345,0.3651674
-0.06780294,0.3715635,0.4220116,-0.6703589,-0.07222863,0.004417134,0.2833591,0.4246809,0.4887998,0.08385949,0.06786404,-0.1497021,0.1872464,-0.2649523,0.08397327,-0.03155501,0.4243628,0.2687386,0.5164703,0.1409702,-0.3112672,0.2608486,0.5036118,0.1696912,0.02878517,-0.4527122,-0.006955983,-0.2232419,0.08414625,-0.008670272,0.3327461,-0.5676749,0.06446551,-0.4886792,0.5066403,-0.3255035,-0.3633389,-0.2271627,0.2774816,-0.3828413,0.02546947,-0.2052395,0.1139711,0.0531192,0.344647,-0.2827167,0.3187579,0.7931464,-0.2156262,0.3259237,0.6417087,-0.1461298,-0.3257677,0.273718,0.3418805,0.007673976,0.3101919,0.001921904,0.4321958,0.07888588,0.1474838,0.4648803,0.1630695,0.4329769,-0.5510404,-0.05763037,-0.1832713,-0.03555264
0.1030552,0.4503016,0.3756126,0.4100441,-0.2000748,-0.4189827,0.7284766,-0.5748712,-0.184704,-0.1611258,0.06416218,-0.1796845,0.1232794,-0.2079316,0.3784797,-0.0253941,-0.2781659,0.08333782,-0.4762537,0.03139768,0.5543125,0.4408292,0.2886158,0.3313014,0.01719001,-0.04376749,0.3278218,-0.1327391,0.07203183,0.08868992,0.3668085,-0.3116523,0.2424411,0.184184,-0.3482226,0.4311508,-0.371047,0.1573272,0.4378368,0.2327413,0.2101725,0.3676527,-0.4080836,0.6392778,-0.388339,-0.07870495,0.3854519,-0.4880425,-0.1818345,-0.04460371,-0.458474,-0.1225195,-0.4995013,0.17023,-0.5044335,-0.04956862,0.3630578,-0.3822872,-0.4896392,-0.2833494,-0.3362569,-0.06176879,0.1388722,0.6535627,0.4022857,-0.03410202,0.4361967,-0.2407648
