-0.1187366,-0.4275683,-0.4484844,-0.5306588,-0.3480889,-0.1510155,-0.4462928,0.2838064,0.1010598,0.2701871,-0.004817742,0.00326873,-0.004696672,0.4393962,0.1658856,-0.3742269,-0.3625649,0.09068339,-0.1387713,0.3817593,-0.3583509,-0.1519512,-0.2658541,0.4952213,0.4543359,-0.06315517,0.2550228,0.3615486,-0.4135802,-0.3088175,0.1265676,0.1026987,-0.2067802,-0.01809382,-0.54909,0.4441406,0.1632763,-0.2234103,0.3438421,0.4082628,0.1707431,0.3410689,0.08030163,0.01026334,0.04386459,0.314154,-0.2140892,-0.2241903,-0.2226988,-0.07054375,-0.2247647,-0.2292698,0.3789619,0.1105798,0.470383,0.380074,0.007657677,0.460783,-0.3794532,-0.05456805,0.0139879,-0.4300428,0.2947251,-0.4719204,0.463876,0.04079907,0.3566974,-0.2127977
0.486922,-0.1121111,0.08874337,0.3366691,-0.4641111,-0.05927493,0.1261874,-0.4539531,-0.4504783,-0.2263072,-0.1272248,-0.1510971,0.04836407,0.4662169,0.1998139,-0.06826283,0.2898577,-0.3576441,0.4888998,0.5152062,0.07935422,-0.3333727,-0.05952285,-0.4278327,-0.3522727,0.01207576,0.5308685,-0.191032,-0.3174168,0.2405003,-0.3290695,0.1843362,-0.3778096,-0.2864545,0.4555303,-0.4835885,-0.421973,0.3969675,0.01638326,0.06678654,-0.09476778,0.2366631,-0.3923215,-0.2524565,0.02042721,0.1421419,0.01608212,0.303755,-0.5083243,0.01737371,-0.04650225,-0.06452426,0.01314038,0.2878705,0.3374183,0.5153534,-0.3439534,0.1588157,-0.4372598,0.4728612,-0.2674228,-0.3761026,-0.5075776,-0.4839633,-0.2153495,0.2001235,-0.03026616,-0.06392188
0.3068655,-0.06661791,-0.1039289,-0.2903054,-0.4367592,-0.0845277,-0.09848572,0.4874062,-0.4531937,0.3508594,-0.4673242,-0.07145561,0.2001232,-0.5058636,0.3917977,-0.2906197,0.3384818,-0.4730254,0.1699122,-0.160982,-0.3148013,0.4588481,0.1162657,0.3639884,0.3818913,-0.5216126,0.4165183,-0.1747312,-0.4010684,-0.1306691,0.3763258,-0.4972855,-0.3594448,0.3698641,0.2027328,-0.0908489,0.4745205,0.4823727,-0.5240042,0.4421895,-0.1412103,-0.3783326,0.3786189,-0.1752356,0.1955869,-0.2905923,-0.4562931,-0.3135798,-0.03896185,0.2666247,-0.1708409,0.3296504,0.1041358,-0.0551177,0.302972,0.3815873,0.1801764,-0.0839031,-0.447148,0.5899644,-0.2439521,0.3709648,-0.1442787,-0.1690398,-0.3710684,-0.4131264,0.5356389,-0.3250126
0.1322914,-0.07063429,-0.3651238,-0.2986953,0.1959143,-0.1951398,-0.04484703,0.1813484,-0.3112555,-0.3967004,-0.1227945,-0.3696393,-0.2401062,-0.2411362,-0.1795691,0.3215509,0.05239613,0.4548248,-0.5251719,-0.4609457,-0.0332617,-0.1395146,-0.03215056,0.1439542,0.392828,-0.2728777,0.2572888,-0.2603692,0.03967012,0.1208935,-0.4571891,0.2939441,0.3504235,-0.2195818,0.0003426206,-0.4944958,-0.3404764,-0.3329456,-0.1047112,0.4316728,0.4616152,-0.3845704,0.2883683,-0.5728183,0.3230748,-0.06646797,0.2275757,0.1668841,-0.1348878,0.3498535,0.2336724,-0.4279932,0.4799889,0.1182273,-0.2646837,-0.03891152,0.4862782,-0.28696,0.03233539,0.4503419,-0.2092021,0.565186,-0.3182552,-0.01786519,-0.2215724,-0.4373694,-0.3957553,0.2075241
-0.4571697,-0.3030333,0.5587331,-0.05137559,0.1620597,-0.2402232,0.2539354,0.068807,-0.3596163,0.03582745,-0.04507498,0.08034644,-0.1056593,0.3714615,0.5266981,-0.1133427,0.4411482,-0.2257745,0.3398526,-0.4669311,0.29104,-0.3510261,0.3328201,-0.2006581,-0.1733678,-0.1581004,0.06932455,-0.5188255,0.4089424,0.4070432,-0.2808086,0.2887958,0.2332992,0.3165579,-0.03209867,0.07531871,-0.4397978,-0.1308917,-0.1854091,-0.2368993,-0.2174058,-0.3728269,0.5186753,-0.4453217,-0.5481682,-0.09431742,-0.4495952,-0.1373758,-0.4482344,-0.2092814,0.1080122,-0.1993511,0.1443376,-0.2012368,-0.03066543,-0.3111534,0.4250161,0.4878356,0.4866698,0.08789229,0.4061458,0.3963152,0.1473999,0.4179016,-0.1968088,-0.2006622,-0.5001528,0.2050268
0.04750752,-0.09806083,0.0778303,0.2049507,0.286997,0.3979454,-0.1038496,0.3168139,-0.4155182,0.2680967,0.2259636,0.3379618,-0.3663476,-0.3548298,-0.104021,-0.2298064,0.1724592,-0.4612871,0.1751307,-0.1065414,-0.3178264,0.1429516,0.06290312,-0.2253094,0.1700247,0.4708681,0.2195468,0.03081465,-0.4958884,0.4079766,0.2850566,0.307467,-0.4773276,0.284237,-0.5255635,-0.1989329,-0.302457,0.1603742,0.4030804,-0.06800555,0.1195675,-0.2481601,0.5312339,0.4803405,-0.3833628,0.01071751,0.4699283,-0.2136855,-0.4235416,0.5169277,0.1863924,-0.177977,0.2865426,-0.3831076,-0.2958627,-0.3317916,0.4270347,0.1964526,-0.2306789,-0.299573,-0.2381211,0.2403451,-0.2884769,0.416628,-0.4800274,-0.1411815,-0.498904,-0.4834082
-0.557684,-0.2909798,0.1427652,-0.3572711,0.05848984,0.2427469,-0.4908745,0.3813222,-0.008238751,-0.3150783,0.2144793,0.4086329,-0.3795691,-0.5402681,-0.2085027,0.1049854,0.3440883,0.03637768,0.4656113,0.117212,-0.144674,0.261059,0.07028023,0.4761913,-0.02283313,-0.2906792,0.3425068,-0.1278515,-0.2400017,-0.3328535,-0.1505136,-0.4309502,0.206051,0.1782223,-0.3854193,0.4679368,-0.1487817,-0.3828739,-0.4458887,0.156159,0.2125038,0.2980992,-0.138578,-0.4543679,0.2361064,0.07452982,-0.3605292,0.4505172,-0.06646153,0.5386179,0.3654416,0.3688574,-0.08782159,0.3508059,0.02177194,0.06024574,0.1317445,-0.3228005,0.04519713,0.1077628,-0.2647089,0.178807,-0.294513,0.01655036,0.402779,-0.2882679,0.1305871,0.2603718
-0.2754951,-0.1788688,-0.39159,0.2892333,0.0130677,0.3594691,0.05211043,0.06749231,-0.1530259,0.2522365,0.5058768,-0.1625045,-0.05857308,-0.5073794,-0.564721,0.1062401,-0.2420845,0.5479887,-0.2442163,-0.1663334,0.1451708,0.09060622,0.02509395,-0.1845245,-0.4302531,-0.2713619,-0.1139288,-0.2186836,-0.2260784,0.3419243,-0.04955661,-0.1562859,0.2471619,-0.1650191,0.3327834,0.3978493,-0.1720539,-0.1910433,0.4526322,0.03808097,-0.04927259,-0.45221,0.4410438,-0.07403167,-0.0828481,0.2452245,0.07024213,-0.4093427,0.3639614,-0.1435869,0.2268517,-0.4456633,-0.1896686,-0.2791334,0.2979492,-0.2130481,0.4153812,0.1094496,-0.001130453,-0.4671766,0.3807881,0.3460372,-0.3384444,0.429448,0.421406,-0.295237,0.320861,0.1134564
-0.2836861,0.06638476,-0.08740109,-0.2754824,0.3318225,0.2622537,0.375129,-0.4704854,-0.2736053,-0.1745901,-0.2787518,0.008324023,-0.007809124,-0.3709216,0.4848093,0.2797773,-0.3906762,0.4206367,-0.4771174,0.1070828,0.2947474,-0.4092734,0.3374132,0.2137241,-0.2493575,-0.07107428,0.179507,-0.4505175,0.4459735,0.5845487,0.3170219,-0.05099883,-0.489439,0.3557207,-0.2074036,-0.3498128,-0.1030185,-0.2980778,0.3025846,0.3965033,-0.2631749,-0.002071488,0.1469646,-0.1676745,0.3030685,-0.4347366,-0.006360573,-0.4353175,0.2554139,0.1298637,0.4740273,0.3982174,-0.231234,-0.2009077,0.07250185,0.1580866,0.1705721,0.2204858,0.4484854,-0.1515158,-0.1182857,-0.518308,-0.3651452,-0.4021633,0.4368528,-0.4742676,0.3236663,0.4846682
-0.06521372,0.260231,0.280017,-0.4221515,-0.2375082,0.05721081,0.2716377,-0.2044149,0.4567105,0.0499234,0.3894131,-0.09676855,-0.4931402,-0.1672739,0.09215351,-0.1104142,0.4239566,0.1596977,0.4488266,0.2389584,-0.3148607,0.2490363,0.5051693,0.1787165,0.02505934,-0.4309558,-0.04546852,-0.1686146,0.1101779,0.04103495,0.2477152,-0.5689475,0.06751645,-0.2661733,0.4964609,0.4748367,-0.3016076,-0.4238692,0.2984457,0.01901462,0.2371724,-0.3182608,0.1397626,0.04812348,0.4121549,-0.4762128,0.1016994,0.4964281,-0.4592741,0.4161806,0.4760204,-0.1936333,-0.02389431,0.3304581,0.3588913,0.4440553,0.4972715,0.05039418,0.3053281,0.1707663,0.1456618,0.01012905,-0.4941579,-0.4638683,-0.4276231,-0.08153415,-0.1300848,-0.04561404
0.03503901,0.3396621,0.3779265,0.3408397,0.2748658,-0.3732137,0.4654929,-0.4111692,0.3487994,-0.1802496,0.01936251,-0.2161375,0.1216234,-0.4113396,0.2771201,-0.007929016,-0.3922271,-0.4665237,0.09921173,-0.0008178218,0.5137317,0.4368379,0.4037642,0.5023438,0.007910605,-0.09524411,0.0382401,-0.1384944,0.04484402,0.2754675,0.4497721,0.4392079,-0.4947249,0.1102076,0.3191246,0.2817866,-0.3087824,0.07943255,-0.1677574,0.3705806,0.1496971,0.4828735,-0.2926636,0.4956607,-0.3735592,-0.5087429,-0.2183029,-0.3139302,0.5225223,0.01672149,-0.4663652,-0.1493712,-0.4140548,0.2865298,-0.07244544,0.5090365,0.4420627,-0.09027175,0.3736393,-0.2484779,-0.4936103,-0.06165743,0.1885321,0.006388962,0.1055012,-0.1378443,0.2357879,-0.142903
0.3704793,0.1236107,0.186036,0.2545263,-0.4065826,0.2075079,0.1850934,0.1072125,-0.5539882,0.1871842,-0.04958154,0.4657573,-0.3516186,0.4626593,0.3846147,0.3985552,-0.1060314,-0.1559802,0.1818208,-0.4073228,-0.1534486,-0.06781185,-0.03824859,0.4650218,0.2130979,0.4979168,0.1455189,-0.3956429,0.3602243,0.215003,0.2192112,-0.002191067,-0.1286759,-0.377201,-0.3158623,-0.2323547,-0.1678708,-0.1076102,-0.08408272,-0.1139778,-0.4781413,0.07917227,0.346507,-0.1641518,0.1821006,0.1755143,0.06619252,-0.4415213,-0.03788912,0.0126307,0.0599717,0.3664996,-0.04003222,0.1299828,-0.4257791,-0.2584588,-0.08637316,0.4116777,-0.2793282,0.03469248,0.312135,-0.07450324,0.01392004,-0.5387134,-0.3016644,-0.3726807,0.1467175,0.5764139
0.4960867,0.1406333,-0.244721,0.4866838,0.3824765,0.03489375,-0.2116215,-0.275014,-0.176801,0.2146564,0.1334888,0.1384782,0.0550822,-0.01715642,-0.02273888,-0.3686706,-0.2918692,0.4981876,-0.2441093,0.3878228,0.397539,0.3275834,-0.01685325,0.150073,-0.02084185,-0.5178128,0.009607797,-0.0334366,-0.1803598,-0.3054514,0.06033562,0.04534887,0.1372496,-0.3165959,-0.2685398,-0.1231175,0.3707854,0.2950976,0.2547206,-0.1950798,-0.2615906,0.1750528,0.1577339,-0.08246811,-0.06263844,-0.4010602,0.5006285,0.2387305,0.02142492,0.4675086,0.2144945,0.5020728,0.2742924,-0.2487928,-0.06914217,-0.473111,0.03259363,0.06233429,-0.05910913,-0.1181788,-0.0554463,0.1396561,0.4382507,0.3031719,0.3319541,-0.2663521,0.1530822,0.2067138
0.1689594,-0.1285089,0.4729034,-0.5784259,-0.2465097,-0.2984458,0.02449045,0.0319108,0.2046189,0.5584472,-0.1209828,-0.08825836,-0.2229302,-0.2249454,-0.04496692,-0.3621436,0.389823,-0.5286606,-0.1550448,-0.301333,0.3748966,-0.4722846,-0.45833,0.1188193,-0.0739438,-0.3785236,0.2694975,-0.2226001,0.0698417,-0.4138134,0.365474,-0.1332078,-0.3581549,0.1320642,0.3344939,-0.2376883,0.5012004,-0.2399999,0.06927608,0.3850536,-0.1529971,0.3074867,0.4532427,0.3730549,-0.1225499,0.5197144,0.04584314,-0.1703804,-0.447467,-0.07546413,0.425071,-0.4398482,0.2272873,-0.1960886,0.05549486,0.5146416,-0.3205312,0.213461,-0.1306113,-0.3671519,-0.2626335,0.4023564,0.375472,-0.09826265,0.4918388,0.2380629,-0.4856231,-0.07910378
0.3053712,-0.3663707,0.3669533,-0.1587366,-0.3325211,0.0007991194,0.3983111,0.2424316,0.3995465,0.3043115,0.305951,-0.04770705,0.02503693,0.5220305,-0.152718,0.2158161,-0.06959503,0.1013785,0.3153598,0.4556434,-0.05565002,0.3839019,-0.3954268,-0.02861655,-0.3822215,-0.1496941,0.4046666,-0.2427352,-0.368433,0.1043699,-0.04852752,-0.1056209,-0.2332789,0.03804313,-0.5500307,0.3189488,0.1218095,-0.004807451,0.1882472,-0.2279309,0.2766507,0.270362,0.05308346,-0.1261382,-0.2862475,0.3242441,-0.3201103,0.259451,0.2559581,-0.2534877,0.4143907,0.3840523,0.5278434,-0.3542296,-0.3663751,0.1240102,0.003355304,-0.5014399,-0.1619645,-0.4471764,-0.4858497,0.3750037,0.09712123,0.4575987,-0.1135311,-0.3090498,-0.3455376,0.4215509
0.4756669,0.4875592,-0.002996105,-0.01532432,-0.08496843,0.4731745,-0.08779383,-0.05295567,0.4282956,-0.2950062,0.1993974,0.4202598,0.2803681,0.2001386,0.3077589,-0.3851502,0.5530303,-0.3842564,0.1295149,0.3601656,-0.4209173,-0.3653746,0.3726511,0.02720526,0.5119613,0.3778286,-0.333921,0.2118984,-0.2446938,-0.01215945,-0.4253303,-0.5006648,0.469715,-0.1772568,-0.1066252,-0.3832106,-0.4491745,0.01854976,-0.4693521,0.2322724,0.5175704,0.1720596,0.1013627,-0.4538163,0.4619993,0.5079688,-0.3713941,0.0471842,-0.440548,0.3467437,0.3075594,0.1611045,-0.1088491,0.3817509,0.221665,-0.2334539,-0.3989619,-0.1392091,-0.3607692,0.2363337,0.2982341,0.229036,0.006010587,0.3202773,0.1775405,-0.4897387,-0.2717357,-0.3591827
-0.2359771,0.2508021,-0.2300821,-0.4487625,0.4601971,0.1828874,-0.3086687,-0.05015658,0.4100317,0.3061093,-0.1886428,-0.5004368,0.1524449,-0.3452783,-0.2191272,0.2844813,0.3962698,-0.1863284,0.3663561,0.4146839,0.4677124,-0.09895585,0.1613397,-0.30397,-0.139184,-0.4407014,0.1948559,-0.3951049,0.2939513,-0.4929811,-0.2541325,0.3364216,-0.1725471,0.1944095,0.2781503,-0.2815739,0.3984751,-0.09209041,-0.0394763,-0.5559521,-0.2978922,0.4402037,0.01512919,0.5043998,0.3807424,0.157269,0.1637118,-0.03661656,0.1896904,0.2519322,0.1465052,0.3329475,-0.3064355,-0.07715604,0.2965359,0.04981824,0.3174084,0.2697951,0.4987366,-0.159771,0.09432796,0.04413148,-0.4446042,0.1700976,-0.1444755,0.4922648,-0.423515,-0.4373963
0.3898484,0.1917299,-0.3780897,-0.5645093,-0.07969001,0.3136182,0.03662676,0.2903796,0.3619652,-0.05765324,0.2480942,-0.2933404,-0.3455707,0.3607305,0.2677015,-0.4023686,0.1255586,0.2393896,0.4026765,0.4966281,-0.4572355,-0.03267704,-0.122718,-0.2325399,0.1023253,0.07483043,0.1628569,0.005413972,-0.4975384,-0.006868221,0.1982685,-0.03760608,0.3377172,0.08520695,-0.1496566,-0.3097557,0.5206035,0.179493,-0.5280406,-0.04054465,0.4282159,-0.4492832,0.3172421,-0.2775496,-0.381128,0.2734476,-0.05609569,-0.147046,-0.09862348,-0.126667,0.006313916,0.03875789,-0.5302567,0.1661588,0.3977067,-0.1221552,0.2447594,-0.5394464,-0.3407555,0.2305592,0.3506626,0.4344766,0.003013113,0.1529506,0.07621679,-0.2719098,0.2774719,0.3216267
-0.2037385,-0.1303523,0.09435175,0.3870696,0.2045436,0.4171748,-0.1733291,-0.3027447,-0.4249958,-0.5139467,0.2339475,0.4076025,0.4013102,-0.01661466,0.05398594,0.4154247,-0.05764939,-0.5381688,0.1217073,-0.5217544,-0.1295987,0.3134621,0.2151148,-0.2095494,-0.06171614,-0.103085,0.4658736,0.09545171,0.3653928,0.2642987,0.4107073,0.5098182,-0.1113479,-0.3016586,-0.3396608,0.4447228,-0.2745819,-0.04230521,-0.08520631,-0.1025529,-0.4713527,0.3418692,-0.3672188,0.3290062,-0.201832,0.02610797,-0.2218371,-0.5209752,-0.563318,-0.03868116,0.1583907,-0.2157151,0.05442149,0.2219105,-0.2694307,-0.2595293,-0.3121743,0.3508332,-0.4664186,-0.4100072,-0.2170574,-0.1208284,0.430678,0.439338,0.3133844,0.007605813,-0.05972536,0.2617463
0.267208,-0.3348723,-0.03586916,-0.1106543,0.2962928,-0.5414306,0.2878512,0.2435197,-0.2455671,0.05456791,0.4673038,-0.4690007,0.09761667,-0.003304079,-0.4073959,0.1734305,0.2100289,0.3325781,0.04949656,-0.3066736,-0.3104012,-0.0238554,0.0712757,0.3740431,-0.2179676,-0.1672943,0.1704746,0.3805765,-0.04181912,0.4167774,0.4098223,0.4366798,-0.02307288,-0.07136583,0.3096354,-0.2008922,0.4859935,0.4325336,0.4294302,0.09418425,-0.1499115,-0.1392858,0.05139251,-0.4085807,0.1788501,0.04983732,-0.07705611,-0.5192795,-0.1880534,-0.3587117,-0.0716162,0.3948238,-0.1965608,0.3892913,0.3382475,-0.05506932,0.230024,-0.2752785,0.06064285,0.2025529,-0.271404,0.02722527,0.2518052,-0.05684154,0.3475857,0.2546944,-0.4376472,0.2041361
-0.3306063,0.2009644,-0.2268599,0.02334538,0.2750017,-0.5000713,-0.3821689,0.4803068,-0.3938697,0.2413272,0.2922793,0.3185293,0.3719091,-0.3221356,0.3868534,-0.3753155,-0.381115,-0.3862634,-0.09949777,0.447613,0.4886422,-0.1234535,0.06288103,0.5012117,-0.3063187,-0.1594355,0.3246537,0.1477983,0.3163981,0.2036233,-0.06416967,0.2073383,-0.05440007,-0.1791658,0.4000705,0.4796466,-0.2624415,-0.1872461,-0.03177272,0.3188013,0.07237339,0.1812054,0.3374813,0.3108013,0.02484745,-0.1885932,-0.02758265,0.08055867,0.3928718,-0.5740847,-0.2543663,0.43159,0.3139789,0.07171216,0.5403035,0.4580538,0.3385934,-0.1024144,0.01932397,0.3352984,-0.2096427,-0.4227912,-0.4567719,0.04265331,-0.06895202,-0.3580232,0.1827844,-0.3403828
-0.2979251,0.1232786,0.01140618,0.1905137,0.410764,-0.07929347,0.2671404,-0.5215929,-0.2870549,0.4210694,-0.2035694,0.5425458,0.4241685,-0.1443378,0.4486988,-0.1355507,-0.1237811,-0.2357496,0.1292916,-0.3181834,0.4438562,-0.1662585,-0.3849681,0.192039,-0.4416089,0.4764227,-0.1138022,-0.3863155,-0.1856847,0.2734985,0.09896331,0.004466834,-0.2739754,-0.2242272,0.1957534,0.4202622,0.0518633,0.4056843,-0.2425421,-0.03971061,-0.2097692,0.4304268,0.1335759,-0.2994293,-0.05287499,0.2210558,-0.236638,0.375316,0.1486618,-0.4323719,-0.3572564,0.2447021,0.2952197,0.1532456,-0.2849236,0.1509786,0.3006065,0.3623096,-0.4058075,0.3975915,0.05323514,0.06649307,-0.1173334,-0.4122889,0.1565978,-0.265893,-0.2328198,0.2252655
0.3364686,0.1651213,-0.3756843,0.3071627,-0.3096603,-0.3661045,0.1482939,0.396627,0.0620571,0.2563008,0.2353769,-0.1296986,0.3345599,-0.1818975,-0.4977592,0.5027573,-0.3039065,-0.03652852,-0.1291443,0.09245261,0.02824571,0.1036064,-0.4111106,0.3389509,-0.4739028,-0.4010589,-0.4323275,0.1083595,-0.3296587,-0.08806866,0.1496985,-0.3957713,-0.3348224,-0.10725,-0.3862903,-0.3633685,0.08058383,-0.04978256,0.01161389,-0.2711413,-0.2830106,-0.4440455,0.2777352,-0.232872,0.2471928,0.2418976,0.01459155,-0.5036363,0.09360149,-0.527841,-0.2032281,-0.119559,0.3471912,-0.09003638,0.1808203,-0.3854373,0.1276331,-0.09664008,-0.4509312,-0.2568164,-0.1927737,-0.007986648,-0.3579873,-0.3196615,0.5056089,-0.1538176,-0.1203623,0.3898487
-0.2354107,-0.3741882,0.394574,0.4251573,-0.1643745,0.4298516,0.4222898,-0.2286509,0.007563594,-0.1511924,0.3370838,0.1814601,0.1676762,0.3758715,0.3103105,0.02178591,-0.1558725,-0.2533292,-0.295406,0.07701844,0.1346974,-0.2148931,0.3422129,-0.08430929,-0.3195222,0.1558713,-0.390074,0.09625082,-0.0139604,0.3079288,0.1916791,-0.3460046,-0.2777108,-0.2688859,-0.03797008,0.3743798,0.1978258,0.4634678,0.3868935,0.1680178,-0.4029703,-0.4602154,-0.4586935,-0.2727533,-0.3500199,0.3555149,0.3482458,0.002077294,0.5388492,0.539431,-0.5354902,0.111512,-0.5157042,0.1399408,-0.3313943,0.2433707,-0.4469781,-0.2820194,0.002242863,0.5569427,-0.1623748,-0.08606516,-0.282175,0.372641,0.09829687,-0.2592478,0.09647541,0.2183366
0.3889099,0.1026295,-0.09933715,0.06673101,-0.3268065,-0.1573426,-0.321174,0.0589542,0.4378412,0.3962052,-0.4937546,-0.05990253,-0.3721601,0.2564442,0.3428721,-0.3411531,-0.206248,-0.1235204,-0.442891,0.2579053,0.06281026,-0.1987284,-0.4545596,0.5090319,0.2070684,0.3846971,-0.1776025,-0.4198125,0.2260992,0.3058082,0.09090395,0.2659492,-0.3199902,0.02845773,0.2900889,0.4319264,-0.3078896,0.3730786,-0.1471878,-0.3711934,-0.3229536,0.2294506,0.09812258,0.341325,-0.2207672,0.3604136,0.4836287,-0.3406186,0.4436694,0.08707496,-0.07863328,0.3418461,0.1978206,0.06382111,0.4193413,-0.4799519,0.08923805,0.4430209,-0.3988272,0.3392963,0.07899629,-0.1478183,-0.1723797,0.09570818,0.07928574,0.04446189,-0.4901566,-0.3295595
-0.4285135,-0.02291745,0.1174568,-0.4917879,-0.2258968,0.3702132,0.1882697,-0.2537449,-0.1257949,0.1213978,0.4411969,-0.4495544,-0.1811645,-0.5203743,0.2082396,-0.1879002,0.3309729,-0.01283195,0.1093896,0.0245252,0.2487528,-0.1224769,-0.5077763,0.4937301,-0.1994856,-0.1131732,0.06373513,0.03179195,0.3597144,-0.2591427,-0.2931069,-0.4351625,-0.04899652,-0.5012817,-0.4845337,-0.1369841,0.2225277,-0.2071966,0.2471276,0.4186028,-0.2144064,-0.2820938,-0.2107251,0.1160095,0.4613425,0.5351775,-0.007672984,0.1732877,-0.4343953,-0.2201163,0.1701934,0.3561147,-0.0786606,-0.2074261,-0.4520114,0.03939278,-0.2238192,0.2274485,-0.05483169,0.3428998,0.377142,-0.3617818,-0.4372067,-0.4279305,-0.2673227,-0.2069328,0.27243,0.4969324
0.5520904,-0.07822867,0.4662273,0.02166375,0.05224404,0.005660289,-0.1684682,0.2643524,0.06897468,-0.2083499,0.1517835,-0.3041591,0.007566134,-0.2378698,-0.514011,0.4318434,0.3490297,-0.1137955,-0.2786437,-0.2714503,-0.5162455,-0.395317,-0.3908069,0.4358419,0.1513671,-0.3544861,-0.0547293,-0.3575743,0.1483761,0.1645599,0.002667316,0.1786191,-0.3274514,-0.0449071,-0.3608912,-0.3408618,-0.1360986,0.05768201,0.1106078,-0.06969814,-0.06507318,0.4916037,0.3539665,0.1040092,-0.2183983,-0.06282725,-0.06395122,0.2840698,-0.4342147,0.2730032,0.2191511,-0.09365003,0.09217263,-0.3889517,-0.3504177,-0.395325,0.5378419,0.4197354,0.3176211,-0.06122936,-0.5156011,-0.1461697,-0.263487,-0.1142282,0.2133954,-0.4173767,0.08117823,0.4478887
-0.09075274,-0.08033361,0.2142669,-0.1562501,0.4978704,0.5573511,-0.2754121,0.4277348,0.3022836,-0.1670864,-0.2879974,-0.5138538,0.01094,-0.1565451,0.227146,-0.2070277,0.2843215,-0.08530232,0.4068848,0.1909908,0.1390445,0.3385452,-0.4578474,0.3956528,0.3807602,0.368683,0.4695086,-0.1651658,-0.2194074,0.3770943,0.2988187,0.445054,-0.5013089,0.07410625,-0.0393269,0.4742956,-0.1089623,-0.1553662,0.2891363,-0.29325,0.08539769,-0.2570227,-0.5196946,0.2299695,-0.1739739,0.1814284,0.289086,0.1395687,0.3686251,-0.1899645,0.2394562,-0.1903326,-0.2087305,0.03812663,-0.4648376,0.1064527,-0.3338928,-0.07579572,0.08492708,0.3557823,-0.466716,-0.01330838,-0.3622343,-0.2834406,0.1346429,-0.2058457,-0.0142856,-0.04441331
0.450582,0.110623,-0.4252049,-0.1998994,0.4564703,-0.5039836,-0.09409061,0.132737,0.1556016,0.06855227,0.3050452,0.1042456,0.4394607,-0.4294318,-0.1486147,0.3360955,-0.3465965,-0.4790599,0.3847913,-0.4040634,-0.1761125,-0.3067611,0.444392,0.4775049,0.4534199,-0.2452059,-0.2951322,-0.4240027,0.5234566,-0.1564385,-0.3388377,-0.0747145,0.2975153,-0.1866746,0.4116147,0.1375722,0.2738829,-0.09827433,-0.03045556,-0.3854585,0.1806812,-0.4852677,-0.1807413,-0.3994014,-0.3924716,0.02670396,-0.4020042,-0.2856185,0.4333563,-0.2679091,0.3372694,-0.3374774,-0.1309269,0.007596537,-0.3749442,0.313104,-0.4798088,0.1722284,-0.2863766,-0.5008307,0.226474,0.07454629,0.2831997,-0.1372595,-0.07144,0.1192687,-0.4324901,-0.212459
0.3615608,0.4149425,-0.4148469,0.4368187,-0.2919748,-0.4614613,0.4704352,0.2873707,-0.1003064,0.2834103,0.07812952,-0.2831163,0.08785513,-0.3821037,-0.307083,-0.1605824,0.3694628,0.2983571,-0.4366682,0.3266488,-0.2598746,0.05252584,0.4559716,-0.3923804,0.330751,0.2119849,0.1368018,0.09715532,-0.01603755,-0.1196354,0.04854126,-0.2606394,0.3227319,-0.2419839,-0.06998253,-0.3914355,0.1931999,-0.001571415,-0.04257655,0.08872794,-0.5398309,0.4269336,-0.3112519,-0.4559462,0.3401655,0.120168,-0.09773329,0.2620748,-0.5670738,0.08463626,-0.5058609,0.2982365,-0.06466937,-0.473989,-0.06363086,-0.442283,0.5000639,-0.5205471,-0.0002927145,-0.1908991,0.15399,0.02142382,0.461359,0.02521335,-0.3469276,-0.06021516,0.2762061,-0.05467683
0.2512487,-0.2255372,-0.1963761,0.05124466,0.0356878,-0.5031169,-0.221435,-0.5532742,0.1035594,-0.4580963,0.1025099,-0.4265929,-1.716236E-05,-0.5424435,0.4739081,0.007499848,-0.1148806,0.4166017,0.342454,-0.2682401,0.3907203,0.4649235,0.1052178,-0.3601284,-0.5528271,-0.3456527,0.03707346,-0.004091233,0.3605387,-0.07773696,-0.1832818,0.2254728,-0.3799181,0.06840903,-0.04514294,0.2701867,-0.2996449,-0.2829899,-0.4111179,0.3660549,0.1427715,0.2690156,-0.3576659,0.4451382,-0.09713824,-0.2364109,0.1330529,0.4789235,0.5204354,0.2809767,0.2535037,0.3784275,-0.5410967,-0.4029604,-0.4120754,0.1674839,0.04430272,0.03759333,-0.1203438,-0.2427038,-0.03144732,0.4270577,0.01048741,0.460972,0.06432438,0.2397624,-0.4618546,-0.266467
-0.3005084,0.3263223,-0.1981419,-0.1499077,-0.4174738,0.0175195,-0.3178107,-0.1724715,0.4818745,0.3213763,0.08907747,-0.3958198,-0.2851657,-0.1119057,0.4355758,0.4564376,0.3523307,0.2074595,-0.01598036,-0.2955795,-0.08648427,-0.0154407,-0.4138721,0.114023,-0.0550871,-0.1664923,0.2907256,-0.005611632,0.1102556,0.3043363,-0.5080048,-0.1268595,0.414079,-0.01698933,0.08506635,0.4821589,0.3166861,-0.0554269,-0.1127195,-0.214739,-0.4568585,0.2052676,0.0850666,-0.3168439,-0.1656116,0.1623074,-0.1821407,-0.132566,-0.1808233,0.3029086,0.3418584,0.4915602,0.01345439,0.02448474,0.4619889,-0.196198,-0.4839978,0.4254412,-0.3017103,-0.3416726,-0.2721453,-0.4017845,0.5236446,-0.1702557,-0.4979639,0.1429944,-0.3776708,-0.103777
-0.331136,0.4362543,-0.3495913,-0.425258,0.2487159,0.2881078,-0.2994158,-0.1840654,-0.07184366,0.1680955,-0.1938948,0.4422459,-0.4134074,0.04244319,0.366988,-0.5048367,0.01161517,0.2453061,-0.3521014,0.1945833,-0.09180031,0.4028741,-0.1316769,-0.4957145,-0.01057106,-0.4518912,-0.01160511,-0.4555231,-0.1338403,-0.104074,0.06452522,-0.4181292,0.5418971,-0.2444143,-0.02082578,-0.3484432,0.4429256,0.05184479,0.3233661,-0.4266401,0.1556658,-0.01179799,-0.07551298,0.03573248,0.3812186,-0.4250893,0.2143761,-0.02511991,-0.5198839,0.3702762,0.2210581,0.298613,0.4729196,0.265997,-0.3110115,-0.3524857,-0.008261196,-0.5060436,-0.5031944,0.3330697,-0.469228,0.1039731,0.3215663,0.1869208,0.2384582,0.3829082,-0.4826589,0.4309713
0.1131875,-0.4961552,0.2102748,-0.04558849,0.2414387,-0.3683945,-0.125201,-0.4359408,0.1060527,-0.3934139,0.06114149,0.07950482,0.3184375,0.1845314,-0.4127142,-0.03786248,-0.5169123,-0.2618822,-0.4248347,-0.4248765,0.1431396,-0.1901519,-0.1849718,0.1637192,-0.06191982,0.07031994,-0.3685834,0.1579137,0.4978396,-0.5034901,0.006370887,0.3007924,-0.2934358,-0.3584321,0.1752574,0.3563577,0.1252113,0.2794993,-0.4349183,0.3795835,0.2301679,-0.01649213,-0.1904492,-0.05715023,0.2768746,-0.08128753,0.01691956,0.1024514,0.07771097,-0.249062,-0.290915,-0.4006311,-0.1324959,-0.0639479,0.4169731,0.1845273,0.4183786,-0.2999974,0.2508312,-0.2167336,0.1932635,0.1301868,0.4705593,-0.3970687,0.3304802,-0.2878856,0.5148015,-0.3459109
0.1281784,0.2283497,0.2430674,-0.4731261,-0.3995779,-0.1097884,-0.1263203,-0.2118531,-0.1116427,-0.3342777,0.01555001,0.3440337,0.1360748,0.05302419,0.1485095,-0.02907569,0.4854857,0.4932433,-0.3254993,0.1880941,0.3109752,-0.2437866,-0.2148076,-0.1270938,0.5122253,0.2302262,-0.01113006,0.457836,-0.4773028,0.2983153,0.241209,0.4249437,0.02688407,-0.3843098,0.08235762,0.2733895,-0.3794177,0.3687188,0.3876723,0.2840548,-0.09885003,-0.4850852,-0.1243259,-0.3321632,0.4623209,0.3452502,0.3728525,0.037288,-0.3008975,0.1167626,-0.06614684,0.1765019,0.4460971,0.01620838,0.05316044,-0.3246047,-0.04540966,0.5252921,0.4369476,-0.08191293,0.3076181,0.2361035,0.5531911,0.1510953,0.3922927,-0.03658564,-0.2416736,-0.02213763
-0.1236872,0.4689744,-0.2594174,-0.1732991,-0.349124,0.4820124,0.07647573,-0.07589699,-0.3828813,0.2946584,-0.1618994,0.2735466,-0.375454,0.4478928,-0.4173908,-0.4665472,0.4318086,-0.3714463,0.5345136,-0.2213777,0.427218,0.5373971,0.2673657,0.02568418,0.4883604,0.06375996,-0.08505274,0.1768756,0.4475812,-0.2934955,0.0465401,0.4270639,-0.3265183,0.3189887,-0.4051611,0.178263,0.1672195,0.004715505,-0.4748518,-0.4705686,-0.1824631,-0.08220334,0.3273096,-0.401659,-0.1571539,-0.3798295,0.2722457,0.06875283,0.2092546,0.3853836,-0.01281905,0.4779312,0.3259858,-0.2243653,-0.1930725,-0.2400422,0.08885463,-0.3778188,-0.03563155,-0.08060886,-0.2794514,-0.01091076,-0.1076656,0.4717574,0.06625573,0.3485561,-0.1265844,-0.2302218
0.2964265,-0.09425587,-0.04126848,0.3425568,0.07527568,-0.1094568,-0.4639575,0.091534,-0.08568347,-0.1498412,0.1645,0.3724273,-0.5128122,-0.4897211,0.1537588,-0.3379727,-0.4128475,-0.06189394,0.2208953,-0.4105123,0.3528225,-0.3473978,0.3763467,0.504283,-0.2028139,-0.06298218,-0.5020314,0.01271071,-0.428306,0.3739316,-0.05128614,-0.2456759,0.405579,0.2889625,-0.1674094,-0.3178012,-0.4753949,-0.4454586,-0.4368875,0.01782437,0.2142746,-0.1582284,0.403064,0.1032378,-0.2784418,0.5524628,-0.431075,0.4135351,0.165495,-0.4739712,0.04929133,-0.4416233,-0.3369965,0.2670203,-0.3402435,0.1001682,0.359709,0.3675121,-0.3947477,-0.07836752,-0.3430451,-0.4356035,-0.3263338,-0.4168113,-0.4453911,0.2878496,0.09183184,-0.04752234
-0.2471262,0.2881834,-0.4523733,-0.1288809,-0.4207384,0.3884203,-0.418779,-0.1338198,0.06250212,0.5277845,0.3983539,0.2903315,0.2082032,-0.2029891,0.2276974,-0.06597228,0.378318,-0.3497941,-0.1057969,-0.07343234,0.07530671,0.2400292,0.106596,-0.08869516,-0.135846,-0.150679,-0.2423725,0.2105286,0.2952712,-0.3651977,0.3159756,-0.07913525,-0.3999139,-0.1593212,-0.522061,0.002958903,0.1420168,0.1084278,0.2900766,0.2228893,-0.08971231,0.01671669,-0.3795022,0.4867921,0.324859,0.5079825,0.002946721,-0.3183097,0.335226,0.004681349,-0.2655861,-0.276253,0.08517645,-0.1853531,0.5629985,0.1501784,0.1595502,0.3488756,0.3829403,-0.1313493,0.1630863,0.13397,-0.1491606,0.08454682,-0.3790833,0.3422544,0.003428389,-0.01021116
0.1062411,0.5234471,-0.349268,0.4096497,-0.05783294,0.3654486,0.1231185,0.03428866,-0.4979308,0.2896499,-0.4521287,-0.2927781,0.1077107,0.3554023,0.02024807,0.5301003,-0.227016,-0.5245661,0.4318645,0.1263753,0.2632369,0.3991512,-0.4807538,-0.2559997,0.2188675,-0.2436693,-0.0226827,0.4232317,0.371029,-0.1007343,-0.2847208,-0.1226069,-0.1497592,0.2071612,0.3576232,-0.2311187,0.1429138,0.4321167,-0.1815293,-0.2340283,-0.279134,-0.0126287,-0.002149096,0.1974162,0.2220518,0.1377087,-0.5703382,0.5030077,0.4717191,-0.03747528,0.06804852,-0.2644251,0.4416527,0.2011169,0.2481621,-0.4670341,-0.2430865,0.3285484,0.3883384,0.2108711,0.2522065,0.1318626,0.02402608,0.08984008,-0.1634201,0.1802877,-0.3390101,0.5325668
-0.4185781,0.4124392,-0.0551447,-0.345437,0.3792283,0.09307203,-0.4195039,0.07763827,-0.38214,0.37135,-0.3517291,0.2565525,0.1522549,0.07933012,-0.09862798,0.3211542,0.4860714,0.3828688,-0.008731524,0.240803,-0.2099554,0.1843087,-0.3563386,-0.3850662,0.4166174,-0.2729109,0.3785869,-0.500962,0.2506087,0.2706971,0.2777443,0.5066838,-0.1065959,0.3505028,0.001485288,0.02254843,0.3135833,-0.1715261,0.4769425,0.05000753,-0.1666525,-0.02870361,0.3815463,-0.3835592,-0.05275289,-0.3691016,0.3243121,-0.2666448,0.1109937,0.3717578,0.5195076,0.03481302,-0.1763243,0.3465041,-0.4037257,-0.3028481,0.445857,-0.3784389,0.007737243,-0.2771855,-0.3223936,0.2722747,0.2090632,-0.2837821,-0.1897786,-0.424463,-0.4882417,0.1714856
0.553564,0.2950835,-0.3739293,0.138046,-0.1283271,-0.1184667,-0.3334659,-0.1615029,-0.3782177,0.2461759,0.4504329,-0.3866924,0.3119674,0.1058262,-0.4655283,-0.3365132,0.4275666,-0.06865569,-0.3129148,0.5471943,-0.2597342,0.02382299,-0.4292935,-0.3895636,0.1081429,-0.09664851,-0.08870033,-0.5101231,-0.1943633,0.3646448,-0.3479508,-0.4133313,-0.1666839,-0.004479415,-0.3335755,0.2605859,0.4158854,0.2128175,-0.3558808,-0.0269056,0.08952651,-0.110625,-0.1536097,-0.1569411,0.2638234,0.1102843,0.4409343,-0.4447513,-0.0202228,-0.5785685,0.4738907,0.4179159,-0.2476819,-0.05853924,-0.007762174,-0.2142404,-0.05273592,-0.1535001,0.05405631,0.1722852,-0.3195397,0.03768106,0.1500793,-0.140951,-0.1452441,-0.05965351,0.06388827,-0.3376711
-0.1685904,0.07087628,-0.05847444,0.1815984,0.2705692,-0.3740804,0.2184797,0.2270939,0.03232572,-0.2101586,-0.2998222,0.3453441,-0.5064206,0.4798394,-0.3917733,0.4670689,-0.174436,0.3914798,-0.35493,0.534959,0.47069,0.1422374,0.421313,-0.3254621,0.3294616,-0.5022987,0.169495,-0.4356633,0.1931191,0.318169,0.5084968,-0.1749936,0.4853098,-0.5311888,0.4673482,-0.06347239,-0.4155408,-0.4129028,0.2265752,0.4290971,0.2209856,0.4244189,0.5514191,0.4697712,-0.2652584,-0.4799787,0.06880804,0.2866715,-0.5221074,0.04892293,-0.4767013,0.2546564,-0.05298578,0.03046805,-0.008900523,0.1001863,0.02841163,0.3160193,0.4833843,-0.4232589,-0.02362187,0.438604,0.2002635,-0.1439377,0.1022341,-0.465745,-0.2543441,0.06834645
-0.00126719,-0.2914625,0.4401584,0.3584978,0.3578641,-0.3307177,-0.5341287,-0.2958212,0.1273796,0.2032268,0.3384211,-0.3907972,-0.3680645,-0.1798945,0.4350285,-0.4590154,0.2873903,0.05062019,-0.07962518,-0.2278465,0.007620267,-0.3221424,-0.2562143,0.1311383,-0.2110921,-0.5274448,0.2160528,0.1433163,0.4672357,0.3022695,-0.3653814,-0.104276,0.1994094,0.09705976,-0.1069803,-0.2382578,-0.02240766,-0.1570099,-0.2220297,-0.554125,0.2570725,0.03138534,0.1044646,0.04929064,0.3357277,-0.125228,0.3078192,0.01386967,0.3564992,0.486723,0.2560875,0.511034,-0.3393425,0.397638,-0.1423297,0.3498414,0.3324332,-0.3082454,0.005105095,0.06945961,0.415181,-0.3963643,0.4030643,-0.07501563,-0.4200716,0.216743,0.4725638,-0.3610737
-0.08974078,-0.1013358,0.2655497,0.0460152,-0.5192009,-0.4241433,0.1664115,-0.4396959,0.07755359,-0.4853173,0.4162471,-0.03951966,-0.08388623,-0.4413947,0.4473688,-0.4531456,-0.09114395,0.4689582,-0.4761347,-0.3357963,0.4843206,0.2452346,-0.03921206,0.1107897,0.1011713,0.2799776,-0.404483,0.176296,0.2156156,0.18795,0.1180538,-0.2179779,-0.2285966,-0.143918,0.3280892,0.4272498,0.1550738,-0.07932745,-0.02227846,0.1420233,-0.1377662,0.2816986,-0.04601439,0.3843522,0.375004,-0.4445392,0.5194287,0.4932168,0.4279424,-0.3595604,0.1577903,0.2305306,-0.2824641,0.489246,0.1121608,0.3185982,0.4252454,-0.1137415,-0.2505804,-0.1504998,0.3140698,0.4480099,-0.2859965,0.3029281,0.1548535,0.445161,-0.5051328,0.3884636
-0.4557185,0.07374264,-0.1929382,0.4192824,-0.3446811,0.4307674,-0.469042,0.1315416,-0.4233342,0.3728992,0.4156741,0.1645037,-0.09447819,0.2234123,-0.4631507,0.05271006,-0.3703206,0.2127562,0.4912294,-0.2426365,-0.1737494,-0.2682687,-0.05339302,-0.421155,0.04901786,-0.3221152,0.3037653,0.06025388,0.20271,-0.1669833,-0.4752541,-0.4744253,0.4524951,0.1824521,0.06754274,-0.329484,-0.2685106,0.2831965,0.2214534,-0.1094062,-0.1616025,0.3241406,-0.5297641,-0.1848,-0.29495,-0.2569103,-0.5543337,0.3083218,-0.3419638,-0.39636,0.07682595,0.09804726,0.4516912,-0.0692635,-0.5166265,-0.5635142,0.1744379,0.1382474,0.01875836,0.2772493,-0.1624482,0.5297632,-0.3079085,0.2121795,-0.04371935,0.4783235,-0.3756467,-0.0432146
-0.3760634,-0.1323657,0.1051497,0.5405275,-0.367134,-0.4356867,0.151643,0.1482191,0.170782,0.4293784,0.4258084,0.295704,0.02487945,-0.1082916,-0.1423271,0.3990291,-0.268099,0.01359608,0.08666473,-0.376037,0.1282613,0.4523957,-0.06885911,0.3500791,0.3658648,0.3360377,-0.1804153,-0.3011019,0.2393914,0.1890328,0.3952226,0.2542029,-0.1958149,0.0676041,-0.1699465,-0.1509707,0.1072925,-0.3704028,0.02634793,-0.05340391,0.0002902665,0.3671647,-0.384484,-0.4329803,-0.1827295,-0.3169816,0.1542655,-0.1742824,-0.03310159,0.4330755,-0.006190479,0.3009954,0.3244488,0.4174147,0.2564341,0.1815638,-0.4817906,-0.5261313,-0.1481093,-0.3567936,-0.4040121,-0.2416508,-0.3477138,0.05553579,0.4494348,0.1726236,-0.2576616,0.0806201
-0.0782867,0.04178568,0.1319048,0.3821059,-0.08101438,0.3037431,0.1263989,-0.2055181,-0.4262152,-0.122453,-0.3016618,0.1158435,-0.3209868,-0.4707561,-0.07690328,0.434712,-0.1613477,0.3589493,0.2809119,0.2507224,-0.08624801,0.4871383,-0.2244537,-0.4072002,0.1192211,-0.2619912,-0.1463952,-0.1824475,0.2443177,-0.06016735,-0.2227973,-0.4698501,0.4043921,0.3347086,-0.5445092,0.4088033,0.5052875,0.2629903,0.4124182,0.03582905,0.3391542,-0.4422584,0.2920354,0.2313742,0.5028573,0.3121936,-0.1328088,0.3407564,0.2666322,-0.2770277,0.08368618,0.2674531,-0.1771539,-0.0334134,0.5570593,-0.3135579,-0.3535458,-0.443702,0.152795,-0.385868,-0.4536434,-0.4710956,0.2431488,-0.1790179,0.2581868,0.01140029,0.4186755,-0.3742696
-0.1775932,0.1690226,0.2282022,-0.4704813,-0.08816359,-0.005530864,0.1337939,0.3290164,-0.07742005,-0.0985428,0.04469131,-0.4796794,-0.2760258,0.3857166,-0.1489061,-0.1210406,-0.5660021,-0.2039642,-0.2844453,-0.05510803,0.2936017,0.239531,-0.3106145,-0.2920738,0.4517412,0.1389683,0.1963546,-0.2588148,-0.01529601,0.3771988,0.05480408,0.01406604,-0.2308376,-0.2266427,-0.1794617,0.4105656,-0.1266651,0.0133694,0.1778195,-0.0938869,-0.308949,-0.4884535,-0.2755513,-0.4354564,0.4485748,0.178434,-0.02422464,0.4684944,0.5071602,0.2380355,-0.4641875,0.04944178,-0.3617594,0.4810484,0.4999231,-0.2149818,-0.2516365,0.4673203,0.2102168,0.3682175,0.4344331,-0.3265442,0.01808085,0.213961,0.5007131,0.03319791,-0.1461678,0.5101406
-0.07473318,0.2769041,0.04329124,0.1093797,-0.1257137,-0.2092657,-0.4349892,-0.3958209,0.07310241,-0.3007869,0.01260564,-0.4513052,0.03859646,-0.03083561,0.2718584,0.05247597,-0.2104337,-0.3269098,0.1033457,0.2623486,-0.3272299,-0.3183424,-0.3725038,0.4192157,-0.4448029,0.0020493,0.5815318,0.3601465,-0.40356,-0.3038287,0.2612626,0.2044886,0.1049603,-0.4360025,-0.1041458,0.3150564,0.1530267,0.002560573,0.007071505,0.07211101,-0.1437576,-0.4635347,-0.4255668,0.3326567,0.2880798,-0.4800989,-0.3999375,-0.4042306,0.4107886,0.2849452,-0.02689325,0.4566539,0.2888973,-0.05962173,0.4377023,0.06614071,-0.1739306,-0.1338246,0.11611,-0.5162674,0.4570982,-0.3360027,-0.3834519,0.4242677,-0.4228575,0.1013913,0.3580003,-0.2258145
0.2469523,0.3520253,0.2484646,0.3381246,-0.354607,0.3809896,0.246892,-0.2072459,-0.3605671,-0.4762484,0.1472559,-0.01518076,0.2856072,0.2709951,0.2078606,-0.117329,0.397072,-0.4837924,-0.2708541,-0.3237463,0.09817597,0.1505832,-0.2593814,-0.1138394,-0.2418338,-0.3002197,0.387985,0.3125434,0.2506475,0.3382749,0.3404801,0.4295978,0.2503034,0.02177394,0.3554544,-0.2451259,-0.263431,-0.3429669,-0.382842,0.355133,0.04837263,0.3587675,0.09818441,-0.0190148,0.08121753,0.136121,-0.003292219,-0.09221148,0.4591848,0.4174853,-0.1929832,0.2027638,0.333843,-0.0315083,0.199577,0.04250798,0.4679314,-0.3291649,0.2288205,-0.4264476,0.1139177,-0.06071642,-0.2620229,0.4390323,-0.1051349,0.4420035,-0.03354283,0.09238864
---
-0.1045964,-0.1307441,0.1436703,-0.3709801,-0.3756989,-0.04520339,-0.5526008,-0.287066,-0.04247475,0.5098497,-0.04753244,0.1372875,0.1579312,-0.2869336,0.2755083,-0.04400191,-0.04261699,-0.3214787,0.07657242,0.01604239,-0.1018752,-0.2828858,-0.09639025,-0.02696211,-0.2155374,-0.3208935,-0.1524306,-0.3995235,-0.08709113,-0.260286,0.06677017,0.4392657,0.4762614,-0.315053,0.5046124,0.376323,-0.1555976,-0.4314579,0.1867382,0.004514772,0.1847314,0.1006449,-0.2767211,0.3618412,0.3441171,0.05762097,-0.05970827,-0.3980629,0.1900648,-0.3413912
0.3608879,-0.2195979,0.466832,0.02894445,-0.5105904,-0.5202445,0.3097218,0.06641467,0.3415081,0.1224425,0.2483592,0.1538516,0.2250648,0.04778469,-0.0377824,0.332204,-0.226077,-0.02552613,-0.394362,-0.4285626,-0.4002974,0.3172896,-0.260689,-0.3918228,0.411477,0.2864351,-0.3781374,-0.1670455,-0.2454015,-0.2833744,0.1213912,-0.2845306,0.1558378,-0.0478417,-0.4620092,0.207745,0.0641192,0.02851398,-0.3980826,0.09147533,0.1387319,0.1484068,0.2669268,0.1375404,0.1030434,0.441884,-0.4238055,-0.003082888,-0.3241206,0.3323204
-0.1924963,0.01204933,-0.2775982,-2.990452E-05,-0.1475593,-0.375881,0.3373481,-0.001277916,0.1095815,0.3325856,-0.2994845,0.05805972,-0.2480331,-0.292854,0.4713937,-0.01196652,-0.03158631,0.3049146,0.5291894,-0.1932891,-0.2093822,-0.3640689,-0.3106838,0.09410705,-0.4203831,0.3587912,-0.309928,0.1199915,0.3491549,-0.3158656,-0.07397138,-0.1001097,-0.342855,-0.06333387,-0.3667747,0.3335505,0.1244671,-0.03445495,-0.4337641,-0.1681206,0.429048,0.3729549,-0.4546819,0.06939309,0.3358475,0.2916841,-0.3889762,0.3026538,-0.186607,-0.1978262
-0.2913619,0.1223347,0.4516322,-0.05722831,0.1156587,-0.3458326,0.4283046,0.2044909,-0.5040879,-0.1060106,0.4213686,0.1869075,-0.5914308,0.4578182,0.5821015,-0.2777998,0.1832967,-0.2226365,0.5713993,0.02939857,0.4381942,0.1006531,0.006057982,0.2250802,-0.3935131,-0.1535652,-0.1893097,0.1717895,-0.4364561,-0.5032444,0.379653,0.5464251,-0.3858109,-0.2337565,-0.3190714,0.2939886,0.05547524,0.2672181,-0.4326575,0.5206472,0.159828,-0.1737799,-0.1538097,-0.43812,0.2400095,0.1687351,0.3092391,-0.1864326,0.3669237,0.09522161
0.3225511,0.2523591,-0.03707613,0.4640526,-0.2850932,0.1851616,-0.2648689,0.317667,0.4731396,-0.1028839,-0.009717689,0.3836557,0.4587974,-0.3821528,0.2787823,0.3076865,-0.5451363,0.3448986,-0.3398705,-0.1093438,0.01355778,-0.2989455,0.4279047,0.320224,0.2445092,0.294673,0.1175156,0.1474011,0.1972224,-0.4931547,0.1529891,0.1496422,-0.3922536,0.1248922,0.07762817,0.1535824,-0.05224309,-0.2502166,-0.4106271,-0.2518078,-0.3028138,-0.2522215,0.4894986,-0.4268785,-0.3422621,0.03225555,-0.2049916,0.3688653,-0.002958982,-0.1750179
0.3724213,0.4275469,0.2338148,-0.2673205,-0.3157669,0.1435947,-0.3664033,0.08560394,0.2602976,-0.04480256,0.1947348,0.4071978,-0.4925881,-0.1864376,-0.4239393,0.3835024,-0.2291181,0.1094299,0.4228309,0.3775584,-0.03673191,-0.2312849,0.4944794,-0.06499998,-0.05188541,-0.3407438,0.1945307,0.5153287,0.2212728,0.1324892,-0.03013615,0.3846803,0.01644818,-0.454791,-0.2158529,0.5111871,-0.3018079,-0.1742683,-0.4448639,-0.5757182,-0.3029338,-0.1240785,-0.0005753475,0.1934039,0.2094032,0.4366162,-0.4339955,-0.4764179,0.4638468,-0.5760893
0.2160898,0.3746324,0.3757045,0.4041791,-0.09301833,-0.4235495,0.4690268,-0.4035149,0.06896905,-0.2049268,0.4839168,0.02956678,-0.0295375,0.1011986,0.1713327,0.4141513,-0.05197887,-0.2162362,0.0621858,0.2651197,0.3826363,-0.2356766,0.492292,0.4115562,0.004636954,0.2589213,-0.4477791,-0.4243025,0.4646474,-0.2439862,0.3840031,0.3813193,-0.4675855,0.3457833,-0.2954388,-0.4371363,0.1905924,-0.3122119,0.02457541,0.4687872,-0.007633897,0.241003,-0.3132318,-0.4156177,0.008211284,0.008756644,-0.05730633,-0.4297044,-0.2312287,-0.4415492
-0.03942584,0.2250019,0.02045562,0.04410244,0.006340094,-0.09370069,0.0577522,-0.4980775,-0.1458486,-0.5061159,-0.4204968,0.1828482,-0.4646113,0.4670505,-0.041414,0.1169759,0.371731,0.008463825,-0.457995,0.4507304,0.227759,-0.03250859,-0.4868203,-0.2590306,-0.2609149,0.1165043,0.2380623,-0.4890517,0.5724966,-0.1405578,0.3549896,-0.1294881,0.2119936,0.2867694,-0.03804487,-0.5027428,-0.1392268,0.4819521,-0.4179404,-0.4666763,-0.1047335,-0.0630722,-0.01371091,0.4898137,0.1599338,-0.3502113,-0.02580943,0.4459226,0.1096306,-0.1149086
0.4118228,0.221049,0.1976189,-0.07566557,-0.1266605,0.2418149,0.4337047,-0.4216509,0.05711358,0.04120152,0.4824708,0.2988798,0.3606313,-0.3586479,0.180702,0.3869085,-0.3011456,0.4120972,-0.452318,-0.02443636,0.1538143,-0.1150471,0.5335163,-0.3848003,0.4853266,0.005845426,0.2275557,-0.09867617,0.4575289,-0.2714209,0.3437478,-0.261687,-0.4813659,0.2190476,-0.1207098,-0.2545634,0.4021016,-0.2689018,0.0338636,-0.3785607,-0.1050198,0.05709077,0.4854802,0.2970043,0.5055175,0.4949225,-0.3030296,0.1608594,-0.1923711,-0.00297823
-0.3219931,-0.3512959,-0.4120862,0.4657162,0.2562754,0.2255629,-0.04859645,-0.3193616,0.06017017,-0.007369728,0.06347307,-0.06453927,-0.4964958,-0.02070756,0.2152272,0.3576531,-0.0365706,0.2047832,0.06520118,0.1444847,0.1725147,0.1370949,0.2182367,0.2152957,0.2081714,-0.3681003,-0.1770457,-0.1195689,0.1380367,0.06774553,0.4814439,0.2488856,0.225835,-0.01736987,-0.05920056,0.4328616,-0.3198537,0.368163,-0.3002743,0.0518021,-0.3206297,-0.3650617,-0.3808512,-0.45847,0.3820572,-0.1726688,0.4305493,-0.3611873,-0.2194809,0.4429679
-0.07327686,0.4829402,0.3073842,-0.1629953,-0.1691961,0.1487354,-0.2787173,-0.2586145,0.04375681,-0.5464938,0.3829419,-0.08204084,-0.3118043,-0.3032103,-0.3827083,0.3154629,0.2845792,0.2221013,0.2498301,0.2793241,-0.2136396,0.2691045,0.107136,0.4087525,-0.253338,-0.3682666,0.291769,-0.4385395,0.1206565,0.2326896,0.177074,0.07786966,0.01344933,0.1055995,-0.1205564,-0.4382541,0.2792974,0.1555317,0.2274532,0.3527634,-0.5590283,0.1931592,-0.3720119,-0.3687026,-0.3305643,0.3515302,-0.2400814,-0.1856762,0.2923911,0.3211842
0.139922,-0.1312598,0.1719916,0.3053075,-0.1290278,-0.4115573,-0.3958981,-0.07232497,-0.4003748,-0.4736652,-0.1930835,0.2441646,-0.2025918,0.1269546,0.04738165,0.3054667,0.3543108,-0.1223447,0.3735258,0.3904598,0.456328,0.02738,-0.4333904,-0.4365477,0.3770306,-0.168131,-0.05607894,0.5292646,-0.1539069,-0.01226846,0.3468729,-0.08865866,-0.4522367,0.4311092,-0.3635865,0.2780231,-0.3678719,0.1623006,0.1642004,-0.07930861,-0.5142127,-0.2814272,0.04731194,-0.1020142,-0.1712938,0.4410193,-0.1225264,0.3151018,0.4014348,-0.04911171
-0.0954978,-0.4075601,0.0237614,-0.2782661,-0.06906844,0.388992,0.4572417,-0.228554,0.2969751,-0.5043901,-0.3570336,0.3869498,0.2142785,-0.152172,-0.1363376,-0.271886,-0.280208,0.3783778,-0.2984428,0.4229588,-0.04659438,0.4419403,-0.3754625,0.233364,-0.3412816,0.08357695,0.4468801,0.2691801,0.4143045,-0.1671532,0.1997921,-0.3894364,-0.4790955,0.005345607,0.2969778,-0.1422321,-0.1774437,-0.2461994,-0.3169783,-0.1843505,-0.1124329,-0.4009824,-0.09391697,0.1969205,0.1989225,0.06401397,0.1136362,-0.01112353,0.330261,0.5442172
-0.008369677,-0.1217566,0.2288061,0.3585868,-0.0845627,0.5081822,-0.4648241,0.4072733,0.3921257,-0.0161644,-0.03878532,-0.3837556,-0.4436383,0.381401,-0.09964957,0.3395524,-0.4152422,0.382061,0.1053982,-0.1931097,0.2041669,0.03434915,0.1215594,0.05938293,-0.3412821,-0.1286784,0.5365636,-0.4487605,-0.06981972,0.1834339,-0.1166106,-0.1555167,0.1595472,-0.6064372,0.3995514,-0.02587644,0.1370096,0.318478,0.4045698,0.2547784,0.4490942,0.5133669,0.1459596,0.2645088,0.264401,0.1729191,-0.5604107,0.3234325,0.4076797,0.1996086
0.3711772,0.03048583,-0.1181369,0.07407161,-0.5471904,0.005040488,0.0366662,0.3954274,-0.2314938,-0.5446416,0.1913191,-0.0482201,0.3829967,0.03720863,-0.2611926,-0.1033657,-0.01145815,0.5165331,0.0788447,0.4689891,-0.03742034,0.5653784,-0.2174691,-0.3851035,-0.04507628,-0.3706368,0.2337463,-0.5034917,-0.4104792,-0.2843201,0.1194697,-0.07392152,0.05070243,0.092459,-0.3018617,-0.4561198,0.4483876,0.5117682,-0.331337,-0.558567,0.3640577,-0.399784,-0.2621804,-0.154264,0.1249993,-0.0475921,0.1703834,0.2924046,-0.2510512,0.188276
0.5758436,-0.2104955,0.117056,-0.2656725,0.2226728,-0.2219945,-0.09622283,0.03520716,0.5142676,0.08708451,-0.4221705,0.4285222,0.349829,0.4268076,0.4412265,-0.38521,-0.416104,-0.08512926,-0.2796178,-0.3982401,0.2493532,-0.174322,-0.3685591,0.06045114,0.1902939,0.3915103,-0.1832972,-0.2152084,0.02674396,-0.08388092,-0.01301297,0.1347775,-0.1072432,0.000850839,0.3065456,-0.1234292,-0.4346108,-0.3850718,0.3188442,-0.1720792,0.03575312,0.1399643,-0.1190755,-0.3177499,0.244727,-0.6183545,0.1083481,0.04909071,-0.06741857,0.3493462
-0.1061291,-0.4334448,0.4563064,-0.04430962,0.2317467,0.3691569,0.3391713,-0.02626702,-0.07979751,-0.3843015,0.4836901,0.1150451,0.4040819,0.4123302,0.03918502,-0.193872,-0.0834168,0.3304923,0.1889867,-0.1940901,-0.06818786,-0.2772896,-0.1611642,0.3432576,-0.3129397,0.5354378,0.2114486,0.300674,-0.08777377,0.3616111,-0.08331049,-0.001554731,-0.03145084,-0.3176371,0.2081794,0.4791205,0.3726173,-0.219844,-0.141946,-0.3979361,-0.1597791,-0.4926874,-0.460251,0.1926274,-0.2040671,0.27474,-0.1919677,0.0823792,0.5593892,-0.01023079
-0.04105934,-0.29509,0.09399781,0.04345153,0.009420321,0.5266676,-0.1469468,0.1881755,0.1716061,-0.2430005,-0.2386118,0.4937323,0.1551882,-0.3577749,0.2144282,0.2370771,-0.05919357,0.2453078,-0.2639229,0.1955068,-0.3887195,0.359661,-0.4291878,-0.1216427,-0.3454414,-0.3889309,0.1197785,0.4104793,-0.03738823,0.2136795,-0.0303133,0.03510297,0.2348355,-0.3688179,-0.3446685,-0.3407815,-0.1988577,0.1814261,0.2665426,0.1803582,0.1131659,-0.215452,-0.2319497,0.2852651,-0.2438502,-0.4076241,-0.3092834,0.060773,0.4331532,0.2302517
---
===
-0.1187366,-0.4275683,-0.4484844,-0.5306588,-0.3480889,-0.1510155,-0.4462928,0.2838064,0.1010598,0.2701871,-0.004817742,0.00326873,-0.004696672,0.4393962,0.1658856,-0.3742269,-0.3625649,0.09068339,-0.1387713,0.3817593,-0.3583509,-0.1519512,-0.2658541,0.4952213,0.4543359,-0.06315517,0.2550228,0.3615486,-0.4135802,-0.3088175,0.1265676,0.1026987,-0.2067802,-0.01809382,-0.54909,0.4441406,0.1632763,-0.2234103,0.3438421,0.4082628,0.1707431,0.3410689,0.08030163,0.01026334,0.04386459,0.314154,-0.2140892,-0.2241903,-0.2226988,-0.07054375,-0.2247647,-0.2292698,0.3789619,0.1105798,0.470383,0.380074,0.007657677,0.460783,-0.3794532,-0.05456805,0.0139879,-0.4300428,0.2947251,-0.4719204,0.463876,0.04079907,0.3566974,-0.2127977
0.486922,-0.1121111,0.08874337,0.3366691,-0.4641111,-0.05927493,0.1261874,-0.4539531,-0.4504783,-0.2263072,-0.1272248,-0.1510971,0.04836407,0.4662169,0.1998139,-0.06826283,0.2898577,-0.3576441,0.4888998,0.5152062,0.07935422,-0.3333727,-0.05952285,-0.4278327,-0.3522727,0.01207576,0.5308685,-0.191032,-0.3174168,0.2405003,-0.3290695,0.1843362,-0.3778096,-0.2864545,0.4555303,-0.4835885,-0.5200586,0.3969675,0.01638326,0.06678654,-0.09476778,0.2366631,-0.3923215,-0.2524565,0.02042721,0.1421419,0.01608212,0.303755,-0.5083243,0.01737371,-0.04650225,-0.06452426,0.01314038,0.2878705,0.3374183,0.5153534,-0.3439534,0.1588157,-0.4372598,0.4728612,-0.2674228,-0.3761026,-0.5075776,-0.4839633,-0.2153495,0.2001235,-0.03026616,-0.06392188
0.3068655,-0.06661791,-0.1039289,-0.2903054,-0.4367592,-0.0845277,-0.09848572,0.4874062,-0.4531937,0.3508594,-0.4673242,-0.07145561,0.2001232,-0.5058636,0.3917977,-0.2906197,0.3384818,-0.4730254,0.1699122,-0.160982,-0.3148013,0.4588481,0.1162657,0.3639884,0.3818913,-0.5216126,0.4165183,-0.1747312,-0.4010684,-0.1306691,0.3763258,-0.4972855,-0.3594448,0.3698641,0.2027328,-0.0908489,0.4745205,0.4823727,-0.5240042,0.4421895,0.1597232,-0.3783326,0.3786189,-0.1752356,0.1955869,-0.2905923,-0.4562931,-0.3135798,-0.03896185,0.2666247,-0.1708409,0.3296504,0.1041358,-0.0551177,0.302972,0.3815873,0.5246196,-0.0839031,-0.447148,0.5899644,-0.2439521,0.3709648,-0.1442787,-0.1690398,-0.3710684,-0.4131264,0.5356389,-0.3250126
0.1322914,-0.07063429,-0.3651238,-0.2986953,0.1959143,-0.1951398,-0.04484703,0.1813484,-0.3112555,-0.3967004,-0.1227945,-0.3696393,-0.2401062,-0.2411362,-0.1795691,0.3215509,0.05239613,0.4548248,-0.5251719,-0.4609457,-0.0332617,-0.1395146,-0.03215056,0.1439542,0.392828,-0.2728777,0.2572888,-0.2603692,0.03967012,0.1208935,-0.4571891,-0.2915876,0.3504235,-0.2195818,0.0003426206,-0.4944958,-0.3404764,-0.3329456,-0.1047112,0.4316728,0.4616152,-0.3845704,0.2883683,-0.5728183,0.4176372,-0.06646797,0.2275757,0.1668841,-0.1348878,0.3498535,0.2336724,0.09146994,0.4799889,0.1182273,-0.2646837,-0.03891152,0.4862782,-0.28696,0.03233539,0.4503419,-0.2092021,0.565186,-0.3182552,-0.01786519,-0.2215724,-0.4373694,-0.3957553,0.2075241
-0.4571697,-0.3030333,0.5587331,-0.05137559,0.1620597,-0.2402232,0.2539354,0.068807,-0.3596163,0.03582745,-0.04507498,0.08034644,-0.1056593,0.3714615,0.5266981,-0.1133427,0.4411482,-0.2257745,0.3398526,-0.4669311,0.29104,-0.3510261,0.3328201,-0.2006581,-0.1733678,-0.1581004,0.06932455,-0.5188255,0.4089424,0.4070432,-0.2808086,0.2887958,0.2332992,0.3165579,-0.03209867,0.07531871,-0.4397978,-0.1308917,-0.1854091,-0.2368993,-0.2174058,-0.3728269,0.5186753,-0.4453217,-0.5481682,-0.09431742,-0.4495952,-0.1373758,-0.4482344,-0.2092814,0.1080122,-0.06509895,0.1443376,-0.2012368,-0.03066543,-0.3111534,0.4250161,0.4878356,0.4866698,0.08789229,0.4061458,0.3963152,0.1473999,0.4179016,-0.1968088,-0.2006622,-0.1943594,0.2050268
0.04750752,-0.09806083,0.0778303,0.2049507,0.286997,0.3979454,-0.1038496,0.3168139,-0.4155182,0.2680967,0.2259636,0.3379618,-0.3663476,-0.3548298,-0.104021,-0.2298064,0.1724592,-0.4612871,0.1751307,-0.1065414,-0.3178264,0.1429516,0.06290312,-0.2253094,0.1700247,0.4708681,0.2195468,0.03081465,-0.4958884,0.4079766,0.2850566,0.307467,-0.4773276,0.284237,-0.5255635,-0.1989329,-0.302457,0.1603742,0.4030804,-0.06800555,0.1195675,-0.2481601,0.5312339,0.4803405,-0.3833628,0.367217,0.4699283,-0.2136855,-0.4235416,0.5169277,0.1863924,-0.177977,0.2865426,-0.3831076,-0.2958627,-0.3317916,0.4270347,0.1964526,-0.2306789,-0.299573,-0.2381211,0.2403451,-0.2884769,0.416628,-0.4800274,-0.1411815,-0.498904,-0.4834082
-0.557684,-0.2909798,0.1427652,-0.3572711,0.05848984,0.2427469,-0.4908745,0.3813222,-0.008238751,-0.3150783,0.2144793,0.4086329,-0.3795691,-0.5402681,-0.2085027,0.1049854,0.3440883,0.03637768,0.4656113,0.117212,-0.144674,0.261059,0.07028023,0.4761913,-0.02283313,-0.2906792,0.3425068,-0.1278515,-0.2400017,-0.3328535,-0.1505136,-0.4309502,0.206051,0.1782223,-0.3854193,0.4679368,-0.1487817,-0.3828739,-0.4458887,0.156159,0.2125038,0.2980992,-0.138578,-0.4543679,0.2361064,0.07452982,-0.3605292,0.4505172,-0.06646153,0.5386179,0.3654416,0.3688574,-0.08782159,0.3508059,0.02177194,0.06024574,0.1317445,-0.3228005,0.04519713,0.1077628,-0.2647089,0.178807,-0.294513,0.01655036,0.402779,-0.2882679,0.1305871,0.2603718
-0.2754951,-0.1788688,-0.39159,0.2892333,0.0130677,0.3594691,0.05211043,0.06749231,-0.1530259,0.2522365,-0.1232976,-0.1625045,-0.05857308,-0.5073794,-0.564721,0.1062401,-0.2420845,0.5479887,-0.2442163,-0.1663334,0.1451708,0.09060622,0.02509395,-0.1845245,-0.4302531,-0.2713619,-0.1139288,-0.2186836,-0.2260784,0.3419243,-0.04955661,-0.1562859,0.2471619,-0.1650191,0.3327834,0.3978493,-0.1720539,-0.1910433,0.4526322,0.03808097,-0.04927259,-0.45221,0.4410438,-0.07403167,-0.0828481,0.2452245,0.07024213,-0.4093427,0.3639614,-0.1435869,0.2268517,-0.4456633,-0.1896686,-0.2791334,0.2979492,-0.2130481,0.4153812,0.1094496,-0.001130453,-0.4671766,0.3807881,0.3460372,-0.3384444,0.429448,0.421406,-0.295237,0.320861,0.1134564
-0.2836861,0.06638476,-0.08740109,-0.2754824,0.3318225,0.2622537,0.375129,-0.4704854,-0.2736053,-0.1745901,-0.2787518,0.008324023,-0.007809124,-0.3709216,0.4848093,0.2797773,-0.3906762,0.4206367,-0.4771174,0.1070828,0.2947474,-0.4092734,0.3374132,0.2137241,-0.2493575,-0.07107428,0.179507,-0.4505175,0.4459735,0.5845487,0.3170219,-0.05099883,-0.489439,0.3557207,-0.2074036,-0.3498128,-0.1030185,-0.2980778,0.3025846,0.3965033,-0.2631749,-0.002071488,0.1469646,-0.1676745,0.3030685,-0.4347366,-0.006360573,-0.4353175,0.2554139,0.1298637,0.4740273,0.3982174,-0.231234,-0.2009077,0.07250185,0.1580866,0.1705721,0.2204858,-0.3502303,-0.1515158,-0.1182857,-0.518308,-0.3651452,-0.4021633,0.4368528,-0.4742676,0.3236663,0.4846682
-0.06521372,0.260231,0.280017,-0.4221515,-0.2375082,0.05721081,0.2716377,-0.2044149,0.4567105,0.0499234,0.3894131,-0.09676855,-0.4931402,-0.1672739,0.09215351,-0.1104142,0.4239566,0.1596977,0.4488266,0.2389584,-0.3148607,0.2490363,0.5051693,0.1787165,0.02505934,-0.4309558,-0.04546852,-0.3492554,0.1101779,0.04103495,0.2477152,-0.5689475,0.06751645,-0.2661733,0.4964609,0.4748367,-0.3016076,-0.4238692,0.2984457,0.01901462,0.2371724,-0.3182608,0.1397626,0.04812348,0.4121549,-0.4762128,0.1016994,0.4964281,-0.4592741,0.4161806,0.4760204,-0.1936333,-0.02389431,0.3304581,0.3588913,0.4440553,0.4972715,0.05039418,0.3053281,0.1707663,0.1456618,0.01012905,-0.4941579,-0.4638683,-0.4276231,-0.08153415,-0.1300848,-0.04561404
0.03503901,0.3396621,0.3779265,0.3408397,0.2748658,-0.3732137,0.4654929,-0.4111692,0.3487994,-0.1802496,0.09975865,-0.2161375,0.1216234,-0.4113396,0.2771201,-0.007929016,-0.3922271,-0.4665237,0.09921173,-0.0008178218,0.5137317,0.4368379,0.4037642,0.5023438,0.007910605,-0.09524411,0.0382401,-0.1384944,0.04484402,0.2754675,0.4497721,0.4392079,-0.4947249,0.1102076,0.3191246,0.2817866,-0.3087824,0.07943255,-0.1677574,0.3705806,0.1496971,0.4828735,-0.2926636,0.4956607,-0.3735592,0.08288682,-0.2183029,-0.3139302,0.5225223,0.01672149,-0.4663652,-0.1493712,-0.4140548,0.2865298,-0.07244544,0.5090365,0.4420627,-0.09027175,0.3736393,-0.2484779,-0.4936103,-0.06165743,0.1885321,0.006388962,0.1055012,-0.1378443,0.2357879,-0.142903
0.3704793,0.1236107,0.186036,0.2545263,-0.4065826,0.2075079,0.1850934,0.1072125,-0.5539882,0.1871842,-0.04958154,0.4657573,-0.3516186,0.4626593,0.3846147,0.3985552,-0.1060314,-0.1559802,0.1818208,-0.4073228,-0.1534486,-0.06781185,-0.03824859,0.4650218,0.2130979,0.4979168,0.1455189,-0.3956429,0.3602243,0.215003,0.2192112,-0.002191067,-0.1286759,-0.377201,-0.3158623,-0.2323547,-0.1678708,-0.1076102,-0.08408272,-0.1139778,-0.4781413,0.07917227,0.346507,-0.1641518,0.1821006,0.1755143,0.06619252,-0.4415213,-0.03788912,0.0126307,0.0599717,0.3664996,-0.04003222,0.1299828,-0.4257791,-0.2584588,-0.08637316,0.4116777,-0.2793282,0.03469248,0.312135,-0.07450324,0.01392004,-0.5387134,-0.3016644,-0.3726807,0.1467175,0.5764139
0.4960867,0.1406333,-0.244721,0.4866838,0.3824765,0.03489375,-0.2116215,-0.275014,-0.176801,0.2146564,0.1334888,0.1384782,0.0550822,-0.3283499,-0.02273888,-0.3686706,-0.2918692,0.4981876,-0.2441093,0.3878228,0.397539,0.3275834,-0.01685325,0.150073,-0.02084185,-0.5178128,0.009607797,-0.0334366,-0.1803598,-0.3054514,0.06033562,0.04534887,0.1372496,-0.3165959,-0.2685398,-0.1231175,0.3707854,0.2950976,0.2547206,-0.1950798,-0.2615906,0.1750528,0.1577339,-0.08246811,-0.06263844,-0.4010602,0.5006285,0.2387305,0.02142492,0.4675086,0.3243653,0.5020728,0.2742924,-0.2487928,-0.06914217,-0.473111,0.03259363,0.06233429,-0.05910913,-0.1181788,-0.0554463,0.1396561,0.4382507,0.3031719,0.3319541,-0.2663521,0.1530822,0.2067138
0.1689594,-0.1285089,0.4729034,-0.5784259,-0.2465097,-0.2984458,0.02449045,0.0319108,0.2046189,0.5584472,-0.1209828,-0.08825836,-0.2229302,-0.2249454,-0.04496692,-0.3621436,0.389823,-0.5286606,-0.1550448,-0.301333,0.3748966,-0.4722846,-0.45833,0.1188193,-0.0739438,-0.3785236,0.2694975,-0.2226001,0.0698417,-0.4138134,0.365474,-0.1332078,-0.3581549,0.1320642,0.3344939,-0.2376883,0.5012004,-0.2399999,0.06927608,0.3850536,-0.1529971,0.3074867,0.4532427,0.3730549,-0.1225499,0.5197144,0.04584314,-0.1703804,-0.447467,-0.07546413,0.425071,-0.4398482,0.2272873,-0.1960886,0.05549486,0.5146416,-0.3205312,0.213461,-0.1306113,-0.3671519,-0.2626335,0.4023564,0.375472,-0.09826265,0.4918388,0.2380629,-0.4856231,-0.07910378
0.3053712,-0.3663707,0.3669533,-0.1587366,-0.3325211,0.0007991194,0.3983111,0.2424316,0.3995465,0.3043115,0.305951,-0.04770705,0.02503693,0.5220305,-0.152718,0.2158161,-0.06959503,0.1013785,0.3153598,0.4556434,-0.05565002,0.3839019,-0.3954268,-0.02861655,-0.3822215,-0.1496941,0.4046666,-0.2427352,-0.368433,0.1043699,-0.04852752,-0.1056209,-0.2332789,0.03804313,-0.5500307,0.3189488,0.1218095,-0.004807451,0.1882472,-0.2279309,0.2766507,0.270362,0.05308346,-0.1261382,-0.2862475,0.3242441,-0.3201103,0.259451,0.2559581,-0.2534877,0.4143907,0.3840523,0.5278434,-0.3542296,-0.3663751,0.1240102,0.003355304,-0.5014399,-0.1619645,-0.4471764,-0.4858497,0.3750037,0.09712123,0.4575987,-0.1135311,-0.3090498,-0.3455376,0.4215509
0.4756669,0.4875592,-0.002996105,-0.01532432,-0.08496843,0.4731745,-0.08779383,-0.05295567,0.4282956,-0.2950062,0.1993974,0.4202598,0.2803681,0.2001386,0.3077589,-0.3851502,0.5530303,-0.3842564,0.1295149,0.3601656,-0.4209173,-0.3653746,0.3726511,0.02720526,0.5119613,0.3778286,-0.333921,0.2118984,-0.2446938,-0.01215945,-0.4253303,-0.5006648,0.469715,-0.1772568,-0.1066252,-0.3832106,-0.4491745,0.01854976,-0.4693521,0.2322724,0.5175704,0.1720596,0.1013627,-0.4538163,0.4619993,0.5079688,-0.3713941,0.0471842,-0.440548,0.3467437,0.3075594,0.1611045,-0.1088491,0.3817509,0.221665,-0.2334539,-0.3989619,-0.1392091,-0.3607692,0.2363337,0.2982341,0.229036,0.006010587,0.3202773,0.1775405,-0.4897387,-0.2717357,-0.3591827
-0.2359771,0.2508021,-0.2300821,-0.4487625,0.4601971,0.1828874,-0.3086687,-0.05015658,0.4100317,0.3061093,-0.1886428,-0.5004368,0.1524449,-0.3452783,-0.2191272,0.2844813,0.3962698,-0.1863284,0.3663561,0.4146839,0.4677124,-0.09895585,0.1613397,-0.30397,-0.139184,-0.4407014,0.1948559,-0.3951049,0.2939513,-0.4929811,-0.2541325,0.3364216,-0.442672,0.1944095,0.2781503,-0.2815739,0.3984751,-0.09209041,-0.0394763,-0.5559521,-0.2978922,0.2124267,0.01512919,0.5043998,0.3807424,0.157269,0.1637118,-0.03661656,0.1896904,0.2519322,0.1465052,0.3329475,-0.3064355,-0.07715604,0.2965359,0.04981824,0.3174084,0.2697951,0.4987366,-0.159771,0.09432796,0.04413148,-0.4446042,0.1700976,-0.1444755,0.4922648,-0.423515,-0.4373963
0.3898484,0.1917299,-0.3780897,-0.5645093,-0.07969001,0.3136182,0.03662676,0.2903796,0.3619652,-0.05765324,0.2480942,-0.2933404,-0.3455707,0.3607305,0.2677015,-0.4023686,-0.3608285,0.2393896,0.4026765,-0.223886,-0.4572355,-0.03267704,-0.122718,-0.2325399,0.1023253,0.07483043,0.1628569,0.005413972,-0.4975384,-0.006868221,0.1982685,-0.03760608,0.3377172,0.08520695,-0.1496566,-0.3097557,0.5206035,0.179493,-0.5280406,-0.04054465,0.4282159,-0.4492832,0.3172421,-0.2775496,-0.381128,0.2734476,-0.05609569,-0.147046,-0.09862348,-0.126667,0.006313916,0.03875789,-0.5302567,0.1661588,0.3977067,-0.1221552,0.2447594,-0.5394464,-0.3407555,0.2305592,0.3506626,0.4344766,0.003013113,0.1529506,0.07621679,-0.2719098,0.2774719,0.3216267
-0.2037385,-0.1303523,0.09435175,0.3870696,0.2045436,0.4171748,-0.1733291,-0.3027447,-0.4249958,-0.5139467,0.2339475,0.4076025,0.4013102,-0.01661466,0.05398594,0.4154247,-0.05764939,-0.5381688,0.1217073,-0.5217544,-0.1295987,0.3134621,0.2151148,-0.2095494,-0.06171614,-0.103085,0.4658736,0.09545171,0.3653928,0.2642987,0.4107073,0.5098182,-0.1113479,-0.3016586,-0.3396608,0.4447228,-0.2745819,-0.04230521,-0.08520631,-0.1025529,-0.4713527,0.3418692,-0.3672188,0.3290062,-0.201832,0.02610797,-0.2218371,-0.5209752,-0.563318,-0.03868116,0.1583907,-0.2157151,0.05442149,0.2219105,-0.2694307,-0.2595293,-0.3121743,0.3508332,-0.4664186,-0.4100072,-0.2170574,-0.1208284,0.430678,0.439338,0.3133844,0.007605813,-0.05972536,0.2617463
0.267208,-0.3348723,-0.03586916,-0.1106543,0.2962928,-0.5414306,0.2878512,0.2435197,-0.2455671,0.05456791,0.4673038,-0.4690007,0.09761667,-0.003304079,-0.4073959,0.1734305,0.2100289,0.3325781,0.04949656,-0.3066736,-0.3104012,-0.0238554,0.0712757,0.3740431,-0.2179676,-0.1672943,0.1704746,0.3805765,-0.04181912,0.4167774,0.4098223,0.4366798,-0.02307288,-0.07136583,0.3096354,-0.2008922,0.4859935,0.4325336,0.4294302,0.09418425,-0.1499115,-0.1392858,0.05139251,-0.4085807,0.1788501,0.04983732,-0.07705611,-0.5192795,-0.1880534,-0.3587117,-0.0716162,0.3948238,-0.1965608,0.3892913,0.3382475,-0.05506932,0.230024,-0.2752785,0.06064285,0.2025529,-0.271404,0.02722527,0.2518052,-0.05684154,0.3475857,0.2546944,-0.4376472,0.2041361
-0.3306063,0.2009644,-0.2268599,0.02334538,0.2750017,-0.5000713,-0.3821689,0.4803068,-0.3938697,0.2413272,0.2922793,0.3185293,0.3719091,-0.3221356,0.3868534,-0.3753155,-0.381115,-0.3862634,-0.09949777,0.447613,0.4886422,-0.1234535,0.06288103,-0.1078012,-0.3063187,-0.1594355,0.3246537,0.1477983,0.3163981,0.2036233,-0.06416967,0.2073383,-0.05440007,-0.1791658,0.4000705,0.4796466,-0.2624415,-0.1872461,-0.03177272,0.3188013,0.07237339,0.1812054,0.3374813,0.3108013,0.02484745,-0.1885932,-0.02758265,0.08055867,0.3928718,-0.5740847,-0.2543663,0.43159,0.3139789,0.07171216,0.5403035,0.4580538,0.3385934,-0.1024144,0.01932397,0.3352984,-0.2096427,-0.4227912,-0.4567719,0.04265331,-0.06895202,-0.3580232,0.1827844,-0.3403828
-0.2979251,0.1232786,0.01140618,0.1905137,0.410764,-0.07929347,0.2671404,-0.5215929,-0.2870549,0.4210694,-0.2035694,0.5425458,0.4241685,-0.1443378,0.4486988,-0.1355507,-0.1237811,-0.2357496,0.1292916,-0.3181834,0.4438562,-0.1662585,-0.3849681,0.192039,-0.4416089,0.3050733,-0.1138022,-0.3863155,-0.1856847,0.2734985,0.09896331,0.004466834,-0.2739754,-0.2242272,0.1957534,0.4202622,0.0518633,0.4056843,-0.2425421,-0.03971061,-0.2097692,0.4304268,0.1335759,-0.2994293,-0.05287499,0.2210558,-0.236638,0.375316,0.1486618,-0.4323719,-0.3572564,0.2447021,0.2952197,0.1532456,-0.2849236,0.1509786,0.3006065,0.3623096,-0.4058075,0.3975915,0.05323514,0.06649307,-0.1173334,-0.4122889,0.1565978,-0.265893,-0.2328198,0.2252655
0.3364686,0.1651213,-0.3756843,0.3071627,-0.3096603,-0.3661045,0.1482939,0.396627,0.0620571,0.2563008,0.2353769,-0.1296986,-0.3264725,-0.1818975,-0.4977592,-0.030116,-0.3039065,-0.03652852,-0.1291443,0.09245261,0.02824571,0.1036064,-0.4111106,0.3389509,-0.4739028,-0.4010589,-0.4323275,0.1083595,-0.3296587,-0.08806866,0.1496985,-0.3957713,-0.3348224,-0.10725,-0.3862903,-0.3633685,0.08058383,-0.04978256,0.01161389,-0.2711413,-0.2830106,-0.4440455,0.2777352,-0.232872,0.2471928,0.2418976,0.01459155,-0.5036363,0.09360149,-0.527841,-0.2032281,-0.119559,0.3471912,-0.09003638,0.1808203,-0.3854373,0.1276331,-0.09664008,-0.4509312,-0.2568164,-0.1927737,-0.007986648,-0.3579873,-0.3196615,0.5056089,-0.1538176,-0.1203623,0.3898487
-0.2354107,-0.3741882,0.394574,0.4251573,-0.1643745,0.4298516,0.4222898,-0.2286509,0.007563594,-0.1511924,0.3370838,0.1814601,0.1676762,0.3758715,0.3103105,0.02178591,-0.1558725,-0.07738378,-0.4440823,0.07701844,0.1346974,-0.2148931,0.3422129,-0.08430929,-0.3195222,0.1558713,-0.390074,0.09625082,-0.0139604,0.3079288,0.1916791,-0.3460046,-0.2777108,-0.2688859,-0.03797008,0.3743798,0.1978258,0.4634678,0.3868935,0.1680178,-0.4029703,-0.4602154,-0.4586935,-0.2727533,-0.3500199,0.3555149,0.3482458,0.002077294,0.5388492,0.539431,-0.5354902,0.111512,-0.5157042,0.1399408,-0.3313943,0.2433707,-0.4469781,-0.2820194,0.002242863,0.5569427,-0.1623748,-0.08606516,-0.282175,0.372641,0.09829687,-0.2592478,0.09647541,0.2183366
0.3889099,0.1026295,-0.09933715,0.06673101,-0.3268065,-0.1573426,-0.321174,0.0589542,0.4378412,0.3962052,-0.4937546,-0.05990253,-0.3721601,0.2564442,0.3428721,-0.3411531,-0.206248,-0.4464092,-0.442891,0.2579053,0.06281026,-0.1987284,-0.4545596,0.5090319,0.2070684,0.3846971,-0.1776025,-0.4198125,0.2260992,0.3058082,0.09090395,0.2659492,-0.3199902,0.02845773,0.2900889,-0.2631382,-0.3078896,0.3730786,-0.1471878,-0.3711934,-0.3229536,0.2294506,0.09812258,0.341325,-0.2207672,0.3604136,0.4836287,-0.3406186,0.4436694,0.08707496,-0.07863328,0.3418461,0.1978206,0.06382111,0.4193413,-0.4799519,0.08923805,0.4430209,-0.3988272,0.3392963,0.07899629,-0.1478183,-0.1723797,0.09570818,0.07928574,0.04446189,-0.4901566,-0.3295595
-0.4285135,-0.02291745,0.1174568,-0.4917879,-0.2258968,0.3702132,0.1882697,-0.2537449,-0.1257949,0.1213978,0.4411969,-0.4495544,-0.1811645,-0.5203743,0.2082396,-0.1879002,0.3309729,-0.01283195,0.1093896,0.0245252,0.2487528,-0.1224769,-0.5077763,0.4937301,-0.1994856,-0.1131732,0.06373513,0.03179195,0.3597144,-0.2591427,-0.2931069,-0.4351625,-0.04899652,-0.5012817,-0.4845337,-0.1609517,0.2225277,-0.2071966,0.2471276,0.4186028,-0.2144064,-0.2820938,-0.2107251,0.1160095,0.4613425,0.5351775,-0.007672984,0.1732877,-0.4343953,-0.2201163,0.1701934,0.3561147,-0.0786606,-0.2074261,-0.4520114,0.03939278,-0.2238192,0.2274485,-0.05483169,0.3428998,0.377142,-0.3617818,-0.4372067,-0.4279305,-0.2673227,-0.2069328,0.27243,0.4969324
0.5520904,-0.07822867,0.4662273,0.02166375,0.05224404,0.005660289,-0.1684682,0.2643524,0.06897468,-0.2083499,0.1517835,-0.3041591,0.007566134,-0.2378698,-0.514011,0.4318434,0.3490297,-0.1137955,-0.2786437,-0.2714503,-0.5162455,-0.395317,-0.3908069,0.4358419,0.1513671,-0.3544861,-0.0547293,-0.3575743,0.1483761,0.1645599,0.002667316,0.1786191,-0.3274514,-0.0449071,-0.3608912,-0.3408618,-0.1360986,0.05768201,0.1106078,-0.06969814,-0.06507318,0.4916037,0.3539665,0.1040092,-0.2183983,-0.06282725,-0.06395122,0.2840698,-0.4342147,0.2730032,0.2191511,-0.09365003,0.09217263,-0.3889517,-0.3504177,-0.395325,0.5378419,0.4197354,0.3176211,-0.06122936,-0.5156011,-0.1461697,-0.263487,-0.1142282,0.2133954,-0.4173767,0.08117823,0.4478887
-0.09075274,-0.08033361,0.2142669,-0.1562501,0.4978704,0.5573511,-0.2267882,0.4277348,0.3022836,-0.1670864,-0.2879974,-0.5138538,0.01094,-0.1565451,0.227146,-0.2070277,0.2843215,-0.08530232,0.4068848,0.1909908,0.1390445,0.3385452,-0.4578474,0.3956528,0.3807602,0.368683,0.4695086,-0.1651658,-0.2194074,0.3770943,0.2988187,0.445054,-0.5013089,0.07410625,-0.0393269,0.4742956,-0.1089623,-0.1553662,0.2891363,-0.29325,0.08539769,-0.2570227,-0.5196946,0.2299695,-0.1739739,0.1814284,0.289086,0.1395687,0.3686251,-0.1899645,0.3867445,-0.1903326,-0.2087305,0.03812663,-0.4648376,0.1064527,-0.3338928,-0.07579572,0.08492708,0.3557823,-0.466716,-0.01330838,-0.3622343,-0.2834406,0.1346429,-0.2058457,-0.0142856,-0.04441331
0.450582,0.110623,-0.4252049,-0.09420856,0.4564703,-0.5039836,-0.09409061,0.132737,0.1556016,0.06855227,0.3050452,0.1042456,0.4394607,-0.4294318,-0.1486147,0.3360955,-0.3465965,-0.4790599,-0.01962814,-0.4040634,-0.1761125,-0.3067611,0.444392,0.4775049,0.4534199,-0.2452059,-0.2951322,-0.4240027,0.5234566,-0.1564385,-0.3388377,-0.0747145,0.2975153,-0.1866746,0.4116147,0.1375722,0.2738829,-0.09827433,-0.03045556,-0.3854585,0.1806812,-0.4852677,-0.1807413,-0.3994014,-0.3924716,0.02670396,-0.4020042,-0.2856185,0.4333563,-0.2679091,0.3372694,-0.3374774,-0.1309269,0.007596537,-0.3749442,0.313104,-0.4798088,0.1722284,-0.2863766,-0.5008307,0.226474,0.07454629,0.2831997,-0.1372595,-0.07144,0.1192687,-0.4324901,-0.212459
0.3615608,0.4149425,-0.4148469,0.4368187,-0.2919748,-0.4614613,0.4704352,0.2873707,-0.1003064,0.2834103,0.07812952,-0.2831163,0.08785513,-0.3821037,-0.307083,-0.1605824,0.3694628,0.2983571,-0.4366682,0.3266488,-0.2598746,0.05252584,0.4559716,-0.3923804,0.330751,0.2119849,0.1368018,0.09715532,-0.01603755,-0.1196354,0.04854126,-0.2606394,0.3227319,-0.2419839,-0.06998253,-0.3914355,0.1931999,-0.001571415,-0.04257655,0.08872794,-0.5398309,0.4269336,-0.3112519,-0.4559462,0.3401655,0.120168,-0.09773329,0.2620748,-0.5670738,0.08463626,-0.5058609,0.2982365,-0.06466937,-0.473989,-0.06363086,-0.442283,0.5000639,-0.5205471,-0.0002927145,-0.1908991,0.15399,0.02142382,0.461359,0.02521335,-0.3469276,-0.06021516,0.2762061,-0.05467683
0.2512487,-0.2255372,-0.1963761,0.05124466,0.0356878,-0.5031169,-0.221435,-0.5532742,0.1035594,-0.4580963,0.1025099,-0.4265929,-1.716236E-05,-0.5424435,0.4739081,0.007499848,-0.1148806,0.4166017,0.342454,-0.2682401,0.3582694,0.4649235,0.1052178,-0.3601284,-0.5528271,-0.3456527,0.03707346,-0.004091233,0.3605387,-0.07773696,-0.1832818,0.2254728,-0.3799181,0.06840903,-0.04514294,0.2701867,-0.2996449,-0.2829899,-0.4111179,0.3660549,0.1427715,0.2690156,-0.3576659,0.4451382,-0.09713824,-0.2364109,0.1330529,0.4789235,0.5204354,0.2809767,0.2535037,0.3784275,-0.5410967,-0.4029604,-0.4120754,0.1674839,0.04430272,0.03759333,-0.1203438,-0.4180923,-0.03144732,0.4270577,0.01048741,0.460972,0.06432438,0.2397624,-0.4618546,-0.266467
-0.3005084,0.3263223,-0.1981419,-0.1499077,-0.4174738,0.0175195,-0.3178107,-0.1724715,0.4818745,-0.3129729,0.08907747,-0.3958198,-0.2851657,-0.1119057,0.4355758,0.4564376,0.3523307,0.2074595,-0.01598036,-0.2955795,-0.08648427,-0.0154407,-0.4138721,0.114023,-0.0550871,-0.1664923,0.2907256,-0.005611632,0.1102556,0.3043363,-0.5080048,-0.1268595,0.414079,-0.01698933,0.08506635,0.4821589,0.3166861,-0.0554269,-0.1127195,-0.214739,-0.4568585,0.2052676,0.0850666,-0.3168439,-0.1656116,0.1623074,-0.1821407,-0.132566,-0.1808233,0.3029086,0.3418584,0.4915602,0.01345439,0.02448474,0.4619889,-0.196198,-0.4839978,0.4254412,-0.3017103,-0.3416726,-0.2721453,-0.4017845,0.5236446,-0.1702557,-0.4979639,0.1429944,-0.3776708,-0.103777
-0.331136,0.4362543,-0.3495913,-0.425258,0.2487159,0.2881078,-0.2994158,-0.1840654,-0.07184366,0.1680955,0.04574791,0.4422459,-0.4134074,0.04244319,0.366988,-0.5048367,0.01161517,0.2453061,-0.3521014,0.1945833,-0.09180031,0.4028741,-0.1316769,-0.4957145,-0.01057106,-0.4518912,-0.01160511,-0.4555231,-0.1338403,-0.104074,0.06452522,-0.4181292,0.5418971,-0.2444143,-0.02082578,-0.3484432,0.4429256,0.05184479,0.3233661,-0.4266401,0.1556658,-0.01179799,-0.07551298,0.03573248,0.3812186,-0.4250893,0.2143761,-0.02511991,-0.5198839,0.3702762,0.2210581,0.298613,0.4729196,0.265997,-0.3110115,-0.3524857,-0.008261196,-0.5060436,-0.5031944,0.3330697,-0.469228,0.1039731,0.3215663,0.1869208,0.2384582,0.3829082,0.2425499,0.4309713
0.1131875,-0.4961552,0.2102748,-0.04558849,0.2414387,-0.3683945,-0.125201,-0.4359408,0.1060527,-0.3934139,0.06114149,0.07950482,0.3184375,0.1845314,-0.4127142,-0.03786248,-0.5169123,-0.2618822,-0.4248347,-0.4248765,0.1431396,-0.1901519,-0.1849718,0.1637192,-0.06191982,0.07031994,-0.3685834,0.1579137,0.4978396,-0.5034901,0.006370887,0.3007924,-0.2934358,-0.3584321,0.1752574,0.3563577,0.1252113,0.2794993,-0.4349183,0.1706103,0.2301679,-0.01649213,-0.1904492,-0.05715023,0.2768746,-0.08128753,0.01691956,0.1024514,0.07771097,-0.249062,-0.290915,-0.4006311,-0.1324959,-0.0639479,0.4169731,0.1845273,0.4183786,-0.2999974,0.2508312,-0.2167336,0.1932635,0.1301868,0.4705593,-0.3970687,0.3304802,-0.2878856,0.5148015,-0.3459109
0.1281784,0.2283497,0.2430674,-0.4731261,-0.3995779,-0.1097884,-0.1263203,-0.2118531,-0.1116427,-0.3342777,0.01555001,0.3440337,0.1360748,0.05302419,0.1485095,-0.02907569,0.4854857,0.4932433,-0.3254993,0.1880941,0.3109752,-0.2437866,-0.2148076,-0.1270938,0.04046502,0.2302262,-0.01113006,0.457836,-0.4773028,0.2983153,0.241209,0.4249437,0.02688407,-0.3843098,0.08235762,0.2733895,-0.3794177,0.3687188,0.3876723,0.2840548,-0.09885003,-0.4850852,-0.1243259,-0.3321632,0.4623209,0.3452502,0.3728525,0.037288,-0.3008975,0.1167626,-0.06614684,0.1765019,0.4460971,0.01620838,-0.2195615,-0.3246047,-0.04540966,0.5252921,0.4369476,-0.08191293,0.3076181,0.2361035,0.5531911,0.1510953,0.3922927,-0.03658564,-0.2416736,-0.02213763
-0.1236872,0.4689744,-0.2594174,-0.1732991,-0.349124,0.4820124,0.07647573,-0.07589699,-0.02934698,0.2946584,-0.1618994,0.2735466,-0.375454,0.4478928,-0.4173908,-0.4665472,0.4318086,-0.3714463,0.5345136,-0.2213777,0.427218,0.5373971,0.2673657,0.02568418,0.4883604,0.06375996,-0.08505274,0.1768756,0.4475812,-0.2934955,0.0465401,0.4270639,-0.3265183,0.3189887,-0.4051611,0.178263,0.1672195,0.004715505,-0.4748518,-0.4705686,-0.1824631,-0.08220334,0.3273096,-0.401659,-0.1571539,-0.3798295,0.2722457,0.06875283,0.2092546,0.3853836,0.507147,0.4779312,0.3259858,-0.2243653,-0.1930725,-0.2400422,0.08885463,-0.3778188,0.008599732,-0.08060886,-0.2794514,-0.01091076,-0.1076656,0.4717574,0.06625573,0.3485561,-0.1265844,-0.2302218
0.2964265,-0.09425587,-0.04126848,0.3425568,0.07527568,-0.1094568,-0.4639575,0.091534,-0.08568347,-0.1498412,0.1645,0.3724273,-0.5128122,-0.4897211,0.1537588,-0.3379727,-0.5360919,-0.06189394,0.2208953,-0.4105123,0.3528225,-0.3473978,0.3763467,0.504283,-0.2028139,-0.06298218,-0.5020314,0.01271071,-0.428306,0.3739316,-0.05128614,-0.2456759,0.405579,0.2889625,-0.1674094,-0.3178012,-0.4753949,-0.4454586,-0.4368875,0.01782437,0.192924,-0.1582284,0.403064,0.1032378,-0.2784418,0.5524628,-0.431075,0.4135351,-0.2217613,-0.4739712,0.04929133,-0.4416233,-0.3369965,0.2670203,-0.3402435,0.1001682,0.359709,0.3675121,-0.3947477,-0.07836752,-0.3430451,-0.4356035,-0.3263338,-0.4168113,-0.4453911,0.2878496,0.09183184,-0.04752234
-0.2471262,0.2881834,-0.4523733,-0.1288809,-0.4207384,0.3884203,-0.418779,-0.1338198,0.06250212,0.5277845,0.3983539,0.2903315,0.2082032,-0.2029891,-0.2609764,-0.05575668,0.378318,-0.3497941,-0.1057969,-0.07343234,0.07530671,0.2400292,0.106596,-0.08869516,-0.135846,-0.150679,-0.2423725,0.2105286,0.2952712,-0.3651977,0.3159756,-0.07913525,-0.3999139,-0.1593212,-0.522061,0.002958903,0.2496484,0.1084278,0.2900766,0.2228893,-0.08971231,0.01671669,-0.3795022,0.4867921,0.324859,0.5079825,0.002946721,-0.3183097,0.335226,0.004681349,-0.2655861,-0.276253,0.08517645,-0.1853531,0.5629985,0.1501784,0.1595502,0.3488756,0.3829403,-0.1313493,0.1630863,0.13397,-0.1491606,-0.418395,-0.3790833,0.3422544,0.003428389,-0.01021116
0.1062411,0.5234471,-0.349268,0.4096497,-0.1790073,0.3654486,0.1231185,0.03428866,-0.4979308,0.2896499,-0.4521287,-0.2927781,0.1077107,0.3554023,0.02024807,0.5301003,-0.227016,-0.5245661,0.4318645,0.1263753,0.2632369,0.3991512,-0.4807538,-0.2559997,0.2188675,-0.2436693,-0.0226827,0.4232317,0.371029,-0.1007343,-0.2847208,-0.1226069,-0.1497592,0.2071612,0.3576232,-0.2311187,0.1429138,0.4321167,-0.1815293,-0.2340283,-0.279134,-0.0126287,-0.002149096,0.1974162,0.2220518,0.1377087,-0.5703382,0.5030077,0.4717191,-0.03747528,0.06804852,-0.2644251,0.4416527,0.2011169,0.2481621,-0.4670341,-0.2430865,0.3285484,0.3883384,0.2108711,0.2522065,0.1318626,0.02402608,0.08984008,-0.1634201,0.1802877,-0.3390101,0.5325668
-0.4185781,0.4124392,-0.0551447,-0.345437,0.3792283,0.09307203,-0.4195039,0.07763827,-0.38214,0.37135,-0.3517291,0.2565525,0.1522549,0.07933012,-0.09862798,0.3211542,0.4860714,0.3828688,-0.008731524,0.240803,-0.2099554,0.1843087,-0.3563386,-0.3850662,0.4166174,-0.2729109,0.3785869,-0.500962,0.2506087,0.2706971,0.2777443,0.5066838,-0.1065959,0.3505028,-0.09770338,0.02254843,0.3135833,-0.1715261,0.4769425,0.05000753,-0.1666525,-0.02870361,0.3815463,-0.3835592,-0.05275289,-0.3691016,0.3243121,-0.1979514,0.1109937,0.3717578,0.5195076,0.03481302,-0.1763243,0.3465041,-0.4037257,-0.3028481,0.445857,-0.3784389,0.007737243,-0.2771855,-0.3223936,0.2722747,0.2090632,-0.2837821,-0.1897786,-0.424463,-0.4882417,-0.09799967
0.553564,0.2950835,-0.3739293,0.138046,-0.1283271,-0.1184667,-0.3334659,-0.1615029,-0.3782177,0.2461759,0.4504329,-0.3866924,0.3119674,0.1058262,-0.4655283,-0.3365132,0.4275666,-0.06865569,-0.3129148,0.5471943,-0.2597342,0.02382299,-0.4292935,-0.3895636,0.1081429,-0.09664851,-0.08870033,-0.5101231,-0.1943633,0.3646448,-0.3479508,-0.4133313,-0.1666839,-0.004479415,-0.3335755,0.2605859,0.4158854,0.2128175,-0.3558808,-0.0269056,0.08952651,-0.110625,-0.1536097,-0.1569411,0.2638234,0.1102843,0.4409343,-0.4447513,-0.0202228,-0.5785685,0.4738907,0.4179159,-0.2476819,-0.05853924,-0.007762174,-0.2142404,-0.05273592,-0.1535001,0.05405631,0.1722852,-0.3195397,0.03768106,0.02694997,-0.140951,-0.1452441,-0.05965351,0.06388827,-0.3376711
-0.1685904,0.07087628,-0.05847444,0.1815984,0.2705692,-0.3740804,0.2184797,0.2270939,0.03232572,-0.2101586,-0.2998222,0.3453441,0.2921623,0.4798394,-0.3917733,0.4670689,-0.174436,0.3914798,-0.35493,0.534959,0.47069,0.1422374,0.421313,-0.3254621,0.3294616,-0.5022987,0.169495,-0.4356633,0.1931191,0.318169,0.5084968,-0.1749936,0.4853098,-0.5311888,0.4673482,-0.06347239,-0.4155408,-0.4129028,0.2265752,0.4290971,0.2209856,0.4244189,0.5514191,0.4697712,-0.2652584,-0.4799787,0.06880804,0.2866715,-0.5221074,0.04892293,-0.4767013,0.2546564,-0.05298578,0.03046805,-0.008900523,0.1001863,0.02841163,0.3160193,0.4833843,-0.4232589,-0.02362187,0.438604,0.2002635,-0.1439377,0.1022341,-0.465745,-0.2543441,0.06834645
-0.00126719,-0.2914625,0.4401584,0.3584978,0.3578641,-0.3307177,-0.5341287,-0.2958212,0.1273796,0.2032268,0.3384211,-0.3907972,-0.3680645,-0.1798945,0.4350285,-0.4590154,0.2873903,0.05062019,-0.07962518,-0.2278465,0.007620267,-0.3221424,-0.2562143,0.1311383,-0.2110921,-0.5274448,0.2160528,0.1433163,0.4672357,0.3022695,-0.3653814,-0.104276,0.1994094,0.09705976,-0.1069803,-0.2382578,-0.02240766,-0.1570099,-0.2220297,-0.554125,0.2570725,0.03138534,0.1044646,0.04929064,0.3357277,-0.125228,0.3078192,0.01386967,0.3564992,0.486723,0.2560875,0.511034,-0.3393425,0.397638,-0.1423297,0.3498414,0.3324332,-0.3082454,0.005105095,0.06945961,0.415181,-0.3963643,0.4030643,-0.07501563,-0.4541464,0.216743,0.4725638,-0.3610737
-0.08974078,-0.1013358,0.2655497,0.0460152,-0.5192009,-0.4241433,0.1664115,-0.4396959,0.07755359,-0.4853173,0.4162471,-0.03951966,-0.08388623,-0.4413947,0.4473688,-0.4531456,-0.09114395,0.4689582,-0.4761347,-0.3357963,0.4843206,0.2452346,-0.03921206,0.1107897,0.1011713,0.2799776,-0.404483,0.176296,0.2156156,0.18795,0.1180538,-0.2179779,-0.2285966,-0.143918,0.3280892,0.4272498,0.1550738,-0.07932745,-0.02227846,0.1420233,-0.1377662,0.2816986,-0.04601439,0.3843522,0.375004,-0.4445392,0.5194287,0.4932168,0.4279424,-0.3595604,0.1577903,0.2305306,-0.2824641,0.489246,0.1121608,0.3185982,0.4252454,-0.1137415,-0.2505804,-0.1504998,0.3140698,0.4480099,-0.2859965,0.3029281,0.1548535,0.445161,-0.5051328,0.3884636
-0.4557185,0.07374264,-0.1929382,0.4192824,-0.3446811,0.4307674,-0.469042,0.1315416,-0.4233342,0.3728992,0.4156741,0.1645037,-0.09447819,0.2234123,-0.4631507,0.05271006,-0.3703206,0.2127562,0.4912294,-0.2426365,-0.1737494,-0.2682687,-0.05339302,-0.421155,0.04901786,-0.3221152,0.3037653,0.06025388,0.20271,-0.1669833,-0.4752541,-0.4744253,0.4524951,0.1824521,0.06754274,-0.329484,-0.2685106,0.2831965,0.2214534,-0.1094062,-0.1616025,0.3241406,-0.5297641,-0.1848,-0.29495,-0.2569103,-0.5543337,0.3083218,-0.3419638,-0.39636,0.07682595,0.09804726,0.4516912,-0.0692635,-0.5166265,-0.5635142,0.1744379,0.1382474,0.01875836,0.2772493,-0.1624482,0.5297632,-0.3079085,0.2121795,-0.04371935,0.4783235,-0.3756467,0.08580443
-0.3760634,-0.1323657,0.1051497,0.5405275,-0.367134,-0.4356867,0.151643,0.1482191,0.170782,0.4293784,0.4258084,0.295704,0.02487945,-0.1082916,-0.1423271,0.3990291,-0.268099,0.01359608,0.08666473,-0.376037,0.1282613,0.4523957,-0.06885911,0.3500791,0.3658648,0.3360377,-0.1804153,-0.3011019,0.2393914,0.1890328,0.3952226,0.2542029,-0.1958149,0.0676041,-0.1699465,-0.1509707,0.1072925,-0.3704028,0.02634793,-0.05340391,0.0002902665,0.3671647,-0.384484,-0.4329803,-0.1827295,-0.3169816,0.1542655,-0.1742824,-0.03310159,0.4330755,-0.006190479,0.3009954,0.3244488,0.4174147,0.2564341,0.1815638,-0.4817906,-0.5261313,-0.1481093,-0.3567936,-0.4040121,-0.2416508,0.2812506,0.05553579,0.4494348,0.1726236,-0.2576616,0.2374184
-0.0782867,0.04178568,0.1319048,0.3821059,-0.08101438,0.3037431,0.1263989,-0.2055181,-0.4262152,-0.122453,-0.3016618,0.1158435,-0.3209868,0.4320107,-0.07690328,0.434712,-0.1613477,0.3589493,0.2809119,0.2507224,-0.08624801,0.4871383,-0.2244537,-0.4072002,-0.04408042,-0.2619912,-0.1463952,-0.1824475,0.2443177,-0.06016735,-0.2227973,-0.4698501,0.4043921,0.3347086,-0.5445092,0.4088033,0.5052875,0.2629903,0.4124182,-0.106702,0.3391542,-0.4422584,0.2920354,0.2313742,0.5028573,0.3121936,0.4274558,0.3407564,0.2666322,-0.2770277,0.08368618,0.2674531,-0.1771539,-0.0334134,0.5570593,-0.3135579,-0.3535458,-0.443702,0.152795,-0.385868,-0.4536434,-0.4710956,0.2431488,-0.1790179,0.2581868,0.01140029,0.4186755,-0.3742696
-0.1775932,0.1690226,0.2282022,-0.4704813,-0.08816359,-0.005530864,0.1337939,0.3290164,-0.07742005,-0.0985428,0.04469131,-0.4796794,-0.2760258,0.3857166,-0.1489061,-0.1210406,-0.5660021,-0.2039642,-0.2844453,-0.05510803,0.2936017,0.239531,-0.3106145,-0.01777291,0.4517412,0.1389683,0.1963546,-0.2588148,-0.01529601,0.3771988,0.05480408,0.01406604,-0.2308376,-0.2266427,-0.1794617,0.4105656,-0.1266651,0.0133694,0.1778195,-0.0938869,-0.308949,-0.4884535,-0.2755513,-0.4354564,0.4485748,0.178434,-0.02422464,0.4684944,0.5071602,0.2380355,-0.4641875,0.04944178,-0.3617594,0.4810484,0.4999231,-0.2149818,-0.2516365,0.4673203,0.2102168,0.3682175,0.4344331,-0.3265442,0.01808085,0.213961,0.5007131,0.03319791,-0.1461678,0.5101406
-0.07473318,0.2769041,0.04329124,0.1093797,-0.1257137,-0.2092657,-0.4349892,-0.3958209,0.07310241,-0.3007869,0.01260564,-0.4513052,0.03859646,-0.03083561,0.2718584,0.05247597,-0.2104337,-0.3269098,0.1033457,0.2623486,-0.3272299,-0.3183424,-0.3725038,0.4192157,-0.4448029,0.0020493,0.5815318,0.3601465,-0.40356,-0.3038287,0.2612626,0.2044886,0.1049603,-0.4360025,-0.1041458,0.3150564,0.1530267,0.002560573,0.007071505,0.07211101,-0.1437576,-0.4635347,-0.4255668,0.3326567,0.2880798,-0.4800989,-0.3999375,-0.4042306,0.4107886,0.2849452,-0.02689325,0.4566539,0.2888973,-0.05962173,0.4377023,0.06614071,-0.1739306,-0.1338246,0.11611,-0.5162674,0.4570982,-0.3360027,-0.3834519,-0.2878579,-0.4228575,-0.3393434,0.3580003,-0.2258145
0.2469523,0.3520253,0.2484646,0.3381246,-0.354607,0.3809896,0.246892,-0.2072459,-0.3605671,-0.4762484,0.1472559,-0.01518076,0.2856072,0.2709951,0.2078606,-0.117329,0.397072,0.2847285,-0.2708541,-0.3237463,0.09817597,0.1505832,-0.2593814,-0.1138394,-0.2418338,-0.3002197,0.387985,0.3125434,0.2506475,0.3382749,0.3404801,0.4295978,0.2503034,0.02177394,0.3554544,-0.2451259,-0.263431,-0.3429669,-0.382842,0.355133,0.04837263,0.3587675,0.09818441,-0.0190148,0.08121753,0.136121,-0.003292219,0.2564302,0.4591848,0.4174853,-0.1929832,0.2027638,0.333843,-0.0315083,0.199577,0.04250798,0.4679314,-0.3291649,0.2288205,-0.0237244,0.1139177,-0.06071642,-0.2620229,0.4390323,-0.1051349,0.4420035,-0.03354283,0.09238864
---
-0.1045964,-0.1307441,0.1436703,-0.3709801,-0.3756989,-0.04520339,-0.5526008,-0.287066,-0.04247475,0.5098497,-0.04753244,0.1372875,0.1579312,-0.2869336,0.2755083,-0.04400191,-0.04261699,-0.3214787,0.07657242,0.01604239,-0.1018752,-0.2828858,-0.09639025,-0.02696211,-0.2155374,-0.3208935,-0.1524306,-0.3995235,-0.08709113,-0.260286,0.06677017,0.4392657,0.4762614,-0.315053,0.5046124,0.376323,-0.1555976,-0.4314579,0.1867382,0.004514772,0.1847314,0.1006449,-0.2767211,0.3618412,0.3441171,0.05762097,-0.05970827,-0.3980629,0.1900648,-0.3413912
0.3608879,-0.2195979,0.466832,0.02894445,-0.5105904,-0.5202445,0.3097218,0.06641467,0.3415081,0.1224425,0.2483592,0.1538516,0.2250648,0.04778469,-0.0377824,0.332204,-0.226077,-0.02552613,-0.394362,-0.3067788,-0.4002974,0.3172896,-0.260689,-0.3918228,0.411477,0.2864351,-0.3781374,-0.1670455,-0.2454015,-0.2833744,0.1213912,-0.2845306,0.1558378,-0.0478417,-0.4620092,0.207745,0.0641192,0.02851398,-0.3980826,0.09147533,0.1387319,0.1484068,0.2669268,0.1375404,0.1030434,0.441884,-0.4238055,-0.003082888,-0.3241206,0.3323204
-0.1924963,0.01204933,-0.2775982,-2.990452E-05,-0.1475593,-0.375881,0.3373481,-0.001277916,0.1095815,0.3325856,-0.2994845,0.05805972,-0.2480331,-0.292854,0.4713937,-0.01196652,-0.03158631,-0.4077965,0.5291894,-0.1932891,-0.2093822,-0.3640689,-0.3106838,0.09410705,-0.4203831,0.3587912,-0.309928,0.1199915,0.3491549,-0.3158656,-0.07397138,-0.1001097,-0.342855,-0.06333387,-0.3667747,0.3335505,0.1244671,-0.03445495,-0.4337641,-0.1681206,0.429048,0.3729549,-0.4546819,0.06939309,0.3358475,0.2916841,-0.3889762,0.3026538,-0.186607,-0.1978262
-0.2913619,0.1223347,0.4516322,-0.05722831,0.1156587,-0.3458326,0.4283046,0.2044909,-0.5040879,-0.1060106,0.4213686,0.1869075,-0.5914308,0.4578182,0.5821015,-0.2777998,0.1832967,-0.2226365,0.5713993,0.02939857,0.4381942,0.1006531,0.006057982,0.2250802,-0.3935131,-0.1535652,-0.1893097,0.1717895,-0.4364561,-0.5032444,0.379653,0.5464251,-0.3858109,-0.2337565,-0.3190714,0.2939886,0.05547524,0.2672181,-0.4326575,0.5206472,0.159828,-0.1737799,-0.1538097,-0.43812,0.2400095,0.1687351,0.3092391,-0.1864326,0.3669237,0.09522161
0.3225511,0.2523591,-0.03707613,0.4640526,-0.2850932,0.1851616,-0.2648689,0.317667,0.4731396,-0.1028839,-0.009717689,0.3836557,0.4587974,-0.3821528,0.2787823,0.3076865,-0.5451363,0.3448986,-0.3398705,-0.1093438,0.01355778,-0.2989455,0.4279047,0.320224,0.2445092,0.294673,0.1175156,0.1474011,0.1972224,-0.4931547,0.1529891,0.3662353,-0.3922536,0.1248922,0.07762817,0.1535824,-0.05224309,-0.2502166,-0.4106271,-0.2518078,-0.3028138,-0.2522215,0.4894986,-0.4268785,-0.3422621,0.03225555,-0.2049916,0.3688653,-0.002958982,-0.1750179
0.3724213,0.4275469,0.2338148,-0.2673205,-0.3157669,0.1435947,-0.3664033,0.08560394,0.2602976,-0.4264192,0.1947348,0.4071978,-0.4925881,-0.1864376,-0.4239393,0.3835024,-0.2291181,0.1094299,0.4228309,0.3775584,-0.03673191,-0.2312849,0.4944794,-0.06499998,-0.05188541,-0.3407438,0.1945307,0.5153287,0.2212728,0.1324892,-0.03013615,0.3846803,0.01644818,-0.454791,-0.2158529,0.5111871,-0.3018079,-0.1742683,-0.4448639,-0.5757182,-0.3029338,-0.1240785,-0.0005753475,0.1934039,0.2094032,0.4366162,-0.4339955,-0.4764179,0.4638468,-0.5760893
0.2160898,0.3746324,0.06108406,0.4041791,-0.09301833,-0.4235495,0.4690268,-0.4035149,0.06896905,-0.2049268,0.4839168,0.02956678,-0.0295375,0.1011986,0.1713327,0.4141513,-0.05197887,-0.2162362,0.0621858,0.2651197,0.3826363,-0.2356766,0.492292,0.4115562,0.004636954,0.2589213,-0.4477791,-0.4243025,0.4646474,-0.2439862,0.3840031,0.3813193,-0.4675855,0.3457833,-0.2954388,-0.4371363,0.1905924,-0.3122119,0.02457541,0.4687872,-0.007633897,0.241003,-0.3132318,-0.4156177,0.008211284,0.008756644,-0.05730633,-0.4297044,-0.2312287,-0.4415492
-0.03942584,0.2250019,0.02045562,0.04410244,0.006340094,-0.09370069,0.0577522,-0.4980775,-0.1458486,-0.5061159,-0.4204968,0.1828482,-0.4646113,0.4670505,-0.041414,0.1169759,-0.3888169,0.008463825,-0.457995,0.4507304,0.227759,-0.03250859,-0.4868203,-0.2590306,-0.2609149,0.1165043,0.2380623,-0.4890517,0.5724966,-0.1405578,0.3549896,-0.1294881,0.2119936,0.2867694,-0.03804487,-0.5027428,-0.1392268,0.4819521,-0.4179404,-0.4666763,-0.1047335,-0.0630722,-0.01371091,0.4898137,0.1599338,-0.3502113,-0.02580943,0.4459226,0.1096306,-0.1149086
0.4118228,0.221049,0.1976189,-0.07566557,-0.1266605,0.2418149,0.4337047,-0.4216509,0.05711358,0.04120152,0.4824708,0.2988798,0.3606313,-0.3586479,0.180702,0.3869085,-0.3011456,0.4120972,-0.452318,-0.02443636,0.1538143,0.5914201,0.5335163,-0.3848003,0.4853266,0.005845426,-0.2349565,-0.09867617,0.4575289,-0.2714209,0.3437478,-0.261687,-0.4813659,0.1569245,-0.1207098,-0.2545634,0.4021016,-0.2689018,0.0338636,-0.3785607,-0.1050198,0.05709077,0.4854802,0.2970043,0.5055175,0.4949225,-0.3030296,0.1608594,-0.1923711,-0.00297823
-0.3219931,-0.3512959,-0.4120862,0.4657162,0.2562754,0.2255629,-0.04859645,-0.3193616,0.06017017,-0.007369728,0.06347307,-0.06453927,-0.4964958,-0.02070756,0.2152272,0.3576531,-0.0365706,0.2047832,0.06520118,0.1444847,0.1725147,0.1370949,0.2182367,0.2152957,0.2081714,0.2793875,-0.1770457,-0.1195689,0.1380367,0.06774553,0.4814439,0.2488856,0.225835,-0.01736987,-0.05920056,0.4328616,-0.3198537,0.368163,-0.3002743,0.0518021,-0.3206297,-0.3650617,-0.3808512,-0.45847,0.3820572,-0.1726688,0.4305493,-0.3611873,-0.2194809,0.4429679
-0.07327686,0.4829402,0.3073842,-0.1629953,-0.1691961,0.1487354,-0.2787173,-0.2586145,0.04375681,-0.5464938,0.3829419,-0.08204084,-0.3118043,-0.3032103,-0.3827083,0.3154629,0.2845792,0.2221013,0.2498301,0.2793241,-0.2136396,0.2691045,0.107136,0.4087525,-0.253338,-0.3682666,0.291769,-0.4385395,0.1206565,0.2326896,0.177074,0.07786966,0.01344933,0.1055995,-0.1205564,-0.4382541,0.2792974,0.1555317,0.2274532,0.3527634,-0.5590283,0.1931592,-0.3720119,-0.3687026,-0.3305643,0.3515302,-0.2400814,-0.1856762,0.2923911,0.3211842
0.139922,-0.1312598,0.1719916,0.3053075,-0.1290278,-0.4115573,-0.3958981,-0.07232497,-0.03851126,-0.4736652,-0.1930835,0.2441646,-0.2025918,0.1269546,0.04738165,0.3054667,0.3543108,-0.1223447,0.3735258,0.3904598,0.456328,0.02738,-0.4333904,-0.4365477,0.3770306,-0.168131,-0.05607894,0.5292646,-0.1539069,-0.01226846,0.3468729,-0.08865866,0.01036688,0.4311092,-0.3635865,0.2780231,-0.3678719,0.1623006,0.2651712,-0.07930861,-0.5142127,-0.2814272,0.04731194,-0.1020142,-0.1712938,0.4410193,-0.1225264,0.3151018,0.4014348,-0.04911171
-0.0954978,-0.4075601,0.0237614,-0.2782661,-0.06906844,0.388992,0.4572417,-0.228554,0.2969751,-0.5043901,-0.3570336,0.3869498,0.2142785,-0.152172,-0.1363376,-0.271886,-0.280208,0.3783778,-0.2984428,0.4229588,-0.04659438,0.4419403,-0.3754625,0.4715954,-0.3412816,0.08357695,0.4468801,0.2691801,0.4143045,-0.1671532,0.1997921,-0.3894364,-0.4790955,0.005345607,0.2969778,-0.1422321,-0.1774437,-0.2461994,-0.3169783,-0.1843505,-0.1124329,-0.4009824,-0.09391697,0.1969205,0.1989225,0.06401397,0.1136362,-0.01112353,0.330261,0.5442172
-0.008369677,-0.1217566,0.2288061,0.3585868,-0.0845627,0.5081822,-0.4648241,0.4072733,0.3921257,-0.0161644,-0.03878532,-0.3837556,-0.4436383,0.381401,-0.09964957,0.3395524,-0.4152422,0.382061,0.1053982,-0.1931097,0.2041669,0.03434915,0.1215594,0.05938293,-0.3412821,-0.1286784,0.5365636,-0.4487605,-0.06981972,0.1834339,-0.1166106,-0.1555167,0.1595472,-0.6064372,0.3995514,-0.02587644,0.1370096,0.318478,0.4045698,0.2547784,0.4490942,0.5133669,0.1459596,0.2645088,0.264401,0.1729191,-0.5604107,0.3234325,0.4076797,0.1996086
0.3711772,0.03048583,-0.1181369,0.07407161,-0.5471904,0.005040488,0.0366662,0.3954274,-0.2314938,-0.5446416,0.1913191,-0.0482201,0.3829967,0.03720863,-0.2611926,-0.1033657,-0.01145815,0.5165331,0.0788447,0.4689891,-0.03742034,0.5653784,-0.2174691,-0.3851035,-0.04507628,-0.3706368,0.2337463,-0.5034917,-0.4104792,-0.2843201,0.1194697,-0.07392152,0.05070243,0.092459,-0.3018617,-0.4561198,0.4483876,0.5117682,-0.331337,-0.558567,0.3640577,-0.399784,-0.2621804,-0.154264,0.1249993,-0.0475921,0.1703834,0.2924046,-0.2510512,0.188276
0.5758436,-0.2104955,0.117056,-0.2656725,0.2226728,-0.2219945,-0.09622283,0.03520716,0.4806493,0.08708451,-0.4221705,0.4285222,0.349829,0.4268076,0.4412265,-0.38521,-0.416104,-0.08512926,-0.2796178,-0.3982401,0.2493532,-0.174322,-0.3685591,0.06045114,0.1902939,0.3915103,-0.1832972,-0.2152084,0.02674396,-0.08388092,-0.01301297,0.1347775,-0.1072432,0.000850839,0.3065456,-0.1234292,-0.4346108,-0.3850718,0.3188442,-0.1720792,0.03575312,0.1399643,-0.1190755,-0.3177499,0.244727,-0.6183545,0.1083481,0.04909071,-0.06741857,0.3493462
-0.1061291,-0.4334448,0.4563064,-0.3306927,0.2317467,0.3691569,0.3391713,-0.02626702,-0.07979751,-0.3843015,0.4836901,0.1150451,0.4040819,0.4123302,0.03918502,-0.193872,-0.0834168,0.3304923,0.1889867,-0.1940901,-0.06818786,-0.2772896,-0.1611642,0.3432576,-0.3129397,0.5354378,0.2114486,0.300674,-0.08777377,0.3616111,-0.08331049,-0.001554731,-0.03145084,-0.3176371,0.2081794,0.4791205,0.3726173,-0.219844,-0.141946,-0.3979361,-0.1597791,-0.4926874,-0.460251,0.1926274,-0.2040671,0.27474,-0.1919677,0.0823792,0.5593892,-0.01023079
-0.04105934,-0.29509,0.09399781,0.04345153,0.009420321,0.5266676,-0.1469468,0.1881755,0.1716061,-0.2430005,-0.2386118,0.4937323,0.1551882,-0.3577749,0.2144282,0.2370771,-0.05919357,0.2453078,-0.2639229,0.1955068,-0.3887195,0.359661,-0.4291878,-0.1216427,-0.3454414,-0.3889309,0.1197785,0.4104793,-0.03738823,-0.1714732,-0.0303133,0.03510297,0.2348355,-0.3688179,-0.3446685,-0.3407815,-0.1988577,0.1814261,0.2665426,0.1803582,0.1131659,-0.215452,-0.2319497,0.2852651,-0.2438502,-0.4076241,-0.3092834,0.060773,0.4331532,0.2302517
---
===
-0.1187366,-0.4275683,-0.4484844,-0.5306588,-0.3480889,-0.1510155,-0.4462928,0.2838064,0.1010598,0.2701871,-0.004817742,0.00326873,-0.004696672,0.4393962,0.1658856,-0.3742269,-0.3625649,0.09068339,-0.1387713,0.3817593,-0.3583509,-0.1519512,-0.2658541,0.4952213,0.4543359,-0.06315517,0.2550228,0.3615486,-0.4135802,-0.3088175,0.1265676,0.1026987,-0.2067802,-0.01809382,-0.54909,0.4441406,0.1632763,-0.2234103,0.3438421,0.4082628,0.1707431,0.3410689,0.08030163,0.01026334,0.04386459,0.314154,-0.2140892,-0.2241903,-0.2226988,-0.07054375,-0.2247647,-0.2292698,0.3789619,0.1105798,0.470383,0.380074,0.007657677,0.460783,-0.3794532,-0.05456805,0.0139879,-0.4300428,0.2947251,-0.4719204,0.463876,0.04079907,0.3566974,-0.2127977
0.486922,-0.1121111,0.08874337,0.3366691,-0.4641111,-0.05927493,0.1261874,-0.4539531,-0.4504783,-0.2263072,-0.1272248,-0.1510971,0.04836407,0.4662169,0.1998139,-0.06826283,0.2898577,-0.3576441,0.4888998,0.5152062,0.07935422,-0.3333727,-0.05952285,-0.4278327,-0.3522727,0.01207576,0.5308685,-0.191032,-0.3174168,0.2405003,-0.3290695,0.1843362,-0.3778096,-0.2864545,0.4555303,-0.4835885,-0.5200586,0.3969675,0.01638326,0.06678654,-0.09476778,0.2366631,-0.3923215,-0.2524565,0.02042721,0.1421419,0.01608212,0.303755,-0.5083243,0.01737371,-0.04650225,-0.06452426,0.01314038,0.2878705,0.3374183,0.5153534,-0.3439534,0.1588157,-0.4372598,0.4728612,-0.2674228,-0.3761026,-0.5075776,-0.4839633,-0.2153495,0.2001235,-0.03026616,-0.06392188
0.3068655,-0.06661791,-0.1039289,-0.2903054,-0.4367592,-0.0845277,-0.09848572,0.4874062,-0.4531937,0.3508594,-0.4673242,-0.07145561,0.2001232,-0.5058636,0.3917977,-0.2906197,0.3384818,-0.4730254,0.1699122,-0.160982,-0.3148013,0.4588481,0.1162657,0.3639884,0.3818913,-0.5216126,0.4165183,-0.1747312,-0.4010684,-0.1306691,0.3763258,-0.4972855,-0.3594448,0.3698641,0.2027328,-0.0908489,0.4745205,0.4823727,-0.5240042,0.4421895,0.1597232,-0.3783326,0.3786189,-0.1752356,0.1955869,-0.2905923,-0.4562931,-0.3135798,-0.03896185,0.2666247,-0.1708409,0.3296504,0.1041358,-0.0551177,0.302972,0.3815873,0.5246196,-0.0839031,-0.447148,0.5899644,-0.2439521,0.3709648,-0.1442787,-0.1690398,-0.3710684,-0.4131264,0.5356389,-0.3250126
0.1322914,-0.07063429,-0.3651238,-0.2986953,0.1959143,-0.1951398,-0.04484703,0.1813484,-0.3112555,-0.3967004,-0.1227945,-0.3696393,-0.2401062,-0.2411362,-0.1795691,0.3215509,0.05239613,0.4548248,-0.5251719,-0.4609457,-0.0332617,-0.1395146,-0.03215056,0.1439542,0.392828,-0.2728777,0.2572888,-0.2603692,0.03967012,0.1208935,-0.4571891,-0.2915876,0.3504235,-0.2195818,0.0003426206,-0.4944958,-0.3404764,-0.3329456,-0.1047112,0.4316728,0.4616152,-0.3845704,0.2883683,-0.5728183,0.4176372,-0.06646797,0.2275757,0.1668841,-0.1348878,0.3498535,0.2336724,0.09146994,0.4799889,0.1182273,-0.2646837,-0.03891152,0.4862782,-0.28696,0.03233539,0.4503419,-0.2092021,0.565186,-0.3182552,-0.01786519,-0.2215724,-0.4373694,-0.3957553,0.2075241
-0.4571697,-0.3030333,0.5587331,-0.05137559,0.1620597,-0.2402232,0.2539354,0.068807,-0.3596163,0.03582745,-0.04507498,0.08034644,-0.1056593,0.3714615,0.5266981,-0.1133427,0.4411482,-0.2257745,0.3398526,-0.4669311,0.29104,-0.3510261,0.3328201,-0.2006581,-0.1733678,-0.1581004,0.06932455,-0.5188255,0.4089424,0.4070432,-0.2808086,0.2887958,0.2332992,0.3165579,-0.03209867,0.07531871,-0.4397978,-0.1308917,-0.1854091,-0.2368993,-0.2174058,-0.3728269,0.5186753,-0.4453217,-0.5481682,-0.09431742,-0.4495952,-0.1373758,-0.4482344,-0.2092814,0.1080122,-0.06509895,0.1443376,-0.2012368,-0.03066543,-0.3111534,0.4250161,0.4878356,0.4866698,0.08789229,0.4061458,0.3963152,0.1473999,0.4179016,-0.1968088,-0.2006622,-0.1943594,0.2050268
0.04750752,-0.09806083,0.0778303,0.2049507,0.286997,0.3979454,-0.1038496,0.3168139,-0.4155182,0.2680967,0.2259636,0.3379618,-0.3663476,-0.3548298,-0.104021,-0.2298064,0.1724592,-0.4612871,0.1751307,-0.1065414,-0.3178264,0.1429516,0.06290312,-0.2253094,0.1700247,0.4708681,0.2195468,0.03081465,-0.4958884,0.4079766,0.2850566,0.307467,-0.4773276,0.284237,-0.5255635,-0.1989329,-0.302457,0.1603742,0.4030804,-0.06800555,0.1195675,-0.2481601,0.5312339,0.4803405,-0.3833628,0.367217,0.4699283,-0.2136855,-0.4235416,0.5169277,0.1863924,-0.177977,0.2865426,-0.3831076,-0.2958627,-0.3317916,0.4270347,0.1964526,-0.2306789,-0.299573,-0.2381211,0.2403451,-0.2884769,0.416628,-0.4800274,-0.1411815,-0.498904,-0.4834082
-0.557684,-0.2909798,0.1427652,-0.3572711,0.05848984,0.2427469,-0.4908745,0.3813222,-0.008238751,-0.3150783,0.2144793,0.4086329,-0.3795691,-0.5402681,-0.2085027,0.1049854,0.3440883,0.03637768,0.4656113,0.117212,-0.144674,0.261059,0.07028023,0.4761913,-0.02283313,-0.2906792,0.3425068,-0.1278515,-0.2400017,-0.3328535,-0.1505136,-0.4309502,0.206051,0.1782223,-0.3854193,0.4679368,-0.1487817,-0.3828739,-0.4458887,0.156159,0.2125038,0.2980992,-0.138578,-0.4543679,0.2361064,0.07452982,-0.3605292,0.4505172,-0.06646153,0.5386179,0.3654416,0.3688574,-0.08782159,0.3508059,0.02177194,0.06024574,0.1317445,-0.3228005,0.04519713,0.1077628,-0.2647089,0.178807,-0.294513,0.01655036,0.402779,-0.2882679,0.1305871,0.2603718
-0.2754951,-0.1788688,-0.39159,0.2892333,0.0130677,0.3594691,0.05211043,0.06749231,-0.1530259,0.2522365,-0.1232976,-0.1625045,-0.05857308,-0.5073794,-0.564721,0.1062401,-0.2420845,0.5479887,-0.2442163,-0.1663334,0.1451708,0.09060622,0.02509395,-0.1845245,-0.4302531,-0.2713619,-0.1139288,-0.2186836,-0.2260784,0.3419243,-0.04955661,-0.1562859,0.2471619,-0.1650191,0.3327834,0.3978493,-0.1720539,-0.1910433,0.4526322,0.03808097,-0.04927259,-0.45221,0.4410438,-0.07403167,-0.0828481,0.2452245,0.07024213,-0.4093427,0.3639614,-0.1435869,0.2268517,-0.4456633,-0.1896686,-0.2791334,0.2979492,-0.2130481,0.4153812,0.1094496,-0.001130453,-0.4671766,0.3807881,0.3460372,-0.3384444,0.429448,0.421406,-0.295237,0.320861,0.1134564
-0.2836861,0.06638476,-0.08740109,-0.2754824,0.3318225,0.2622537,0.375129,-0.4704854,-0.2736053,-0.1745901,-0.2787518,0.008324023,-0.007809124,-0.3709216,0.4848093,0.2797773,-0.3906762,0.4206367,-0.4771174,0.1070828,0.2947474,-0.4092734,0.3374132,0.2137241,-0.2493575,-0.07107428,0.179507,-0.4505175,0.4459735,0.5845487,0.3170219,-0.05099883,-0.489439,0.3557207,-0.2074036,-0.3498128,-0.1030185,-0.2980778,0.3025846,0.3965033,-0.2631749,-0.002071488,0.1469646,-0.1676745,0.3030685,-0.4347366,-0.006360573,-0.4353175,0.2554139,0.1298637,0.4740273,0.3982174,-0.231234,-0.2009077,0.07250185,0.1580866,0.1705721,0.2204858,-0.3502303,-0.1515158,-0.1182857,-0.518308,-0.3651452,-0.4021633,0.4368528,-0.4742676,0.3236663,0.4846682
-0.06521372,0.260231,0.280017,-0.4221515,-0.2375082,0.05721081,0.2716377,-0.2044149,0.4567105,0.0499234,0.3894131,-0.09676855,-0.4931402,-0.1672739,0.09215351,-0.1104142,0.4239566,0.1596977,0.4488266,0.2389584,-0.3148607,0.2490363,0.5051693,0.1787165,0.02505934,-0.4309558,-0.04546852,-0.3492554,0.1101779,0.04103495,0.2477152,-0.5689475,0.06751645,-0.2661733,0.4964609,0.4748367,-0.3016076,-0.4238692,0.2984457,0.01901462,0.2371724,-0.3182608,0.1397626,0.04812348,0.4121549,-0.4762128,0.1016994,0.4964281,-0.4592741,0.4161806,0.4760204,-0.1936333,-0.02389431,0.3304581,0.3588913,0.4440553,0.4972715,0.05039418,0.3053281,0.1707663,0.1456618,0.01012905,-0.4941579,-0.4638683,-0.4276231,-0.08153415,-0.1300848,-0.04561404
0.03503901,0.3396621,0.3779265,0.3408397,0.2748658,-0.3732137,0.4654929,-0.4111692,0.3487994,-0.1802496,0.09975865,-0.2161375,0.1216234,-0.4113396,0.2771201,-0.007929016,-0.3922271,-0.4665237,0.09921173,-0.0008178218,0.5137317,0.4368379,0.4037642,0.5023438,0.007910605,-0.09524411,0.0382401,-0.1384944,0.04484402,0.2754675,0.4497721,0.4392079,-0.4947249,0.1102076,0.3191246,0.2817866,-0.3087824,0.07943255,-0.1677574,0.3705806,0.1496971,0.4828735,-0.2926636,0.4956607,-0.3735592,0.08288682,-0.2183029,-0.3139302,0.5225223,0.01672149,-0.4663652,-0.1493712,-0.4140548,0.2865298,-0.07244544,0.5090365,0.4420627,-0.09027175,0.3736393,-0.2484779,-0.4936103,-0.06165743,0.1885321,0.006388962,0.1055012,-0.1378443,0.2357879,-0.142903
0.3704793,0.1236107,0.186036,0.2545263,-0.4065826,0.2075079,0.1850934,0.1072125,-0.5539882,0.1871842,-0.04958154,0.4657573,-0.3516186,0.4626593,0.3846147,0.3985552,-0.1060314,-0.1559802,0.1818208,-0.4073228,-0.1534486,-0.06781185,-0.03824859,0.4650218,0.2130979,0.4979168,0.1455189,-0.3956429,0.3602243,0.215003,0.2192112,-0.002191067,-0.1286759,-0.377201,-0.3158623,-0.2323547,-0.1678708,-0.1076102,-0.08408272,-0.1139778,-0.4781413,0.07917227,0.346507,-0.1641518,0.1821006,0.1755143,0.06619252,-0.4415213,-0.03788912,0.0126307,0.0599717,0.3664996,-0.04003222,0.1299828,-0.4257791,-0.2584588,-0.08637316,0.4116777,-0.2793282,0.03469248,0.312135,-0.07450324,0.01392004,-0.5387134,-0.3016644,-0.3726807,0.1467175,0.5764139
