-0.04222209,0.1278695,-0.1512644,-0.07434997,0.2360356,-0.2624236,-0.0910593,0.3250653,-0.3346236,0.3320439,0.1133095,0.3728707,-0.1964969,0.4076954,-0.09826005,0.07358245,-0.4230007,0.1440298,-0.2045983,0.08926909,0.1880309,-0.103013,0.5686956,0.1499526,0.3920076,-0.5679552,0.3359983,0.4266634,0.04586563,-0.2779382,0.416698,-0.298427,-0.3400353,0.03169287,-0.5927964,-0.3658412,0.06403124,-0.3293044,0.5226687,0.4858511,-0.3032841,0.1926601,0.1363886,0.04100203,0.05401297,0.2450036,0.09641583,0.3336852,-0.101143,-0.1132928,0.4311688,-0.2303189,0.3767391,0.3877935,0.03529872,0.5857991,-0.01762148,-0.3419945,-0.3928685,-0.0217603,0.01480097,-0.6505893,0.3451824,0.3810826,-0.07854486,-0.007049241,0.2528445,-0.399977
0.1783851,-0.009073596,-0.4312759,0.2416626,0.5808894,-0.01082633,0.1603855,0.4391368,-0.08811313,-0.5266799,-0.07595792,0.1006359,-0.5146872,0.2339329,-0.2371172,-0.06608596,0.03520344,0.2055529,0.5944242,0.7673277,0.1747449,0.334731,-0.1218106,-0.6360388,-0.3567128,0.03198617,0.2856233,-0.2096685,-0.3965583,0.200346,-0.4559837,0.2416785,-0.01246507,-0.2178011,0.448285,-0.6162903,-0.6083973,0.3836396,-0.4940802,0.5342246,-0.07013974,0.2993535,-0.007358416,-0.03957055,0.06723994,0.1269702,0.2964758,-0.4163071,-0.5931811,0.1656656,-0.08706968,-0.02130281,-0.007780244,-0.255121,0.4041829,-0.3038875,-0.3693751,0.1150398,-0.1044977,0.4948982,-0.3785418,-0.2177992,-0.05930501,-0.1831777,-0.3498519,0.31094,0.2476673,-0.3320816
0.2593949,0.2870122,0.3921965,-0.2450645,0.4951096,-0.06353122,-0.06334694,0.5409535,0.5719082,0.5903509,-0.4758481,-0.0482425,0.3508996,-0.5074683,0.5179464,-0.3615097,0.3336035,-0.3802702,0.192788,-0.1330566,0.2338471,0.4778575,-0.09594139,0.01559365,0.4652935,-0.6123292,0.3211303,-0.2603563,0.4758278,-0.1122314,0.2541662,-0.5763797,-0.3133376,-0.3455864,0.3970691,-0.09141539,0.4947599,0.4149502,-0.1143324,0.2446443,-0.327932,-0.2771738,0.3403707,-0.1349989,-0.2526364,-0.1776895,-0.4344645,-0.2466022,-0.01191796,0.2343871,0.02833665,0.2825269,0.150932,0.0113576,0.4094548,0.2673976,0.4839282,-0.07413232,0.2897119,0.6890901,-0.1666065,0.04633665,-0.1223368,0.75744,0.4252122,0.1414848,0.435885,-0.252219
0.05586691,-0.223641,0.1348801,-0.411131,-0.5182564,-0.1570972,-0.00577359,0.2188008,-0.207426,-0.3212767,-0.1084009,0.4718595,0.4793988,-0.3255672,-0.06642704,0.352311,0.06615729,-0.5452222,-0.5321622,-0.2374367,-0.1740898,-0.203882,-0.04947424,-0.1429936,0.446383,-0.5034574,0.2781041,0.326445,0.0312965,0.1510541,-0.362717,-0.2675653,0.2335373,-0.1397878,0.03674725,-0.3262661,-0.3919216,-0.2321399,-0.1095172,-0.001298974,0.4189389,-0.3314744,-0.2827243,-0.4774248,0.2629804,-0.06055273,0.3108745,0.3566363,-0.09024977,-0.2939102,-0.09610896,0.172147,0.7110431,0.1658373,-0.2300419,-0.4371698,0.5415838,-0.4856151,0.04110142,0.3768822,0.3079525,-0.3542965,-0.2175688,0.3490475,-0.3033576,0.2204179,-0.5786567,0.1951622
-0.5473698,-0.4138573,0.2753213,0.185856,0.4719019,0.1036092,0.2534129,0.03417926,0.4119921,0.08946086,-0.04111408,0.0750128,-0.1642316,-0.2424884,-0.05666051,-0.05764038,-0.4668065,-0.1922668,0.3073734,-0.4563075,0.196515,-0.4168265,0.3578109,-0.4267655,0.05680187,-0.2089743,0.1493868,0.5102174,0.09134048,-0.1152798,-0.1828428,-0.2786333,0.5451366,0.2696607,-0.03067492,0.1217206,0.554334,-0.1570226,-0.2134859,-0.353205,0.3651005,-0.4194885,0.4525657,-0.5510722,-0.4426937,-0.04588761,0.07591462,0.08779382,-0.5218222,0.01558275,-0.5191309,-0.01469064,0.3893596,-0.271549,-0.08422879,0.4634532,0.41805,-0.4490343,0.4952984,0.07853957,-0.02031633,0.2547386,0.1371582,-0.1178366,-0.07698437,-0.1387194,-0.2301116,0.1522556
0.02736928,-0.5085707,0.09331666,-0.2514639,0.3304237,0.1309296,-0.2729695,0.1239227,-0.01632521,0.4172791,-0.1490958,0.005391161,-0.4623108,-0.215214,-0.1788947,-0.3198705,0.1046034,-0.459297,-0.5387172,-0.07654992,-0.2316321,0.1236173,0.0217019,-0.1676378,0.09349537,0.4013635,-0.3613118,0.0740834,0.330588,-0.3786851,0.4930297,0.5393821,-0.5119134,-0.2371377,-0.4698181,0.09400147,-0.3593544,-0.2913297,0.3123059,0.4399831,0.2448566,-0.2475029,0.3002493,0.4862048,-0.2998413,0.3648637,0.2433666,-0.2449938,-0.1790934,0.7961219,0.2354236,-0.1891221,0.3152738,0.3625441,-0.3337182,-0.4308813,0.3922859,-0.127816,-0.4503049,-0.2967798,-0.4313098,0.2250195,-0.09491134,-0.3779322,0.2310996,-0.06894803,0.6003684,-0.1039659
-0.5160221,-0.0990561,0.1964372,-0.4707651,0.05687245,-0.1382952,-0.06349184,0.2298763,-0.3358622,-0.3899509,0.2810068,0.4666441,0.3380008,-0.5728867,0.1061339,0.2130459,0.2586382,-0.06782722,0.1000854,-0.2775927,-0.2252221,-0.3747999,0.3399673,0.1308758,0.0218817,-0.5214609,0.2639307,-0.0749497,-0.2139044,-0.3235581,-0.2553222,0.1971579,0.2078961,-0.09171899,-0.04420736,0.3864921,-0.1970941,-0.09267043,-0.4136043,-0.04060131,-0.3798945,0.209357,-0.507933,-0.3237679,-0.1266256,-0.002932622,-0.3477023,-0.00382074,-0.01971678,0.3992096,0.3504133,0.3412624,0.1502749,0.276389,0.04758495,-0.5183988,0.09868624,-0.2690068,-0.4294035,0.107596,-0.2542805,0.09026265,0.2091159,-0.01600069,0.1345011,0.1777439,0.09801201,0.1512909
-0.2696626,0.2147497,0.4516877,0.3472441,0.07165006,-0.4193558,0.1250371,-0.04165576,0.4465509,0.1445414,-0.06942938,-0.1431205,0.00966483,-0.4640712,0.3068385,0.08715583,-0.4363627,-0.2070278,-0.2907306,-0.1104352,0.5784352,0.006743349,0.02051044,0.2197203,-0.3203783,-0.2145175,0.2877582,-0.05936758,0.03304559,-0.3862217,-0.03927249,-0.0116886,0.3434688,-0.2168324,-0.01079961,0.2369521,-0.259044,0.4898471,-0.4478853,0.433739,-0.03169664,0.2168438,0.2286762,-0.02116289,0.09455831,0.3601619,0.01103634,0.4161573,0.3028547,-0.2490216,0.4915452,0.3562464,0.136142,-0.1154268,0.4244289,0.01724133,-0.5668831,-0.2765616,0.2739361,-0.3301841,0.06874063,0.4236781,0.2131057,0.04046867,0.3245569,-0.3314616,-0.0864858,0.4776039
-0.3399084,0.04724639,-0.07476044,0.3075584,0.4403906,0.3674201,0.3670044,-0.3921079,0.387608,-0.2736802,0.4278567,0.01890244,-0.3517146,-0.5640102,-0.3673435,0.1924827,-0.3706872,0.5602224,-0.4545685,-0.3482888,5.38502E-05,-0.6954507,0.2648241,0.3125505,0.08128989,-0.107758,0.1864059,0.1125434,0.5375831,-0.2682964,-0.2008709,-0.03883871,-0.5654862,-0.1568152,0.0008781552,0.06263088,-0.1139917,-0.261941,0.2867656,0.4702203,-0.1771758,-0.0160032,0.1123126,-0.1096039,0.3718346,-0.2748479,-0.2232931,-0.4444401,0.1397928,0.0282218,0.3021722,-0.1726597,-0.2481162,-0.181084,0.03349277,-0.2331456,0.1253366,0.1398736,-0.217648,-0.1126509,-0.1290418,-0.575535,-0.4332463,-0.3080094,-0.5494415,-0.4971427,0.3929397,0.4319195
-0.3418012,0.322935,-0.3577043,-0.7046626,-0.1049196,-0.2548798,0.2471182,0.3845497,0.4643581,0.09497906,0.04818495,-0.1865467,0.143603,-0.2993901,0.1220605,-0.166414,0.1488869,0.2070205,0.602347,0.1306875,-0.4115814,0.1877733,0.5024909,0.1854479,0.0375037,0.3485826,0.1911231,-0.2312228,0.112981,0.0329355,0.2916548,-0.5802823,0.06816306,-0.3837478,0.5188639,-0.2853551,-0.3307779,-0.1992332,0.23888,-0.4243599,0.05174375,-0.2525013,0.08232484,0.06299024,-0.1268808,-0.1996032,0.3212173,0.8665546,-0.2799603,0.2849976,-0.2169355,-0.1765931,0.1803107,0.2570217,0.3988219,0.2982497,-0.3048555,-0.01871799,0.4635965,0.2963471,-0.1121038,0.4799389,0.1733063,-0.4825362,-0.4932058,-0.0780135,-0.1922054,-0.4573741
0.0441747,0.4787899,0.3518678,0.4550621,-0.2005561,0.3468883,0.7271801,-0.4025009,-0.2211192,0.5838508,0.08630639,-0.1194708,0.1353751,-0.197406,0.4357154,-0.03184126,-0.3256326,0.07198546,-0.4778622,-0.2296225,0.5285301,0.3731803,0.3156119,0.4021596,0.05053193,-0.03896187,0.3371753,-0.1137132,0.07537864,0.2488138,0.2374792,-0.1014215,0.2667468,-0.4432292,-0.4654453,0.5369903,-0.3065475,0.1375561,0.4100031,0.2801656,0.2060416,0.3877568,-0.4754566,0.7664732,0.1936362,-0.0770014,0.2713284,-0.3807254,-0.4454659,-0.4087257,-0.658217,-0.1282502,-0.4544501,0.4360344,-0.4555506,-0.3785283,0.3402634,-0.4399635,0.3467346,-0.2776513,-0.2879953,-0.03518583,0.132076,0.709433,0.311523,-0.02300325,-0.09836938,-0.2042117
-0.4560442,0.2455663,0.4439033,0.3421019,-0.3282024,0.2222048,-0.3494908,-0.02654527,-0.4370448,0.2525047,-0.370016,0.8592957,-0.377509,0.4967742,0.5288491,0.2609014,-0.5172529,0.4602057,0.2501281,0.4015891,-0.3830581,-0.03594145,-0.08929928,0.1807301,0.2402414,-0.1260783,0.09248638,-0.1381751,0.4324556,0.3316566,0.1569339,0.000305091,-0.1521247,-0.4146873,-0.1860911,0.3863928,0.2027731,0.4313753,-0.05887828,-0.2466409,-0.2368119,0.07351413,0.2094696,0.3547153,0.05834015,0.01651822,0.1031935,0.0220231,-0.01876291,0.3260796,0.05477959,0.3242235,-0.07931817,0.2091476,-0.2519497,-0.4283727,-0.4820186,0.2242541,-0.2530294,0.02777619,-0.3993236,-0.15205,0.4450413,-0.4094482,-0.01199958,-0.2708449,0.0975633,0.02491871
0.1358288,0.0791911,0.1351056,0.3698727,0.5165225,-0.2413675,0.2673983,-0.2090936,-0.1911689,0.2262373,0.1045344,0.08167936,0.004719118,-0.3249543,0.09075055,0.1967173,-0.2904364,0.4902093,-0.2063702,0.3024865,0.3555247,0.3827286,-0.3178441,0.1522765,0.001680818,-0.5928052,-0.01927871,-0.07986511,-0.5124442,-0.2605682,0.3775584,-0.1054388,-0.0351833,-0.5107665,-0.2071752,-0.03284572,0.1798641,0.2849883,0.1355843,-0.1351052,-0.1292442,-0.1288972,0.1286258,-0.06993613,-0.220094,-0.4839264,0.5674061,0.09432576,0.003513427,0.4017413,0.4097671,0.08965012,-0.2583553,0.5446329,0.2030227,0.2389128,0.03200885,0.115555,-0.05403815,0.2947915,-0.3187124,0.08928018,0.5929207,-0.1763189,0.2258714,-0.1084895,0.1922629,-0.4868113
-0.2858922,-0.1476196,0.7452269,-0.8068244,-0.3478121,-0.2658035,0.2829135,-0.4710108,-0.08661532,-0.1367779,-0.1571114,-0.04645178,0.305807,-0.04627292,0.3014391,0.4209146,0.2111621,-0.4301501,-0.1127059,0.2098091,0.2671737,-0.3997515,-0.7139031,0.1242429,-0.05146187,-0.07112437,0.1232654,-0.1699242,0.2417735,-0.4200854,0.2200664,-0.1416192,-0.1751776,0.08654007,0.1845712,0.3208085,-0.1180372,-0.2869755,0.06615249,0.3623288,-0.06552827,0.2976673,0.4401353,0.5559787,0.4154739,0.2754712,0.04377109,-0.1778428,0.3495715,-0.03417878,-0.04634648,-0.4006449,0.1497762,-0.2175601,0.01947454,0.5158767,-0.5305271,0.3381015,-0.02873834,-0.3438266,0.4013546,0.4481814,0.07785553,-0.06699653,-0.2188721,-0.4039257,-0.3865514,-0.04950606
0.3192618,-0.2468129,0.3809983,-0.2674366,-0.3589969,0.06366666,0.330322,-0.3018718,0.326106,0.09167059,0.1382508,-0.01240557,-0.04258686,-0.4322286,-0.3961282,0.04695633,-0.1070456,0.2317092,0.4420503,-0.3989756,0.003542497,-0.3618835,-0.3915699,0.2459278,-0.393686,0.1678463,0.1268228,-0.4415599,-0.3542667,-0.3084705,-0.03840278,-0.05866393,0.2681988,0.008605985,-0.4527262,-0.356191,0.1604987,0.1692851,0.1133393,0.1200918,0.2097159,-0.2708656,-0.1288845,-0.1235467,0.1934167,0.3885067,0.01636111,0.3840833,0.2441483,-0.3236705,0.5026212,0.4997866,-0.3701715,-0.2719001,-0.4365374,0.2128659,0.06019421,0.2285875,-0.0662012,-0.4384575,-0.4271463,-0.1562332,0.1800377,0.3127033,0.2513521,-0.3578426,0.07559377,0.2228615
0.3449673,0.7347819,0.1076076,-0.4362616,-0.05201329,0.5964927,-0.2195568,0.2871697,0.4500737,-0.09794854,0.1956361,0.1416923,0.577247,0.1894723,0.4101976,0.1444881,0.635305,0.2462031,-0.3033419,-0.4365977,0.140654,-0.4047243,0.3254474,-0.6488881,0.4139666,0.5093967,-0.4356777,0.2817941,-0.4397256,-0.1056398,-0.4561432,0.133389,-0.6382132,0.1341663,-0.4073636,-0.3233078,-0.02731629,0.01473621,-0.4547648,0.2223967,0.400614,0.1945651,0.2374531,-0.4498375,-0.07523035,0.4312941,0.4165071,-0.01425631,0.5041444,0.1523387,0.2982043,0.1527995,-0.1350545,0.1249548,0.007804426,0.1272425,-0.2709658,-0.06495938,-0.4956347,0.4965432,-0.3926578,0.2595192,0.4146884,0.02099967,0.2276583,0.3720333,-0.7728921,-0.2261741
-0.2714309,0.1555618,-0.2120388,-0.4560016,0.4656303,-0.003823687,-0.2436395,0.4317026,0.1661645,0.1073455,0.3082697,-0.2460607,0.05389528,-0.1655205,-0.5137225,0.5312777,-0.009857816,-0.2947786,0.3952314,0.3963048,-0.3907256,-0.06908835,0.01712905,0.008579117,-0.2126228,-0.3708067,0.1412109,0.2419478,0.401887,-0.3030027,-0.2241416,0.1578666,-0.3072888,0.1477248,0.20587,-0.3395043,0.4179952,-0.1727476,0.00811054,-0.5690092,-0.3621738,-0.09159943,0.0196066,0.5669357,0.4553723,0.09473172,0.1589612,0.4604792,0.07626838,0.3821741,0.1334144,0.4244013,-0.2540755,0.1310511,-0.004929488,0.2090857,0.411898,0.2912002,0.7041001,-0.1828,0.08128925,-0.2643109,0.0600883,0.08861764,-0.1437545,0.6743391,-0.8330375,-0.169712
0.778347,-0.5669726,-0.6420118,-0.6648276,0.07786821,0.3717598,0.02527443,-0.3823183,-0.04671618,-0.08113568,0.2412041,-0.09850237,0.07901599,0.2657367,0.1167113,-0.3550207,-0.3010166,0.1249175,-0.04968989,0.5674978,-0.03830432,0.008387613,-0.2032081,-0.1801275,0.1225266,0.1130594,-0.4191047,-0.060314,-0.7799647,-0.0005007846,-0.3278602,0.005673477,0.3216143,-0.1040418,-0.127914,-0.3076028,0.7356488,0.397272,-0.1918363,0.07688809,0.2151705,-0.4080693,0.5258152,-0.2230753,0.2480363,0.4442086,0.06794166,-0.2115261,-0.05645048,0.3716,-0.007446578,0.08525281,-0.4592203,-0.5237808,0.3756066,-0.316743,0.1870419,-0.4591313,-0.2547861,0.2891238,-0.04452475,0.4725445,-0.04710221,0.05270467,-0.5148358,0.02925624,0.3388423,0.3806475
-0.1439413,-0.09173208,0.2822332,0.3457794,-0.0439056,-0.165747,0.3091607,-0.2079578,-0.457289,-0.6043372,-0.2498275,0.2844163,0.1330544,0.275548,0.09092151,0.3973523,-0.1239738,-0.3334062,0.2019348,-0.4978923,-0.2847681,0.3311137,0.08905851,-0.2151268,-0.07941698,-0.07447135,0.8475976,0.3425858,0.5039091,0.2875073,0.3607138,0.5871537,0.4688901,0.1650845,-0.5488212,0.4534442,-0.1915055,-0.04565682,-0.07156259,-0.06836765,-0.01694926,0.329805,0.352704,-0.1521974,-0.2389145,-0.03877488,0.5347989,-0.3792401,0.07723581,-0.4912372,-0.06459696,-0.2747684,-0.04840815,0.1641691,-0.3202329,0.04719742,-0.3555862,0.2426611,0.004369641,-0.6169771,-0.4886167,-0.1549156,0.4150324,0.4635203,0.1850113,-0.01066135,-0.6078264,0.3948846
0.2054995,-0.3123832,-0.2564869,-0.2426802,-0.3740461,-0.8851594,0.3768189,0.1624254,0.4638789,-0.02524194,0.4709651,-0.3966126,0.1009283,-0.03329514,-0.5350634,0.0909301,0.09887557,0.1859556,0.06712875,-0.3228309,-0.4195498,-0.004885541,0.1258094,0.5930858,-0.2294233,0.2763945,0.1827659,-0.2498832,0.4552293,0.2162748,0.3576865,0.5517946,-0.00933907,0.2151033,-0.3220479,-0.2118827,0.5711751,0.4075013,0.5106806,0.06133872,-0.1470985,-0.4201958,0.1062671,-0.2503012,-0.4919845,0.3732767,0.4428498,-0.4739852,-0.02493857,-0.2387455,-0.1504445,0.4263667,-0.06056147,-0.1317576,0.2679467,0.1357429,0.2741732,-0.3526252,0.02817802,0.1169169,0.3104107,0.07597799,0.2971191,-0.1284775,0.3949774,0.2862818,-0.5559713,-0.4588641
-0.4916898,0.2996848,-0.3924227,-0.3488331,0.3186742,-0.3379873,-0.009224566,0.6933743,0.2777382,0.3632977,-0.5620857,0.3814584,0.1414151,-0.3441247,0.3979259,0.5340879,0.4375068,-0.1997545,-0.1176442,0.6554974,0.1864441,-0.4509875,-0.002156907,-0.03239941,0.02808951,-0.1014864,0.3211617,0.1240374,-0.0864239,0.1645571,0.4894761,0.3450717,-0.1056914,-0.09876002,0.2530254,0.5755684,0.5120559,0.1496585,-0.06856424,0.3084289,0.1240266,0.1042635,0.2216015,0.2476215,-0.02290136,-0.2400534,-0.01688103,-0.1942404,0.4441785,-0.3814044,-0.16795,0.4711772,0.2469297,0.01320905,0.09966067,-0.2593015,-0.1030435,-0.09330367,-0.4010277,0.2981702,0.4817374,-0.1739087,-0.1538063,0.5379659,-0.4147471,-0.1595262,0.07401676,0.1841551
0.1203845,0.06475724,0.003552578,-0.3623273,-0.3626924,0.1226583,-0.1004378,0.2572039,0.3495287,0.01248806,-0.1317267,0.5566158,0.4935768,-0.05619995,0.3556293,-0.1508799,-0.1842696,0.1162917,0.214984,-0.4599018,0.3877673,-0.2078994,-0.2879031,0.2684633,-0.3864064,-0.2320239,-0.08318539,-0.2693862,-0.4073336,-0.1420249,0.216691,0.1749661,-0.228501,-0.1172539,0.08660262,0.5016578,0.2341098,0.4486496,0.1720371,-0.0108256,0.04999809,0.4728555,0.2100471,0.4108923,-0.4404779,0.1983897,0.1967377,0.4304032,0.1744151,-0.3579516,-0.3329488,0.4532201,0.2253536,0.228473,-0.2410773,0.07524115,0.1181968,-0.4524839,-0.2106218,-0.1866074,-0.1433323,0.1906324,-0.4525243,-0.2311402,-0.3169748,0.1284824,0.4256343,-0.420416
-0.2255956,0.2486873,0.2275683,0.3393162,-0.3575417,0.2255943,-0.5236935,0.4992899,0.1124028,0.2013426,0.1686561,0.5027919,-0.3794621,-0.2272528,0.4462237,-0.3654157,-0.2914429,-0.02713712,-0.1500255,0.04767687,0.4616802,0.03368362,0.05925635,0.4317929,0.04261163,-0.5417168,-0.4798246,0.1477335,-0.2720566,-0.06130251,-0.0858805,0.1774714,-0.3270935,-0.1635457,-0.4496089,0.337832,0.03542698,0.3131351,0.02898875,-0.3366271,-0.1951635,-0.4681487,-0.4451103,-0.6603729,0.3261952,-0.2424753,-0.084038,-0.4714795,0.05806167,-0.4023988,-0.165301,-0.07603262,0.2951862,-0.04756103,0.1270775,0.1730987,0.5241513,-0.07495432,-0.2256213,-0.3683929,-0.1347229,-0.3646746,0.5563205,-0.4352152,0.2452963,-0.1483272,-0.276568,0.6211687
0.1730955,-0.1917472,-0.4011768,0.4573748,-0.28974,0.317106,-0.3395842,-0.3306226,0.4766573,-0.1562876,0.05360908,0.350436,0.2012333,0.2675076,0.3143287,-0.05765647,0.1208972,-0.3732075,-0.3206066,-0.1653536,0.3093203,0.1112489,-0.1117309,-0.1926985,-0.06285799,0.05279335,-0.5522776,0.09526589,-0.03723818,0.5402082,-0.4225341,-0.3009627,-0.2116511,0.217823,-0.5015921,0.5799401,0.1242543,0.4780968,0.47786,0.363126,-0.6666402,0.5490248,-0.5935491,0.02671488,-0.337888,0.2046944,-0.1707529,0.01454862,0.2915684,0.5417717,0.3604715,0.005922416,-0.5806913,0.04979488,-0.2148619,0.2650056,-0.5436175,-0.355859,0.3512081,-0.4764712,0.04781391,-0.1457312,-0.1478799,0.1191278,-0.1285662,0.2555428,0.07389421,0.2085997
0.7374312,0.1737899,-0.06540486,-0.06168551,-0.3410771,-0.07704685,0.4606573,0.0005645831,0.2872903,-0.2276367,0.5170041,-0.0794578,-0.33835,0.2651188,0.4226235,0.09024222,-0.1572919,-0.5003824,-0.2212642,0.4417236,0.1245884,0.3887711,0.5637903,0.5982328,0.28402,0.2209028,-0.1847422,-0.4550989,0.4683649,0.3277699,0.3934788,-0.2803738,0.1297688,0.02104567,-0.2471706,-0.3240859,-0.4044063,0.2895759,-0.4536539,-0.4553154,0.1465206,0.3048519,0.08892707,0.2535582,0.2806982,0.361851,0.392978,-0.1256317,-0.1020182,-0.4515151,-0.06672616,0.2809781,0.08226427,0.03309754,0.53877,0.05951007,0.0521092,0.591484,-0.4522061,0.2825027,0.06236445,-0.1717646,-0.1521949,0.005077664,0.06260078,0.1399093,0.5778216,-0.05536318
-0.2519624,-0.03368728,-0.1772202,-0.4068232,-0.1985919,0.2746548,0.2306166,-0.2123792,-0.2569914,0.09684776,0.3629103,-0.612498,-0.09015603,-0.433485,-0.1816749,-0.312022,0.2048873,0.3031821,0.0556652,-0.1414484,0.2577396,-0.2456458,0.06922112,0.4070664,-0.2280777,-0.1858014,0.03123853,0.01548868,0.3038663,-0.177106,-0.09811105,-0.272516,-0.4259028,0.3878801,-0.5571893,-0.1206862,0.4965131,-0.2474466,0.2183605,0.6227918,0.1812783,-0.3328001,-0.2352327,0.08496714,0.1645104,0.5465149,0.07870054,0.208153,-0.4036529,-0.2703585,0.08305894,0.2709868,0.4661495,-0.2093006,-0.4569916,0.417812,0.01004214,0.1848936,-0.2455763,0.2509996,-0.4412513,-0.2846256,-0.005683046,-0.4231632,0.5773699,-0.1963495,0.2894363,-0.1283534
0.02339455,0.02315603,0.3181818,-0.3047639,0.05265576,0.2775369,-0.1991286,-0.3474316,-0.1800755,-0.1465218,0.3676787,0.2410467,0.1259301,0.3066381,-0.3714037,0.06175325,0.3623336,-0.04703531,-0.4809719,-0.1474559,0.02702709,0.2594427,-0.09812868,-0.4182693,0.2965695,-0.3653306,-0.3131467,0.1049651,-0.02522483,-0.4017428,-0.381345,0.2161488,-0.4124244,-0.3920529,-0.08816676,-0.2824081,-0.06607816,-0.01347822,0.1600741,-0.04057101,0.4357496,0.5516932,0.281445,0.2767411,-0.2428348,0.3968525,-0.03828619,0.215775,-0.3343438,0.0006932889,0.09347582,-0.09456382,-0.1916463,0.2583927,-0.3743481,-0.5456203,0.3950713,0.2784568,0.3013731,0.1213874,-0.2862642,0.2608587,-0.1529014,-0.08282145,0.1185498,-0.1947202,0.01682252,0.2475097
-0.3499666,-0.1597443,-0.3323244,-0.1505758,0.6232849,-0.4571043,-0.1736092,0.4995887,-0.388255,-0.1620328,-0.3199363,-0.06204857,0.005499791,-0.1146641,0.2390653,-0.1791024,-0.3219717,-0.2500057,0.6484644,0.4333098,0.1338114,0.1453386,-0.3664758,0.3416049,-0.4687941,0.2622273,0.2965343,-0.08663832,-0.1708671,0.4213551,0.2355895,-0.4687435,0.2545003,0.04321568,0.4821355,-0.307611,-0.07384222,-0.1679901,0.2571443,0.1673702,0.06533825,-0.07955213,-0.6454036,0.296542,0.07600601,0.1035796,0.4419489,0.1334345,0.3754951,-0.1023765,0.2998228,-0.06338704,-0.5598165,-0.002640876,0.1957475,-0.0009416342,0.3781703,-0.1301599,-0.007453649,0.3035288,0.306277,0.4850562,-0.3398361,-0.3000208,-0.3624679,0.2148269,0.3805402,-0.03718947
0.3134411,0.03611901,-0.2020112,0.3128191,0.4079618,-0.3280772,-0.0633291,0.2076739,0.1622779,0.01504284,0.139108,0.4282185,0.4515543,-0.585066,-0.1004683,-0.5248297,-0.4640664,0.1990827,0.0816083,-0.4967071,-0.4512985,-0.2508051,0.1550213,0.1441827,0.4633993,-0.2017885,-0.08664317,-0.5374873,0.01892417,-0.1242123,-0.2457553,-0.06822564,0.1899739,-0.2098862,0.3932429,0.1043012,0.300888,-0.1399624,-0.05876563,-0.4662029,-0.3874493,-0.5372018,-0.2667567,-0.2824794,0.07060593,0.3325098,-0.2727555,-0.6830155,-0.3352134,-0.2009874,0.3763478,0.1462293,-0.1565221,0.09229463,-0.3423968,0.1453788,0.3181758,-0.220477,-0.2132775,-0.4247292,0.158062,0.02296169,0.1994871,-0.1561341,-0.08060981,0.3538638,-0.1090778,-0.2070365
0.285362,0.5699573,-0.3378088,-0.5724979,-0.4320022,-0.7224351,-0.3016905,0.2537172,-0.1005893,0.2170052,0.02937706,0.463383,0.4904043,0.06221303,0.0398882,-0.3450789,-0.2176293,0.3102047,-0.3925658,0.2558871,-0.2164943,0.02154673,0.01745182,-0.552475,0.4563365,0.2419345,-0.1808188,-0.08195956,0.4529929,0.07494821,0.0596422,-0.2477669,0.4374473,-0.1317264,0.05793788,-0.342119,-0.3400238,-0.2770837,-0.1420236,0.0618937,-0.6072398,0.4677735,-0.2120683,-0.3201859,0.4945057,0.1876803,0.2717195,-0.05889037,0.5436631,0.05915282,-0.004597662,0.4236551,0.3979925,-0.2771332,0.3008009,0.09644758,0.2556892,-0.3821248,0.4559706,0.2397977,-0.5112208,0.06472199,0.08634641,0.03583833,-0.4738225,-0.009159378,0.3352455,-0.0943704
0.3051042,0.4026894,-0.244289,-0.1847868,-0.05990984,-0.6117736,-0.4517415,-0.5230974,0.07450512,-0.3227933,0.06639936,-0.3983841,0.1578058,-0.3000876,0.6183681,-0.469839,-0.1333849,0.5103915,0.2586718,-0.2264147,-0.4657211,-0.399675,0.1070557,-0.4527245,-0.2031235,-0.207552,-0.3373467,-0.01212383,0.4689406,0.1315317,-0.3008636,0.3183509,0.2041964,-0.2515763,0.01126481,0.3102278,-0.1591271,-0.2552045,-0.3604195,0.3314761,0.1231912,0.2552584,-0.2850935,-0.03200109,-0.1961407,-0.3041101,0.1598982,-0.229989,0.4553261,0.2118604,0.2971509,0.3759325,-1.033597,0.3094242,-0.3380955,-0.3069485,0.1432478,0.07582215,0.268906,-0.3614468,0.009256635,-0.4525398,0.003983679,0.2212993,0.4986365,0.5380815,-0.4529702,0.04165695
-0.3937266,0.3173598,-0.08840825,-0.05023322,0.6056632,0.4645722,-0.144754,-0.2597622,0.5838775,-0.1557156,0.08672042,-0.3581942,-0.3212165,-0.05612227,0.4543966,-0.0173892,0.2628388,0.4163697,0.02791817,-0.3125803,-0.09428039,0.01980595,-0.08445328,0.08393397,-0.4112215,-0.2805244,0.2135127,-0.5207379,0.4207293,0.5581387,-0.6349601,-0.05036059,0.4192357,0.3447432,0.2415461,0.691327,0.4829705,-0.1017281,0.4749952,-0.2843484,-0.3600347,0.06427334,0.1012716,-0.05570455,-0.23121,-0.3299257,-0.1749363,-0.1168063,-0.1361611,0.1069909,0.4976,0.3629951,-0.4358145,-0.2287079,0.4361621,-0.2785653,-0.2352002,0.3238518,-0.2347082,-0.4636196,0.006295594,-0.2663753,0.5282272,0.1973817,-0.2022773,0.03369687,0.1259333,-0.158955
-0.1371063,0.4668773,-0.2991,-0.3160669,0.1889915,0.0671085,0.4975283,-0.1155766,0.2510834,0.2397213,0.0898645,-0.3450142,-0.3322765,-0.2182759,-0.01470937,0.03667103,0.3994615,-0.3263517,0.6042141,-0.2973856,0.1294989,0.5426462,-0.07798596,0.2110407,-0.06642512,-0.3447139,-0.01272184,-0.3784088,-0.1606507,0.06172513,0.2346887,0.07532502,0.2616083,-0.2813007,-0.004347766,0.07651057,-0.4377109,0.06936768,0.2446095,-0.3584937,0.1431194,-0.5458348,-0.06600844,0.5471819,-0.1128423,-0.3880838,-0.1685508,-0.002234059,-0.3180862,0.1238419,-0.4010009,0.3121622,-0.1174332,0.2600862,-0.1659843,-0.6067985,0.01098697,-0.5628345,-0.1951365,0.02178057,-0.4837137,-0.009236475,0.4530704,0.1696747,-0.2513003,0.3146188,-0.1851126,0.3955625
0.1019629,-0.2110287,0.3256067,0.007647079,0.1839308,0.1379734,-0.06027238,0.1299435,0.5650184,-0.1803236,0.02840438,0.5851564,0.2555265,0.1114017,-0.529708,0.003686522,-0.3412386,-0.1468688,0.2253736,-0.2576056,0.3586296,0.1153773,-0.4755269,-0.01352444,-0.01203709,-0.4766488,-0.4985346,-0.3762352,-0.3724063,-0.7468378,0.07414415,-0.2074597,-0.2804122,-0.1756716,-0.2576163,-0.6551018,0.1491867,0.3563619,0.02747656,0.4774442,0.3767447,0.5008085,-0.2092478,-0.1154597,-0.02315704,-0.07541993,-0.02843735,0.4219736,0.05718435,0.07914733,-0.2630632,-0.3765135,0.2676217,-0.02086481,0.2518714,0.5355487,-0.04417071,-0.5393344,0.2307037,-0.08170582,-0.1079649,-0.1787593,0.504988,-0.416222,0.3801869,0.0007184448,0.3508161,-0.5892583
0.522227,0.1918049,0.471397,-0.1061593,-0.1902828,-0.1505196,-0.1222638,-0.4333132,-0.4618942,-0.3871831,0.4603676,0.0964792,0.1201846,0.003471496,0.04365016,-0.0203192,0.3014385,0.08192386,-0.3731166,0.1715585,0.1538667,-0.203239,0.2945236,-0.06078011,0.01518348,0.3013321,0.01946013,0.2239562,-0.2991352,0.3079957,0.09258334,0.5742444,0.1869467,-0.1810815,0.01325245,0.2923019,-0.3435037,0.3830242,0.4593255,0.2611883,-0.3454054,0.2589456,-0.0899375,-0.3522485,0.365394,-0.1119286,0.04349658,0.04051704,0.2522948,-0.4012737,0.1015335,-0.2523982,0.3619753,-0.2621249,0.2021279,-0.03871035,0.33766,0.4578138,-0.3674209,-0.1344593,0.2852521,0.1620576,-0.1527075,0.3622871,0.1991725,-0.2747904,0.4084403,-0.005726819
-0.4342793,0.6347088,-0.2882303,-0.09104317,-0.4059605,0.550853,0.02982845,-0.0657076,-0.05582664,0.2471783,-0.06758715,0.3918939,-0.5335572,0.5695043,-0.4130236,-0.2766495,-0.4131801,-0.3717392,0.3433331,-0.2617156,0.150033,0.3733989,0.415588,0.00750971,0.5192072,-0.1850879,0.3947726,0.2203844,0.2765899,-0.2213593,0.2013445,0.08280823,-0.3357461,0.221048,-0.189072,0.1320193,-0.1596831,-0.002608954,-0.3252256,0.3095376,0.4004588,-0.1079257,0.4436868,0.3545509,-0.1338481,-0.3451591,0.06804456,0.5174499,0.2193109,0.4786832,0.59505,0.3336039,0.1970088,0.03305935,-0.1488895,-0.3102678,0.1446274,0.5033039,0.03776752,-0.05421327,-0.2881441,-0.02578203,-0.1078302,-0.2439858,0.08632276,0.2353452,0.3506427,-0.3244211
0.1943508,0.03789259,-0.08641013,-0.04681462,0.5451699,-0.09406741,-0.9585051,0.0528974,-0.111008,-0.04576351,-0.3209472,-0.2038874,-0.3294306,-0.4260073,0.07964877,-0.03727659,0.372759,-0.05398625,0.4066921,0.2565892,0.4912663,-0.3104614,-0.391161,0.3279248,-0.1268461,-0.06789378,-0.2584241,0.244727,-0.6390368,0.3501495,-0.174712,-0.289023,-0.05703847,0.1707751,0.2810632,-0.0002299177,0.3407345,0.526782,-0.4635312,0.05509758,-0.07458758,0.1195741,0.3579084,0.1063071,0.1676892,0.6181813,-0.1942354,0.2024343,-0.1964651,0.518461,0.009935468,-0.3279683,0.3548153,0.305594,-0.4307736,0.1614818,0.3145484,0.02547691,-0.3614044,-0.07675017,-0.2859833,-0.0977378,-0.2817742,-0.1395349,-0.2443148,0.1683595,0.197868,-0.01296365
0.3108206,0.2149276,0.262499,-0.1109602,-0.2047203,0.4542099,-0.564679,-0.1926285,-0.3022335,0.5285332,0.2362992,0.2672458,0.08375831,-0.2180813,-0.5330019,0.1588625,0.2837593,-0.439512,-0.1230422,0.2235543,0.03043872,0.2310059,0.09845573,0.3982457,0.6621791,-0.1803667,-0.2300277,0.1334017,-0.08346356,-0.4766815,-0.2355224,0.03157289,0.216311,-0.09491188,-0.07196055,0.1852265,0.1461488,0.1429333,-0.0001769562,0.34256,-0.04280134,-0.0953756,-0.2938863,0.06573364,-0.02147917,0.7443528,0.02262173,0.3167,0.09880809,0.4098209,-0.2005911,-0.3762186,0.494702,-0.00267194,0.03173848,0.190839,0.3699127,0.5491148,0.4267186,-0.4056349,0.2184616,0.1199017,-0.2405066,-0.3881872,0.1094144,0.3974292,0.002608184,-0.1315074
0.1605893,0.2105808,-0.358813,0.09873219,-0.1320037,0.2653802,-0.1225014,0.04567369,0.1408377,0.1928457,-0.36795,-0.6622102,-0.3557829,0.1959928,0.1008819,0.1883934,-0.1164979,0.05693506,0.4441741,0.3208475,0.4913459,0.4619357,-0.6263029,-0.1613616,-0.3450661,-0.108932,-0.07759358,0.5987568,0.2870035,0.1885473,-0.009696765,-0.3928327,0.447194,0.2097032,0.3447523,-0.236405,0.09758858,0.3268211,-0.1997395,-0.4382443,-0.21379,0.1400076,0.006316142,-0.1599841,0.3223881,0.1288287,0.3135769,-0.1339438,-0.05012286,-0.02020103,0.07917981,-0.4590096,-0.404267,0.1346448,-0.4659782,-0.9857277,0.3826655,0.527347,0.4680773,0.1352705,0.3503175,-0.07776123,0.01325374,0.0943428,-0.07589582,0.4076485,-0.3112458,0.4254615
-0.4577019,-0.1356211,-0.03890787,0.005630131,-0.240888,0.4552032,-0.7032257,0.03249406,-0.394882,0.4878776,-0.2606895,0.3048862,0.227451,0.08246163,-0.1005436,0.227742,0.2153607,0.2457665,0.1979931,0.187308,-0.1521188,0.1265429,-0.5140468,-0.3723986,0.419628,-0.2900684,-0.1358927,0.08696143,0.2824612,0.2798522,0.1969579,0.1243808,-0.5228006,0.3553747,-0.04079487,0.04788994,-0.02042796,-0.216528,-0.246636,-0.009518622,0.3499475,-0.2536465,0.4309605,0.2602775,-0.06110782,0.3785909,0.4532626,0.3491769,0.04083633,0.5437365,-0.1549868,0.6090429,0.2858512,0.3782031,-0.387573,-0.495544,0.7497363,-0.5035344,-0.02433564,-0.119014,-0.4839952,0.188211,0.1712324,-0.3050808,-0.4470251,-0.2842714,-0.8345971,-0.112318
0.7015195,0.2563497,-0.2045287,0.04162333,0.127217,0.15774,-0.5526654,-0.1812305,-0.07236139,0.3049924,-0.2944144,-0.2127701,0.1480403,-0.1171837,0.4842268,-0.1131294,0.3560335,-0.07730998,-0.1705158,0.01042438,-0.3512762,-0.04379432,-0.2903481,0.08908518,0.2670006,-0.2109135,-0.06578194,-0.6187072,0.2991515,0.4762323,0.089656,-0.3322425,0.08522228,-0.04579509,-0.5850388,0.3036689,-0.4020498,-0.3164754,-0.2039869,-0.3801158,0.08384487,-0.05504761,-0.3555123,0.2677006,0.1735072,0.4843008,0.3735746,-0.4977145,-0.06052394,-0.3292881,0.5196677,0.3867037,0.2112386,0.4804074,0.2634121,-0.3157661,-0.180774,-0.2357389,0.05958289,0.09275126,-0.322198,0.1602067,0.08216662,-0.3158136,-0.1304597,-0.05973937,0.1669237,0.04353977
0.4526079,0.01416227,-0.02994569,0.1806239,0.1250851,-0.4289498,0.2072832,0.01130368,0.006621027,-0.2022341,0.05878354,0.2236963,0.2620314,0.06442519,0.4375499,0.6109728,0.188479,0.2089684,0.1359687,-0.3657311,0.3191348,0.08586699,0.3381311,0.115155,-0.2985548,-0.4332171,0.3229141,-0.3872159,0.02920505,-0.2108519,0.3979203,0.2850539,0.5323131,-0.4390891,0.380934,0.002482024,-0.380384,0.3842421,0.2831037,0.3909457,0.5282439,0.4121034,0.4329017,-0.03457053,0.1011988,-1.251957,-0.07185256,-0.2526977,-0.6362762,0.1038148,-0.3810191,0.478539,-0.002587075,0.03521049,-0.0533949,0.06189376,0.0272522,-0.09351669,-0.1074371,-0.277419,-0.03825456,0.4754518,0.1036105,0.1981915,0.07673752,-0.2429938,-0.2074565,0.05170117
-0.2121404,0.4002545,0.3856281,0.4238705,-0.405788,0.1274786,-0.1291108,0.1271011,0.1690892,0.2504908,-0.4995183,0.4729274,-0.379513,0.06013524,0.4356151,0.1775238,0.4608622,0.06772628,-0.06159448,-0.179034,0.01657696,-0.4287151,0.2896737,0.07173411,-0.3241399,-0.150904,-0.3363872,0.06468428,-0.2421872,0.3640989,-0.3495746,-0.4028166,0.1060545,0.2012634,-0.4340734,-0.5446543,-0.2656657,-0.09065273,-0.3455187,-0.5110492,0.2644928,-0.3134259,0.1215471,-0.4051982,-0.2977052,0.07061949,0.2417902,0.03230363,0.415532,-0.04123288,-0.114118,0.5003743,0.1683211,-0.1389169,0.008378228,0.130055,-0.3123686,0.2664637,-0.01204073,0.0998446,-0.01686675,-0.9319257,-0.5621235,-0.2573054,-0.398352,0.2394936,0.3958959,-0.2145682
-0.08411266,-0.07840531,-0.2204434,0.04135427,-0.5012488,-0.4333678,0.2603491,-0.2281077,0.174378,-0.6736711,0.2945901,0.5407177,-0.3844472,-0.4075371,0.1515056,-0.138294,0.3105555,0.6320153,-0.53316,-0.289445,0.6866805,0.1911324,-0.2974688,0.3533153,-0.1147362,0.2440489,-0.2316907,0.1116946,0.1742443,-0.1412107,0.02334213,0.04660102,0.1444864,-0.07842074,0.2914691,-0.2915196,0.1224964,-0.05804401,-0.04217058,0.2205403,-0.4479076,0.1695895,-0.1406826,0.4142503,-0.503741,-0.4303482,0.3229792,0.6998193,-0.1605885,-0.02269091,0.1608782,0.1823374,-0.4611801,0.6664822,-0.2920848,0.1289914,0.3786675,0.2312612,-0.008586049,-0.1742692,0.1808109,0.3049425,-0.1319319,0.4228974,0.1921558,-0.3183919,-0.8909526,0.4862744
-0.1217253,0.1746188,-0.2381037,0.5048878,-0.2169794,0.2339167,-0.5533336,0.2529083,0.4012901,0.3920887,-0.2733721,0.2132743,-0.2253452,0.01047641,-0.468425,0.04845345,-0.1539828,0.2121533,-0.4168551,0.4303311,0.308883,-0.03789294,0.1407455,-0.5321644,0.2551971,0.2529142,0.2339141,0.09264359,0.2027755,0.2287806,-0.3663231,0.09427971,-0.13594,-0.4356331,-0.1792873,-0.01378529,-0.1624428,0.2121844,0.3082477,-0.09135351,0.1216519,0.1962527,0.2961199,-0.4553621,0.05738651,0.2001619,-0.3337191,0.3680311,-0.2138935,-0.6389892,0.002249999,0.1244672,0.3951125,-0.2516889,-0.5139549,-0.6386874,0.1652257,-0.3971806,0.1299387,0.1323569,-0.5594663,-0.2156569,-0.2508679,0.5167151,0.1139653,-0.2771435,0.1425334,-0.1979912
-0.3961941,-0.2307798,0.1738502,-0.2720144,0.1961806,-0.3907483,0.5398443,-0.3203596,0.08013646,0.2406068,0.3364194,-0.2677373,0.004551894,-0.3017106,0.1448654,0.1026314,-0.2312388,0.3543261,0.03331449,-0.3098796,0.1988082,0.4167043,-0.0941291,0.4314088,0.4718541,0.3635041,-0.1236424,0.02697172,0.2379998,0.2393515,-0.4017985,-0.5123879,-0.2151947,0.05958101,-0.1024201,-0.1248578,0.07763369,0.03129703,0.01669228,-0.3715622,0.003286142,0.221654,0.09611257,0.1602514,-0.1474221,-0.3959999,0.2833126,-0.1568348,0.5218366,0.283452,-0.1056037,0.1877948,-0.5421713,0.2659386,0.4767168,-0.1112278,0.1629866,0.3485105,-0.1519152,-0.5438716,-0.4914075,-0.1785611,0.3619273,-0.07880817,0.2518891,0.1274487,-0.06447297,0.2876452
-0.3304912,0.005186005,-0.4316149,0.3137966,-0.05395685,0.3739603,0.2196144,-0.1850556,-0.01196112,-0.1206132,-0.3149778,0.1037691,-0.3525841,0.3472693,-0.09347009,0.1035083,-0.07285874,0.2618468,0.2865525,0.3174091,-0.1453598,-0.6466622,-0.2346819,-0.3385391,0.4636778,-0.1380441,-0.04599766,0.2700354,-0.2012044,0.02938107,-0.1837361,-0.07607077,-0.1099649,0.4484602,-0.2185839,0.2857342,0.4809512,0.4116012,0.5939708,-0.2094494,0.5540897,-0.3646147,0.1666845,-0.354616,0.920543,0.3536873,0.3344476,-0.2757558,0.3902408,-0.2886971,-0.3909038,0.04050579,-0.1187349,-0.05554722,0.1673769,-0.3325714,-0.2960387,-0.2966511,0.7787781,-0.151512,-0.6629867,-0.01597828,0.2712215,-0.1404405,0.1440201,0.1648448,-0.09428315,-0.5069337
0.2995733,0.2494592,0.3428725,-0.4173801,-0.2290787,-0.04936332,0.1036523,-0.1839059,-0.3644654,-0.1367794,0.05155446,-0.3867518,0.206592,-0.4704356,-0.09190518,-0.226514,-0.3552197,0.1669814,0.1796835,-0.0899973,0.264624,0.3199047,-0.7472933,0.2726259,0.4340142,-0.2524058,0.2545156,0.192698,0.170162,0.5067696,0.07370099,0.01739653,0.2364641,-0.3169149,-0.3029915,-0.4231579,-0.1590007,0.05491679,0.2887559,-0.4747511,0.1674062,-0.4017676,-0.4056175,-0.2929604,0.3709686,-0.280065,-0.1359116,0.6878225,0.3024289,0.2832319,-0.3262193,-0.08135176,0.2602357,0.3786713,0.633535,-0.4506687,-0.2760575,0.1594676,0.03928465,0.2265628,0.6379169,0.09494081,0.03384539,-0.2189015,0.124259,-0.2447522,-0.1137601,0.1100854
0.2392056,0.162452,-0.4219749,0.1546237,-0.1194775,0.1287746,-0.3150451,-0.5174142,0.2321232,-0.2189099,0.02781343,-0.3392354,0.06143649,-0.0148118,0.222213,0.3010503,-0.2859263,-0.3230606,-0.03725393,-0.3568831,-0.203012,-0.3873292,-0.5351539,-0.01770321,-0.3543287,0.2001135,-0.37758,0.4009956,-0.2476044,0.2258379,0.2005184,0.134388,-0.3652992,-0.3906373,-0.1362583,-0.2941761,0.03086861,-0.4484456,-0.1967603,0.3492777,-0.1206546,-0.4718376,-0.06823136,0.3465188,0.2260378,-0.46202,-0.3985462,-0.3297089,-0.39688,-0.4589669,0.06280654,0.1696652,0.38236,-0.1134466,0.4608866,0.01787233,-0.09067176,-0.2025928,0.1879551,-0.3316725,0.4921135,-0.4569787,0.15718,-0.2471111,-0.3503847,-0.4164877,0.2351631,-0.02465239
0.5727447,1.017366,-0.1144312,0.2551502,-0.4060494,-0.4423901,0.1454285,0.4389996,-0.1738295,0.2669021,0.01890315,0.2853135,0.2710248,0.164709,0.515573,-0.2789341,0.1667082,-0.244333,-0.3361084,-0.3503865,0.05314578,0.1568747,0.1073906,-0.1082728,-0.1858666,0.4847851,0.704249,-0.4866891,0.1318341,0.1448141,0.4294589,-0.4671675,-0.2610221,-0.01050225,0.4793454,-0.2155434,-0.2342479,-0.5124486,-0.003442414,0.2029196,0.04561112,0.5883769,0.1144838,-0.03111257,0.04473995,-0.2281117,-0.2816468,0.2199777,0.4761518,-0.07305973,-0.1213443,-0.2955086,0.2677114,0.003898625,0.1642884,0.1896259,0.3228852,-0.230044,-0.5905595,0.4676645,0.1567811,-0.2457512,-0.4233992,0.7207172,-0.07219812,0.5610769,0.05670319,0.02735429
---
-0.09472483,0.3085177,0.1752927,0.3559519,-0.2920469,-0.07721214,0.07631341,-0.2392164,-0.05035093,-0.4354932,-0.08362073,0.0976089,0.2257619,-0.2396974,-0.5217956,-0.04857066,0.1473569,-0.1680962,0.141674,-0.02157704,-0.2069193,-0.2992613,-0.06686497,0.126719,-0.2188766,0.3012453,-0.184157,-0.0432202,-0.08504836,-0.002976492,-0.2767238,-0.2255734,0.4899598,-0.2213107,-0.05784444,0.3411459,-0.1012294,-0.3493754,0.2445497,-0.01562628,0.2117775,0.09819774,-0.4270943,0.3441237,0.4525631,0.405204,-0.0767997,-0.4810999,0.114937,-0.1352098
0.5267431,0.2384846,-0.2183254,0.1090027,-0.519359,-0.3642917,0.5913177,0.05277883,0.2790578,-0.6271964,0.2732877,0.06732723,-0.4784375,0.06344845,0.3604802,0.1918918,-0.09839256,-0.07715534,0.2880762,0.4913415,-0.0859869,-0.1879338,-0.3275356,0.5798629,0.4568574,0.5171874,-0.1753474,-0.1102128,-0.2093881,0.02043316,0.2416403,-0.44373,-0.5650205,-0.1229825,0.5591152,0.08468703,0.02253594,0.06497227,-0.1760564,0.003285563,0.06416459,0.0557093,0.2488524,-0.3524335,0.1468094,0.4060201,-0.3256858,-0.09457976,0.2246854,0.4098806
-0.1276941,-0.3848994,-0.2039943,0.01350523,0.1017775,-0.4848744,0.4456248,0.3720127,0.1485981,0.383311,-0.1957656,0.2801637,-0.2409546,-0.4433701,0.544888,-0.06705641,-0.07387148,-0.338957,-0.4433808,0.04702171,-0.1733748,-0.4284398,-0.03026015,0.05144688,-0.1411043,0.5325933,-0.2353715,0.07492392,-0.1029015,0.369868,-0.08289132,0.4981085,-0.1631793,-0.1612932,-0.01874216,0.3714278,-0.2572934,-0.1444884,-0.6801094,0.2897313,0.4751515,0.3437057,-0.3808168,-0.3647822,-0.3999087,0.1320547,0.1303188,-0.1385873,-0.1464926,-0.4807462
-0.268595,0.1971132,-0.07935061,0.4015107,-0.3737365,-0.2659782,0.1798581,0.1773216,0.07463512,-0.3704378,0.2625194,0.1799075,-0.7950405,0.3108654,0.5517996,0.202504,0.294521,-0.1440438,0.3101151,0.4045413,0.4142824,0.4970512,0.1177578,0.1370758,-0.2939468,-0.2598645,-0.1819404,0.4685733,-0.3059183,-0.307507,0.04576712,0.779404,-0.5295996,-0.1972871,-0.4210767,0.636554,-0.2833541,0.1469835,-0.2790582,0.4843274,0.4804909,-0.121868,-0.1004649,0.4200942,0.2605262,-0.4030678,-0.1793022,-0.2919282,0.2391032,-0.07621793
0.4420153,0.05638251,-0.03473079,0.3669777,0.05245477,0.4430017,-0.1260969,0.3541394,0.7164452,0.1605409,0.00701214,-0.001433999,0.5641556,0.1396802,0.1617756,-0.04390379,-0.840276,0.1960223,0.1045739,-0.1737869,0.04609049,-0.3730232,0.2165839,-0.3757279,-0.138273,0.2327062,-0.3696713,0.1205467,0.167293,-0.05366175,0.4730842,0.266832,-0.5278727,0.163636,0.002865431,0.08794491,0.4832665,0.3397262,-0.2567869,-0.1858186,0.08902735,-0.2094834,0.5092074,-0.3817559,-0.5299712,-0.05853,-0.2211631,0.3544975,-0.006786512,0.1339069
0.2243846,-0.189555,0.1420281,-0.4486035,0.06290349,0.1976954,-0.1476256,0.02132503,0.2754866,-0.501933,0.2342192,0.7593732,-0.6188835,0.1429426,-0.4437217,-0.3008827,0.2515536,0.03231414,-0.08832356,-0.3919648,0.4613984,-0.2123351,0.4039506,-0.0460518,0.1878603,0.1774643,0.2400535,0.3061985,0.005534936,0.2700146,0.03812158,0.8260348,-0.3144982,-0.2180583,-0.1446381,-0.04665142,-0.4226022,-0.1838122,-0.4997085,-0.424564,-0.351249,-0.3778281,0.007514301,-0.529981,-0.2273258,0.610957,-0.3250306,-0.5302485,0.4368664,-0.4237603
-0.06557738,0.268613,0.01833312,0.447114,0.357532,-0.3005574,0.3299992,-0.418007,0.2529188,-0.2202835,0.7638471,-0.115072,-0.09829332,0.1977607,0.2583427,0.2892364,-0.02066473,-0.3359509,0.1179848,0.3387339,-0.3214037,-0.1417642,-0.1965306,0.443085,-0.4893851,-0.02440211,-0.3213305,-0.6184936,0.5207147,-0.1842209,0.1905723,-0.3495756,-0.4023319,0.9950015,0.0667238,-0.08521932,-0.3825859,0.2408,-0.0007003865,0.2651547,0.03382329,0.0907985,0.5579594,0.4529854,-0.02693756,-0.01737953,-0.08542163,-0.475108,-0.1709229,-0.5996099
-0.04065151,-0.09660538,-0.005479043,0.1378087,0.4544529,0.06163726,0.01522469,-0.5665294,0.1404867,-0.9430448,0.4538719,-0.07562584,0.01301804,0.4019856,-0.331846,0.1077058,-0.5245433,0.01839825,0.05423871,0.2403068,-0.620819,-0.09107351,-0.4839332,-0.1798525,-0.2893523,0.05759893,0.3473759,-0.0007607148,0.4666433,-0.2379205,0.7068591,-0.1234401,-0.2817236,0.1371996,-0.1400414,0.270014,-0.3815569,0.3544829,-0.3121318,0.5159044,-0.1237824,-0.2709213,0.2897079,0.4183021,0.1504021,-0.3215819,-0.0258087,0.3122142,0.0777349,-0.04742638
0.3119175,0.008317122,0.3017957,-0.03044923,-0.1014688,0.1004891,-0.003975731,-0.7586718,-0.3490627,0.2689813,0.6495944,-0.4551189,-0.1966597,-0.3642408,0.182956,0.5071371,0.1541318,0.5926768,-0.1213858,-0.02548859,0.431709,0.4847823,0.6568189,-0.2338449,0.1818759,-0.1359473,-0.3182926,-0.105043,0.2456269,-0.5223885,0.4588403,0.2088071,0.3641727,-0.1822463,0.1765479,0.5790487,0.5950928,0.3059006,-0.003100489,-0.2662403,-0.07510754,0.09400977,0.6141379,0.5197327,0.3266582,-0.1284857,-0.243219,0.1175129,-0.164676,0.01888312
-0.3195822,-0.3529755,0.05010945,-0.1419492,-0.4457319,0.2072794,-0.2994848,-0.3801662,-0.3545668,-0.03253549,0.1797267,0.01225633,-0.2953471,-0.4647762,0.1445434,0.3278927,0.4471442,0.2294171,0.2235778,0.2336952,0.143558,0.1676677,0.3239191,0.5603141,0.2419614,0.205235,0.194955,0.07096316,0.1359887,-0.453865,0.3321584,0.3385525,0.3697303,-0.08979876,-0.3553117,-0.1433977,-0.2821293,0.1848002,-0.2458216,-0.1874387,-0.3078277,-0.4571082,0.1233145,0.4649475,0.3287589,0.0820541,0.2477868,-0.4874609,-0.2137232,0.7422357
-0.2390203,0.3152038,0.25064,-0.3428805,-0.07893715,0.1237407,-0.30072,-0.5305569,-0.01362909,-0.7328395,0.5551698,-0.0775193,-0.3394345,-0.09295411,-0.01419523,-0.1740495,0.2418628,-0.09674139,0.326281,0.1881635,-0.01779737,-0.08591913,0.08037237,0.3349214,-0.447948,-0.4150087,0.4652507,-0.4286332,-0.3401828,0.4227505,0.1781644,0.1747951,0.1857631,0.09274205,-0.5312413,0.4968907,0.1701079,0.3133892,0.1064993,0.4014266,-0.1497689,0.1302938,0.01398124,-0.1757304,-0.341979,0.3223231,-0.1510438,-0.2281213,0.2331767,0.195451
-0.7484468,-0.1920186,0.1932247,0.3010281,0.05764785,0.09714059,-0.4231817,0.09970457,-0.01817336,-0.5568658,-0.2465944,0.1687884,-0.147781,0.2731847,-0.7180056,0.2288599,-0.3458034,-0.16907,0.4048487,-0.2932966,0.9420295,0.2291172,-0.3449305,-0.3903919,-0.09796323,0.4148738,-0.02159711,0.3472008,0.1876553,0.2700697,0.009058689,0.2119325,-0.03039029,0.1964317,-0.00558456,0.2163612,-0.3452094,0.1713911,0.2487667,-0.4631369,-0.4016635,-0.2212087,0.5048045,-0.05028459,-0.1736728,0.4887327,-0.1666,0.3717409,-0.3147216,-0.08514774
0.2965071,0.1853451,0.009441453,-0.2956736,-0.2741242,0.2951508,0.2709341,-0.1956019,0.3641403,-0.4540553,-0.2372394,0.2016475,0.2153076,-0.2313749,0.1153493,-0.4206339,-0.2701234,0.2995428,-0.1941729,0.3887148,-0.02568443,0.2319278,-0.1841517,0.0730492,-0.384486,0.01991303,0.2742665,0.3728894,-0.2354419,-0.1396212,0.3302019,-0.2331805,0.4903865,0.01247892,-0.1820608,-0.3150029,-0.564849,0.08266211,0.2267546,-0.1848365,0.6222746,-0.2641005,0.3108379,0.4558165,0.2941918,-0.001335834,0.3521949,-0.07451801,-0.08720251,-0.4804204
-0.008871976,0.2052003,0.2122629,0.314992,0.03958863,-0.2984455,0.318997,0.2997188,-0.08021411,-0.01415327,-0.02910426,0.249899,-0.5363055,0.3817702,-0.2510732,0.2169753,0.3019488,0.8322977,0.2236047,-0.1526304,0.184654,0.004550576,-0.5609623,0.08167936,-0.282105,-0.08595204,0.4865184,0.1686798,-0.06423503,0.2955902,0.4010631,-0.05092109,0.1418321,0.1589046,0.1503104,-0.3508071,0.07507185,-0.4535612,0.1104419,-0.04499841,-0.242304,0.4548047,0.3589952,-0.4176759,-0.05124164,0.2554227,-0.4613932,-0.1243977,0.1937496,0.4246906
0.04392267,0.05470836,-0.2349571,0.1778314,-0.7317277,-0.02433568,0.009104294,0.3215044,0.302831,0.2098623,0.2150199,0.08253349,0.3810735,0.06305879,-0.4189087,-0.1740988,0.09538101,0.8644463,0.1171409,0.5035739,0.5709214,0.6729291,-0.2542581,-0.4653287,-0.01783684,-0.4254482,0.07900541,-0.3103018,0.2529559,-0.2173611,0.172054,0.2864381,0.4882504,-0.3955448,0.2109386,-0.4142061,0.6016124,0.1063479,-0.2642131,-0.6946188,0.2827193,-0.2302466,-0.3170902,-0.05349275,0.07088828,0.003393833,0.1617922,0.1552523,-0.1745628,0.08916662
-0.4900499,-0.107458,-0.5059651,-0.3564773,0.2915038,-0.1484205,0.3318892,-0.4486057,0.2700056,-0.01728024,-0.1055641,0.467254,0.3663405,0.6133541,-0.5857091,-0.4202989,0.4024565,-0.2096009,-0.4105055,-0.4866848,-0.1945449,-0.2720308,-0.244756,-0.3090788,0.4686603,0.4130979,-0.3322038,-0.06815653,-0.008952614,-0.2683654,0.3755206,-0.4192442,-0.2625817,-0.1009909,-0.1734683,-0.1125519,-0.2075628,-0.3264484,0.4206248,-0.2738129,0.03805503,0.008510308,-0.1233511,-0.4377075,0.138041,-0.1439835,0.019501,0.07748725,0.2963416,0.3396519
-0.1749308,-0.40102,0.5976653,0.3336721,-0.1377508,-0.2974588,0.168308,-0.01223471,0.02740904,-0.01576304,0.7976692,0.07258103,0.3400244,0.2601545,0.05755463,-0.1005963,-0.09876163,0.3189706,-0.3407262,-0.2728547,-0.03994382,-0.5605179,-0.3375317,0.3677297,-0.4456393,0.4368621,0.5160856,0.3408663,-0.0612104,0.08858257,-0.03976891,0.009452241,-0.08395224,-0.2166402,0.1477406,-0.2204755,-0.3561217,0.216037,-0.04726251,-0.3294498,0.06810978,-0.4288882,-0.1937249,-0.3689579,-0.3097028,0.3013144,0.1844469,-0.03870205,0.3068904,-0.0948384
-0.02909334,0.4370854,0.03498209,0.01261255,-0.489811,0.4665081,0.288129,-0.3994205,0.4849559,-0.4176096,0.378737,-0.2140703,0.1605591,0.1032952,0.0820455,0.2094221,-0.101014,0.373591,-0.4943126,0.2889562,0.4310299,0.5428886,-0.5830545,-0.1862459,-0.2466205,-0.217338,-0.1252176,0.7521087,-0.1053703,-0.1815853,-0.2246787,-0.4920121,0.4936579,-0.1552778,0.4533661,-0.3625243,-0.4879882,-0.5692042,0.349284,0.213158,0.4087232,0.4397951,0.4507553,0.2998864,0.3080843,-0.1994634,-0.1547435,0.04193392,0.4909745,-0.3874473
---
===
-0.04222209,0.1278695,-0.1512644,-0.07434997,0.2360356,-0.2624236,-0.0910593,0.3250653,-0.3346236,0.3320439,0.1133095,0.3728707,-0.1964969,0.4076954,-0.09826005,0.07358245,-0.4230007,0.1440298,-0.2045983,0.08926909,0.1880309,-0.103013,0.5686956,0.1499526,0.3920076,-0.5679552,0.3359983,0.4266634,0.04586563,-0.2779382,0.416698,-0.298427,-0.3400353,0.03169287,-0.5927964,-0.3658412,0.06403124,-0.3293044,0.5226687,0.4858511,-0.3032841,0.1926601,0.1363886,0.04100203,0.05401297,0.2450036,0.09641583,0.3336852,-0.101143,-0.1132928,0.4311688,-0.2303189,0.3767391,0.3877935,0.03529872,0.5857991,-0.01762148,-0.3419945,-0.3928685,-0.0217603,0.01480097,-0.6505893,0.3451824,0.3810826,-0.07854486,-0.007049241,0.2528445,-0.399977
0.1783851,-0.009073596,-0.4312759,0.3831611,0.5808894,-0.01082633,0.1603855,0.4391368,-0.08811313,-0.5266799,-0.07595792,0.1006359,-0.5146872,0.2339329,-0.2371172,-0.06608596,0.03520344,0.2055529,0.5944242,0.7673277,0.1747449,0.334731,-0.1218106,-0.6360388,-0.3567128,0.03198617,0.2856233,-0.2096685,-0.3965583,0.200346,-0.4559837,0.2416785,-0.01246507,-0.2178011,0.448285,-0.6162903,-0.6083973,0.3836396,-0.4940802,0.5342246,-0.07013974,0.2993535,-0.007358416,-0.03957055,0.06723994,0.1269702,0.2964758,-0.4163071,-0.5931811,0.1656656,-0.08706968,-0.02130281,-0.007780244,-0.255121,0.4041829,-0.3038875,-0.3693751,0.1150398,-0.1044977,0.4948982,-0.3785418,-0.2177992,-0.05930501,-0.1831777,-0.3498519,0.31094,0.2476673,-0.3320816
0.2593949,0.2870122,0.3921965,-0.2450645,0.4951096,-0.06353122,-0.06334694,0.5409535,0.5719082,0.5903509,-0.4758481,-0.0482425,0.3508996,-0.5074683,0.5179464,-0.3615097,0.3336035,-0.3802702,0.192788,-0.1330566,0.2338471,0.4778575,-0.09594139,-0.02963632,0.4652935,-0.6123292,0.3211303,-0.2603563,0.4758278,-0.1122314,0.2541662,-0.5763797,-0.3133376,-0.3455864,0.3970691,-0.09141539,0.4947599,0.4149502,-0.1143324,0.2446443,0.1726691,-0.2771738,0.3403707,-0.1349989,-0.2526364,-0.1776895,-0.4344645,-0.2466022,-0.01191796,0.2343871,0.02833665,0.2825269,0.150932,0.0113576,0.4094548,0.4631414,0.4839282,-0.07413232,0.2897119,0.6890901,-0.1666065,0.3879459,-0.1223368,0.75744,0.4252122,0.1414848,0.435885,-0.252219
0.05586691,-0.223641,0.1348801,-0.411131,-0.5182564,-0.1570972,-0.00577359,0.2188008,-0.207426,-0.3212767,-0.1084009,0.4718595,0.4793988,-0.3255672,-0.06642704,0.352311,0.06615729,-0.5452222,-0.5321622,-0.2374367,-0.1740898,-0.203882,-0.04947424,-0.1429936,0.446383,-0.5034574,0.2781041,0.326445,0.0312965,0.1510541,-0.362717,-0.2675653,0.2335373,-0.1397878,0.03674725,-0.3262661,-0.3919216,-0.2321399,-0.1095172,-0.001298974,0.4189389,-0.3314744,-0.2827243,-0.4774248,0.2629804,-0.06055273,0.3108745,0.3566363,-0.09024977,-0.2939102,-0.09610896,0.172147,0.7110431,0.1658373,-0.2300419,-0.4371698,0.5415838,-0.4856151,0.04110142,0.3768822,0.3079525,-0.3542965,-0.2175688,0.3490475,-0.3033576,-0.4834067,-0.5786567,0.1951622
-0.5473698,-0.4138573,0.2753213,0.185856,0.4719019,0.1036092,0.2534129,0.03417926,0.4119921,0.08946086,-0.04111408,0.0750128,-0.1642316,-0.2424884,-0.05666051,-0.05764038,-0.4668065,-0.1922668,0.3073734,-0.4563075,0.196515,-0.4168265,0.3578109,-0.4267655,0.05680187,-0.2089743,0.1493868,0.5102174,0.09134048,-0.1152798,-0.1828428,-0.2786333,0.5451366,0.2696607,-0.03067492,0.1217206,0.554334,-0.1570226,-0.2134859,-0.353205,0.3651005,-0.4194885,0.4525657,-0.5510722,-0.4426937,-0.04588761,0.07591462,0.08779382,-0.5218222,0.01558275,-0.5191309,-0.01469064,0.3893596,-0.271549,-0.08422879,0.4634532,0.41805,-0.4490343,0.4952984,0.07853957,-0.02031633,0.2547386,0.1371582,-0.1178366,-0.07698437,-0.1387194,-0.2301116,0.1522556
0.02736928,-0.5085707,0.09331666,-0.2514639,0.3304237,0.1309296,-0.2729695,0.1239227,-0.01632521,0.4172791,-0.1490958,0.005391161,-0.4623108,-0.215214,-0.1788947,-0.3198705,0.1046034,-0.459297,-0.5387172,-0.07654992,-0.2316321,0.1236173,0.0217019,-0.1676378,0.09349537,0.4013635,-0.3613118,0.0740834,0.330588,-0.3786851,0.4930297,0.5393821,-0.5119134,-0.2371377,-0.4698181,-0.1984336,-0.3593544,-0.2913297,0.3123059,0.4399831,0.2448566,-0.2475029,0.3002493,0.4862048,-0.2998413,0.3648637,0.2433666,-0.2449938,-0.1790934,0.7961219,0.2354236,-0.1891221,0.3152738,0.3625441,-0.3337182,-0.4308813,0.3922859,-0.127816,-0.4503049,-0.2967798,-0.4313098,0.2250195,0.1592082,-0.3779322,0.2310996,-0.06894803,0.6003684,-0.1039659
-0.5160221,-0.0990561,0.1964372,-0.4707651,0.05687245,-0.1382952,-0.06349184,0.2298763,-0.3358622,-0.3899509,0.2810068,0.4666441,0.3380008,-0.5728867,0.1061339,0.2130459,0.2586382,-0.06782722,0.1000854,-0.2775927,-0.2252221,-0.3747999,0.3399673,0.1308758,0.0218817,-0.5214609,0.2639307,-0.0749497,-0.2139044,-0.3235581,-0.2553222,0.1971579,0.2078961,-0.09171899,-0.04420736,0.3864921,-0.1970941,-0.09267043,-0.4136043,-0.04060131,-0.3798945,0.209357,-0.507933,-0.3237679,-0.1266256,-0.002932622,-0.3477023,-0.00382074,-0.01971678,0.3992096,0.3504133,0.3412624,0.1502749,0.276389,0.04758495,-0.5183988,0.09868624,-0.2690068,-0.4294035,0.107596,-0.2542805,0.5208354,0.2091159,-0.01600069,0.1345011,0.1777439,0.09801201,0.1512909
-0.2696626,0.2147497,-0.4393894,0.3472441,0.07165006,-0.4193558,0.1250371,-0.04165576,0.4465509,0.1445414,-0.06942938,-0.1431205,0.00966483,-0.4640712,0.3068385,0.08715583,-0.4363627,-0.2070278,-0.2907306,-0.1104352,0.5784352,0.006743349,0.02051044,0.2197203,-0.3203783,-0.2145175,0.2877582,-0.05936758,0.03304559,-0.3862217,-0.03927249,-0.0116886,-0.6052654,-0.2168324,-0.01079961,0.2369521,-0.259044,0.4898471,-0.4478853,0.433739,-0.03169664,0.2168438,0.2286762,-0.02116289,0.09455831,0.3601619,0.01103634,0.4161573,0.3028547,-0.2490216,0.4915452,0.3562464,0.136142,-0.1154268,0.4244289,0.01724133,-0.5668831,-0.2765616,0.2739361,-0.3301841,0.06874063,0.4236781,0.2131057,0.04046867,0.3245569,-0.3314616,-0.0864858,0.4776039
-0.3399084,0.04724639,-0.07476044,0.3075584,0.4403906,0.3674201,0.3670044,-0.3921079,0.387608,-0.2736802,0.4278567,0.01890244,-0.3517146,-0.5640102,-0.3673435,0.1924827,-0.3706872,0.5602224,-0.4545685,-0.3482888,5.38502E-05,-0.6954507,0.2648241,0.3125505,-0.5040581,-0.107758,0.1864059,0.1125434,0.5375831,-0.2682964,-0.2008709,-0.03883871,-0.5654862,-0.1568152,-0.09197373,0.06263088,-0.1139917,-0.261941,0.2867656,0.4702203,-0.1771758,-0.0160032,0.1123126,-0.1096039,0.3718346,-0.2748479,-0.2232931,-0.4444401,0.1397928,0.0282218,0.3021722,-0.1726597,-0.2481162,-0.181084,0.03349277,-0.2331456,0.1253366,0.1398736,-0.217648,-0.1126509,-0.1290418,-0.575535,-0.4332463,-0.3080094,-0.5494415,-0.4971427,0.3929397,0.4319195
-0.3418012,0.322935,-0.3577043,-0.7046626,-0.1049196,-0.2548798,0.2471182,0.3845497,0.4643581,0.09497906,0.04818495,-0.1865467,0.143603,-0.2993901,0.1220605,-0.166414,0.1488869,0.2070205,0.602347,0.1306875,-0.4115814,0.1877733,0.5024909,0.1854479,0.0375037,0.3485826,0.1911231,-0.2312228,0.112981,0.0329355,0.2916548,-0.5802823,0.06816306,-0.3837478,0.5188639,-0.2853551,-0.3307779,-0.1992332,0.23888,-0.4243599,0.05174375,-0.2525013,0.08232484,0.06299024,-0.1268808,-0.1996032,0.3212173,0.8665546,-0.2799603,0.2849976,-0.2169355,-0.1765931,0.1803107,0.2570217,0.3988219,0.2982497,-0.3048555,-0.01871799,0.4635965,0.2963471,-0.1121038,0.4799389,0.1733063,-0.4825362,-0.4932058,-0.0780135,-0.1922054,-0.4573741
0.0441747,0.4787899,0.3518678,0.4550621,-0.2005561,0.3468883,0.7271801,-0.6343351,-0.2211192,0.5838508,0.08630639,-0.1194708,0.1353751,-0.197406,0.4357154,-0.03184126,-0.3256326,0.07198546,-0.4778622,-0.2296225,0.5285301,0.3731803,0.3156119,0.4021596,0.05053193,-0.03896187,0.3371753,-0.1137132,0.07537864,0.2488138,0.2374792,-0.1014215,0.2667468,-0.4432292,-0.4654453,0.5369903,-0.3065475,0.1375561,0.4100031,0.2801656,0.2060416,0.3877568,-0.4754566,0.7664732,0.1936362,-0.0770014,0.2713284,-0.3807254,-0.4454659,-0.4087257,-0.658217,-0.1282502,-0.4544501,0.4360344,-0.4555506,-0.3785283,0.3402634,-0.4399635,0.3467346,-0.2776513,-0.2879953,-0.03518583,0.132076,0.709433,0.311523,-0.02300325,-0.09836938,-0.2042117
-0.4560442,0.1775569,0.1791737,0.3421019,-0.3282024,0.2222048,0.1781775,-0.02654527,-0.4370448,-0.3191314,-0.370016,0.8592957,-0.377509,0.4967742,0.5288491,0.2609014,-0.5172529,0.4602057,0.2501281,0.4015891,-0.3830581,-0.03594145,-0.08929928,0.1807301,0.2402414,-0.1260783,0.09248638,0.4044235,0.4324556,0.3316566,0.1569339,0.000305091,-0.1521247,-0.4146873,-0.1860911,0.3863928,0.2027731,0.4313753,-0.05887828,-0.2466409,-0.2368119,0.07351413,0.2094696,0.3547153,0.05834015,0.01651822,0.1031935,0.0220231,-0.01876291,0.3260796,0.05477959,0.3242235,-0.07931817,0.2091476,-0.2519497,-0.4283727,-0.4820186,0.2242541,-0.2530294,0.02777619,-0.3993236,-0.15205,0.4450413,-0.4094482,-0.01199958,-0.2708449,0.0975633,0.02491871
0.325954,0.0791911,0.1351056,0.3698727,0.5165225,-0.2413675,0.2673983,-0.2090936,-0.1911689,0.2262373,0.1045344,0.08167936,0.004719118,-0.3249543,0.09075055,0.1967173,-0.2904364,0.4902093,-0.2063702,0.3024865,0.3555247,0.3827286,-0.3178441,0.1522765,0.001680818,-0.5928052,-0.01927871,-0.07986511,-0.5124442,-0.2605682,0.3775584,-0.1054388,-0.0351833,-0.5107665,-0.2071752,-0.03284572,0.1798641,0.2849883,0.1355843,-0.1351052,-0.1292442,-0.1288972,0.1286258,-0.06993613,-0.220094,-0.4839264,0.5674061,0.09432576,0.003513427,0.4017413,0.4097671,0.08965012,-0.2583553,0.5446329,0.2030227,0.2389128,0.03200885,0.115555,-0.05403815,0.2947915,-0.3187124,0.08928018,0.5929207,-0.1763189,0.2258714,-0.1084895,0.1922629,-0.4868113
-0.2858922,-0.1476196,0.7452269,-0.8068244,-0.3478121,-0.2658035,0.2829135,-0.4710108,-0.08661532,-0.1367779,-0.1571114,-0.04645178,0.305807,-0.04627292,0.3014391,0.4209146,0.2111621,-0.4301501,-0.1127059,-0.3081742,0.2671737,-0.3997515,-0.7139031,0.1242429,-0.05146187,-0.07112437,0.1232654,-0.1699242,0.2417735,-0.4200854,0.2200664,-0.1416192,-0.1751776,0.08654007,0.1845712,0.3208085,-0.1180372,-0.2869755,0.06615249,0.3623288,-0.06552827,0.2976673,0.4401353,0.5559787,0.4154739,0.2754712,0.04377109,-0.1778428,0.3495715,-0.03417878,-0.04634648,-0.4006449,0.1497762,-0.2175601,0.01947454,0.5158767,-0.5305271,0.3381015,-0.02873834,-0.3438266,0.4013546,0.4481814,0.07785553,-0.06699653,-0.2188721,-0.4039257,-0.3865514,-0.04950606
0.3192618,-0.2468129,0.3809983,-0.2674366,-0.3589969,-0.3819546,0.330322,-0.3018718,0.326106,0.09167059,0.1382508,-0.01240557,-0.04258686,-0.4322286,-0.3961282,0.04695633,-0.1070456,0.2317092,0.4420503,-0.3989756,0.003542497,-0.3618835,-0.3915699,0.2459278,-0.393686,0.1678463,0.1268228,-0.4415599,-0.3542667,-0.3084705,-0.03840278,-0.05866393,0.2681988,0.008605985,-0.4527262,-0.356191,0.1604987,0.1692851,0.1133393,0.1200918,0.2097159,-0.2708656,-0.1288845,-0.1235467,0.1934167,0.3885067,0.01636111,0.41551,0.2441483,-0.3236705,-0.164794,0.4997866,-0.3701715,-0.2719001,-0.4365374,0.2128659,0.06019421,0.2285875,-0.0662012,-0.4384575,-0.4271463,-0.1562332,0.1800377,0.3127033,0.2513521,-0.3578426,0.07559377,0.2228615
0.3449673,0.7347819,0.1076076,-0.4362616,-0.05201329,0.5964927,-0.2195568,0.2871697,0.4500737,-0.09794854,0.1956361,0.1416923,0.577247,0.1894723,0.4101976,0.1444881,0.635305,0.2462031,-0.3033419,-0.4365977,0.140654,-0.4047243,0.3254474,-0.6488881,0.4139666,0.5093967,-0.4356777,0.2817941,-0.4397256,-0.1056398,-0.4561432,0.133389,-0.6382132,0.1341663,-0.4073636,-0.3233078,-0.02731629,0.01473621,-0.4547648,0.2223967,0.400614,0.1945651,0.2374531,-0.4498375,-0.07523035,0.4312941,-0.4338087,-0.01425631,0.5041444,0.1523387,0.2982043,0.1527995,-0.1350545,0.1249548,0.007804426,0.1272425,-0.2709658,-0.06495938,-0.4956347,0.4965432,-0.3926578,0.2595192,0.4146884,0.02099967,0.2276583,0.3720333,-0.7728921,-0.2261741
-0.2714309,0.1555618,-0.2120388,-0.4560016,0.4656303,-0.003823687,-0.2436395,0.4317026,0.1661645,0.1073455,0.3082697,-0.2460607,0.05389528,-0.1655205,-0.5137225,0.5312777,-0.009857816,-0.2947786,0.3952314,0.3963048,-0.3907256,-0.06908835,0.01712905,0.008579117,-0.2126228,-0.3708067,0.1412109,0.2419478,0.401887,-0.3030027,-0.2241416,0.1578666,-0.3072888,0.1477248,0.20587,-0.3395043,0.4179952,-0.1727476,0.00811054,-0.5690092,-0.3621738,-0.09159943,0.0196066,0.5669357,0.4553723,0.09473172,0.1589612,0.4604792,0.07626838,0.3821741,0.1334144,0.4244013,-0.2540755,0.1310511,-0.004929488,0.2090857,0.411898,0.2912002,0.7041001,-0.1828,0.08128925,-0.2643109,0.0600883,0.08861764,-0.1437545,0.6743391,-0.8330375,-0.169712
0.778347,-0.5669726,-0.6420118,-0.6648276,0.07786821,0.3717598,0.02527443,-0.3823183,-0.04671618,-0.08113568,0.2412041,-0.09850237,0.07901599,0.2657367,0.1167113,-0.3550207,-0.3010166,0.1249175,-0.04968989,0.5674978,-0.03830432,0.008387613,-0.2032081,0.2375423,0.1225266,0.1130594,-0.4191047,-0.060314,-0.7799647,-0.0005007846,-0.3278602,0.005673477,0.3216143,-0.1040418,-0.127914,-0.3076028,0.7356488,0.397272,-0.1918363,0.07688809,0.2151705,-0.4080693,0.5258152,-0.2230753,0.2480363,0.4442086,0.06794166,-0.2115261,-0.05645048,0.3716,-0.007446578,0.08525281,-0.4592203,-0.5237808,0.3756066,-0.316743,0.1870419,-0.4591313,-0.2547861,0.2891238,-0.04452475,0.4725445,-0.04710221,0.05270467,-0.5148358,0.02925624,0.3388423,0.3806475
-0.1439413,-0.09173208,0.2822332,0.3457794,-0.0439056,-0.165747,0.3091607,-0.2079578,-0.457289,-0.6043372,-0.2498275,0.2844163,0.1330544,0.275548,0.09092151,0.3973523,-0.1239738,-0.3334062,0.2019348,-0.4978923,-0.2847681,0.3311137,0.08905851,-0.2151268,-0.07941698,-0.3336298,0.8475976,0.3425858,0.5039091,0.2875073,0.3607138,0.5871537,0.4688901,-0.2248063,-0.5488212,0.4534442,-0.1915055,-0.04565682,-0.07156259,-0.06836765,-0.01694926,0.329805,0.352704,-0.1521974,-0.2389145,-0.03877488,0.5347989,-0.3792401,0.07723581,-0.4912372,-0.06459696,-0.2747684,-0.04840815,0.1641691,-0.3202329,0.04719742,-0.3555862,0.2426611,0.004369641,-0.6169771,-0.4886167,-0.1549156,0.4150324,0.4635203,0.1850113,-0.01066135,-0.6078264,0.3948846
0.2054995,-0.3123832,-0.2564869,-0.2426802,-0.3740461,-0.8851594,0.3768189,0.1624254,-0.2720451,-0.02524194,0.4709651,-0.3966126,0.1009283,-0.03329514,-0.5350634,0.0909301,0.09887557,0.1859556,0.06712875,-0.3228309,-0.4195498,-0.004885541,0.1258094,0.5930858,-0.2294233,0.4061635,0.1827659,-0.2498832,0.4552293,0.2162748,0.3576865,0.5517946,-0.00933907,0.2151033,0.1849217,-0.2118827,0.5711751,0.4075013,0.5106806,0.06133872,-0.1470985,-0.4201958,0.1062671,-0.2503012,-0.4919845,0.3732767,0.4428498,-0.4739852,-0.02493857,-0.2387455,-0.1504445,0.4263667,-0.06056147,-0.1317576,0.2679467,0.1357429,0.2741732,-0.3526252,0.02817802,0.1169169,0.3104107,0.07597799,0.2971191,-0.1284775,-0.1651858,0.2862818,-0.5559713,-0.4588641
-0.4916898,0.2996848,-0.3924227,-0.3488331,0.3186742,-0.3379873,-0.009224566,0.6933743,0.2777382,0.3632977,-0.5620857,0.3814584,0.1414151,-0.3441247,0.3979259,0.5340879,0.4375068,-0.1997545,-0.1176442,0.6554974,0.1864441,-0.4509875,-0.002156907,-0.03239941,0.02808951,-0.1014864,0.3211617,0.1240374,-0.0864239,0.1645571,0.4894761,0.3450717,-0.1056914,-0.09876002,0.2530254,0.5755684,0.5120559,0.1496585,-0.06856424,0.3084289,0.1240266,0.1042635,0.2216015,0.2476215,-0.02290136,-0.2400534,-0.01688103,-0.1942404,0.4441785,-0.3814044,-0.16795,0.4711772,0.2469297,0.01320905,0.09966067,-0.2593015,-0.1030435,-0.09330367,-0.4010277,0.2981702,0.4817374,-0.1739087,-0.1538063,0.5379659,-0.4147471,-0.340013,0.07401676,0.1841551
0.1203845,0.06475724,0.003552578,-0.3623273,-0.3626924,-0.04018273,-0.1004378,0.2572039,0.3495287,0.01248806,-0.1317267,0.5566158,0.4935768,-0.05619995,0.3556293,-0.1508799,-0.1842696,0.1162917,0.214984,-0.4599018,0.3877673,-0.2078994,-0.2879031,0.2684633,-0.3864064,-0.2320239,-0.08318539,-0.2693862,-0.4073336,-0.1420249,0.216691,0.1749661,-0.228501,-0.1172539,0.08660262,0.5016578,0.2341098,0.4486496,0.1720371,-0.0108256,0.04999809,0.4728555,0.2100471,0.4108923,-0.4404779,0.1983897,0.1967377,0.4304032,0.1744151,-0.3579516,-0.3329488,0.4532201,0.2253536,0.228473,-0.2410773,0.07524115,0.1181968,-0.4524839,-0.2106218,-0.1866074,-0.1433323,0.1906324,-0.4525243,-0.2311402,-0.3169748,0.1284824,0.4256343,-0.420416
-0.2255956,0.2486873,0.2275683,0.3393162,-0.3575417,0.2255943,-0.5236935,0.4992899,0.1124028,0.2013426,0.1686561,0.5027919,-0.3794621,-0.2382604,0.4462237,-0.3654157,-0.2914429,-0.02713712,-0.1500255,0.04767687,0.4616802,0.03368362,0.05925635,0.4317929,0.04261163,-0.5417168,-0.4798246,0.1477335,-0.2720566,-0.06130251,-0.0858805,0.1774714,-0.3270935,-0.1635457,-0.4496089,0.337832,0.03542698,0.3131351,0.02898875,-0.3366271,-0.1951635,-0.4681487,-0.4451103,-0.6603729,0.3261952,-0.2424753,-0.084038,-0.4714795,0.05806167,-0.4023988,-0.165301,-0.07603262,0.2951862,-0.04756103,0.1270775,0.1730987,0.5241513,-0.07495432,-0.2256213,-0.3683929,-0.1347229,-0.3646746,0.5563205,-0.4352152,0.2452963,-0.1483272,-0.276568,0.6211687
0.1730955,-0.1917472,-0.4011768,0.4573748,-0.28974,0.317106,-0.3395842,-0.3306226,0.4766573,-0.1562876,0.05360908,0.350436,0.2012333,0.2675076,0.3143287,-0.05765647,0.1208972,-0.3732075,-0.3206066,0.08382479,0.3093203,0.1112489,-0.1117309,-0.1926985,-0.06285799,0.05279335,-0.5522776,0.09526589,-0.03723818,0.5402082,-0.4225341,-0.3009627,-0.2116511,0.217823,-0.5015921,0.5799401,0.1242543,0.4780968,0.47786,0.363126,-0.6666402,0.5490248,-0.5935491,0.02671488,-0.337888,0.2046944,-0.1707529,0.01454862,0.2915684,0.5417717,0.3604715,0.005922416,-0.5806913,0.04979488,-0.2148619,0.03892369,-0.5436175,-0.2190916,0.3512081,-0.4764712,0.04781391,-0.1457312,-0.1478799,0.1191278,-0.1285662,0.2555428,0.07389421,0.2085997
0.7374312,0.1737899,-0.06540486,-0.06168551,-0.3410771,-0.07704685,0.4606573,0.0005645831,0.2872903,-0.2276367,0.5170041,-0.0794578,-0.33835,0.2651188,0.4226235,0.09024222,-0.1572919,-0.5003824,-0.2212642,0.4417236,0.1245884,0.3887711,0.5637903,0.5982328,0.28402,0.2209028,-0.1847422,-0.4550989,0.4683649,0.3277699,0.3934788,-0.2803738,0.1297688,0.02104567,-0.2471706,-0.3240859,-0.4044063,0.2895759,-0.4536539,-0.4553154,0.1465206,0.3048519,0.08892707,0.2535582,0.2806982,0.361851,0.392978,-0.1256317,-0.1020182,-0.4515151,-0.06672616,0.2809781,0.08226427,0.03309754,0.53877,-0.4857872,0.0521092,0.591484,-0.4522061,0.2825027,0.06236445,-0.1717646,-0.1521949,0.005077664,0.06260078,0.1399093,0.5778216,-0.05536318
-0.2519624,-0.03368728,-0.1772202,-0.4068232,-0.1985919,0.2746548,0.2306166,-0.2123792,-0.2569914,0.09684776,0.3629103,-0.612498,-0.09015603,-0.433485,-0.1816749,-0.312022,0.2048873,0.3031821,0.0556652,-0.1414484,0.2577396,-0.2456458,0.06922112,0.4070664,-0.2280777,-0.1858014,0.03123853,0.01548868,0.3038663,-0.177106,-0.09811105,-0.272516,-0.4259028,0.3878801,-0.5571893,-0.1206862,0.4965131,-0.2474466,0.2183605,0.6227918,0.1812783,-0.3328001,-0.2352327,0.08496714,0.1645104,0.5465149,0.07870054,0.208153,-0.4036529,-0.2703585,0.08305894,0.2709868,0.4661495,-0.2093006,-0.4569916,0.417812,0.01004214,0.1848936,-0.2455763,0.2509996,-0.4412513,-0.2846256,-0.005683046,-0.4231632,0.5773699,-0.1963495,0.2894363,-0.1283534
0.02339455,0.02315603,0.3181818,-0.3047639,0.05265576,0.2775369,-0.1991286,0.3292856,-0.1800755,-0.1465218,0.3676787,0.2410467,0.1259301,0.3066381,-0.3714037,0.06175325,0.3623336,-0.04703531,-0.4809719,-0.4040629,0.02702709,0.2594427,-0.09812868,-0.4182693,0.2965695,-0.3653306,-0.3131467,0.1049651,-0.02522483,-0.1160469,-0.381345,0.2161488,-0.4124244,-0.3920529,-0.08816676,-0.2824081,-0.06607816,-0.01347822,0.1600741,-0.04057101,0.4357496,0.5516932,0.281445,0.2767411,-0.2428348,0.3968525,-0.03828619,0.215775,-0.3343438,0.0006932889,0.09347582,-0.09456382,-0.1916463,0.2583927,-0.3743481,-0.5456203,0.3950713,0.2784568,0.3013731,0.1213874,-0.2862642,0.2608587,-0.1529014,-0.08282145,0.1185498,-0.1947202,0.01682252,0.2475097
-0.3499666,-0.1597443,-0.3323244,-0.1505758,0.6232849,-0.4571043,-0.1736092,0.4995887,-0.388255,-0.1620328,-0.3199363,-0.06204857,0.005499791,-0.1146641,0.2390653,-0.1791024,-0.3219717,-0.2500057,0.6484644,0.4333098,0.1338114,0.1453386,-0.3664758,0.3416049,-0.4687941,0.2622273,0.2965343,-0.08663832,-0.1708671,0.4213551,0.2355895,-0.4687435,0.2545003,0.04321568,0.4821355,-0.307611,-0.07384222,-0.1679901,0.2571443,-0.4229093,0.06533825,-0.07955213,-0.6454036,0.296542,0.07600601,0.1035796,0.4419489,0.1334345,0.3754951,-0.1023765,0.2998228,-0.06338704,-0.5598165,-0.002640876,0.1957475,0.02322616,0.3781703,-0.1301599,-0.007453649,0.3035288,0.306277,0.4850562,-0.3398361,-0.3000208,-0.3624679,0.2148269,0.3805402,-0.03718947
0.3134411,0.03611901,-0.5125698,0.3128191,0.4079618,-0.3280772,-0.0633291,0.2076739,0.1622779,0.01504284,0.139108,0.4282185,0.4515543,-0.585066,-0.1004683,-0.5248297,-0.4640664,0.1990827,0.0816083,-0.4967071,-0.4512985,-0.2508051,0.1550213,0.1441827,0.4633993,-0.2017885,-0.08664317,-0.5374873,0.01892417,-0.1242123,-0.2457553,-0.06822564,0.1899739,-0.2098862,0.3932429,0.1043012,0.300888,-0.1399624,-0.05876563,-0.4662029,-0.3874493,-0.5372018,-0.2667567,-0.2824794,0.07060593,0.3325098,-0.2727555,-0.6830155,-0.3352134,-0.2009874,0.3763478,0.1462293,-0.1565221,0.09229463,-0.3423968,0.1453788,0.3181758,-0.220477,-0.2132775,-0.4247292,0.158062,0.02296169,0.1994871,-0.1561341,-0.08060981,0.3538638,-0.1090778,-0.2070365
0.285362,0.5699573,-0.3378088,-0.5724979,-0.4320022,-0.7224351,-0.3016905,0.2537172,-0.1005893,0.2170052,0.02937706,0.463383,0.4904043,0.06221303,0.0398882,-0.3450789,-0.2176293,0.3102047,-0.3925658,0.2558871,-0.2164943,0.02154673,0.01745182,-0.552475,0.4563365,0.2419345,-0.1808188,-0.08195956,0.4529929,-0.1481891,0.0596422,-0.2477669,0.4374473,-0.1317264,0.05793788,-0.342119,-0.3400238,-0.2770837,-0.1420236,0.0618937,-0.6072398,0.4677735,-0.2120683,-0.3201859,0.4945057,0.1876803,0.2717195,-0.05889037,0.5436631,0.05915282,-0.004597662,0.4236551,0.3979925,-0.2771332,0.3008009,0.09644758,0.2556892,-0.3821248,0.4559706,0.2397977,-0.5112208,0.06472199,0.08634641,0.03583833,-0.4738225,-0.009159378,0.3352455,-0.0943704
0.3051042,0.4026894,-0.244289,0.0102989,0.01085655,-0.6117736,-0.4517415,-0.5230974,0.07450512,-0.3227933,0.06639936,-0.3983841,0.1578058,-0.3000876,0.6183681,-0.469839,-0.1333849,0.5103915,0.2586718,-0.2264147,-0.4657211,-0.399675,0.1070557,-0.4527245,-0.2031235,-0.207552,-0.3373467,-0.01212383,0.4689406,0.1315317,-0.3008636,0.3183509,0.2041964,-0.2515763,0.01126481,0.3102278,-0.1591271,-0.2552045,-0.3604195,0.3314761,0.1231912,0.2552584,-0.2850935,-0.03200109,-0.1961407,-0.3041101,0.1598982,-0.229989,0.4553261,0.2118604,0.2971509,0.3759325,-1.033597,0.3094242,-0.3380955,-0.3069485,0.1432478,0.07582215,0.268906,-0.3614468,0.009256635,-0.4525398,0.003983679,0.2212993,0.4986365,0.5380815,-0.4529702,0.04165695
-0.3937266,0.3173598,-0.08840825,-0.05023322,0.6056632,0.4645722,-0.144754,-0.2597622,0.5838775,-0.1557156,0.08672042,-0.3581942,-0.3212165,-0.05612227,0.4543966,-0.0173892,0.2628388,0.4163697,0.02791817,-0.3125803,-0.09428039,0.01980595,-0.08445328,0.08393397,-0.4112215,-0.2805244,0.2135127,-0.5207379,0.1483126,0.5581387,-0.6349601,-0.05036059,0.4192357,0.3447432,0.2415461,0.691327,0.4829705,-0.1017281,0.4749952,-0.2843484,-0.3600347,0.06427334,0.1012716,-0.05570455,-0.23121,-0.3299257,-0.1749363,-0.1168063,-0.1361611,0.1069909,0.4976,0.3629951,-0.4358145,-0.2287079,0.4361621,-0.2785653,-0.2352002,0.3238518,-0.2347082,-0.4636196,0.006295594,-0.2663753,0.5282272,0.1973817,-0.2022773,0.03369687,0.1259333,-0.158955
-0.1371063,0.4668773,-0.2991,-0.3160669,0.1889915,0.0671085,0.4975283,-0.1155766,0.2510834,0.2397213,0.0898645,-0.3450142,-0.3322765,-0.2182759,-0.01470937,0.03667103,0.3994615,-0.3263517,0.6042141,-0.2973856,0.1294989,0.5426462,-0.07798596,0.2110407,-0.06642512,-0.3447139,-0.01272184,-0.3784088,-0.1606507,0.06172513,0.2346887,0.07532502,0.2616083,-0.2813007,-0.004347766,0.07651057,-0.4377109,0.06936768,0.2446095,-0.3584937,0.1431194,-0.5458348,-0.06600844,0.5471819,-0.1128423,-0.3880838,-0.1685508,-0.002234059,-0.3180862,0.1238419,-0.4010009,0.3121622,-0.1174332,0.2600862,-0.1659843,-0.6067985,0.01098697,-0.5628345,-0.1951365,0.02178057,-0.4837137,-0.009236475,0.4530704,0.1696747,-0.2513003,0.3146188,-0.1851126,0.3955625
0.1019629,-0.2110287,0.3256067,0.007647079,0.1839308,0.1379734,-0.06027238,0.1299435,0.5650184,-0.1803236,0.02840438,0.5851564,0.2555265,0.1114017,-0.529708,0.003686522,-0.3412386,-0.1468688,0.2253736,-0.2576056,0.3586296,0.1153773,-0.4755269,-0.01352444,-0.01203709,-0.4766488,-0.3994013,-0.3762352,-0.3724063,-0.7468378,0.07414415,-0.2074597,-0.2804122,-0.1756716,-0.02501018,-0.6551018,0.1491867,0.3563619,0.02747656,0.4774442,0.3767447,0.02610159,-0.2092478,-0.1154597,-0.02315704,-0.07541993,-0.02843735,0.4219736,0.05718435,0.07914733,-0.2630632,-0.3765135,-0.1227475,-0.02086481,0.2518714,0.5355487,-0.04417071,-0.5393344,0.2307037,-0.08170582,-0.1079649,-0.1787593,0.504988,-0.416222,0.3801869,0.0007184448,0.3508161,-0.5892583
0.522227,0.1918049,0.471397,-0.1061593,-0.1902828,-0.1505196,-0.1222638,-0.4333132,-0.4618942,-0.3871831,0.4603676,0.0964792,0.1201846,0.003471496,0.04365016,-0.0203192,0.3014385,0.08192386,-0.3731166,0.1715585,0.1538667,-0.203239,0.2945236,-0.06078011,0.01518348,0.3013321,0.01946013,0.2239562,-0.2991352,0.3079957,0.09258334,0.5742444,0.1869467,-0.1810815,0.01325245,0.2923019,-0.3435037,0.3830242,0.4593255,0.2611883,-0.3454054,0.2589456,-0.0899375,-0.3522485,0.365394,-0.1119286,0.04349658,0.04051704,0.2522948,-0.4012737,0.1015335,-0.2523982,0.3619753,-0.2621249,0.2021279,-0.03871035,0.33766,0.4578138,-0.3674209,-0.1344593,0.2852521,0.1620576,-0.1527075,0.3622871,0.1991725,-0.2747904,0.4084403,-0.005726819
0.01011457,0.6347088,-0.2882303,0.1877967,-0.4059605,0.550853,0.02982845,-0.0657076,-0.05582664,0.2471783,-0.06758715,0.3918939,-0.5335572,0.5695043,-0.4130236,-0.2766495,-0.4131801,-0.3717392,0.3433331,-0.2617156,0.150033,0.3733989,0.415588,0.00750971,0.5192072,-0.1850879,0.3947726,0.2203844,0.2765899,-0.2213593,0.2013445,0.08280823,-0.3357461,0.221048,-0.189072,0.1320193,-0.1596831,-0.002608954,-0.3252256,0.3095376,0.4004588,-0.1079257,0.4436868,0.3545509,-0.1338481,-0.3451591,0.06804456,0.5174499,0.2193109,0.4786832,0.59505,0.3336039,0.1373979,0.03305935,-0.1488895,-0.3102678,0.1446274,0.5033039,0.03776752,-0.05421327,-0.2881441,-0.02578203,-0.1078302,-0.2439858,0.08632276,0.2353452,0.3506427,-0.3244211
0.1943508,-0.06039546,-0.08641013,-0.04681462,0.5451699,-0.09406741,-0.9585051,0.0528974,-0.111008,-0.04576351,-0.3209472,-0.2038874,-0.3294306,-0.4260073,0.07964877,-0.03727659,0.372759,-0.05398625,0.4066921,0.2565892,0.4912663,-0.3104614,-0.391161,0.3279248,-0.1268461,-0.06789378,-0.2584241,0.244727,-0.6390368,0.3501495,-0.174712,-0.289023,-0.05703847,0.1707751,0.2810632,-0.0002299177,0.3407345,0.526782,-0.4635312,0.05509758,-0.07458758,0.1195741,0.3579084,0.1063071,0.1263855,0.6181813,-0.1942354,0.2024343,-0.1964651,0.518461,0.009935468,-0.3279683,0.3548153,0.305594,-0.4307736,0.1614818,0.3145484,0.02547691,-0.3614044,-0.07675017,-0.2859833,-0.0977378,-0.2817742,-0.1395349,-0.2443148,0.1683595,0.197868,-0.01296365
0.3108206,0.2149276,0.262499,-0.1109602,-0.2047203,0.4542099,-0.564679,-0.1926285,-0.3022335,0.5285332,0.2362992,0.2672458,0.08375831,-0.2180813,-0.5330019,0.1588625,0.2837593,-0.439512,-0.1230422,0.2235543,0.03043872,0.2310059,0.09845573,0.3982457,0.6621791,-0.1803667,-0.2300277,0.1334017,-0.08346356,-0.4766815,-0.2355224,0.03157289,0.216311,-0.09491188,-0.07196055,0.1852265,0.1461488,0.1429333,-0.0001769562,0.34256,-0.04280134,-0.0953756,-0.2938863,0.06573364,-0.02147917,0.7443528,0.02262173,0.3167,0.09880809,0.4098209,-0.2005911,-0.3762186,0.494702,-0.00267194,0.03173848,0.190839,0.3699127,0.5491148,0.4267186,-0.4056349,0.2184616,0.1199017,-0.2405066,-0.3881872,0.1094144,0.3974292,0.002608184,-0.1315074
0.1605893,0.2105808,-0.358813,0.09873219,-0.1320037,0.2653802,-0.1225014,0.04567369,0.1408377,0.1928457,-0.36795,-0.6622102,-0.3557829,0.1959928,0.1008819,0.1883934,-0.1164979,0.05693506,0.4441741,0.3208475,0.4913459,0.4619357,-0.6263029,-0.1613616,0.1977478,-0.108932,-0.07759358,0.5987568,0.2870035,0.1885473,-0.009696765,-0.3928327,0.447194,0.2097032,0.3447523,-0.236405,0.09758858,0.3268211,-0.1997395,-0.4382443,-0.21379,0.1400076,0.006316142,-0.1599841,0.3223881,0.1288287,0.3135769,-0.1339438,-0.05012286,-0.02020103,0.07917981,-0.4590096,-0.404267,0.1346448,-0.4659782,-0.9857277,0.3826655,0.527347,0.4680773,0.1352705,0.3503175,-0.07776123,0.01325374,0.0943428,-0.07589582,0.4076485,-0.3112458,0.4254615
-0.4577019,-0.1356211,-0.03890787,0.005630131,-0.240888,0.4552032,-0.7032257,0.03249406,-0.394882,0.4878776,-0.2606895,0.3048862,0.227451,0.08246163,-0.1005436,0.227742,0.2153607,0.2457665,0.1979931,0.187308,-0.1521188,0.1265429,-0.5140468,-0.3723986,0.419628,-0.2900684,-0.1358927,0.08696143,0.2824612,0.2798522,0.1969579,0.1243808,-0.5228006,0.3553747,-0.04079487,0.04788994,-0.02042796,-0.216528,-0.246636,-0.009518622,0.3499475,-0.2536465,0.4309605,-0.4656616,-0.06110782,0.3785909,0.4532626,0.3491769,0.04083633,0.5437365,-0.1549868,0.6090429,0.2858512,0.3782031,-0.387573,-0.495544,0.7497363,-0.5035344,-0.02433564,-0.119014,-0.4839952,0.188211,0.1712324,-0.3050808,-0.4470251,-0.2842714,-0.8345971,-0.112318
0.7015195,0.2563497,-0.2045287,0.04162333,0.127217,0.15774,-0.5526654,-0.1812305,-0.07236139,0.3049924,-0.2944144,-0.2127701,0.1480403,-0.1171837,0.4842268,-0.1131294,0.3560335,-0.07730998,-0.1705158,0.01042438,-0.3512762,-0.04379432,-0.2903481,0.08908518,0.2670006,-0.2109135,-0.06578194,-0.6187072,0.2991515,0.4762323,0.089656,-0.3322425,0.08522228,-0.04579509,-0.5850388,0.3036689,-0.4020498,-0.3164754,-0.2039869,-0.3801158,0.08384487,-0.05504761,0.2488946,0.2677006,0.1735072,0.4843008,0.3735746,-0.4977145,-0.06052394,-0.3292881,0.1223215,0.3867037,0.2112386,0.4804074,0.2634121,-0.3157661,-0.08136895,-0.2357389,0.05958289,0.09275126,-0.322198,0.1602067,0.08216662,-0.3158136,-0.1304597,-0.05973937,0.1669237,0.04353977
0.4526079,0.01416227,-0.02994569,0.1806239,0.1250851,-0.4289498,0.2072832,0.01130368,0.006621027,-0.2022341,0.05878354,0.2236963,0.2620314,0.06442519,0.4375499,0.6109728,0.188479,0.4501356,0.1359687,-0.3657311,-0.3813195,0.08586699,0.3381311,0.115155,-0.2985548,-0.4332171,0.3229141,-0.3872159,0.02920505,-0.2108519,0.3979203,0.2850539,0.5323131,-0.4390891,0.380934,0.002482024,-0.380384,0.3842421,0.2831037,0.3909457,0.5282439,0.4121034,0.4329017,-0.03457053,0.1011988,-1.251957,-0.07185256,-0.2801453,-0.6362762,0.1038148,-0.3810191,0.478539,-0.002587075,0.03521049,-0.0533949,0.06189376,0.0272522,-0.09351669,-0.1074371,-0.277419,-0.03825456,0.4754518,0.1036105,0.1981915,0.07673752,-0.2429938,-0.2074565,0.05170117
-0.2121404,0.484114,0.3856281,0.4238705,-0.405788,0.1274786,-0.1291108,0.1271011,0.1690892,0.2504908,-0.4995183,-0.4364229,-0.379513,0.06013524,0.4356151,0.1775238,0.4608622,0.06772628,-0.06159448,-0.179034,0.01657696,-0.4287151,0.2896737,0.07173411,-0.3241399,-0.150904,-0.3363872,0.06468428,-0.2421872,0.3640989,-0.3495746,-0.4028166,0.1060545,0.2012634,-0.4340734,-0.5446543,-0.2656657,-0.09065273,-0.3455187,-0.5110492,0.2644928,-0.3134259,0.1215471,-0.4051982,-0.2977052,0.07061949,0.2417902,0.03230363,0.415532,-0.04123288,-0.114118,0.5003743,0.1683211,-0.1389169,0.008378228,0.130055,-0.3123686,0.2664637,-0.01204073,0.0998446,-0.01686675,-0.9319257,-0.5621235,-0.2573054,-0.398352,0.2394936,0.3958959,-0.2145682
-0.08411266,-0.07840531,-0.2204434,0.04135427,-0.5012488,-0.4333678,0.2603491,-0.2281077,0.174378,-0.6736711,0.2945901,0.5407177,-0.3844472,-0.4075371,0.1515056,-0.138294,0.3105555,0.6320153,-0.53316,-0.289445,0.6866805,0.1911324,-0.2974688,0.3533153,-0.1147362,0.2440489,-0.2316907,0.1116946,0.1742443,-0.1412107,0.2626992,0.04660102,0.1444864,-0.07842074,0.2914691,0.2402447,0.1224964,-0.05804401,-0.04217058,0.2205403,-0.4479076,0.1695895,-0.1406826,0.4142503,-0.503741,-0.4303482,0.3229792,0.6998193,-0.1605885,-0.02269091,0.1608782,0.1823374,-0.4611801,0.6664822,-0.2920848,0.1289914,0.3786675,0.2312612,-0.3013771,-0.1742692,0.1808109,0.3049425,-0.1319319,0.4228974,0.1921558,-0.3183919,-0.8909526,0.4862744
-0.1217253,0.1746188,-0.2381037,0.5048878,-0.2169794,0.2339167,-0.5533336,0.2529083,0.4012901,0.3920887,-0.2733721,0.2132743,-0.2253452,0.01047641,-0.468425,0.04845345,-0.1539828,0.2121533,-0.4168551,0.4303311,0.308883,-0.03789294,0.1407455,-0.5321644,0.2551971,0.2529142,0.2339141,0.09264359,0.2027755,0.2287806,-0.3663231,0.09427971,-0.13594,-0.4356331,-0.1792873,-0.01378529,-0.1624428,0.2121844,0.3082477,-0.09135351,0.1216519,0.1962527,0.2961199,-0.4553621,0.05738651,0.2001619,-0.3337191,0.3680311,-0.2138935,-0.6389892,0.002249999,0.1244672,0.3951125,-0.2516889,-0.5139549,-0.6386874,0.1652257,-0.3971806,0.1299387,0.1323569,-0.5594663,-0.2156569,-0.2508679,0.5167151,0.1139653,-0.2771435,0.1425334,-0.1979912
-0.3961941,-0.2307798,0.1738502,-0.2720144,0.1961806,-0.3907483,0.5398443,-0.3203596,0.08013646,0.2406068,0.3364194,-0.2677373,0.004551894,-0.3017106,0.1448654,0.1026314,-0.2312388,0.3543261,0.03331449,-0.3098796,0.1988082,0.4167043,-0.0941291,0.4314088,0.4718541,0.3635041,-0.1236424,0.02697172,0.2379998,0.2393515,-0.4017985,-0.5123879,-0.2151947,0.05958101,-0.1024201,-0.1248578,0.07763369,0.03129703,0.01669228,-0.3715622,0.003286142,0.221654,0.09611257,0.1602514,-0.1474221,-0.3959999,0.2833126,-0.1568348,0.5218366,0.283452,-0.1056037,0.1877948,-0.5421713,0.2659386,0.4767168,-0.1112278,0.1629866,0.3485105,-0.1519152,-0.5438716,-0.4914075,-0.1785611,0.3619273,-0.07880817,0.2518891,0.1274487,-0.06447297,0.2876452
-0.3304912,0.005186005,-0.4316149,0.3137966,-0.05395685,0.3739603,0.2196144,-0.1850556,-0.01196112,-0.1206132,-0.3149778,0.1037691,-0.3525841,0.3472693,-0.09347009,0.1035083,-0.07285874,0.2618468,0.2865525,0.3174091,-0.1453598,-0.6466622,-0.2346819,-0.3385391,0.4636778,-0.1380441,-0.04599766,0.2700354,-0.2012044,0.02938107,-0.1837361,-0.07607077,-0.1099649,0.4484602,-0.2185839,0.2857342,0.4809512,0.4116012,0.5939708,-0.2094494,0.5540897,-0.3646147,0.1666845,-0.354616,0.920543,0.3536873,0.3344476,-0.2757558,0.3902408,-0.2886971,-0.3909038,0.04050579,-0.1187349,-0.05554722,0.1673769,-0.3325714,-0.2960387,-0.2966511,0.7787781,-0.151512,-0.6629867,-0.01597828,0.2712215,-0.1404405,0.1440201,0.1648448,-0.09428315,-0.5069337
0.2995733,0.2494592,0.3428725,-0.4173801,-0.2290787,-0.04936332,0.1036523,-0.1839059,-0.3644654,-0.1367794,0.05155446,-0.3867518,0.206592,-0.4704356,-0.09190518,-0.226514,-0.3552197,0.1669814,0.1796835,-0.0899973,0.264624,0.3199047,-0.7472933,0.2726259,-0.3391194,0.05644735,0.2545156,0.192698,0.170162,0.5067696,0.07370099,0.01739653,0.2364641,-0.3169149,-0.3029915,-0.4231579,-0.1590007,0.05491679,0.2887559,-0.4747511,0.1674062,-0.4017676,-0.4056175,-0.2929604,0.3709686,-0.280065,-0.1359116,0.6878225,0.3024289,0.2832319,-0.3262193,-0.08135176,0.2602357,0.3786713,0.633535,-0.4506687,-0.2760575,0.1594676,0.03928465,0.2265628,0.6379169,0.09494081,0.03384539,-0.2189015,0.3050097,-0.2447522,-0.1137601,0.7836002
0.2392056,0.162452,-0.4219749,0.1546237,-0.1194775,-0.2740153,-0.3150451,-0.5174142,0.2321232,-0.2189099,0.02781343,-0.3392354,0.06143649,-0.0148118,0.222213,0.3010503,-0.2859263,-0.3230606,-0.03725393,-0.3568831,-0.203012,-0.3873292,-0.5351539,-0.01770321,-0.3543287,0.2001135,-0.37758,0.4009956,-0.2476044,0.2258379,0.2005184,0.134388,-0.3652992,-0.3906373,-0.1362583,-0.2941761,0.03086861,-0.4484456,-0.1967603,0.3492777,-0.1206546,-0.4718376,-0.06823136,0.3465188,0.2260378,-0.46202,-0.3985462,-0.3297089,-0.39688,-0.4589669,0.06280654,0.1696652,0.38236,-0.1134466,0.4608866,0.01787233,-0.09067176,-0.2025928,0.1879551,-0.3316725,0.4921135,-0.4569787,0.15718,-0.2471111,-0.3503847,-0.4164877,0.2351631,-0.02465239
0.5727447,1.017366,0.4046315,0.2551502,-0.4060494,-0.4423901,0.1454285,0.4389996,-0.1738295,0.2669021,0.01890315,0.2853135,0.2710248,0.164709,0.515573,-0.2789341,0.1667082,-0.244333,-0.3361084,-0.3503865,0.05314578,0.1568747,0.1073906,-0.1082728,-0.1858666,0.4847851,0.704249,-0.4866891,0.1318341,0.1448141,0.4294589,0.412077,-0.2610221,-0.01050225,0.4793454,-0.2155434,-0.2342479,-0.5124486,-0.003442414,0.2029196,0.04561112,0.5883769,0.1144838,-0.03111257,0.04473995,-0.2281117,-0.2816468,0.2199777,0.4761518,-0.07305973,-0.1213443,-0.2955086,0.2677114,0.003898625,0.1642884,0.1896259,0.3228852,-0.230044,-0.5905595,0.4676645,0.1567811,-0.2457512,-0.4233992,0.7207172,-0.07219812,0.5610769,0.05670319,0.02735429
---
-0.09472483,0.3085177,0.1752927,0.3559519,-0.2920469,-0.07721214,0.07631341,-0.2392164,-0.05035093,-0.4354932,-0.08362073,0.0976089,0.2257619,-0.2396974,-0.5217956,-0.04857066,0.1473569,-0.1680962,0.141674,-0.02157704,-0.2069193,-0.2992613,-0.06686497,0.126719,-0.2188766,0.3012453,-0.184157,-0.0432202,-0.08504836,-0.002976492,-0.2767238,0.4963807,0.4899598,-0.2213107,-0.05784444,0.3411459,-0.1012294,-0.3493754,0.2445497,-0.01562628,0.2117775,0.09819774,-0.4270943,0.3441237,0.4525631,0.405204,-0.0767997,-0.4810999,0.114937,-0.1352098
0.5267431,0.2384846,-0.2183254,0.1090027,-0.519359,-0.3642917,0.5913177,0.05277883,0.2790578,-0.6271964,0.2732877,0.06732723,-0.4784375,0.06344845,0.3604802,0.1918918,-0.09839256,-0.07715534,0.2880762,0.4913415,-0.0859869,-0.1879338,-0.3275356,0.5798629,0.4568574,0.5171874,-0.1753474,-0.1102128,-0.2093881,0.02043316,0.2416403,-0.44373,-0.5650205,-0.1229825,0.5591152,0.08468703,0.02253594,0.06497227,-0.1760564,0.003285563,0.06416459,0.0557093,0.2488524,-0.3524335,0.1468094,0.4060201,-0.3256858,-0.09457976,0.2246854,0.4098806
-0.1276941,-0.3848994,-0.2039943,0.01350523,0.1017775,-0.4848744,0.4456248,0.3720127,0.1485981,-0.06531133,-0.1957656,0.2801637,-0.2409546,-0.4433701,0.544888,-0.06705641,-0.07387148,-0.338957,0.6241872,0.04702171,-0.1733748,-0.4284398,-0.03026015,0.05144688,-0.1411043,0.5325933,-0.2353715,0.07492392,-0.1029015,0.369868,-0.08289132,0.4981085,-0.1631793,-0.1612932,-0.01874216,0.3714278,-0.2572934,-0.1444884,-0.6801094,0.2897313,0.4751515,0.3437057,-0.3808168,-0.3647822,-0.3999087,0.1320547,0.1303188,-0.1385873,-0.1464926,-0.4807462
-0.268595,0.1971132,-0.07935061,0.4015107,-0.3737365,-0.2659782,0.1798581,0.1773216,0.07463512,-0.3704378,0.2625194,0.1799075,-0.7950405,0.3108654,0.5517996,0.202504,0.294521,-0.1440438,0.3101151,0.4045413,0.4046035,0.4970512,0.1177578,0.1370758,-0.2939468,-0.2598645,-0.1819404,0.4685733,-0.3059183,-0.307507,0.04576712,0.779404,-0.5295996,-0.1972871,-0.4210767,0.636554,-0.2833541,0.1469835,-0.2790582,0.4843274,0.4804909,-0.121868,-0.1004649,0.4200942,0.2605262,-0.4030678,-0.1793022,-0.2919282,0.2391032,-0.07621793
0.4420153,0.05638251,-0.03473079,0.3669777,0.05245477,0.4430017,-0.1260969,0.3541394,0.7164452,-0.07956015,0.00701214,-0.001433999,0.5641556,0.1396802,0.1617756,-0.04390379,-0.840276,0.1960223,0.1045739,-0.1737869,0.04609049,-0.3730232,0.2165839,-0.3757279,-0.138273,0.2327062,-0.3696713,0.1205467,0.167293,-0.05366175,0.4730842,0.266832,-0.5278727,0.163636,0.002865431,0.08794491,0.4832665,0.3397262,-0.2567869,-0.1858186,0.08902735,-0.2094834,0.5092074,-0.3817559,-0.5299712,-0.05853,-0.2211631,0.3544975,-0.006786512,0.1339069
0.2243846,-0.189555,0.1420281,-0.4486035,0.06290349,0.1976954,-0.1476256,0.02132503,0.2754866,-0.501933,0.2342192,0.7593732,-0.6188835,0.1429426,-0.4437217,-0.3008827,0.2515536,0.03231414,-0.08832356,-0.3919648,0.4613984,-0.2123351,0.2057649,-0.0460518,0.1878603,0.1774643,0.2400535,0.3061985,0.005534936,0.2700146,0.03812158,0.8260348,-0.3144982,-0.2180583,-0.1446381,-0.04665142,-0.4226022,-0.1838122,-0.4997085,-0.424564,-0.351249,-0.3778281,0.007514301,-0.529981,-0.2273258,0.610957,-0.3250306,-0.5302485,0.4368664,-0.4237603
-0.06557738,0.268613,0.01833312,0.447114,0.357532,-0.3005574,0.3299992,-0.418007,0.2529188,-0.2202835,0.7638471,-0.115072,-0.007291622,0.04132398,0.2583427,0.2892364,-0.02066473,-0.3359509,0.1179848,0.3387339,-0.3214037,-0.1417642,-0.1965306,0.443085,-0.4893851,-0.02440211,-0.3213305,-0.6184936,0.5207147,-0.1842209,0.1905723,-0.3495756,-0.4023319,0.9950015,0.0667238,-0.08521932,-0.3825859,0.2408,-0.0007003865,0.2651547,0.03382329,0.0907985,0.5579594,0.4529854,-0.02693756,-0.01737953,-0.08542163,-0.475108,-0.1709229,-0.5996099
-0.04065151,-0.09660538,-0.005479043,0.1378087,0.4544529,0.06163726,0.01522469,-0.5665294,0.1404867,-0.9430448,0.4538719,-0.07562584,0.01301804,0.4019856,-0.331846,0.1077058,-0.5245433,0.01839825,0.05423871,0.2403068,-0.620819,-0.09107351,-0.4839332,-0.1798525,-0.2893523,0.05759893,0.3473759,-0.0007607148,0.4666433,-0.2379205,0.7068591,-0.1234401,-0.2817236,0.1371996,-0.1400414,0.270014,-0.3815569,0.3544829,-0.3121318,0.5159044,-0.1237824,-0.2709213,0.2897079,0.4183021,0.1504021,-0.3215819,-0.0258087,0.3122142,0.0777349,-0.04742638
0.3119175,0.008317122,0.3017957,-0.03044923,-0.1014688,0.1004891,-0.003975731,-0.7586718,-0.3490627,0.2689813,0.6495944,-0.4551189,-0.1966597,-0.3642408,0.182956,0.5071371,0.1541318,0.5926768,-0.2534544,-0.02548859,0.431709,0.4847823,0.6568189,-0.2338449,0.1818759,-0.1359473,-0.3182926,-0.105043,0.2456269,-0.530265,0.4588403,0.2088071,0.3641727,-0.1822463,0.1765479,0.5790487,0.5950928,0.3059006,-0.003100489,-0.2662403,-0.07510754,0.09400977,0.6141379,0.5197327,0.3266582,-0.1284857,-0.243219,0.1175129,-0.164676,0.01888312
-0.3195822,-0.3529755,0.05010945,-0.1419492,-0.4457319,0.2072794,-0.2994848,-0.3801662,-0.3545668,-0.03253549,0.1797267,0.01225633,-0.2953471,-0.4647762,0.1445434,0.3278927,0.4471442,0.2294171,0.2235778,0.2336952,0.143558,0.1676677,0.3239191,0.5603141,0.2419614,0.205235,0.194955,0.07096316,0.1359887,-0.453865,0.3321584,0.3385525,0.3697303,-0.08979876,-0.3553117,-0.1433977,-0.2821293,0.1848002,-0.2458216,-0.1874387,-0.3078277,-0.4571082,0.1233145,0.4649475,0.3287589,0.0820541,0.2477868,-0.3263788,-0.2137232,0.7422357
-0.2390203,0.3152038,0.25064,-0.3428805,-0.07893715,0.1237407,-0.30072,-0.5305569,-0.01362909,-0.7328395,0.5551698,-0.0775193,-0.3394345,-0.09295411,-0.01419523,-0.1740495,0.2418628,-0.09674139,0.326281,0.1881635,-0.01779737,-0.08591913,0.08037237,0.3349214,-0.447948,-0.4150087,0.1802185,-0.4286332,-0.3401828,0.4227505,0.1781644,0.1164849,0.1857631,0.09274205,-0.5312413,0.4968907,0.1701079,0.3133892,0.1064993,0.4014266,-0.1497689,0.5402804,0.01398124,-0.1757304,-0.341979,0.3223231,-0.1510438,-0.2281213,0.2331767,0.195451
-0.7484468,-0.1920186,0.1932247,0.3010281,0.05764785,0.09714059,-0.4231817,0.09970457,-0.01817336,-0.5568658,-0.2465944,0.1687884,-0.147781,0.2731847,-0.7180056,0.2288599,-0.3458034,-0.16907,0.4048487,-0.2932966,0.9420295,0.2291172,-0.3449305,-0.3903919,-0.09796323,-0.1918728,-0.02159711,0.3472008,0.1876553,0.2700697,0.009058689,0.2119325,-0.03039029,0.1964317,-0.00558456,0.2163612,-0.3452094,0.1713911,0.2487667,-0.4631369,-0.4016635,-0.2212087,0.5048045,-0.05028459,-0.1736728,0.4887327,-0.1666,0.3717409,-0.3147216,-0.08514774
0.2965071,0.1853451,0.009441453,-0.2956736,-0.2741242,0.2951508,0.2709341,-0.1956019,0.3641403,-0.4540553,-0.2372394,0.2016475,0.2153076,-0.2313749,0.1153493,-0.4206339,-0.2701234,0.2995428,-0.1941729,0.3887148,-0.02568443,0.2319278,-0.1841517,0.0730492,-0.384486,0.01991303,0.2742665,0.3728894,-0.2354419,-0.1396212,0.3302019,-0.2331805,0.4903865,0.01247892,-0.1820608,-0.3150029,-0.564849,-0.2098363,0.2267546,-0.1848365,0.6222746,-0.2641005,0.3108379,0.4558165,0.2941918,-0.001335834,0.3521949,-0.07451801,-0.08720251,-0.4804204
-0.008871976,0.2052003,0.2122629,0.314992,-0.1055184,-0.2984455,0.318997,0.2997188,-0.08021411,-0.01415327,-0.02910426,0.249899,-0.5363055,0.3817702,-0.2510732,0.2169753,0.3019488,0.8322977,0.2236047,-0.1526304,0.184654,0.004550576,-0.5609623,0.08167936,-0.282105,-0.08595204,0.4865184,0.1686798,-0.06423503,0.2955902,0.4010631,-0.05092109,0.1418321,0.1589046,0.1503104,-0.3508071,0.07507185,-0.4535612,0.1104419,-0.04499841,-0.242304,0.4548047,0.3589952,-0.4176759,-0.05124164,0.2554227,-0.4613932,-0.1243977,0.1937496,0.4246906
0.04392267,0.05470836,-0.2349571,0.1778314,-0.7317277,-0.02433568,0.009104294,0.3215044,0.302831,0.2098623,0.2150199,0.08253349,0.3810735,0.06305879,-0.4189087,-0.1740988,0.09538101,0.8644463,0.1171409,0.5035739,0.5709214,0.6729291,-0.2542581,-0.4653287,-0.01783684,-0.4254482,0.07900541,-0.3103018,0.2529559,-0.2173611,0.172054,0.2864381,0.4882504,-0.3955448,0.2109386,-0.4142061,0.6016124,0.1063479,-0.2642131,-0.6946188,0.2827193,-0.2302466,-0.3170902,-0.05349275,0.07088828,0.003393833,0.1617922,0.1552523,-0.1745628,0.08916662
-0.4900499,-0.107458,-0.5059651,-0.3564773,0.2915038,-0.1484205,0.3318892,-0.4486057,0.2700056,-0.01728024,-0.1055641,0.467254,0.3663405,0.6133541,-0.5857091,-0.4202989,0.4024565,-0.2096009,-0.4105055,-0.4866848,-0.1945449,-0.2720308,-0.244756,-0.3090788,0.4686603,0.4130979,-0.3322038,-0.06815653,-0.008952614,-0.2683654,0.3755206,-0.4192442,-0.2625817,-0.1009909,-0.1734683,-0.1125519,-0.2075628,-0.3264484,0.4206248,-0.2738129,0.03805503,0.008510308,-0.1233511,-0.4377075,0.138041,-0.1439835,0.019501,0.07748725,0.2963416,0.3396519
-0.1749308,-0.40102,0.5976653,0.3336721,-0.1377508,0.1032328,0.168308,-0.01223471,0.02740904,-0.01576304,0.7976692,0.07258103,0.3400244,0.2601545,0.05755463,-0.1005963,-0.09876163,0.3189706,-0.3407262,-0.2728547,-0.03994382,-0.5605179,-0.3375317,0.3677297,-0.4456393,0.4368621,-0.202214,0.3408663,-0.0612104,0.08858257,-0.03976891,0.009452241,-0.08395224,-0.2166402,0.1477406,-0.2204755,-0.3561217,0.216037,-0.04726251,-0.3294498,0.06810978,-0.4288882,-0.1937249,-0.3689579,-0.3097028,0.3013144,0.1844469,-0.03870205,0.3068904,-0.0948384
-0.02909334,0.4370854,0.03498209,0.01261255,-0.489811,0.4665081,0.288129,-0.3994205,0.4849559,-0.4176096,0.378737,-0.2140703,0.1605591,0.1032952,0.0820455,0.2094221,-0.101014,0.373591,-0.4943126,0.2889562,0.4310299,0.5428886,-0.5830545,-0.1862459,-0.2466205,-0.217338,-0.1252176,0.7521087,-0.1053703,-0.1815853,-0.2246787,-0.4920121,0.4936579,-0.1552778,0.4533661,-0.3625243,-0.4879882,-0.5692042,0.349284,0.213158,0.4087232,0.4397951,0.4507553,0.2998864,0.3080843,-0.1994634,-0.1547435,0.04193392,0.4909745,-0.3874473
---
===
-0.04061435,0.1206339,-0.1529405,-0.1039985,0.1978371,0.139877,-0.1047854,0.3607113,-0.3380953,0.3135164,0.1557431,0.3758205,-0.1793977,0.336209,0.02240346,0.05278109,-0.4121938,0.007868653,-0.1850126,0.1151305,0.1546281,-0.1219601,0.5615715,0.1249745,0.3830317,-0.5146018,0.3393889,0.3923777,0.03404644,-0.2669035,0.05511727,-0.3389718,-0.4037919,0.02998056,-0.5877723,-0.3573001,0.06281794,-0.3132375,0.4784417,-0.1724008,-0.2688521,-0.1539934,0.11688,0.03908814,0.03623891,0.2045131,0.07949755,0.3237876,-0.08412465,-0.1071983,0.4280201,-0.2308615,0.4446108,0.3826669,0.02348925,0.4675806,-0.3841264,-0.3396453,-0.4135756,-0.03358852,0.02070239,-0.618293,0.3630504,0.3515895,-0.09679434,0.01041313,0.2445956,-0.3886313
0.1875407,0.2701098,-0.3822233,0.4406615,0.5799999,-0.009878741,0.1798399,0.4410064,-0.08977067,-0.5030149,-0.1023374,0.09733265,-0.4932989,0.2279679,-0.2049678,-0.05428363,-0.08378874,0.2608423,0.5285687,0.7589153,0.1597878,0.3291437,-0.1384919,-0.6771142,-0.3555686,0.03848739,0.2675045,-0.229637,-0.4056706,0.2134194,-0.4789234,0.2749882,-0.02581561,-0.2115273,0.5304152,-0.582606,-0.5886132,0.3816,-0.4594046,0.5124226,-0.06971563,-0.2323558,-0.01486679,-0.03131068,0.3877653,0.1023274,0.130988,-0.370778,-0.5316987,0.1955568,-0.2222811,0.4836479,0.001394593,-0.2221147,0.3793212,0.2287599,-0.3769897,0.1040068,-0.09223404,0.4720694,-0.4023131,-0.2459085,-0.04103268,-0.1990663,-0.3412337,0.2909669,0.220654,-0.3193802
0.2674978,0.04140617,0.4574007,-0.2589453,0.4914995,-0.05968611,-0.04511613,0.5452329,0.5019022,0.6231319,-0.4925238,-0.04483461,0.3547756,-0.5364081,0.5332689,-0.426736,0.3343526,-0.3790011,0.2008121,-0.1331465,0.2153218,0.4826528,0.1606367,-0.04594027,0.4355176,-0.6426782,0.3829815,-0.2581885,0.4610609,-0.08724068,0.2776835,-0.5301126,-0.3036799,-0.391075,0.3542007,0.07870566,0.4908931,0.4461328,-0.1189111,-0.3312179,0.1886038,-0.269102,0.3376105,-0.10367,-0.290639,-0.1778451,-0.4565199,-0.285625,-0.02133353,0.2365955,0.01616194,0.3130659,0.1523104,0.008576668,0.3739493,0.4175584,0.4469123,-0.06757472,0.2427664,0.06624067,-0.2069259,0.3666174,-0.1455085,0.6931998,0.4659125,0.1780659,0.3860154,-0.2527512
0.04876046,-0.2406604,0.1184248,-0.4447233,-0.6118748,-0.1598322,-0.009176537,0.1939858,-0.2367298,-0.3531176,-0.1174128,0.4535126,0.4801581,-0.3375266,-0.07166612,0.3153668,0.05405982,-0.4533984,-0.4688568,-0.28639,-0.06321908,-0.2522644,-0.0516409,-0.1532812,0.4192645,-0.5996633,0.2533371,0.3821776,0.05224341,0.144113,-0.4326247,-0.2885312,0.2993369,-0.1575763,0.03045287,-0.3675328,-0.4061693,-0.2332786,-0.2526806,-0.01901519,0.5240254,-0.3518915,0.3938956,-0.488167,0.2418391,-0.07245004,0.2897961,0.3659295,0.003211602,-0.2687439,-0.1155549,0.2090591,0.7687152,0.1692389,-0.252101,-0.4885739,0.5266125,-0.4900279,0.03782299,0.3619656,0.3525234,-0.3598844,-0.2580866,0.2273383,-0.2551953,-0.3988238,-0.5975455,0.2495537
-0.5758892,-0.415284,0.2673081,0.1628165,0.5135347,0.09969482,0.2132958,0.0381074,0.3977382,0.07401698,-0.05121526,0.10339,-0.1531388,-0.2756482,-0.05973769,-0.06582445,0.2275116,-0.1613857,0.2551297,-0.4208525,0.1748847,-0.3584048,0.393509,-0.465811,0.07682233,-0.2075812,0.115203,0.5132203,0.07845921,-0.08876029,-0.2848202,-0.2900904,0.5617849,0.2865494,-0.02872458,0.1383358,0.5695844,-0.1396283,-0.1843419,-0.3552988,0.3408704,-0.4756725,0.4290567,-0.4742249,-0.4756931,-0.0406652,0.0505813,0.08290991,-0.5277754,0.02004419,-0.5250831,-0.01335359,0.3856882,-0.2265364,-0.06273198,0.4128984,0.4131642,-0.5048342,0.5614593,0.07542711,-0.004000058,0.3240099,0.1752127,-0.1391812,-0.05872848,-0.145285,-0.2338449,0.1743836
0.04203843,-0.4329495,0.09886899,-0.2276271,0.3710785,0.1119893,-0.268324,0.147837,-0.00563297,0.4673678,-0.1273002,0.01185316,-0.4141148,-0.2450451,-0.221946,-0.3142226,0.1336041,-0.3398021,-0.5345455,-0.08448954,-0.2576291,0.1582537,0.03476476,-0.1719789,0.08929096,0.4080371,-0.3572538,0.07329515,-0.6451068,-0.3748592,0.4924187,0.4536382,-0.5939997,-0.2797113,-0.4392513,-0.1907269,-0.2920632,-0.3030747,0.3072946,0.5069098,0.2334343,-0.2662465,0.3282417,0.4082382,-0.3170171,0.4120361,0.2388017,-0.2904728,-0.175684,0.8265377,0.2842922,-0.1865769,0.3506184,0.3601006,-0.3168648,-0.4520462,0.3898993,-0.1382417,-0.4525912,-0.3185234,0.2135189,-0.03379638,0.1800235,-0.342544,0.2934069,-0.06265035,0.5679361,-0.07444376
-0.4861542,-0.1058533,0.1903317,-0.4854013,0.03930917,-0.1410383,-0.07023264,0.2562124,-0.2885583,-0.4050578,0.2346434,0.466145,0.3808203,-0.4865481,0.0996367,0.1935324,0.2602203,-0.07520206,0.0984555,-0.3458638,-0.1871051,-0.3512825,0.2965177,0.1117126,0.03865554,-0.5425603,0.2702048,-0.06613444,-0.2343755,-0.2824527,-0.2071717,0.2156659,0.1902806,-0.0765268,-0.03191302,0.4150988,-0.2221077,-0.09099355,-0.4495687,-0.05217404,-0.3132058,0.3499702,-0.4258156,-0.2847707,-0.1037905,0.008210732,-0.3628677,-0.01722163,-0.01804426,0.4546541,0.3719828,0.3041942,0.1733543,0.3231022,0.03900022,0.6493576,0.09436955,-0.2389122,0.102655,-0.0428323,-0.3195957,0.4786272,0.2230903,-0.02084637,0.144406,0.2157606,0.08758128,0.1645686
-0.2735896,0.2164326,-0.4181474,0.3276834,0.05593913,-0.4443143,0.1266591,-0.03803042,0.3900817,0.1897317,-0.06864561,-0.1548287,0.004145358,-0.4574785,0.3514809,0.05985333,-0.3938348,0.4013896,0.1754777,-0.1115476,0.4871128,0.003893325,0.4757071,0.2664276,-0.2688235,-0.1704995,0.3380474,-0.06762411,0.02035314,-0.3350921,-0.03993427,-0.009356014,-0.5992283,-0.2048072,-0.02287252,0.2241734,-0.2703199,0.4607255,-0.4451032,0.3792901,0.1265617,0.2011977,0.2049265,-0.01353741,0.1024133,0.3223562,0.01227165,0.4194332,0.3453621,-0.2693399,0.5029716,0.3499841,0.1138492,-0.1027004,0.4122336,0.01848402,-0.4999747,-0.2961833,0.3254311,-0.3182307,0.06063653,0.3667643,0.191814,0.1744451,0.3190614,-0.3779922,-0.08173034,0.3892021
-0.2870157,0.03377387,-0.075114,0.2847231,0.3820911,0.389452,0.08205739,-0.4876506,0.4009297,-0.314473,0.4157107,0.01572936,-0.290836,-0.4775513,-0.4412936,0.1970613,-0.3755087,0.4813655,-0.4665744,-0.3359042,0.007069445,-0.7879651,0.09086557,0.2981406,-0.564789,-0.1025187,0.1754998,0.1253367,0.4818719,-0.3379663,-0.2287284,-0.360116,0.4998847,-0.1525453,-0.06757408,-0.3757246,-0.06454638,-0.2457847,0.3339083,0.446061,-0.1694428,-0.01277341,0.1188337,-0.1308309,0.3645092,-0.3007654,-0.1762341,-0.431908,0.1595197,0.02489862,0.3022822,-0.1981645,-0.2878865,-0.1736153,0.01078772,-0.2240575,0.1174501,0.1488373,-0.2687646,-0.1230386,-0.119919,-0.5732759,-0.408832,-0.3123927,-0.5379486,-0.5888875,0.3446648,0.4120158
-0.3823761,0.3010805,-0.4091909,-0.7086142,-0.1094951,-0.3775556,0.259039,0.3688921,0.5205854,0.1046545,0.05727624,-0.191358,0.1345568,-0.2619503,0.09606306,-0.1741882,0.1877709,0.2486084,0.6156847,0.1619705,-0.3572481,0.2184017,0.4852748,0.1837451,-0.01543821,0.3365193,0.1876877,-0.2640868,0.09046368,0.0549983,0.3276033,-0.4849049,0.07165346,-0.4146203,0.5975648,-0.2797788,-0.350273,-0.2032255,0.188013,-0.3637352,0.0373944,-0.2026524,0.08172293,0.09045938,-0.140728,-0.1833009,0.3059269,0.7789904,-0.3098116,0.2742579,-0.2005346,-0.1577187,0.1985334,0.2883143,0.3559742,0.3032793,-0.357071,-0.002660915,0.4701657,-0.04743686,-0.1059824,0.5984894,0.1545182,-0.4467877,-0.5041155,-0.05158725,-0.1845244,-0.4681358
0.0413784,0.4635874,0.3877363,0.3877625,-0.1781979,0.3326502,0.6779415,-0.640748,-0.256472,0.5598666,0.073131,-0.127431,0.1279187,-0.1800127,0.3902077,-0.02171642,-0.198946,0.09963334,-0.4110897,-0.243065,0.5022591,0.3351451,0.3656047,0.4021278,0.04680448,-0.03774883,0.3703741,-0.1134154,0.08946678,0.2057845,0.233464,-0.1112666,0.2743129,-0.4669951,-0.4544105,0.6086307,-0.366963,0.1423467,0.3928272,0.2611956,0.2241631,0.4074881,-0.4466979,0.6650484,0.201798,-0.07881167,0.2811391,-0.4075877,-0.1158218,-0.4220784,-0.6247036,-0.1290644,-0.4159497,0.3990417,-0.4685775,-0.3415582,0.2962732,-0.3780564,0.3765636,-0.319952,-0.2854177,-0.06133054,0.1274991,-0.4429595,0.2927498,-0.01492623,-0.09480602,-0.2292814
